1631130114024011776,0.00163,-0.00498,0.05709,1.00000,-0.00152,-0.00069,-0.00035,-0.00876,0.00117,0.02587,0.00207,-0.00879,0.18080,0.00000,0.00000,0.00000,
1631130114090625280,0.00121,-0.00557,0.05831,1.00000,-0.00071,-0.00075,-0.00053,-0.01402,-0.01451,0.04070,0.00178,-0.01043,0.18455,0.00000,0.00000,0.00000,
1631130114157239040,0.00260,-0.00430,0.03787,1.00000,0.00086,-0.00255,-0.00162,-0.00795,-0.02463,0.05190,0.00300,-0.01093,0.18836,0.00000,0.00000,0.00000,
1631130114223862528,0.00279,-0.00491,0.04105,0.99999,0.00136,-0.00358,-0.00199,0.00480,-0.01205,0.05471,0.00462,-0.01115,0.19193,0.00000,0.00000,0.00000,
1631130114290485504,0.00490,-0.00469,0.04255,0.99999,0.00072,-0.00258,-0.00219,0.02667,-0.00607,0.05451,0.00610,-0.01089,0.19540,0.00000,0.00000,0.00000,
1631130114357107200,0.00706,-0.00452,0.04418,1.00000,0.00056,-0.00182,-0.00240,0.02526,-0.00849,0.06142,0.00718,-0.01092,0.19872,0.00000,0.00000,0.00000,
1631130114423728896,0.00839,-0.00457,0.04771,0.99999,0.00036,-0.00190,-0.00290,0.01714,-0.00279,0.06120,0.00745,-0.01250,0.20204,0.00000,0.00000,0.00000,
1631130114490348800,0.00930,-0.00493,0.05091,0.99999,0.00018,-0.00234,-0.00324,0.01433,-0.01259,0.04760,0.00753,-0.01401,0.20464,0.00000,0.00000,0.00000,
1631130114556968960,0.00955,-0.00600,0.05361,0.99998,0.00156,-0.00405,-0.00379,0.00015,-0.02182,0.04469,0.00688,-0.01426,0.20647,0.00000,0.00000,0.00000,
1631130114623587072,0.00931,-0.00702,0.05581,0.99997,0.00208,-0.00622,-0.00458,-0.00725,-0.00695,0.02716,0.00654,-0.01400,0.20764,0.00000,0.00000,0.00000,
1631130114690205696,0.00861,-0.00674,0.05639,0.99995,0.00193,-0.00850,-0.00485,-0.01042,0.00283,0.01780,0.00666,-0.01385,0.20822,0.00000,0.00000,0.00000,
1631130114756822272,0.00849,-0.00657,0.05728,0.99994,0.00184,-0.00990,-0.00463,-0.00415,-0.00073,0.00980,0.00713,-0.01397,0.20888,0.00000,0.00000,0.00000,
1631130114823438848,0.00928,-0.00668,0.05727,0.99994,0.00209,-0.01001,-0.00464,0.00579,0.00421,0.00367,0.00833,-0.01488,0.21154,0.00000,0.00000,0.00000,
1631130114890053888,0.00988,-0.00694,0.05763,0.99994,0.00340,-0.00943,-0.00475,0.01271,-0.00807,0.02245,0.00991,-0.01597,0.21578,0.00000,0.00000,0.00000,
1631130114956668928,0.01123,-0.00858,0.06101,0.99993,0.00555,-0.00916,-0.00532,0.02503,-0.02502,0.04784,0.01132,-0.01658,0.22156,0.00000,0.00000,0.00000,
1631130115023282176,0.01292,-0.00939,0.06578,0.99992,0.00532,-0.01002,-0.00559,0.02378,-0.00495,0.07597,0.01258,-0.01652,0.22696,0.00000,0.00000,0.00000,
1631130115089895680,0.01397,-0.00976,0.07178,0.99989,0.00545,-0.01213,-0.00587,0.01652,-0.00708,0.08531,0.01333,-0.01579,0.23124,0.00000,0.00000,0.00000,
1631130115156507136,0.01503,-0.00986,0.07734,0.99987,0.00524,-0.01406,-0.00568,0.01608,0.00517,0.08143,0.01381,-0.01524,0.23378,0.00000,0.00000,0.00000,
1631130115223131136,0.01514,-0.00917,0.08115,0.99985,0.00537,-0.01589,-0.00527,0.00534,0.01383,0.04844,0.01446,-0.01445,0.23538,0.00000,0.00000,0.00000,
1631130115289753088,0.01495,-0.00831,0.08203,0.99983,0.00545,-0.01667,-0.00484,0.00463,0.00795,0.02354,0.01513,-0.01451,0.23615,0.00000,0.00000,0.00000,
1631130115356375040,0.01572,-0.00830,0.08309,0.99983,0.00618,-0.01696,-0.00482,0.00601,0.00517,0.01599,0.01597,-0.01371,0.23651,0.00000,0.00000,0.00000,
1631130115422996224,0.01703,-0.00933,0.08317,0.99983,0.00745,-0.01633,-0.00462,0.01099,-0.00298,0.00247,0.01628,-0.01390,0.23930,0.00000,0.00000,0.00000,
1631130115489615616,0.01766,-0.00919,0.08390,0.99983,0.00792,-0.01609,-0.00448,0.00843,0.00668,0.01167,0.01592,-0.01381,0.24310,0.00000,0.00000,0.00000,
1631130115556235008,0.01732,-0.00833,0.08641,0.99981,0.00801,-0.01736,-0.00439,-0.00037,0.00491,0.03584,0.01520,-0.01420,0.24810,0.00000,0.00000,0.00000,
1631130115622852864,0.01687,-0.00848,0.08998,0.99975,0.00889,-0.01983,-0.00436,-0.01095,-0.00049,0.05303,0.01486,-0.01450,0.25110,0.00000,0.00000,0.00000,
1631130115689470720,0.01639,-0.00986,0.09439,0.99966,0.00972,-0.02352,-0.00485,-0.01645,-0.00902,0.06827,0.01570,-0.01527,0.25497,0.00000,0.00000,0.00000,
1631130115756086528,0.01453,-0.01151,0.10581,0.99957,0.01080,-0.02677,-0.00475,-0.00513,-0.01504,0.06318,0.01737,-0.01533,0.25747,0.00000,0.00000,0.00000,
1631130115822702592,0.01512,-0.01241,0.10338,0.99953,0.01231,-0.02735,-0.00576,0.01174,-0.01516,0.04484,0.01904,-0.01509,0.25841,0.00000,0.00000,0.00000,
1631130115889317120,0.01650,-0.01307,0.10587,0.99953,0.01469,-0.02644,-0.00587,0.02305,-0.00397,0.03072,0.02094,-0.01313,0.25945,0.00000,0.00000,0.00000,
1631130115955931392,0.01910,-0.01285,0.10600,0.99959,0.01597,-0.02290,-0.00562,0.03153,0.01148,0.00405,0.02201,-0.01209,0.26037,0.00000,0.00000,0.00000,
1631130116022544128,0.02166,-0.01050,0.10625,0.99967,0.01714,-0.01866,-0.00508,0.02727,0.02077,0.00942,0.02234,-0.01126,0.26206,0.00000,0.00000,0.00000,
1631130116089156608,0.02262,-0.00957,0.10827,0.99970,0.01668,-0.01701,-0.00509,0.01696,0.01500,0.00830,0.02167,-0.01073,0.26488,0.00000,0.00000,0.00000,
1631130116155767808,0.02246,-0.00844,0.11144,0.99972,0.01548,-0.01707,-0.00504,0.00190,0.01570,0.02759,0.02074,-0.01135,0.26827,0.00000,0.00000,0.00000,
1631130116222391552,0.02121,-0.00777,0.11410,0.99967,0.01528,-0.01997,-0.00520,-0.01474,0.00087,0.05359,0.01992,-0.01271,0.27192,0.00000,0.00000,0.00000,
1631130116289013504,0.01948,-0.00853,0.11847,0.99957,0.01649,-0.02354,-0.00562,-0.02146,-0.01757,0.07410,0.01952,-0.01384,0.27559,0.00000,0.00000,0.00000,
1631130116355635968,0.01899,-0.01344,0.12316,0.99938,0.02048,-0.02797,-0.00563,-0.01666,-0.04040,0.07958,0.01908,-0.01589,0.27967,0.00000,0.00000,0.00000,
1631130116422255872,0.01930,-0.01857,0.12669,0.99920,0.02514,-0.03063,-0.00620,-0.00774,-0.03607,0.05930,0.01971,-0.01626,0.28160,0.00000,0.00000,0.00000,
1631130116488876800,0.02171,-0.02413,0.12714,0.99915,0.02783,-0.02971,-0.00656,0.01113,-0.02664,0.02694,0.02063,-0.01712,0.28339,0.00000,0.00000,0.00000,
1631130116555495168,0.02429,-0.02585,0.13289,0.99920,0.02971,-0.02605,-0.00666,0.02282,-0.00281,0.02771,0.02166,-0.01516,0.28525,0.00000,0.00000,0.00000,
1631130116622114304,0.02358,-0.02158,0.13204,0.99922,0.03071,-0.02407,-0.00664,0.01399,0.02198,0.02345,0.02171,-0.01465,0.28613,0.00000,0.00000,0.00000,
1631130116688732160,0.02519,-0.02298,0.13297,0.99922,0.03188,-0.02238,-0.00666,0.00851,0.00720,0.01301,0.02200,-0.01331,0.28782,0.00000,0.00000,0.00000,
1631130116755348480,0.02548,-0.02250,0.13373,0.99922,0.03263,-0.02137,-0.00684,0.00281,0.01665,0.02399,0.02190,-0.01276,0.29091,0.00000,0.00000,0.00000,
1631130116821964544,0.02558,-0.02243,0.13574,0.99916,0.03432,-0.02126,-0.00686,0.00198,0.00194,0.03630,0.02164,-0.01405,0.29523,0.00000,0.00000,0.00000,
1631130116888579072,0.02543,-0.02384,0.13944,0.99902,0.03748,-0.02256,-0.00694,-0.00061,-0.01679,0.06314,0.02187,-0.01451,0.29890,0.00000,0.00000,0.00000,
1631130116955193856,0.02517,-0.02585,0.14426,0.99878,0.04210,-0.02469,-0.00730,0.00131,-0.02113,0.06457,0.02265,-0.01658,0.30254,0.00000,0.00000,0.00000,
1631130117021806592,0.02602,-0.02784,0.14740,0.99864,0.04561,-0.02422,-0.00768,0.01702,-0.02226,0.04458,0.02427,-0.01540,0.30549,0.00000,0.00000,0.00000,
1631130117088419328,0.02726,-0.02760,0.14901,0.99853,0.04878,-0.02199,-0.00829,0.02369,-0.00630,0.04176,0.02581,-0.01441,0.30844,0.00000,0.00000,0.00000,
1631130117155030784,0.02841,-0.02799,0.15233,0.99849,0.04950,-0.02189,-0.00889,0.02656,0.01096,0.04482,0.02714,-0.01331,0.31173,0.00000,0.00000,0.00000,
1631130117221654016,0.02963,-0.02751,0.15523,0.99847,0.04977,-0.02230,-0.00925,0.02474,0.01694,0.04035,0.02805,-0.01296,0.31355,0.00000,0.00000,0.00000,
1631130117288275712,0.03072,-0.02680,0.15754,0.99844,0.05051,-0.02178,-0.00905,0.02159,0.01713,0.03060,0.02897,-0.01175,0.31411,0.00000,0.00000,0.00000,
1631130117354897408,0.03211,-0.02683,0.15835,0.99842,0.05196,-0.01964,-0.00875,0.02106,0.00483,0.00694,0.02930,-0.01234,0.31536,0.00000,0.00000,0.00000,
1631130117421517312,0.03281,-0.02746,0.15903,0.99838,0.05307,-0.01830,-0.00923,0.01434,0.00030,0.01136,0.02933,-0.01316,0.31737,0.00000,0.00000,0.00000,
1631130117488137472,0.03280,-0.02789,0.16037,0.99830,0.05485,-0.01744,-0.00892,0.00775,-0.01393,0.01773,0.02889,-0.01381,0.31971,0.00000,0.00000,0.00000,
1631130117554755584,0.03258,-0.02941,0.16255,0.99818,0.05690,-0.01767,-0.00920,0.00080,-0.01831,0.03263,0.02809,-0.01391,0.32224,0.00000,0.00000,0.00000,
1631130117621373952,0.03157,-0.03154,0.16618,0.99799,0.05916,-0.02049,-0.00958,-0.00937,-0.01465,0.05102,0.02674,-0.01400,0.32658,0.00000,0.00000,0.00000,
1631130117687990528,0.02998,-0.03248,0.17019,0.99782,0.06071,-0.02410,-0.00970,-0.01314,-0.00242,0.04910,0.02558,-0.01387,0.32996,0.00000,0.00000,0.00000,
1631130117754606848,0.02816,-0.03328,0.17403,0.99767,0.06163,-0.02761,-0.00984,-0.01630,-0.00901,0.06042,0.02497,-0.01430,0.33246,0.00000,0.00000,0.00000,
1631130117821221888,0.02780,-0.03401,0.17721,0.99759,0.06235,-0.02859,-0.01021,-0.00680,0.00068,0.04725,0.02497,-0.01379,0.33504,0.00000,0.00000,0.00000,
1631130117887836672,0.02811,-0.03581,0.17814,0.99761,0.06248,-0.02776,-0.01026,0.00593,-0.00184,0.03362,0.02540,-0.01344,0.33731,0.00000,0.00000,0.00000,
1631130117954449920,0.02861,-0.03570,0.17973,0.99766,0.06228,-0.02623,-0.01047,0.01370,0.00165,0.03501,0.02608,-0.01334,0.33890,0.00000,0.00000,0.00000,
1631130118021063424,0.02957,-0.03591,0.18191,0.99772,0.06200,-0.02445,-0.01041,0.02578,-0.00217,0.03189,0.02758,-0.01353,0.34150,0.00000,0.00000,0.00000,
1631130118087675648,0.03026,-0.03580,0.18457,0.99776,0.06156,-0.02404,-0.01051,0.02525,0.00304,0.03564,0.02816,-0.01383,0.34367,0.00000,0.00000,0.00000,
1631130118154286080,0.03080,-0.03582,0.18746,0.99779,0.06104,-0.02386,-0.01049,0.02152,0.00186,0.03656,0.02890,-0.01378,0.34607,0.00000,0.00000,0.00000,
1631130118221172480,0.03155,-0.03629,0.19044,0.99779,0.06055,-0.02515,-0.01082,0.01988,-0.00096,0.04899,0.02964,-0.01338,0.34839,0.00000,0.00000,0.00000,
1631130118288064256,0.03265,-0.03648,0.19308,0.99778,0.06035,-0.02613,-0.01065,0.02432,0.00239,0.03530,0.03075,-0.01353,0.35083,0.00000,0.00000,0.00000,
1631130118354962944,0.03344,-0.03666,0.19565,0.99775,0.06030,-0.02740,-0.01044,0.02014,-0.00573,0.04425,0.03170,-0.01286,0.35380,0.00000,0.00000,0.00000,
1631130118421866752,0.03457,-0.03719,0.19795,0.99772,0.06083,-0.02731,-0.01048,0.02468,-0.01119,0.02906,0.03298,-0.01387,0.35553,0.00000,0.00000,0.00000,
1631130118488777728,0.03603,-0.03760,0.19844,0.99779,0.06081,-0.02443,-0.01056,0.02871,-0.01070,0.01656,0.03397,-0.01416,0.35618,0.00000,0.00000,0.00000,
1631130118555693568,0.03664,-0.03744,0.19899,0.99786,0.06035,-0.02278,-0.01082,0.02269,-0.00190,0.00852,0.03433,-0.01372,0.35589,0.00000,0.00000,0.00000,
1631130118622616832,0.03692,-0.03702,0.19921,0.99792,0.05983,-0.02159,-0.01072,0.01178,0.00751,0.00387,0.03392,-0.01360,0.35594,0.00000,0.00000,0.00000,
1631130118689544960,0.03655,-0.03685,0.19945,0.99794,0.05943,-0.02162,-0.01074,0.00078,-0.00163,0.00335,0.03271,-0.01356,0.35638,0.00000,0.00000,0.00000,
1631130118756480256,0.03563,-0.03654,0.19972,0.99795,0.05922,-0.02175,-0.01067,-0.00636,0.00242,0.00841,0.03156,-0.01230,0.35610,0.00000,0.00000,0.00000,
1631130118823420672,0.03440,-0.03621,0.20008,0.99797,0.05875,-0.02209,-0.01065,-0.00921,0.00479,0.00753,0.03046,-0.01232,0.35632,0.00000,0.00000,0.00000,
1631130118890368512,0.03328,-0.03584,0.20015,0.99800,0.05831,-0.02200,-0.01073,-0.00903,0.00215,0.00451,0.02963,-0.01208,0.35606,0.00000,0.00000,0.00000,
1631130118957320960,0.03232,-0.03570,0.20013,0.99802,0.05802,-0.02177,-0.01069,-0.00685,-0.00187,0.00052,0.02813,-0.01360,0.35679,0.00000,0.00000,0.00000,
1631130119024280832,0.03131,-0.03601,0.19998,0.99803,0.05776,-0.02175,-0.01086,-0.00698,-0.00115,0.00324,0.02729,-0.01317,0.35658,0.00000,0.00000,0.00000,
1631130119091245568,0.03036,-0.03595,0.19991,0.99806,0.05734,-0.02167,-0.01057,-0.00737,0.00284,0.00292,0.02626,-0.01287,0.35638,0.00000,0.00000,0.00000,
1631130119158216704,0.02938,-0.03554,0.20001,0.99809,0.05688,-0.02172,-0.01067,-0.00341,0.00188,0.00138,0.02558,-0.01290,0.35644,0.00000,0.00000,0.00000,
1631130119224887040,0.02865,-0.03526,0.20005,0.99811,0.05644,-0.02181,-0.01057,0.00130,-0.00300,0.00050,0.02525,-0.01300,0.35646,0.00000,0.00000,0.00000,
1631130119291558400,0.02843,-0.03528,0.20015,0.99813,0.05611,-0.02162,-0.01078,0.00666,0.00188,0.00250,0.02535,-0.01299,0.35643,0.00000,0.00000,0.00000,
1631130119358229760,0.02851,-0.03531,0.20018,0.99815,0.05584,-0.02156,-0.01076,0.01208,0.00083,0.00082,0.02548,-0.01292,0.35638,0.00000,0.00000,0.00000,
1631130119424900096,0.02869,-0.03483,0.20005,0.99819,0.05525,-0.02128,-0.01076,0.01057,0.00207,0.00161,0.02548,-0.01293,0.35639,0.00000,0.00000,0.00000,
1631130119491571456,0.02868,-0.03487,0.20010,0.99821,0.05485,-0.02124,-0.01078,0.00806,0.00143,0.00196,0.02539,-0.01297,0.35641,0.00000,0.00000,0.00000,
1631130119558241792,0.02868,-0.03489,0.20019,0.99823,0.05450,-0.02120,-0.01079,0.00948,0.00106,0.00144,0.02542,-0.01296,0.35641,0.00000,0.00000,0.00000,
1631130119624913152,0.02876,-0.03434,0.20003,0.99826,0.05397,-0.02100,-0.01084,0.01031,0.00222,0.00080,0.02546,-0.01293,0.35639,0.00000,0.00000,0.00000,
1631130119691583744,0.02882,-0.03414,0.20017,0.99829,0.05346,-0.02091,-0.01084,0.01014,0.00137,0.00104,0.02545,-0.01295,0.35640,0.00000,0.00000,0.00000,
1631130119758255360,0.02880,-0.03402,0.20021,0.99832,0.05289,-0.02091,-0.01083,0.00940,0.00031,0.00081,0.02544,-0.01295,0.35639,0.00000,0.00000,0.00000,
1631130119824925184,0.02884,-0.03417,0.20019,0.99835,0.05236,-0.02094,-0.01080,0.00998,0.00056,0.00035,0.02545,-0.01296,0.35639,0.00000,0.00000,0.00000,
1631130119891596800,0.02892,-0.03402,0.20019,0.99838,0.05192,-0.02080,-0.01082,0.01036,0.00188,0.00026,0.02547,-0.01295,0.35639,0.00000,0.00000,0.00000,
1631130119958266880,0.02890,-0.03362,0.20029,0.99840,0.05153,-0.02067,-0.01085,0.00962,0.00135,0.00016,0.02545,-0.01295,0.35639,0.00000,0.00000,0.00000,
1631130120024938496,0.02895,-0.03356,0.20033,0.99842,0.05110,-0.02051,-0.01087,0.00949,0.00164,-0.00010,0.02545,-0.01295,0.35638,0.00000,0.00000,0.00000,
1631130120091609088,0.02901,-0.03334,0.20033,0.99845,0.05064,-0.02037,-0.01086,0.01038,0.00183,-0.00055,0.02547,-0.01295,0.35638,0.00000,0.00000,0.00000,
1631130120158280448,0.02902,-0.03304,0.20048,0.99847,0.05024,-0.02023,-0.01088,0.01040,0.00112,-0.00035,0.02547,-0.01297,0.35640,0.00000,0.00000,0.00000,
1631130120224949760,0.02905,-0.03285,0.20047,0.99850,0.04980,-0.02009,-0.01091,0.00976,0.00155,-0.00055,0.02546,-0.01295,0.35637,0.00000,0.00000,0.00000,
1631130120291620608,0.02910,-0.03265,0.20047,0.99852,0.04940,-0.01993,-0.01093,0.00967,0.00295,-0.00040,0.02546,-0.01296,0.35639,0.00000,0.00000,0.00000,
1631130120358290176,0.02914,-0.03248,0.20058,0.99854,0.04905,-0.01986,-0.01093,0.01059,0.00269,-0.00068,0.02547,-0.01296,0.35637,0.00000,0.00000,0.00000,
1631130120424960768,0.02910,-0.03235,0.20064,0.99856,0.04858,-0.01994,-0.01090,0.01020,0.00195,-0.00038,0.02551,-0.01291,0.35643,0.00000,0.00000,0.00000,
1631130120491630592,0.02912,-0.03218,0.20073,0.99858,0.04819,-0.01987,-0.01092,0.01030,0.00266,-0.00043,0.02547,-0.01295,0.35638,0.00000,0.00000,0.00000,
1631130120558301184,0.02915,-0.03194,0.20073,0.99860,0.04776,-0.01976,-0.01093,0.01023,0.00267,-0.00059,0.02547,-0.01295,0.35638,0.00000,0.00000,0.00000,
1631130120624970752,0.02922,-0.03208,0.20077,0.99862,0.04732,-0.01978,-0.01090,0.01021,0.00344,-0.00078,0.02548,-0.01295,0.35637,0.00000,0.00000,0.00000,
1631130120691641344,0.02921,-0.03180,0.20075,0.99865,0.04684,-0.01975,-0.01092,0.00986,0.00432,-0.00106,0.02548,-0.01296,0.35637,0.00000,0.00000,0.00000,
1631130120758311936,0.02914,-0.03163,0.20089,0.99866,0.04649,-0.01986,-0.01090,0.01053,0.00301,-0.00101,0.02553,-0.01291,0.35642,0.00000,0.00000,0.00000,
1631130120824981504,0.02914,-0.03145,0.20079,0.99869,0.04590,-0.01994,-0.01090,0.01037,0.00373,-0.00128,0.02548,-0.01295,0.35636,0.00000,0.00000,0.00000,
1631130120891652096,0.02914,-0.03098,0.20071,0.99872,0.04532,-0.01984,-0.01092,0.00983,0.00438,-0.00170,0.02549,-0.01296,0.35635,0.00000,0.00000,0.00000,
1631130120958321664,0.02912,-0.03116,0.20086,0.99874,0.04481,-0.02003,-0.01088,0.01009,0.00254,-0.00130,0.02549,-0.01296,0.35636,0.00000,0.00000,0.00000,
1631130121024992256,0.02914,-0.03093,0.20102,0.99875,0.04445,-0.01994,-0.01090,0.01085,0.00387,-0.00091,0.02553,-0.01291,0.35642,0.00000,0.00000,0.00000,
1631130121091661568,0.02908,-0.03086,0.20105,0.99877,0.04402,-0.01999,-0.01088,0.00991,0.00305,-0.00130,0.02549,-0.01295,0.35636,0.00000,0.00000,0.00000,
1631130121158332160,0.02911,-0.03100,0.20117,0.99878,0.04374,-0.02000,-0.01086,0.01069,0.00365,-0.00138,0.02550,-0.01297,0.35637,0.00000,0.00000,0.00000,
1631130121225002496,0.02904,-0.03056,0.20126,0.99880,0.04343,-0.02000,-0.01088,0.00986,0.00317,-0.00140,0.02550,-0.01296,0.35636,0.00000,0.00000,0.00000,
1631130121291673600,0.02902,-0.03017,0.20130,0.99881,0.04310,-0.01986,-0.01092,0.00967,0.00262,-0.00216,0.02554,-0.01292,0.35641,0.00000,0.00000,0.00000,
1631130121358344192,0.02906,-0.03011,0.20127,0.99883,0.04273,-0.01976,-0.01091,0.00920,0.00235,-0.00181,0.02550,-0.01296,0.35636,0.00000,0.00000,0.00000,
1631130121425015552,0.02909,-0.03068,0.20082,0.99884,0.04244,-0.01997,-0.01085,0.00976,0.00264,-0.00180,0.02550,-0.01296,0.35635,0.00000,0.00000,0.00000,
1631130121491685632,0.02908,-0.03069,0.20073,0.99885,0.04216,-0.02014,-0.01082,0.00916,0.00323,-0.00187,0.02551,-0.01295,0.35635,0.00000,0.00000,0.00000,
1631130121558356992,0.02906,-0.03061,0.20072,0.99886,0.04183,-0.02031,-0.01082,0.00972,0.00378,-0.00221,0.02552,-0.01303,0.35630,0.00000,0.00000,0.00000,
1631130121625027328,0.02898,-0.03039,0.20084,0.99887,0.04151,-0.02040,-0.01082,0.01034,0.00358,-0.00166,0.02556,-0.01291,0.35639,0.00000,0.00000,0.00000,
1631130121691698432,0.02891,-0.03020,0.20082,0.99888,0.04122,-0.02046,-0.01082,0.00886,0.00293,-0.00151,0.02551,-0.01296,0.35634,0.00000,0.00000,0.00000,
1631130121758369024,0.02895,-0.03012,0.20089,0.99890,0.04090,-0.02039,-0.01083,0.00872,0.00421,-0.00227,0.02551,-0.01295,0.35635,0.00000,0.00000,0.00000,
1631130121825040384,0.02894,-0.03017,0.20097,0.99890,0.04069,-0.02042,-0.01080,0.00892,0.00271,-0.00178,0.02551,-0.01295,0.35632,0.00000,0.00000,0.00000,
1631130121891710720,0.02893,-0.02998,0.20101,0.99891,0.04048,-0.02035,-0.01084,0.00914,0.00293,-0.00209,0.02557,-0.01299,0.35635,0.00000,0.00000,0.00000,
1631130121958381824,0.02892,-0.02982,0.20089,0.99892,0.04023,-0.02033,-0.01082,0.00777,0.00389,-0.00206,0.02551,-0.01296,0.35634,0.00000,0.00000,0.00000,
1631130122025053184,0.02892,-0.02990,0.20098,0.99893,0.04005,-0.02046,-0.01080,0.00817,0.00373,-0.00251,0.02552,-0.01296,0.35634,0.00000,0.00000,0.00000,
1631130122091723776,0.02892,-0.02984,0.20114,0.99894,0.03989,-0.02051,-0.01080,0.01013,0.00390,-0.00220,0.02551,-0.01296,0.35634,0.00000,0.00000,0.00000,
1631130122158395136,0.02893,-0.02966,0.20108,0.99894,0.03964,-0.02053,-0.01081,0.01034,0.00406,-0.00225,0.02552,-0.01294,0.35633,0.00000,0.00000,0.00000,
1631130122225065472,0.02893,-0.02969,0.20110,0.99895,0.03942,-0.02060,-0.01079,0.01012,0.00326,-0.00225,0.02551,-0.01295,0.35634,0.00000,0.00000,0.00000,
1631130122291737088,0.02892,-0.02957,0.20104,0.99896,0.03913,-0.02064,-0.01079,0.00962,0.00455,-0.00233,0.02556,-0.01290,0.35638,0.00000,0.00000,0.00000,
1631130122358407680,0.02888,-0.02942,0.20108,0.99897,0.03886,-0.02074,-0.01080,0.01030,0.00270,-0.00294,0.02552,-0.01296,0.35633,0.00000,0.00000,0.00000,
1631130122425079296,0.02890,-0.02935,0.20111,0.99898,0.03858,-0.02073,-0.01079,0.01099,0.00314,-0.00252,0.02552,-0.01296,0.35632,0.00000,0.00000,0.00000,
1631130122491749888,0.02891,-0.02918,0.20100,0.99900,0.03822,-0.02068,-0.01081,0.00967,0.00376,-0.00276,0.02552,-0.01296,0.35633,0.00000,0.00000,0.00000,
1631130122558421248,0.02893,-0.02905,0.20127,0.99901,0.03794,-0.02055,-0.01080,0.01114,0.00306,-0.00282,0.02552,-0.01295,0.35632,0.00000,0.00000,0.00000,
1631130122625092096,0.02896,-0.02896,0.20127,0.99902,0.03758,-0.02051,-0.01081,0.01045,0.00351,-0.00270,0.02557,-0.01290,0.35636,0.00000,0.00000,0.00000,
1631130122691763712,0.02896,-0.02886,0.20124,0.99904,0.03729,-0.02042,-0.01082,0.01021,0.00392,-0.00267,0.02553,-0.01296,0.35633,0.00000,0.00000,0.00000,
1631130122758434304,0.02896,-0.02870,0.20112,0.99905,0.03696,-0.02047,-0.01081,0.00942,0.00326,-0.00318,0.02553,-0.01296,0.35634,0.00000,0.00000,0.00000,
1631130122825105920,0.02900,-0.02855,0.20116,0.99906,0.03654,-0.02048,-0.01080,0.01034,0.00410,-0.00302,0.02553,-0.01296,0.35633,0.00000,0.00000,0.00000,
1631130122891776512,0.02900,-0.02855,0.20136,0.99908,0.03618,-0.02053,-0.01078,0.01117,0.00370,-0.00250,0.02553,-0.01295,0.35632,0.00000,0.00000,0.00000,
1631130122958448128,0.02899,-0.02836,0.20142,0.99909,0.03588,-0.02050,-0.01079,0.01067,0.00368,-0.00277,0.02553,-0.01296,0.35632,0.00000,0.00000,0.00000,
1631130123025118976,0.02893,-0.02824,0.20144,0.99910,0.03562,-0.02049,-0.01080,0.00971,0.00262,-0.00260,0.02553,-0.01296,0.35633,0.00000,0.00000,0.00000,
1631130123091790592,0.02896,-0.02806,0.20145,0.99911,0.03538,-0.02042,-0.01081,0.01009,0.00505,-0.00337,0.02558,-0.01292,0.35637,0.00000,0.00000,0.00000,
1631130123158461440,0.02895,-0.02798,0.20151,0.99911,0.03517,-0.02043,-0.01081,0.01007,0.00480,-0.00273,0.02554,-0.01296,0.35630,0.00000,0.00000,0.00000,
1631130123225133056,0.02889,-0.02788,0.20157,0.99912,0.03494,-0.02051,-0.01080,0.00936,0.00400,-0.00302,0.02558,-0.01293,0.35637,0.00000,0.00000,0.00000,
1631130123291803392,0.02894,-0.02784,0.20176,0.99913,0.03477,-0.02041,-0.01080,0.01112,0.00466,-0.00273,0.02554,-0.01297,0.35632,0.00000,0.00000,0.00000,
1631130123358475264,0.02894,-0.02779,0.20166,0.99914,0.03460,-0.02036,-0.01082,0.00977,0.00386,-0.00337,0.02554,-0.01295,0.35632,0.00000,0.00000,0.00000,
1631130123425146880,0.02893,-0.02768,0.20168,0.99914,0.03447,-0.02027,-0.01081,0.00917,0.00356,-0.00270,0.02559,-0.01298,0.35632,0.00000,0.00000,0.00000,
1631130123491817472,0.02895,-0.02762,0.20162,0.99915,0.03434,-0.02019,-0.01082,0.00797,0.00563,-0.00286,0.02558,-0.01292,0.35636,0.00000,0.00000,0.00000,
1631130123558489088,0.02899,-0.02784,0.20189,0.99915,0.03438,-0.02018,-0.01078,0.00982,0.00386,-0.00268,0.02554,-0.01295,0.35631,0.00000,0.00000,0.00000,
1631130123625159680,0.02898,-0.02777,0.20172,0.99915,0.03427,-0.02023,-0.01078,0.00822,0.00513,-0.00332,0.02559,-0.01291,0.35635,0.00000,0.00000,0.00000,
1631130123691831296,0.02898,-0.02769,0.20173,0.99915,0.03412,-0.02025,-0.01079,0.00942,0.00533,-0.00315,0.02554,-0.01296,0.35631,0.00000,0.00000,0.00000,
1631130123758501888,0.02896,-0.02772,0.20178,0.99916,0.03404,-0.02027,-0.01078,0.00982,0.00237,-0.00298,0.02555,-0.01295,0.35631,0.00000,0.00000,0.00000,
1631130123825173504,0.02905,-0.02768,0.20178,0.99916,0.03396,-0.02015,-0.01080,0.01042,0.00505,-0.00354,0.02554,-0.01296,0.35632,0.00000,0.00000,0.00000,
1631130123891844352,0.02903,-0.02772,0.20170,0.99916,0.03390,-0.02021,-0.01078,0.00897,0.00442,-0.00289,0.02556,-0.01303,0.35627,0.00000,0.00000,0.00000,
1631130123958515968,0.02900,-0.02775,0.20192,0.99916,0.03389,-0.02023,-0.01078,0.01020,0.00399,-0.00300,0.02559,-0.01291,0.35635,0.00000,0.00000,0.00000,
1631130124025186560,0.02896,-0.02755,0.20177,0.99917,0.03382,-0.02018,-0.01080,0.00881,0.00388,-0.00387,0.02555,-0.01294,0.35631,0.00000,0.00000,0.00000,
1631130124091858432,0.02902,-0.02760,0.20180,0.99917,0.03377,-0.02017,-0.01080,0.00960,0.00470,-0.00374,0.02559,-0.01291,0.35635,0.00000,0.00000,0.00000,
1631130124158529024,0.02901,-0.02764,0.20183,0.99917,0.03376,-0.02024,-0.01079,0.00924,0.00423,-0.00302,0.02556,-0.01303,0.35626,0.00000,0.00000,0.00000,
1631130124225200640,0.02900,-0.02766,0.20182,0.99917,0.03373,-0.02030,-0.01079,0.00925,0.00535,-0.00375,0.02555,-0.01296,0.35630,0.00000,0.00000,0.00000,
1631130124291871232,0.02901,-0.02771,0.20198,0.99916,0.03377,-0.02032,-0.01079,0.01111,0.00495,-0.00341,0.02559,-0.01292,0.35635,0.00000,0.00000,0.00000,
1631130124358542848,0.02892,-0.02756,0.20186,0.99916,0.03378,-0.02040,-0.01081,0.00934,0.00491,-0.00377,0.02554,-0.01295,0.35630,0.00000,0.00000,0.00000,
1631130124425213696,0.02894,-0.02762,0.20181,0.99916,0.03378,-0.02047,-0.01079,0.00937,0.00534,-0.00377,0.02555,-0.01297,0.35631,0.00000,0.00000,0.00000,
1631130124491885312,0.02893,-0.02783,0.20214,0.99916,0.03388,-0.02053,-0.01077,0.01128,0.00372,-0.00292,0.02555,-0.01296,0.35630,0.00000,0.00000,0.00000,
1631130124558555904,0.02880,-0.02757,0.20185,0.99915,0.03395,-0.02061,-0.01079,0.00790,0.00652,-0.00381,0.02556,-0.01303,0.35625,0.00000,0.00000,0.00000,
1631130124625227776,0.02876,-0.02759,0.20187,0.99915,0.03400,-0.02067,-0.01079,0.00821,0.00612,-0.00388,0.02555,-0.01296,0.35628,0.00000,0.00000,0.00000,
1631130124691899392,0.02875,-0.02782,0.20205,0.99914,0.03414,-0.02073,-0.01077,0.01007,0.00351,-0.00363,0.02555,-0.01296,0.35629,0.00000,0.00000,0.00000,
1631130124758569984,0.02878,-0.02796,0.20203,0.99914,0.03420,-0.02082,-0.01074,0.01005,0.00457,-0.00370,0.02556,-0.01303,0.35625,0.00000,0.00000,0.00000,
1631130124825242112,0.02881,-0.02802,0.20190,0.99914,0.03422,-0.02091,-0.01074,0.00988,0.00480,-0.00408,0.02555,-0.01297,0.35629,0.00000,0.00000,0.00000,
1631130124891912704,0.02880,-0.02783,0.20171,0.99914,0.03422,-0.02091,-0.01078,0.00932,0.00496,-0.00415,0.02555,-0.01296,0.35628,0.00000,0.00000,0.00000,
1631130124958584576,0.02884,-0.02781,0.20172,0.99914,0.03429,-0.02079,-0.01079,0.00978,0.00478,-0.00345,0.02555,-0.01296,0.35630,0.00000,0.00000,0.00000,
1631130125025255168,0.02888,-0.02795,0.20181,0.99914,0.03438,-0.02071,-0.01078,0.01064,0.00384,-0.00332,0.02555,-0.01295,0.35630,0.00000,0.00000,0.00000,
1631130125091927040,0.02889,-0.02793,0.20177,0.99914,0.03444,-0.02062,-0.01080,0.01025,0.00353,-0.00389,0.02555,-0.01296,0.35629,0.00000,0.00000,0.00000,
1631130125158597632,0.02887,-0.02797,0.20179,0.99913,0.03449,-0.02062,-0.01079,0.00991,0.00242,-0.00332,0.02557,-0.01303,0.35625,0.00000,0.00000,0.00000,
1631130125225269760,0.02893,-0.02781,0.20181,0.99914,0.03452,-0.02047,-0.01082,0.01086,0.00536,-0.00395,0.02556,-0.01304,0.35623,0.00000,0.00000,0.00000,
1631130125291940608,0.02897,-0.02777,0.20170,0.99914,0.03456,-0.02032,-0.01083,0.00971,0.00587,-0.00364,0.02559,-0.01292,0.35634,0.00000,0.00000,0.00000,
1631130125358612480,0.02898,-0.02795,0.20183,0.99913,0.03468,-0.02032,-0.01081,0.00972,0.00360,-0.00296,0.02559,-0.01292,0.35633,0.00000,0.00000,0.00000,
1631130125425283584,0.02895,-0.02807,0.20181,0.99913,0.03475,-0.02037,-0.01081,0.00893,0.00376,-0.00332,0.02554,-0.01302,0.35626,0.00000,0.00000,0.00000,
1631130125491955456,0.02894,-0.02815,0.20196,0.99913,0.03486,-0.02041,-0.01078,0.01049,0.00299,-0.00317,0.02554,-0.01295,0.35613,0.00000,0.00000,0.00000,
1631130125558626560,0.02893,-0.02790,0.20164,0.99912,0.03489,-0.02037,-0.01083,0.00845,0.00542,-0.00436,0.02553,-0.01306,0.35627,0.00000,0.00000,0.00000,
1631130125625298688,0.02892,-0.02800,0.20167,0.99912,0.03496,-0.02038,-0.01082,0.00849,0.00258,-0.00370,0.02552,-0.01307,0.35629,0.00000,0.00000,0.00000,
1631130125691969536,0.02896,-0.02808,0.20176,0.99912,0.03501,-0.02039,-0.01082,0.00988,0.00396,-0.00412,0.02553,-0.01306,0.35628,0.00000,0.00000,0.00000,
1631130125758641920,0.02898,-0.02816,0.20156,0.99912,0.03501,-0.02043,-0.01081,0.00890,0.00520,-0.00386,0.02550,-0.01315,0.35620,0.00000,0.00000,0.00000,
1631130125825313024,0.02889,-0.02812,0.20153,0.99912,0.03509,-0.02047,-0.01082,0.00805,0.00329,-0.00391,0.02550,-0.01313,0.35619,0.00000,0.00000,0.00000,
1631130125891985152,0.02890,-0.02803,0.20171,0.99911,0.03520,-0.02040,-0.01082,0.01081,0.00306,-0.00415,0.02549,-0.01307,0.35624,0.00000,0.00000,0.00000,
1631130125958656256,0.02896,-0.02811,0.20169,0.99911,0.03531,-0.02037,-0.01085,0.01123,0.00273,-0.00352,0.02554,-0.01301,0.35627,0.00000,0.00000,0.00000,
1631130126025328384,0.02897,-0.02807,0.20162,0.99911,0.03533,-0.02040,-0.01084,0.01061,0.00307,-0.00426,0.02554,-0.01301,0.35627,0.00000,0.00000,0.00000,
1631130126092000768,0.02899,-0.02803,0.20152,0.99911,0.03530,-0.02046,-0.01083,0.01033,0.00443,-0.00427,0.02553,-0.01306,0.35627,0.00000,0.00000,0.00000,
1631130126158671872,0.02897,-0.02821,0.20145,0.99911,0.03527,-0.02058,-0.01083,0.00938,0.00264,-0.00393,0.02549,-0.01307,0.35624,0.00000,0.00000,0.00000,
1631130126225342976,0.02890,-0.02813,0.20146,0.99911,0.03527,-0.02064,-0.01082,0.00900,0.00415,-0.00374,0.02549,-0.01309,0.35624,0.00000,0.00000,0.00000,
1631130126292013312,0.02887,-0.02809,0.20165,0.99910,0.03534,-0.02064,-0.01084,0.01009,0.00353,-0.00337,0.02549,-0.01308,0.35624,0.00000,0.00000,0.00000,
1631130126358684416,0.02886,-0.02810,0.20160,0.99910,0.03540,-0.02066,-0.01084,0.00960,0.00244,-0.00412,0.02554,-0.01313,0.35623,0.00000,0.00000,0.00000,
1631130126425354752,0.02890,-0.02824,0.20162,0.99910,0.03545,-0.02073,-0.01083,0.01037,0.00394,-0.00350,0.02555,-0.01315,0.35612,0.00000,0.00000,0.00000,
1631130126492026112,0.02794,-0.03022,0.20431,0.99898,0.03863,-0.02080,-0.01070,0.00029,0.00042,-0.00110,0.02586,-0.01274,0.35616,0.00000,0.00000,0.00000,
1631130126558696192,0.02786,-0.03110,0.20425,0.99885,0.04162,-0.02139,-0.01058,0.00163,-0.00504,-0.00189,0.02553,-0.01287,0.35643,0.00000,0.00000,0.00000,
1631130126625367296,0.02707,-0.03244,0.20445,0.99867,0.04500,-0.02274,-0.01049,-0.01630,-0.00905,0.00515,0.02489,-0.01287,0.35692,0.00000,0.00000,0.00000,
1631130126692037888,0.02623,-0.03378,0.20478,0.99849,0.04827,-0.02413,-0.01057,0.00374,-0.00828,0.00430,0.02619,-0.01227,0.35905,0.00000,0.00000,0.00000,
1631130126758708992,0.02277,-0.03879,0.20550,0.99833,0.05218,-0.02267,-0.01008,-0.11975,-0.13563,0.04594,0.02705,-0.01214,0.36562,0.00000,0.00000,0.00000,
1631130126825379072,0.02587,-0.03553,0.21052,0.99723,0.06803,-0.02698,-0.01341,-0.03304,0.00330,0.03763,0.02528,-0.00810,0.36712,0.00000,0.00000,0.00000,
1631130126892050432,0.02110,-0.03534,0.21477,0.99734,0.06648,-0.02722,-0.01228,-0.17543,-0.09819,0.03635,0.02148,-0.00614,0.37025,0.00000,0.00000,0.00000,
1631130126958720768,0.01454,-0.02905,0.22022,0.99903,0.03687,-0.02183,-0.00994,-0.16746,0.04868,-0.03227,0.01874,0.00342,0.38099,0.00000,0.00000,0.00000,
1631130127025391872,0.02582,-0.02157,0.21996,0.99929,0.03715,0.00637,-0.00261,0.04455,0.29067,0.20958,0.02048,0.01310,0.39056,0.00000,0.00000,0.00000,
1631130127092062208,0.02559,-0.05684,0.23079,0.99687,0.07868,-0.00400,0.00620,0.08939,-0.45485,0.13830,0.02204,0.02132,0.38928,0.00000,0.00000,0.00000,
1631130127158733312,0.02074,-0.02164,0.23906,0.99850,0.04760,-0.02696,0.00095,0.01341,-0.05025,-0.01170,0.02299,0.02957,0.38461,0.00000,0.00000,0.00000,
1631130127225403648,0.02244,-0.00484,0.23586,0.99824,0.05373,-0.02485,0.00258,0.01245,0.04546,-0.05911,0.01977,0.03131,0.38670,0.00000,0.00000,0.00000,
1631130127292075008,0.02379,0.00924,0.23060,0.99929,0.03463,-0.01495,0.00220,-0.02648,0.07270,-0.09396,0.01748,0.03339,0.38495,0.00000,0.00000,0.00000,
1631130127358746112,0.02013,0.00179,0.22894,0.99901,0.04198,-0.01395,-0.00438,0.00495,-0.13971,0.00533,0.01430,0.02729,0.37623,0.00000,0.00000,0.00000,
1631130127425416192,0.01668,-0.00231,0.22954,0.99825,0.05659,-0.01708,-0.00189,-0.01536,-0.01616,-0.12609,0.01058,0.02313,0.36978,0.00000,0.00000,0.00000,
1631130127492087296,0.01308,-0.00903,0.22536,0.99770,0.06518,-0.01493,-0.01129,-0.04136,-0.16270,-0.13506,0.00926,0.02065,0.37027,0.00000,0.00000,0.00000,
1631130127558757888,0.01439,-0.00993,0.21561,0.99752,0.06878,-0.00661,-0.01374,-0.03606,-0.09472,-0.08008,0.01040,0.02552,0.38014,0.00000,0.00000,0.00000,
1631130127625428992,0.00921,-0.01073,0.21259,0.99750,0.06855,-0.00669,-0.01589,-0.00690,-0.03628,0.14932,0.01517,0.02811,0.38614,0.00000,0.00000,0.00000,
1631130127692099072,0.00915,-0.01282,0.22502,0.99810,0.06097,-0.00759,-0.00403,0.02892,-0.03509,0.16050,0.02256,0.03270,0.38721,0.00000,0.00000,0.00000,
1631130127758770176,0.01210,-0.00902,0.23813,0.99820,0.05700,-0.01516,-0.01112,0.08523,0.03060,0.12156,0.03796,0.04540,0.38414,0.00000,0.00000,0.00000,
1631130127825440768,0.02387,-0.00129,0.23698,0.99793,0.06106,-0.01452,-0.01397,0.16301,0.10346,0.04849,0.06061,0.06397,0.38683,0.00000,0.00000,0.00000,
1631130127892111872,0.04110,0.01540,0.23528,0.99879,0.04546,-0.00604,-0.01784,0.27197,0.27437,-0.00239,0.07716,0.07831,0.39748,0.00000,0.00000,0.00000,
1631130127958781952,0.05958,0.03148,0.24246,0.99884,0.04083,-0.00817,-0.02409,0.34491,0.15459,0.16305,0.08997,0.08349,0.40215,0.00000,0.00000,0.00000,
1631130128025453056,0.07844,0.05606,0.25172,0.99770,0.06175,-0.01504,-0.02366,0.14553,0.14108,0.29874,0.10465,0.08970,0.39916,0.00000,0.00000,0.00000,
1631130128092123392,0.08277,0.05125,0.24596,0.99514,0.09164,-0.02575,-0.02518,0.23398,0.13106,-0.12635,0.11438,0.08878,0.40300,0.00000,0.00000,0.00000,
1631130128158794752,0.09960,0.05623,0.24401,0.99811,0.05171,-0.02235,-0.02445,0.14511,-0.04811,0.07436,0.12233,0.08269,0.40371,0.00000,0.00000,0.00000,
1631130128225464832,0.10517,0.06098,0.24387,0.99903,0.01797,-0.02318,-0.03272,0.12325,-0.11147,-0.06513,0.12828,0.08070,0.40844,0.00000,0.00000,0.00000,
1631130128292136192,0.11358,0.06218,0.24435,0.99962,0.01587,-0.00650,-0.02164,0.04333,-0.08328,0.13660,0.13358,0.06996,0.41230,0.00000,0.00000,0.00000,
1631130128358806272,0.11764,0.04335,0.24990,0.99920,0.02564,-0.00723,-0.02980,0.03634,-0.06722,-0.00882,0.14008,0.06678,0.41212,0.00000,0.00000,0.00000,
1631130128425477632,0.12677,0.04987,0.24972,0.99956,0.01317,0.00620,-0.02588,0.01521,-0.00407,-0.00838,0.14389,0.06465,0.41060,0.00000,0.00000,0.00000,
1631130128492147968,0.13274,0.04561,0.24895,0.99939,0.00865,0.01545,-0.03023,-0.00110,0.06700,0.02081,0.14581,0.06720,0.41264,0.00000,0.00000,0.00000,
1631130128558819072,0.13906,0.04549,0.24905,0.99932,0.02498,0.01241,-0.02432,0.05895,-0.01866,0.04353,0.15052,0.06622,0.41388,0.00000,0.00000,0.00000,
1631130128625489408,0.14437,0.04458,0.25064,0.99890,0.03307,0.02049,-0.02603,0.06930,0.06040,-0.05602,0.15609,0.06565,0.40801,0.00000,0.00000,0.00000,
1631130128692160512,0.14877,0.04512,0.24520,0.99866,0.03653,0.02625,-0.02567,0.04794,-0.09350,-0.02973,0.16053,0.05845,0.40536,0.00000,0.00000,0.00000,
1631130128758831616,0.15403,0.03597,0.23839,0.99807,0.04581,0.03078,-0.02853,0.05935,-0.10296,-0.04591,0.16551,0.05042,0.40122,0.00000,0.00000,0.00000,
1631130128825502208,0.16098,0.02646,0.23303,0.99767,0.05095,0.03655,-0.02672,0.08741,-0.15561,-0.07489,0.17390,0.04049,0.40498,0.00000,0.00000,0.00000,
1631130128892173312,0.16547,0.02901,0.23094,0.99799,0.04385,0.03992,-0.02232,0.10330,-0.10708,0.15226,0.17876,0.03173,0.41253,0.00000,0.00000,0.00000,
1631130128958843392,0.17200,0.01842,0.23789,0.99839,0.04145,0.02791,-0.02671,0.07450,-0.08022,0.02264,0.18349,0.02482,0.41338,0.00000,0.00000,0.00000,
1631130129025514752,0.17973,0.00624,0.24525,0.99842,0.04446,0.02530,-0.02318,0.05618,-0.05592,0.04982,0.18711,0.02209,0.41375,0.00000,0.00000,0.00000,
1631130129092185088,0.18452,0.00250,0.24471,0.99892,0.02966,0.02673,-0.02365,0.02317,0.01320,-0.01893,0.18868,0.02301,0.41213,0.00000,0.00000,0.00000,
1631130129158856448,0.18784,0.00288,0.24177,0.99919,0.02446,0.02559,-0.01924,0.01707,-0.03393,0.09834,0.18978,0.01988,0.41743,0.00000,0.00000,0.00000,
1631130129225526784,0.18738,0.00017,0.25031,0.99902,0.03285,0.02082,-0.02132,0.03950,0.00977,-0.02581,0.19246,0.01769,0.41184,0.00000,0.00000,0.00000,
1631130129292198144,0.18912,0.00104,0.24543,0.99892,0.03271,0.02612,-0.02003,0.03686,-0.05330,-0.04206,0.19419,0.01354,0.41060,0.00000,0.00000,0.00000,
1631130129358868736,0.19262,-0.00786,0.24041,0.99856,0.03859,0.02992,-0.02202,0.04524,-0.06899,-0.02953,0.19746,0.00610,0.40869,0.00000,0.00000,0.00000,
1631130129425540096,0.19481,-0.01052,0.23795,0.99835,0.04236,0.03337,-0.01994,0.06455,-0.08568,-0.05039,0.20209,0.00100,0.40637,0.00000,0.00000,0.00000,
1631130129492210688,0.19606,-0.00964,0.22803,0.99848,0.03799,0.03512,-0.01912,0.07521,-0.04701,0.13501,0.20961,-0.00748,0.41884,0.00000,0.00000,0.00000,
1631130129558882304,0.20161,-0.01774,0.24181,0.99868,0.03864,0.02477,-0.02312,0.08123,-0.08073,0.07923,0.21417,-0.01136,0.42186,0.00000,0.00000,0.00000,
1631130129625552640,0.21130,-0.02921,0.25010,0.99853,0.04225,0.02363,-0.02423,0.07465,-0.02914,-0.00762,0.21871,-0.01238,0.42018,0.00000,0.00000,0.00000,
1631130129692224256,0.21575,-0.02631,0.24686,0.99892,0.02472,0.03009,-0.02542,0.05627,0.07074,-0.03957,0.22494,-0.00511,0.41648,0.00000,0.00000,0.00000,
1631130129758894592,0.22236,-0.02360,0.24207,0.99916,0.01636,0.03084,-0.02130,0.07147,0.07740,0.01621,0.23140,-0.00191,0.41700,0.00000,0.00000,0.00000,
1631130129825566208,0.22921,-0.01861,0.24335,0.99907,0.02585,0.02917,-0.01830,0.10586,0.06363,-0.03716,0.23639,-0.00105,0.41328,0.00000,0.00000,0.00000,
1631130129892236800,0.23365,-0.01790,0.23732,0.99914,0.02310,0.02685,-0.02143,0.08598,-0.03739,-0.03926,0.24493,-0.00682,0.40920,0.00000,0.00000,0.00000,
1631130129958908672,0.24245,-0.02565,0.23319,0.99881,0.02773,0.03163,-0.02469,0.08275,-0.08531,-0.05200,0.24978,-0.01582,0.40536,0.00000,0.00000,0.00000,
1631130130025580288,0.24820,-0.03259,0.22904,0.99835,0.03637,0.03614,-0.02581,0.08222,-0.16217,-0.06766,0.25568,-0.02471,0.40369,0.00000,0.00000,0.00000,
1631130130092250624,0.25454,-0.04343,0.22468,0.99817,0.03811,0.03845,-0.02684,0.14485,-0.10962,0.04801,0.26307,-0.03199,0.40840,0.00000,0.00000,0.00000,
1631130130158922240,0.26342,-0.05239,0.22718,0.99842,0.03827,0.03186,-0.02609,0.10481,-0.10806,-0.00747,0.27188,-0.03772,0.40868,0.00000,0.00000,0.00000,
1631130130225592320,0.26986,-0.05670,0.22994,0.99843,0.04321,0.02661,-0.02358,0.11521,-0.00778,0.01082,0.27790,-0.03778,0.40841,0.00000,0.00000,0.00000,
1631130130292263680,0.27859,-0.05409,0.22833,0.99890,0.02757,0.03161,-0.02114,0.09793,0.04018,-0.04863,0.28630,-0.03311,0.40459,0.00000,0.00000,0.00000,
1631130130358934016,0.28737,-0.04978,0.22562,0.99915,0.01626,0.03309,-0.01852,0.11898,0.09878,0.00814,0.29285,-0.03100,0.40765,0.00000,0.00000,0.00000,
1631130130425605376,0.29476,-0.04729,0.23145,0.99888,0.02734,0.03192,-0.02192,0.13374,0.03786,0.07297,0.30471,-0.02935,0.40851,0.00000,0.00000,0.00000,
1631130130492275456,0.30169,-0.04510,0.22886,0.99907,0.02491,0.02916,-0.01979,0.11421,0.01072,-0.04694,0.31047,-0.03175,0.40611,0.00000,0.00000,0.00000,
1631130130558946560,0.30794,-0.04821,0.22549,0.99885,0.02717,0.03097,-0.02433,0.09733,-0.06721,-0.01374,0.31815,-0.03674,0.40330,0.00000,0.00000,0.00000,
1631130130625617152,0.31723,-0.05409,0.22245,0.99844,0.03501,0.03523,-0.02566,0.08441,-0.12119,-0.04157,0.32687,-0.04677,0.40155,0.00000,0.00000,0.00000,
1631130130692288256,0.32171,-0.05997,0.21881,0.99837,0.03519,0.03594,-0.02706,0.12882,-0.09599,0.05899,0.33239,-0.05141,0.40617,0.00000,0.00000,0.00000,
1631130130758958592,0.33468,-0.07061,0.22415,0.99855,0.03402,0.03346,-0.02504,0.12112,-0.11479,0.06050,0.34259,-0.05667,0.40827,0.00000,0.00000,0.00000,
1631130130825629696,0.33874,-0.07431,0.22705,0.99852,0.04070,0.02524,-0.02582,0.11565,-0.02680,0.03773,0.35064,-0.05654,0.40683,0.00000,0.00000,0.00000,
1631130130892299776,0.34412,-0.06659,0.22461,0.99891,0.02810,0.02932,-0.02307,0.10617,0.04682,-0.04468,0.35467,-0.05252,0.40455,0.00000,0.00000,0.00000,
1631130130958971136,0.35492,-0.06271,0.22060,0.99914,0.01377,0.03232,-0.02199,0.11276,0.11518,-0.00646,0.36727,-0.04595,0.40777,0.00000,0.00000,0.00000,
1631130131025641472,0.36235,-0.05964,0.22737,0.99897,0.02270,0.03094,-0.02425,0.12189,0.02269,0.15179,0.37589,-0.04281,0.40841,0.00000,0.00000,0.00000,
1631130131092312832,0.37005,-0.05490,0.22868,0.99916,0.02425,0.02454,-0.02210,0.10898,0.03994,-0.00411,0.38370,-0.04347,0.40676,0.00000,0.00000,0.00000,
1631130131158982912,0.37623,-0.05534,0.22637,0.99907,0.02294,0.02513,-0.02638,0.09145,-0.02752,-0.01381,0.38754,-0.04580,0.40543,0.00000,0.00000,0.00000,
1631130131225654016,0.38374,-0.05904,0.22542,0.99889,0.02770,0.02601,-0.02773,0.06386,-0.07570,-0.01866,0.39067,-0.04966,0.40440,0.00000,0.00000,0.00000,
1631130131292324608,0.38687,-0.06372,0.22237,0.99873,0.03017,0.02555,-0.03126,0.08973,-0.07754,0.02680,0.39870,-0.05552,0.40760,0.00000,0.00000,0.00000,
1631130131358995712,0.39371,-0.06906,0.22749,0.99877,0.03152,0.02503,-0.02901,0.09332,-0.06740,0.00686,0.40467,-0.05835,0.40612,0.00000,0.00000,0.00000,
1631130131425667072,0.40086,-0.07007,0.22427,0.99879,0.03453,0.01972,-0.02901,0.10783,0.03612,-0.00283,0.41637,-0.05026,0.40249,0.00000,0.00000,0.00000,
1631130131492337152,0.41083,-0.06209,0.22075,0.99903,0.02614,0.02556,-0.02466,0.13129,0.09496,-0.05941,0.42498,-0.04274,0.39853,0.00000,0.00000,0.00000,
1631130131559008512,0.41918,-0.05616,0.21718,0.99911,0.01777,0.02952,-0.02418,0.15071,0.15555,-0.03171,0.43580,-0.03384,0.39658,0.00000,0.00000,0.00000,
1631130131625678848,0.42966,-0.04634,0.21180,0.99893,0.02467,0.03015,-0.02477,0.20517,0.07750,0.05799,0.44954,-0.02606,0.40198,0.00000,0.00000,0.00000,
1631130131692350208,0.44175,-0.03632,0.21756,0.99930,0.01848,0.02206,-0.02376,0.17338,0.11735,0.02449,0.46025,-0.02189,0.40318,0.00000,0.00000,0.00000,
1631130131759020288,0.45232,-0.03375,0.22243,0.99938,0.01586,0.01859,-0.02526,0.13790,0.01076,0.04969,0.46709,-0.02283,0.40325,0.00000,0.00000,0.00000,
1631130131825691648,0.46188,-0.03312,0.22117,0.99920,0.02164,0.02189,-0.02561,0.11811,-0.01619,-0.02316,0.47804,-0.02954,0.39981,0.00000,0.00000,0.00000,
1631130131892361984,0.46979,-0.03731,0.21754,0.99890,0.03122,0.02539,-0.02418,0.11211,-0.10505,-0.03778,0.48422,-0.03470,0.40870,0.00000,0.00000,0.00000,
1631130131959033344,0.47784,-0.04200,0.22557,0.99890,0.03470,0.02162,-0.02282,0.10304,-0.09419,0.16995,0.49255,-0.04214,0.41727,0.00000,0.00000,0.00000,
1631130132025703424,0.47899,-0.05127,0.23528,0.99859,0.04356,0.00860,-0.02912,0.09057,-0.08613,0.08409,0.50111,-0.04379,0.41636,0.00000,0.00000,0.00000,
1631130132092374784,0.49006,-0.05078,0.23693,0.99876,0.03754,0.01215,-0.03046,0.09947,0.00188,-0.01639,0.50721,-0.04221,0.41530,0.00000,0.00000,0.00000,
1631130132159044864,0.49562,-0.05037,0.23343,0.99899,0.02350,0.01887,-0.03346,0.08636,0.05066,-0.00967,0.51603,-0.03741,0.41632,0.00000,0.00000,0.00000,
1631130132225716480,0.50074,-0.04778,0.23175,0.99898,0.02932,0.01526,-0.03066,0.11217,0.06997,0.06571,0.52236,-0.03837,0.41460,0.00000,0.00000,0.00000,
1631130132292386816,0.50847,-0.04478,0.23288,0.99904,0.02952,0.01268,-0.02980,0.09726,0.02275,-0.03249,0.52606,-0.04095,0.41499,0.00000,0.00000,0.00000,
1631130132359058176,0.51454,-0.04428,0.23434,0.99896,0.02882,0.01221,-0.03308,0.06670,-0.03883,0.03833,0.52973,-0.04353,0.41224,0.00000,0.00000,0.00000,
1631130132425728256,0.51944,-0.04841,0.23230,0.99871,0.03412,0.01636,-0.03400,0.05014,-0.05068,-0.03559,0.53246,-0.05067,0.41094,0.00000,0.00000,0.00000,
1631130132492399616,0.52040,-0.05172,0.23076,0.99853,0.03761,0.01795,-0.03459,0.03787,-0.11175,0.00303,0.53611,-0.05641,0.41365,0.00000,0.00000,0.00000,
1631130132559070208,0.52409,-0.05941,0.23350,0.99849,0.03677,0.01936,-0.03579,0.06501,-0.09499,0.08189,0.53944,-0.05958,0.41512,0.00000,0.00000,0.00000,
1631130132625741568,0.52947,-0.06673,0.23631,0.99825,0.04361,0.01175,-0.03807,0.07045,-0.05985,0.03170,0.54508,-0.06208,0.41596,0.00000,0.00000,0.00000,
1631130132692412928,0.53278,-0.06531,0.23438,0.99842,0.03991,0.01369,-0.03723,0.06376,0.04126,-0.01849,0.55042,-0.05840,0.41202,0.00000,0.00000,0.00000,
1631130132759083008,0.53884,-0.06275,0.22985,0.99897,0.02258,0.01879,-0.03458,0.06442,0.09281,-0.03171,0.55607,-0.05165,0.41133,0.00000,0.00000,0.00000,
1631130132825754368,0.54518,-0.05864,0.22841,0.99905,0.02603,0.01706,-0.03047,0.10526,0.09521,0.00109,0.56220,-0.04895,0.41121,0.00000,0.00000,0.00000,
1631130132892424704,0.55138,-0.05519,0.22719,0.99909,0.02721,0.01521,-0.02895,0.08990,0.00338,-0.04843,0.56786,-0.04986,0.40687,0.00000,0.00000,0.00000,
1631130132959096320,0.55479,-0.05400,0.22475,0.99902,0.02491,0.01485,-0.03350,0.07324,-0.03477,-0.07276,0.57019,-0.05099,0.40543,0.00000,0.00000,0.00000,
1631130133025766656,0.56230,-0.05909,0.21984,0.99864,0.03300,0.02120,-0.03448,0.07137,-0.09342,-0.07531,0.57909,-0.06586,0.39718,0.00000,0.00000,0.00000,
1631130133092437760,0.56444,-0.06546,0.21381,0.99819,0.03842,0.02632,-0.03798,0.08072,-0.14285,-0.08150,0.58462,-0.07046,0.40058,0.00000,0.00000,0.00000,
1631130133159108096,0.57227,-0.07422,0.21361,0.99809,0.04115,0.02930,-0.03552,0.09523,-0.07882,0.07167,0.59051,-0.07692,0.40218,0.00000,0.00000,0.00000,
1631130133225779456,0.57828,-0.07937,0.21597,0.99817,0.04469,0.01895,-0.03610,0.08233,-0.08121,-0.02517,0.59528,-0.07823,0.40293,0.00000,0.00000,0.00000,
1631130133292450048,0.58182,-0.07881,0.21689,0.99841,0.04415,0.01607,-0.03099,0.07674,-0.01077,0.01359,0.59847,-0.07934,0.40160,0.00000,0.00000,0.00000,
1631130133359121408,0.58847,-0.07998,0.21531,0.99875,0.03380,0.01949,-0.03120,0.05891,0.01816,-0.04096,0.60246,-0.07586,0.40379,0.00000,0.00000,0.00000,
1631130133425791744,0.59297,-0.07814,0.21301,0.99902,0.03052,0.01848,-0.02636,0.06696,0.00702,0.12539,0.60331,-0.07512,0.40472,0.00000,0.00000,0.00000,
1631130133492463104,0.59529,-0.07926,0.22249,0.99888,0.03496,0.01459,-0.02850,0.08909,0.01432,0.01916,0.60992,-0.07469,0.40485,0.00000,0.00000,0.00000,
1631130133559133440,0.60030,-0.07678,0.21948,0.99892,0.03366,0.01748,-0.02673,0.07847,-0.03950,-0.03456,0.61322,-0.07586,0.40229,0.00000,0.00000,0.00000,
1631130133625804800,0.60605,-0.08392,0.21548,0.99859,0.03787,0.02145,-0.03026,0.05971,-0.08014,-0.02260,0.62060,-0.08953,0.39873,0.00000,0.00000,0.00000,
1631130133692475392,0.60874,-0.08745,0.21290,0.99839,0.04141,0.02445,-0.03007,0.05926,-0.10460,-0.02330,0.62621,-0.09406,0.40363,0.00000,0.00000,0.00000,
1631130133759146752,0.61561,-0.09453,0.21346,0.99848,0.03783,0.02863,-0.02803,0.08603,-0.05452,0.17335,0.63111,-0.10029,0.40985,0.00000,0.00000,0.00000,
1631130133825817088,0.61840,-0.10227,0.22255,0.99855,0.04193,0.01590,-0.02994,0.08306,-0.09876,0.03554,0.63830,-0.10306,0.40886,0.00000,0.00000,0.00000,
1631130133892488448,0.62357,-0.10450,0.22217,0.99845,0.04517,0.01358,-0.02952,0.08548,-0.01242,0.01097,0.64481,-0.09827,0.40500,0.00000,0.00000,0.00000,
1631130133959158784,0.62982,-0.10148,0.21904,0.99914,0.02265,0.02069,-0.02787,0.07333,0.06710,-0.04292,0.65204,-0.09462,0.40639,0.00000,0.00000,0.00000,
1631130134025830144,0.63604,-0.09779,0.21831,0.99924,0.02223,0.01912,-0.02555,0.09439,0.07456,0.04371,0.66084,-0.09298,0.40637,0.00000,0.00000,0.00000,
1631130134092501760,0.64437,-0.09407,0.21970,0.99901,0.03046,0.02095,-0.02490,0.13577,0.05398,0.01382,0.67310,-0.09638,0.40411,0.00000,0.00000,0.00000,
1631130134159172096,0.65268,-0.09135,0.21762,0.99911,0.02818,0.01803,-0.02551,0.13808,-0.02804,-0.01644,0.68357,-0.10500,0.39872,0.00000,0.00000,0.00000,
1631130134225843456,0.66032,-0.09641,0.21485,0.99882,0.03292,0.02102,-0.02884,0.13882,-0.07605,-0.07216,0.69236,-0.11415,0.39590,0.00000,0.00000,0.00000,
1631130134292513536,0.67199,-0.10390,0.20976,0.99832,0.04224,0.02766,-0.02834,0.14964,-0.16414,-0.06687,0.70599,-0.12324,0.40444,0.00000,0.00000,0.00000,
1631130134359184640,0.68102,-0.11017,0.20047,0.99816,0.04335,0.03217,-0.02755,0.19718,-0.08075,0.08143,0.71921,-0.12996,0.40657,0.00000,0.00000,0.00000,
1631130134425855232,0.69117,-0.11952,0.21121,0.99848,0.04255,0.02060,-0.02840,0.17417,-0.12284,0.06933,0.73222,-0.13132,0.40522,0.00000,0.00000,0.00000,
1631130134492526336,0.70539,-0.12857,0.21652,0.99836,0.04822,0.01485,-0.02693,0.18959,-0.03784,0.01293,0.74468,-0.12566,0.40084,0.00000,0.00000,0.00000,
1631130134559196416,0.72009,-0.12735,0.21309,0.99895,0.03282,0.01902,-0.02571,0.17808,0.04317,-0.05093,0.76210,-0.12360,0.40415,0.00000,0.00000,0.00000,
1631130134625867776,0.73278,-0.12100,0.20864,0.99935,0.01737,0.02088,-0.02376,0.21463,0.10434,-0.03623,0.77812,-0.12295,0.40180,0.00000,0.00000,0.00000,
1631130134692538112,0.74708,-0.11869,0.21250,0.99906,0.02732,0.02091,-0.02651,0.21855,0.05104,0.02408,0.79070,-0.12743,0.40006,0.00000,0.00000,0.00000,
1631130134759209216,0.75985,-0.11519,0.21076,0.99912,0.02780,0.01934,-0.02487,0.19556,-0.00214,-0.04407,0.80495,-0.13727,0.39525,0.00000,0.00000,0.00000,
1631130134825879552,0.77050,-0.11942,0.20832,0.99890,0.03083,0.02004,-0.02903,0.17811,-0.07612,-0.04544,0.81562,-0.14466,0.39498,0.00000,0.00000,0.00000,
1631130134892550656,0.78580,-0.12672,0.20349,0.99856,0.03894,0.02458,-0.02762,0.18128,-0.13484,-0.07799,0.82900,-0.15328,0.40338,0.00000,0.00000,0.00000,
1631130134959220992,0.79300,-0.13480,0.20087,0.99830,0.04404,0.02644,-0.02737,0.21696,-0.10382,0.06796,0.84305,-0.15780,0.40379,0.00000,0.00000,0.00000,
1631130135025892352,0.80909,-0.14360,0.20949,0.99855,0.04247,0.01990,-0.02634,0.17846,-0.13780,0.09839,0.85493,-0.15558,0.40192,0.00000,0.00000,0.00000,
1631130135092562432,0.82187,-0.15017,0.21032,0.99853,0.04599,0.01284,-0.02578,0.17625,-0.01865,0.01337,0.86744,-0.14796,0.40043,0.00000,0.00000,0.00000,
1631130135159233536,0.83248,-0.14593,0.20812,0.99903,0.03372,0.01548,-0.02383,0.15243,0.04573,-0.04411,0.88004,-0.14492,0.40379,0.00000,0.00000,0.00000,
1631130135225903872,0.84373,-0.14015,0.20517,0.99939,0.02067,0.01760,-0.02177,0.17184,0.13594,-0.01827,0.89180,-0.14244,0.40164,0.00000,0.00000,0.00000,
1631130135292575232,0.85453,-0.13647,0.21056,0.99917,0.02978,0.01502,-0.02341,0.18215,0.05061,0.04935,0.90093,-0.14556,0.40032,0.00000,0.00000,0.00000,
1631130135359246592,0.86625,-0.13246,0.21085,0.99928,0.02810,0.01346,-0.02175,0.15371,0.02376,-0.00045,0.90896,-0.15478,0.39860,0.00000,0.00000,0.00000,
1631130135425916672,0.87507,-0.13404,0.20938,0.99920,0.02781,0.01356,-0.02515,0.12848,-0.04910,0.00110,0.91768,-0.16159,0.40381,0.00000,0.00000,0.00000,
1631130135492588032,0.88485,-0.13873,0.20695,0.99898,0.03318,0.01868,-0.02426,0.11000,-0.08963,-0.05002,0.92511,-0.16763,0.40743,0.00000,0.00000,0.00000,
1631130135559258112,0.89281,-0.14436,0.20299,0.99880,0.03719,0.02048,-0.02432,0.13102,-0.08638,0.08408,0.93170,-0.16811,0.40739,0.00000,0.00000,0.00000,
1631130135625929472,0.90176,-0.15456,0.21253,0.99882,0.03927,0.01628,-0.02330,0.12793,-0.12153,0.05891,0.93864,-0.16584,0.40445,0.00000,0.00000,0.00000,
1631130135692599808,0.90505,-0.15891,0.21342,0.99864,0.04491,0.00822,-0.02500,0.10897,-0.03227,0.00034,0.94685,-0.15915,0.40618,0.00000,0.00000,0.00000,
1631130135759271168,0.91185,-0.15386,0.21187,0.99916,0.03244,0.01264,-0.02155,0.09213,0.03277,-0.05087,0.95518,-0.15586,0.40486,0.00000,0.00000,0.00000,
1631130135825941248,0.91658,-0.14852,0.21085,0.99952,0.01790,0.01360,-0.02145,0.08488,0.11360,-0.01350,0.96263,-0.15852,0.40143,0.00000,0.00000,0.00000,
1631130135892612608,0.92393,-0.14368,0.21317,0.99936,0.02748,0.01303,-0.01871,0.12151,0.03532,0.06833,0.96746,-0.16308,0.39897,0.00000,0.00000,0.00000,
1631130135959282944,0.93140,-0.13923,0.21260,0.99942,0.02714,0.01070,-0.01777,0.11714,0.03310,-0.06209,0.97446,-0.17191,0.39929,0.00000,0.00000,0.00000,
1631130136025954048,0.93755,-0.14210,0.20831,0.99916,0.03013,0.01633,-0.02248,0.09688,-0.04458,-0.03312,0.98187,-0.17644,0.40427,0.00000,0.00000,0.00000,
1631130136092624384,0.94509,-0.14674,0.20612,0.99885,0.03623,0.01998,-0.02409,0.07462,-0.09494,-0.04298,0.99167,-0.17694,0.40301,0.00000,0.00000,0.00000,
1631130136159295488,0.95030,-0.15224,0.20200,0.99873,0.03714,0.02171,-0.02623,0.10948,-0.08222,0.02265,1.00332,-0.16975,0.39811,0.00000,0.00000,0.00000,
1631130136225966080,0.95480,-0.15722,0.20877,0.99886,0.03548,0.02090,-0.02395,0.11705,-0.06929,0.05556,1.01639,-0.15889,0.39372,0.00000,0.00000,0.00000,
1631130136292637184,0.96070,-0.16084,0.20932,0.99870,0.04140,0.01498,-0.02568,0.13443,0.03918,0.00997,1.03358,-0.15167,0.39869,0.00000,0.00000,0.00000,
1631130136359307264,0.97219,-0.15177,0.20586,0.99907,0.02986,0.02205,-0.02200,0.15936,0.12574,-0.08247,1.04821,-0.14527,0.39947,0.00000,0.00000,0.00000,
1631130136425978624,0.98234,-0.14369,0.20158,0.99921,0.01777,0.02779,-0.02239,0.18265,0.19316,-0.03952,1.06374,-0.14654,0.39768,0.00000,0.00000,0.00000,
1631130136492648960,0.99843,-0.13401,0.19859,0.99882,0.02860,0.03112,-0.02372,0.24550,0.07039,0.08117,1.07855,-0.15714,0.39055,0.00000,0.00000,0.00000,
1631130136559320064,1.01226,-0.12496,0.20288,0.99913,0.02541,0.02331,-0.02349,0.21874,0.13142,-0.00872,1.09600,-0.16728,0.39298,0.00000,0.00000,0.00000,
1631130136625990144,1.02449,-0.12367,0.20224,0.99921,0.02207,0.01932,-0.02670,0.20228,-0.00881,-0.02521,1.11453,-0.17394,0.39591,0.00000,0.00000,0.00000,
1631130136692661504,1.03688,-0.12871,0.19886,0.99871,0.03404,0.02430,-0.02871,0.17626,-0.09965,-0.08933,1.13172,-0.17214,0.39472,0.00000,0.00000,0.00000,
1631130136759332608,1.05109,-0.13823,0.19160,0.99813,0.04272,0.02925,-0.03235,0.22263,-0.18855,-0.07833,1.14667,-0.16401,0.38954,0.00000,0.00000,0.00000,
1631130136826002944,1.06722,-0.14529,0.19195,0.99834,0.04000,0.03174,-0.02659,0.22408,-0.08660,0.06788,1.16495,-0.15873,0.39348,0.00000,0.00000,0.00000,
1631130136892674304,1.08147,-0.15094,0.19480,0.99865,0.03793,0.02108,-0.02844,0.20802,-0.06298,-0.02055,1.18279,-0.15015,0.39850,0.00000,0.00000,0.00000,
1631130136959344384,1.09242,-0.15006,0.19594,0.99888,0.03536,0.01858,-0.02523,0.21425,0.03955,-0.04292,1.19616,-0.15074,0.39829,0.00000,0.00000,0.00000,
1631130137026015488,1.10961,-0.14445,0.19076,0.99919,0.01867,0.02563,-0.02466,0.21712,0.13578,-0.07556,1.20605,-0.15615,0.39406,0.00000,0.00000,0.00000,
1631130137092685824,1.12326,-0.13646,0.19027,0.99922,0.01724,0.02552,-0.02456,0.26281,0.04745,0.09601,1.21625,-0.16374,0.40137,0.00000,0.00000,0.00000,
1631130137159357184,1.14116,-0.13398,0.19939,0.99902,0.02050,0.02559,-0.02986,0.21597,0.11966,0.10093,1.22470,-0.17293,0.40740,0.00000,0.00000,0.00000,
1631130137226027264,1.15053,-0.12535,0.20003,0.99928,0.01532,0.01938,-0.02896,0.17193,0.01317,0.02536,1.23049,-0.17780,0.40866,0.00000,0.00000,0.00000,
1631130137292698368,1.15910,-0.12821,0.19988,0.99905,0.02145,0.02005,-0.03226,0.13714,-0.04231,-0.04509,1.23271,-0.17866,0.40699,0.00000,0.00000,0.00000,
1631130137359368704,1.17106,-0.13231,0.19677,0.99861,0.03504,0.02372,-0.03132,0.12903,-0.11797,-0.02656,1.23275,-0.18210,0.40901,0.00000,0.00000,0.00000,
1631130137426039808,1.17686,-0.13864,0.20474,0.99880,0.03253,0.02268,-0.02886,0.12332,-0.08162,0.20242,1.23515,-0.18458,0.40736,0.00000,0.00000,0.00000,
1631130137492710144,1.18259,-0.14693,0.21123,0.99882,0.03424,0.01124,-0.03252,0.08331,-0.09632,0.04533,1.23841,-0.19102,0.40200,0.00000,0.00000,0.00000,
1631130137559381504,1.18936,-0.14992,0.21277,0.99882,0.03901,0.00711,-0.02815,0.05245,-0.03827,0.05320,1.24353,-0.19917,0.39868,0.00000,0.00000,0.00000,
1631130137626051584,1.19349,-0.15191,0.21057,0.99932,0.02154,0.00969,-0.02821,0.01503,-0.01188,-0.02219,1.24999,-0.20656,0.39949,0.00000,0.00000,0.00000,
1631130137692722688,1.19506,-0.15348,0.21032,0.99939,0.02219,0.00689,-0.02612,-0.01036,-0.02553,0.05423,1.25473,-0.21040,0.40417,0.00000,0.00000,0.00000,
1631130137759393280,1.19637,-0.15752,0.21427,0.99896,0.03404,0.01042,-0.02854,0.03401,-0.01102,0.00512,1.26016,-0.21435,0.40427,0.00000,0.00000,0.00000,
1631130137826064384,1.19814,-0.15795,0.20541,0.99884,0.03685,0.01545,-0.02677,0.04046,-0.06813,-0.08588,1.26650,-0.21370,0.40373,0.00000,0.00000,0.00000,
1631130137892734464,1.20145,-0.16569,0.20319,0.99846,0.04235,0.02048,-0.02946,0.05219,-0.08619,0.00047,1.27253,-0.20875,0.40026,0.00000,0.00000,0.00000,
1631130137959405824,1.20564,-0.17042,0.19852,0.99822,0.04679,0.02447,-0.02770,0.08130,-0.09310,-0.05285,1.28030,-0.20185,0.40176,0.00000,0.00000,0.00000,
1631130138026076928,1.21024,-0.17548,0.19486,0.99845,0.03615,0.02909,-0.03064,0.10484,-0.05307,0.11286,1.28830,-0.19802,0.40552,0.00000,0.00000,0.00000,
1631130138092747264,1.21698,-0.17957,0.19936,0.99867,0.03625,0.01985,-0.03067,0.10103,-0.06863,-0.01691,1.29663,-0.19850,0.39984,0.00000,0.00000,0.00000,
1631130138159418624,1.22542,-0.18390,0.20297,0.99867,0.03867,0.01675,-0.02977,0.10374,0.01214,0.01688,1.30119,-0.20182,0.39600,0.00000,0.00000,0.00000,
1631130138226088704,1.23202,-0.17964,0.20009,0.99905,0.02518,0.02216,-0.02765,0.09630,0.08319,-0.05447,1.30665,-0.20908,0.39143,0.00000,0.00000,0.00000,
1631130138292760320,1.23883,-0.17492,0.19873,0.99920,0.02139,0.02255,-0.02522,0.11085,0.12464,-0.00848,1.31482,-0.21317,0.39826,0.00000,0.00000,0.00000,
1631130138359430400,1.24646,-0.16909,0.20372,0.99909,0.02621,0.02050,-0.02662,0.11453,0.05597,0.08913,1.32262,-0.21581,0.39766,0.00000,0.00000,0.00000,
1631130138426102016,1.25283,-0.16376,0.20360,0.99931,0.02108,0.01590,-0.02618,0.10932,0.02973,-0.04989,1.33114,-0.21115,0.39492,0.00000,0.00000,0.00000,
1631130138492772096,1.25917,-0.16604,0.19796,0.99904,0.02355,0.02202,-0.02976,0.08865,-0.03531,-0.07290,1.34065,-0.20317,0.39153,0.00000,0.00000,0.00000,
1631130138559443456,1.26665,-0.17087,0.19282,0.99858,0.03248,0.02821,-0.03142,0.09167,-0.10806,-0.07686,1.35054,-0.19933,0.39695,0.00000,0.00000,0.00000,
1631130138626113536,1.26934,-0.17519,0.19039,0.99848,0.03216,0.02912,-0.03403,0.11438,-0.01817,0.08863,1.35987,-0.19041,0.39919,0.00000,0.00000,0.00000,
1631130138692785152,1.27777,-0.17978,0.19575,0.99875,0.03245,0.02393,-0.02957,0.09012,-0.06196,0.03724,1.36800,-0.18925,0.40032,0.00000,0.00000,0.00000,
1631130138759455232,1.28387,-0.18223,0.19571,0.99878,0.03601,0.01704,-0.02922,0.09243,0.05147,0.02515,1.37472,-0.18912,0.39789,0.00000,0.00000,0.00000,
1631130138826126848,1.29319,-0.17298,0.19315,0.99910,0.02337,0.02495,-0.02499,0.11863,0.09368,-0.04203,1.38107,-0.19379,0.39902,0.00000,0.00000,0.00000,
1631130138892797184,1.30004,-0.16785,0.18892,0.99914,0.01825,0.02627,-0.02621,0.12147,0.12666,-0.01426,1.38848,-0.19809,0.40598,0.00000,0.00000,0.00000,
1631130138959468288,1.30967,-0.16149,0.19145,0.99879,0.02699,0.02714,-0.03075,0.14205,0.02935,0.14077,1.39477,-0.20222,0.40649,0.00000,0.00000,0.00000,
1631130139026138880,1.31907,-0.15287,0.19630,0.99926,0.02000,0.01844,-0.02719,0.13768,0.12310,-0.00067,1.40129,-0.19782,0.40470,0.00000,0.00000,0.00000,
1631130139092810240,1.32549,-0.14916,0.19739,0.99921,0.01749,0.01563,-0.03221,0.09958,0.02062,0.03936,1.40450,-0.19471,0.40433,0.00000,0.00000,0.00000,
1631130139159480320,1.33553,-0.14855,0.19558,0.99887,0.03052,0.02039,-0.03007,0.09580,0.01717,-0.05814,1.41057,-0.19266,0.40553,0.00000,0.00000,0.00000,
1631130139226151680,1.33832,-0.14937,0.19480,0.99873,0.03476,0.02067,-0.03020,0.07051,-0.06392,0.01244,1.41638,-0.19166,0.40270,0.00000,0.00000,0.00000,
1631130139292821760,1.34531,-0.15239,0.19749,0.99884,0.03217,0.02162,-0.02863,0.09437,-0.06200,0.11431,1.42093,-0.19495,0.40128,0.00000,0.00000,0.00000,
1631130139359493376,1.35000,-0.15819,0.20105,0.99881,0.03374,0.01370,-0.03256,0.09283,-0.05474,-0.00821,1.42479,-0.19949,0.39937,0.00000,0.00000,0.00000,
1631130139426164480,1.35673,-0.15786,0.20009,0.99881,0.03370,0.01379,-0.03245,0.07952,0.02355,-0.00983,1.43013,-0.20895,0.39697,0.00000,0.00000,0.00000,
1631130139492834816,1.36105,-0.15654,0.19773,0.99900,0.02903,0.01508,-0.03049,0.06486,0.06144,-0.02783,1.43976,-0.21807,0.40155,0.00000,0.00000,0.00000,
1631130139559505920,1.36496,-0.15268,0.19829,0.99910,0.02799,0.01434,-0.02855,0.08296,0.07901,-0.02987,1.44669,-0.22560,0.40640,0.00000,0.00000,0.00000,
1631130139626176000,1.37092,-0.14954,0.19939,0.99918,0.02779,0.01336,-0.02612,0.09049,0.01524,-0.01409,1.45337,-0.22795,0.40610,0.00000,0.00000,0.00000,
1631130139692847616,1.37716,-0.15025,0.19632,0.99913,0.02684,0.01354,-0.02886,0.10088,-0.03994,-0.05774,1.46248,-0.22541,0.40229,0.00000,0.00000,0.00000,
1631130139759517696,1.38223,-0.15535,0.19426,0.99881,0.03331,0.01844,-0.03054,0.08752,-0.08409,-0.05213,1.47143,-0.22317,0.40646,0.00000,0.00000,0.00000,
1631130139826189056,1.38744,-0.16195,0.19100,0.99858,0.03847,0.02184,-0.02970,0.08828,-0.13103,-0.05025,1.48117,-0.22336,0.40392,0.00000,0.00000,0.00000,
1631130139892859136,1.39415,-0.16979,0.18782,0.99856,0.03601,0.02537,-0.03064,0.12875,-0.08487,0.09325,1.49148,-0.23169,0.40057,0.00000,0.00000,0.00000,
1631130139959530496,1.40223,-0.17833,0.19449,0.99854,0.04059,0.01548,-0.03195,0.11659,-0.14169,0.07588,1.50006,-0.24033,0.39532,0.00000,0.00000,0.00000,
1631130140026200832,1.41164,-0.18546,0.19604,0.99835,0.04574,0.01037,-0.03313,0.12279,-0.06512,0.00108,1.50929,-0.25212,0.39193,0.00000,0.00000,0.00000,
1631130140092871936,1.41905,-0.18393,0.19355,0.99910,0.02400,0.01572,-0.03139,0.10082,0.03522,-0.06325,1.52234,-0.26170,0.40202,0.00000,0.00000,0.00000,
1631130140159542272,1.42582,-0.17945,0.19128,0.99937,0.01334,0.01605,-0.02858,0.11418,0.05449,0.01002,1.53377,-0.27161,0.40502,0.00000,0.00000,0.00000,
1631130140226213376,1.43357,-0.17895,0.19692,0.99916,0.02627,0.01339,-0.02854,0.13877,-0.00815,0.02156,1.54492,-0.27320,0.40506,0.00000,0.00000,0.00000,
1631130140292883968,1.44233,-0.17949,0.19316,0.99913,0.02751,0.01500,-0.02758,0.14101,-0.06022,-0.06575,1.55487,-0.26979,0.40155,0.00000,0.00000,0.00000,
1631130140359555072,1.45066,-0.18611,0.18906,0.99869,0.03445,0.02065,-0.03167,0.13567,-0.12657,-0.05731,1.56414,-0.27015,0.40814,0.00000,0.00000,0.00000,
1631130140426225408,1.46216,-0.19420,0.18334,0.99816,0.04365,0.02867,-0.03071,0.15312,-0.16281,-0.09308,1.57146,-0.26882,0.40492,0.00000,0.00000,0.00000,
1631130140492896768,1.47119,-0.20509,0.17948,0.99807,0.04299,0.03245,-0.03089,0.19959,-0.14714,0.09533,1.58000,-0.27256,0.40105,0.00000,0.00000,0.00000,
1631130140559566848,1.48467,-0.21771,0.18944,0.99841,0.04216,0.02182,-0.03052,0.17889,-0.18419,0.10777,1.58824,-0.27886,0.39805,0.00000,0.00000,0.00000,
1631130140626238464,1.49562,-0.22577,0.19177,0.99830,0.04853,0.01278,-0.02978,0.17224,-0.08148,0.01695,1.59840,-0.28912,0.39605,0.00000,0.00000,0.00000,
1631130140692909568,1.50674,-0.22746,0.19042,0.99900,0.03148,0.01454,-0.02814,0.14452,-0.00598,-0.03914,1.60904,-0.29624,0.40239,0.00000,0.00000,0.00000,
1631130140759579904,1.51543,-0.22243,0.18664,0.99942,0.01150,0.01842,-0.02624,0.15210,0.07387,-0.01454,1.61994,-0.30165,0.40346,0.00000,0.00000,0.00000,
1631130140826251008,1.52471,-0.22187,0.19412,0.99925,0.02451,0.01342,-0.02668,0.14895,-0.02574,0.07554,1.62907,-0.29845,0.40095,0.00000,0.00000,0.00000,
1631130140892921344,1.53362,-0.22112,0.19104,0.99913,0.02924,0.01635,-0.02490,0.13693,0.00026,-0.06550,1.63780,-0.29314,0.39717,0.00000,0.00000,0.00000,
1631130140959592704,1.54266,-0.22584,0.18644,0.99880,0.03334,0.02140,-0.02894,0.12166,-0.08982,-0.01336,1.65202,-0.28799,0.40100,0.00000,0.00000,0.00000,
1631130141026263040,1.54986,-0.23122,0.18376,0.99849,0.03946,0.02470,-0.02920,0.10735,-0.09716,-0.03614,1.66506,-0.28504,0.40091,0.00000,0.00000,0.00000,
1631130141092934144,1.55816,-0.23808,0.17883,0.99847,0.03715,0.02789,-0.02990,0.16091,-0.12955,0.01919,1.67480,-0.28782,0.39937,0.00000,0.00000,0.00000,
1631130141159604480,1.56991,-0.24710,0.18605,0.99862,0.03680,0.02334,-0.02941,0.15979,-0.10780,0.05722,1.68505,-0.29570,0.39468,0.00000,0.00000,0.00000,
1631130141226275584,1.57744,-0.25314,0.18810,0.99847,0.04229,0.01540,-0.03211,0.15859,-0.05413,0.00781,1.69817,-0.30830,0.39030,0.00000,0.00000,0.00000,
1631130141292945920,1.58647,-0.24958,0.18520,0.99893,0.02888,0.02043,-0.02983,0.14648,0.07383,-0.06197,1.71198,-0.31550,0.39701,0.00000,0.00000,0.00000,
1631130141359617280,1.59628,-0.24394,0.18191,0.99923,0.01367,0.02325,-0.02858,0.16297,0.10576,-0.02158,1.72335,-0.32225,0.39911,0.00000,0.00000,0.00000,
1631130141426287360,1.60939,-0.23856,0.18318,0.99894,0.02708,0.02453,-0.02787,0.19256,0.02416,0.10600,1.73710,-0.32183,0.39813,0.00000,0.00000,0.00000,
1631130141492958464,1.62001,-0.23464,0.18487,0.99918,0.02151,0.01914,-0.02851,0.18041,0.02771,-0.05109,1.74868,-0.31570,0.39405,0.00000,0.00000,0.00000,
1631130141559629056,1.62997,-0.23606,0.18269,0.99908,0.02134,0.01852,-0.03227,0.17092,-0.08611,-0.05351,1.75828,-0.31525,0.40102,0.00000,0.00000,0.00000,
1631130141626300160,1.64342,-0.24434,0.17642,0.99851,0.03408,0.02550,-0.03415,0.16300,-0.16584,-0.10773,1.76781,-0.31207,0.40328,0.00000,0.00000,0.00000,
1631130141692970240,1.65727,-0.25470,0.16841,0.99819,0.03686,0.02848,-0.03796,0.21500,-0.16041,0.00450,1.77827,-0.31352,0.40249,0.00000,0.00000,0.00000,
1631130141759641600,1.66929,-0.26216,0.17350,0.99846,0.03698,0.02605,-0.03212,0.19346,-0.12659,0.05853,1.78863,-0.31679,0.40030,0.00000,0.00000,0.00000,
1631130141826311936,1.67899,-0.27125,0.17629,0.99847,0.04169,0.01473,-0.03315,0.17968,-0.06787,0.00332,1.79972,-0.32660,0.39732,0.00000,0.00000,0.00000,
1631130141892983040,1.69029,-0.26843,0.17435,0.99879,0.03490,0.01707,-0.03022,0.16926,0.01782,-0.06298,1.80809,-0.33279,0.40480,0.00000,0.00000,0.00000,
1631130141959653120,1.70149,-0.26406,0.17045,0.99916,0.01453,0.02352,-0.03014,0.16548,0.11122,-0.06035,1.81987,-0.33609,0.40588,0.00000,0.00000,0.00000,
1631130142026324480,1.71397,-0.26110,0.17053,0.99904,0.02286,0.02028,-0.03146,0.17155,-0.03992,0.13755,1.83128,-0.33170,0.40355,0.00000,0.00000,0.00000,
1631130142092995584,1.72408,-0.25701,0.17600,0.99910,0.02531,0.01643,-0.02986,0.18063,0.10600,-0.08545,1.84109,-0.32265,0.39920,0.00000,0.00000,0.00000,
1631130142159665920,1.73588,-0.25830,0.17549,0.99911,0.02223,0.01530,-0.03228,0.15096,-0.04282,-0.03461,1.85313,-0.31735,0.40229,0.00000,0.00000,0.00000,
1631130142226337280,1.74590,-0.26223,0.17483,0.99917,0.01782,0.01592,-0.03293,0.14279,-0.03634,-0.09756,1.86539,-0.31151,0.40505,0.00000,0.00000,0.00000,
1631130142293007360,1.75475,-0.26838,0.17820,0.99937,0.01156,0.00977,-0.03205,0.15245,-0.14218,-0.09219,1.87830,-0.31283,0.40353,0.00000,0.00000,0.00000,
1631130142359678720,1.76449,-0.27488,0.18678,0.99954,0.00665,0.00190,-0.02961,0.14456,-0.08672,0.08963,1.88984,-0.32000,0.39885,0.00000,0.00000,0.00000,
1631130142426348800,1.77181,-0.28154,0.19563,0.99937,0.00635,-0.01135,-0.03310,0.13649,-0.06804,-0.03353,1.89652,-0.32751,0.39576,0.00000,0.00000,0.00000,
1631130142493020416,1.78205,-0.27859,0.19330,0.99950,0.00218,-0.01145,-0.02945,0.13885,0.05928,-0.02898,1.91732,-0.34215,0.39682,0.00000,0.00000,0.00000,
1631130142559690496,1.79293,-0.27401,0.19256,0.99938,-0.01689,-0.00706,-0.03004,0.13344,0.10359,-0.07913,1.93206,-0.35165,0.40008,0.00000,0.00000,0.00000,
1631130142626361600,1.80289,-0.26481,0.19091,0.99948,-0.01734,-0.00902,-0.02575,0.17700,0.15400,-0.03050,1.94695,-0.35390,0.40062,0.00000,0.00000,0.00000,
1631130142693031936,1.81305,-0.26032,0.20175,0.99945,-0.00721,-0.01336,-0.02954,0.17597,0.07156,0.10073,1.96207,-0.34758,0.39468,0.00000,0.00000,0.00000,
1631130142759703040,1.82435,-0.25335,0.20194,0.99932,-0.01275,-0.02097,-0.02749,0.17354,0.01422,-0.00677,1.97756,-0.34119,0.39218,0.00000,0.00000,0.00000,
1631130142826373632,1.83447,-0.25799,0.20091,0.99922,-0.00836,-0.02002,-0.03285,0.17163,-0.08002,-0.04620,1.99552,-0.33729,0.39508,0.00000,0.00000,0.00000,
1631130142893044736,1.84656,-0.26568,0.19818,0.99936,0.00680,-0.01267,-0.03273,0.16560,-0.18586,-0.06327,2.01135,-0.33276,0.39648,0.00000,0.00000,0.00000,
1631130142959715072,1.86014,-0.27709,0.19290,0.99928,0.00866,-0.00801,-0.03616,0.22114,-0.16545,0.03642,2.02711,-0.33603,0.39643,0.00000,0.00000,0.00000,
1631130143026386176,1.87373,-0.28600,0.20194,0.99942,0.00787,-0.00986,-0.03158,0.20190,-0.14626,0.10312,2.04065,-0.34150,0.39135,0.00000,0.00000,0.00000,
1631130143093056768,1.88763,-0.29463,0.20646,0.99914,0.01431,-0.02183,-0.03208,0.21419,-0.05804,0.04287,2.05405,-0.35237,0.38743,0.00000,0.00000,0.00000,
1631130143159727872,1.90086,-0.29335,0.20521,0.99930,0.01002,-0.02054,-0.02954,0.22201,0.01655,-0.04679,2.06875,-0.36125,0.38503,0.00000,0.00000,0.00000,
1631130143226398208,1.91727,-0.28780,0.20071,0.99935,-0.01658,-0.01238,-0.02946,0.23229,0.14995,-0.05711,2.08211,-0.36977,0.39193,0.00000,0.00000,0.00000,
1631130143293069312,1.93336,-0.28179,0.20439,0.99939,-0.00932,-0.01479,-0.03034,0.30342,0.02917,0.04286,2.09893,-0.38025,0.39652,0.00000,0.00000,0.00000,
1631130143359740672,1.95347,-0.27956,0.21070,0.99940,-0.00069,-0.01139,-0.03257,0.24578,0.09801,0.07795,2.11804,-0.38138,0.39474,0.00000,0.00000,0.00000,
1631130143426411008,1.96826,-0.27334,0.20935,0.99929,-0.00360,-0.01589,-0.03386,0.22181,-0.02466,0.07198,2.13235,-0.37646,0.38939,0.00000,0.00000,0.00000,
1631130143493082368,1.98191,-0.27728,0.20699,0.99925,0.00120,-0.01353,-0.03626,0.23167,-0.07826,-0.08082,2.14681,-0.37141,0.38695,0.00000,0.00000,0.00000,
1631130143559752448,2.00077,-0.28725,0.20170,0.99921,0.01553,-0.00479,-0.03624,0.23898,-0.19009,-0.02989,2.15985,-0.37202,0.38994,0.00000,0.00000,0.00000,
1631130143626423808,2.01656,-0.29672,0.19117,0.99926,0.01923,0.00457,-0.03301,0.28069,-0.09628,0.06095,2.18051,-0.36616,0.39192,0.00000,0.00000,0.00000,
1631130143693093888,2.03228,-0.30948,0.20142,0.99919,0.02281,-0.00534,-0.03258,0.23624,-0.20588,0.15199,2.19811,-0.37047,0.39183,0.00000,0.00000,0.00000,
1631130143759765504,2.05045,-0.32011,0.20800,0.99892,0.02821,-0.01744,-0.03267,0.25887,-0.09192,0.02588,2.21396,-0.37862,0.38616,0.00000,0.00000,0.00000,
1631130143826435584,2.07075,-0.32008,0.20434,0.99937,0.01034,-0.01199,-0.03189,0.24941,0.02364,-0.05248,2.23222,-0.39347,0.38115,0.00000,0.00000,0.00000,
1631130143893106944,2.08913,-0.31158,0.19531,0.99937,-0.01594,-0.00332,-0.03140,0.29188,0.11065,-0.07744,2.24898,-0.40091,0.38772,0.00000,0.00000,0.00000,
1631130143959777024,2.10703,-0.30921,0.20241,0.99926,-0.00026,-0.00043,-0.03846,0.26794,-0.02991,0.16901,2.26428,-0.41091,0.39090,0.00000,0.00000,0.00000,
1631130144026448128,2.12486,-0.30493,0.20535,0.99934,0.00923,-0.00011,-0.03520,0.25750,0.05245,0.01326,2.28001,-0.41426,0.39067,0.00000,0.00000,0.00000,
1631130144093118720,2.13913,-0.30564,0.20374,0.99916,0.00814,-0.00308,-0.03993,0.23303,-0.08723,0.03276,2.28833,-0.41202,0.38990,0.00000,0.00000,0.00000,
1631130144159789824,2.15646,-0.31259,0.20099,0.99906,0.01500,-0.00128,-0.04060,0.23960,-0.14154,-0.07392,2.29737,-0.40812,0.38818,0.00000,0.00000,0.00000,
1631130144226460160,2.17438,-0.32489,0.19554,0.99874,0.02691,0.00303,-0.04220,0.28850,-0.25172,-0.10798,2.30680,-0.40860,0.39094,0.00000,0.00000,0.00000,
1631130144293131520,2.19358,-0.33394,0.19729,0.99900,0.02860,0.01137,-0.03240,0.23739,-0.12159,0.17579,2.31929,-0.40601,0.39377,0.00000,0.00000,0.00000,
1631130144359801856,2.20915,-0.34276,0.20368,0.99905,0.02428,-0.00257,-0.03601,0.21276,-0.11642,0.05549,2.32963,-0.40565,0.38929,0.00000,0.00000,0.00000,
1631130144426473216,2.22169,-0.34475,0.20341,0.99927,0.02223,-0.00502,-0.03069,0.20501,-0.03642,0.04344,2.33943,-0.41168,0.38825,0.00000,0.00000,0.00000,
1631130144493143296,2.23439,-0.34520,0.20182,0.99939,0.01092,-0.00331,-0.03306,0.17499,0.07462,-0.01846,2.34736,-0.41552,0.38526,0.00000,0.00000,0.00000,
1631130144559814656,2.24742,-0.34092,0.19994,0.99959,0.00646,-0.00501,-0.02756,0.22081,0.06416,-0.01890,2.35724,-0.42548,0.38095,0.00000,0.00000,0.00000,
1631130144626484992,2.26098,-0.34326,0.20505,0.99899,0.01529,0.00279,-0.04209,0.18245,0.00357,0.10987,2.36859,-0.43239,0.38136,0.00000,0.00000,0.00000,
1631130144693156352,2.27522,-0.34111,0.20426,0.99926,0.01920,0.00279,-0.03334,0.19468,0.04316,-0.09406,2.37888,-0.43834,0.38305,0.00000,0.00000,0.00000,
1631130144759827712,2.28412,-0.34322,0.19964,0.99903,0.01514,0.00402,-0.04105,0.18144,-0.10224,-0.03951,2.38955,-0.44267,0.38610,0.00000,0.00000,0.00000,
1631130144826497792,2.29533,-0.34799,0.19895,0.99896,0.01889,0.00429,-0.04119,0.18041,-0.11959,-0.07676,2.40160,-0.44193,0.38771,0.00000,0.00000,0.00000,
1631130144893169152,2.30968,-0.35980,0.19174,0.99861,0.02856,0.01009,-0.04318,0.23843,-0.16306,-0.05977,2.40977,-0.43859,0.38494,0.00000,0.00000,0.00000,
1631130144959839232,2.32587,-0.36737,0.19141,0.99892,0.02475,0.01762,-0.03528,0.21150,-0.13130,0.05295,2.42032,-0.42985,0.38201,0.00000,0.00000,0.00000,
1631130145026510592,2.33535,-0.37299,0.19564,0.99908,0.02241,0.00484,-0.03618,0.19542,-0.03516,0.03513,2.43622,-0.42420,0.38091,0.00000,0.00000,0.00000,
1631130145093180928,2.34648,-0.37250,0.19814,0.99925,0.02204,-0.00051,-0.03187,0.19974,0.02077,-0.00113,2.44940,-0.41802,0.38582,0.00000,0.00000,0.00000,
1631130145159852288,2.35949,-0.36768,0.19528,0.99940,0.00628,0.00484,-0.03358,0.19118,0.17792,-0.06317,2.45921,-0.41066,0.38618,0.00000,0.00000,0.00000,
1631130145226522368,2.37683,-0.35610,0.18879,0.99953,-0.00169,0.00937,-0.02930,0.26970,0.11193,-0.02902,2.46924,-0.41037,0.38615,0.00000,0.00000,0.00000,
1631130145293193728,2.39094,-0.35043,0.19439,0.99897,0.00708,0.01278,-0.04294,0.22224,0.16784,0.12197,2.47806,-0.41225,0.38635,0.00000,0.00000,0.00000,
1631130145359864064,2.40506,-0.34145,0.19870,0.99926,0.00374,0.00485,-0.03792,0.20076,0.06595,-0.00934,2.48666,-0.42043,0.38147,0.00000,0.00000,0.00000,
1631130145426535424,2.41485,-0.33977,0.19845,0.99896,-0.00298,-0.00032,-0.04554,0.17131,-0.01288,0.00822,2.49921,-0.42238,0.38614,0.00000,0.00000,0.00000,
1631130145493205760,2.42510,-0.34148,0.19707,0.99894,0.00667,0.00012,-0.04556,0.14478,-0.10498,-0.06383,2.50826,-0.42834,0.38916,0.00000,0.00000,0.00000,
1631130145559876864,2.43783,-0.34930,0.19137,0.99859,0.02092,0.00219,-0.04864,0.14340,-0.05762,0.14262,2.51930,-0.42921,0.38890,0.00000,0.00000,0.00000,
1631130145626547456,2.44468,-0.35249,0.20089,0.99909,0.01611,0.00398,-0.03918,0.14029,-0.09750,0.06036,2.52878,-0.42605,0.38705,0.00000,0.00000,0.00000,
1631130145693218560,2.45504,-0.35757,0.20539,0.99893,0.01718,-0.00478,-0.04259,0.13700,-0.00712,0.03331,2.53689,-0.42020,0.38272,0.00000,0.00000,0.00000,
1631130145759888896,2.46558,-0.35424,0.20278,0.99919,0.01570,-0.00393,-0.03676,0.15356,0.06459,-0.00135,2.54628,-0.41270,0.38043,0.00000,0.00000,0.00000,
1631130145826560000,2.47816,-0.34937,0.19998,0.99930,0.00530,0.00155,-0.03692,0.16975,0.14936,-0.03264,2.55750,-0.41033,0.38036,0.00000,0.00000,0.00000,
1631130145893230336,2.49066,-0.33904,0.19673,0.99939,0.00527,0.00508,-0.03405,0.22524,0.15309,-0.05367,2.56536,-0.40511,0.38564,0.00000,0.00000,0.00000,
1631130145959901696,2.50423,-0.33426,0.20087,0.99875,0.01661,0.01326,-0.04518,0.18711,0.12272,0.16186,2.57883,-0.39569,0.38866,0.00000,0.00000,0.00000,
1631130146026573056,2.51482,-0.32368,0.20635,0.99915,0.01053,0.00331,-0.03971,0.18411,0.09351,0.01956,2.58712,-0.39717,0.38935,0.00000,0.00000,0.00000,
1631130146093243136,2.52402,-0.32416,0.20726,0.99898,0.00759,-0.00197,-0.04447,0.16416,-0.03754,0.02794,2.59579,-0.39985,0.38747,0.00000,0.00000,0.00000,
1631130146159914496,2.53673,-0.32783,0.20548,0.99893,0.01497,0.00071,-0.04376,0.16038,-0.10088,-0.06359,2.60503,-0.40749,0.38399,0.00000,0.00000,0.00000,
1631130146226584576,2.54975,-0.33686,0.19954,0.99862,0.02152,0.00380,-0.04775,0.18940,-0.12564,0.01452,2.61987,-0.41579,0.38649,0.00000,0.00000,0.00000,
1631130146293255936,2.55751,-0.34199,0.20894,0.99898,0.02294,0.00551,-0.03860,0.15838,-0.10896,0.10067,2.63197,-0.42250,0.39217,0.00000,0.00000,0.00000,
1631130146359926272,2.56692,-0.35054,0.21098,0.99869,0.02490,-0.00265,-0.04456,0.14723,-0.06107,0.01437,2.64245,-0.42155,0.39131,0.00000,0.00000,0.00000,
1631130146426597632,2.58270,-0.34610,0.20846,0.99902,0.02018,-0.00041,-0.03933,0.17603,0.08292,-0.01312,2.65374,-0.41693,0.38707,0.00000,0.00000,0.00000,
1631130146493267712,2.59512,-0.34063,0.20428,0.99916,0.00095,0.00860,-0.04012,0.18316,0.14502,-0.07798,2.66055,-0.41150,0.38286,0.00000,0.00000,0.00000,
1631130146559938816,2.60893,-0.32819,0.20065,0.99929,0.00542,0.01023,-0.03594,0.23227,0.16058,-0.02091,2.68108,-0.39839,0.38319,0.00000,0.00000,0.00000,
1631130146626609408,2.62333,-0.32198,0.20512,0.99871,0.01593,0.01473,-0.04591,0.20951,0.15756,0.12730,2.69545,-0.38664,0.38852,0.00000,0.00000,0.00000,
1631130146693280512,2.63463,-0.31064,0.21006,0.99912,0.00465,0.00181,-0.04157,0.19072,0.09133,0.05151,2.70500,-0.38467,0.39080,0.00000,0.00000,0.00000,
1631130146759950848,2.64450,-0.30872,0.21261,0.99887,0.00156,-0.00436,-0.04739,0.16916,0.01967,0.00851,2.71884,-0.38584,0.38908,0.00000,0.00000,0.00000,
1631130146826621952,2.65586,-0.31114,0.20875,0.99875,0.01854,-0.00050,-0.04645,0.14776,-0.09561,-0.05694,2.72703,-0.39347,0.38604,0.00000,0.00000,0.00000,
1631130146893292544,2.66635,-0.31905,0.20258,0.99838,0.02677,0.00242,-0.05007,0.14668,-0.06062,0.09477,2.73913,-0.39709,0.39120,0.00000,0.00000,0.00000,
1631130146959963648,2.67367,-0.32227,0.20915,0.99888,0.02349,0.00430,-0.04083,0.14570,-0.10014,-0.00045,2.74774,-0.40258,0.39250,0.00000,0.00000,0.00000,
1631130147026633728,2.68158,-0.32716,0.21002,0.99876,0.02186,-0.00406,-0.04449,0.14016,-0.00480,-0.02851,2.76021,-0.39934,0.39262,0.00000,0.00000,0.00000,
1631130147093305088,2.69425,-0.32207,0.21023,0.99907,0.01713,-0.00249,-0.03941,0.16325,0.07840,-0.04964,2.76692,-0.39642,0.38817,0.00000,0.00000,0.00000,
1631130147159975168,2.70565,-0.31565,0.20496,0.99917,0.00260,0.00686,-0.04014,0.16669,0.17983,-0.07839,2.78109,-0.38183,0.38295,0.00000,0.00000,0.00000,
1631130147226646784,2.71797,-0.30274,0.20325,0.99928,0.00337,0.00674,-0.03712,0.24450,0.17977,-0.07497,2.80284,-0.37122,0.38622,0.00000,0.00000,0.00000,
1631130147293316864,2.73273,-0.29602,0.20577,0.99867,0.02027,0.01093,-0.04614,0.21079,0.12612,0.16864,2.81513,-0.36232,0.39118,0.00000,0.00000,0.00000,
1631130147359988224,2.74503,-0.28439,0.21250,0.99910,0.00631,-0.00326,-0.04179,0.21863,0.10145,0.05584,2.82828,-0.35925,0.39255,0.00000,0.00000,0.00000,
1631130147426659584,2.75734,-0.28260,0.21495,0.99899,0.00451,-0.00930,-0.04376,0.20548,-0.00111,0.00529,2.84433,-0.36335,0.38883,0.00000,0.00000,0.00000,
1631130147493329664,2.77215,-0.28585,0.21114,0.99893,0.02191,-0.00212,-0.04079,0.21056,-0.08765,-0.07661,2.85183,-0.36715,0.38595,0.00000,0.00000,0.00000,
1631130147560001024,2.78633,-0.29355,0.20567,0.99883,0.03015,0.00360,-0.03769,0.24329,-0.14466,-0.09559,2.86899,-0.37622,0.38372,0.00000,0.00000,0.00000,
1631130147626671360,2.80232,-0.30265,0.20925,0.99900,0.03247,0.00728,-0.02982,0.21016,-0.20602,0.19446,2.89119,-0.39616,0.40137,0.00000,0.00000,0.00000,
1631130147693342720,2.81069,-0.31836,0.22080,0.99818,0.04444,-0.01091,-0.03936,0.18862,-0.14052,0.14383,2.90132,-0.39963,0.40334,0.00000,0.00000,0.00000,
1631130147760012800,2.82451,-0.32088,0.22295,0.99856,0.03528,-0.01556,-0.03743,0.21547,-0.01164,-0.08015,2.91996,-0.39725,0.39814,0.00000,0.00000,0.00000,
1631130147826684160,2.83987,-0.31643,0.21919,0.99926,0.00491,-0.00529,-0.03774,0.18864,0.16348,-0.07098,2.93233,-0.38877,0.39450,0.00000,0.00000,0.00000,
1631130147893354496,2.85489,-0.30906,0.21765,0.99940,0.00344,-0.00732,-0.03377,0.23665,0.11123,-0.01866,2.95633,-0.37628,0.38719,0.00000,0.00000,0.00000,
1631130147960025856,2.87173,-0.29713,0.21046,0.99894,0.03241,0.00164,-0.03266,0.28034,0.21961,-0.02275,2.96962,-0.36701,0.39097,0.00000,0.00000,0.00000,
1631130148026695936,2.88902,-0.28648,0.21646,0.99918,0.01483,-0.01180,-0.03592,0.21844,0.09182,0.14733,2.98762,-0.36046,0.39730,0.00000,0.00000,0.00000,
1631130148093367296,2.90407,-0.28152,0.22200,0.99890,0.00481,-0.02525,-0.03923,0.23986,0.08039,-0.02218,3.00630,-0.36310,0.39287,0.00000,0.00000,0.00000,
1631130148160037632,2.92086,-0.28568,0.21844,0.99872,0.02648,-0.01700,-0.03955,0.22900,-0.11628,-0.06602,3.02185,-0.37094,0.38633,0.00000,0.00000,0.00000,
1631130148226708992,2.93832,-0.29425,0.21191,0.99824,0.04606,-0.00855,-0.03624,0.24911,-0.16230,-0.10445,3.03569,-0.38223,0.38240,0.00000,0.00000,0.00000,
1631130148293379328,2.95712,-0.30846,0.20949,0.99846,0.04075,-0.00140,-0.03765,0.29992,-0.18128,-0.00314,3.06241,-0.39606,0.38866,0.00000,0.00000,0.00000,
1631130148360050688,2.97414,-0.31765,0.21996,0.99830,0.04507,-0.01258,-0.03480,0.22762,-0.10570,0.19446,3.07845,-0.40337,0.39237,0.00000,0.00000,0.00000,
1631130148426721024,2.99025,-0.32400,0.22431,0.99805,0.04679,-0.02100,-0.03560,0.24477,-0.02939,0.01774,3.09071,-0.40179,0.39073,0.00000,0.00000,0.00000,
1631130148493392384,3.00784,-0.31858,0.22063,0.99903,0.02261,-0.01208,-0.03571,0.24090,0.16420,-0.07620,3.11635,-0.38471,0.38080,0.00000,0.00000,0.00000,
1631130148560062976,3.02661,-0.30567,0.21407,0.99941,-0.00657,-0.00063,-0.03383,0.29916,0.21684,-0.07587,3.13395,-0.37491,0.37320,0.00000,0.00000,0.00000,
1631130148626734336,3.04990,-0.29234,0.20768,0.99910,0.01519,0.01422,-0.03684,0.39062,0.19338,-0.09469,3.15680,-0.36326,0.37372,0.00000,0.00000,0.00000,
1631130148693405952,3.07285,-0.27955,0.21578,0.99921,0.01171,0.00920,-0.03682,0.31045,0.15332,0.24310,3.18389,-0.35447,0.38378,0.00000,0.00000,0.00000,
1631130148760076288,3.09283,-0.27431,0.22311,0.99928,0.00258,-0.00455,-0.03767,0.33302,0.05180,0.01806,3.20180,-0.35435,0.38132,0.00000,0.00000,0.00000,
1631130148826747648,3.11575,-0.27707,0.21803,0.99942,0.01254,0.00283,-0.03160,0.33547,-0.10868,-0.11962,3.22943,-0.36825,0.36908,0.00000,0.00000,0.00000,
1631130148893417984,3.14059,-0.29312,0.20562,0.99822,0.05081,0.01306,-0.02844,0.39086,-0.29323,-0.22748,3.25373,-0.38517,0.35931,0.00000,0.00000,0.00000,
1631130148960089344,3.16729,-0.31130,0.19843,0.99786,0.05936,0.02081,-0.01785,0.38318,-0.22721,-0.13339,3.28071,-0.40326,0.36719,0.00000,0.00000,0.00000,
1631130149026759936,3.18298,-0.32057,0.21113,0.99861,0.04758,0.01819,-0.01324,0.18538,-0.15369,0.37348,3.29790,-0.41283,0.38543,0.00000,0.00000,0.00000,
1631130149093431296,3.19649,-0.33056,0.22650,0.99956,0.02533,-0.00231,-0.01546,0.22123,-0.10755,0.12113,3.30959,-0.41671,0.38686,0.00000,0.00000,0.00000,
1631130149160101632,3.21262,-0.33531,0.22791,0.99956,0.02382,-0.00193,-0.01774,0.14428,0.02106,0.07255,3.32410,-0.41261,0.39016,0.00000,0.00000,0.00000,
1631130149226772992,3.22612,-0.33139,0.23025,0.99966,0.01988,-0.00968,-0.01365,0.20416,0.09171,0.00480,3.33568,-0.40903,0.38689,0.00000,0.00000,0.00000,
1631130149293443328,3.23947,-0.32744,0.22709,0.99951,0.02370,-0.00649,-0.01941,0.14286,0.10994,0.11369,3.34833,-0.40325,0.39075,0.00000,0.00000,0.00000,
1631130149360114688,3.25286,-0.31894,0.22989,0.99954,0.01794,0.00411,-0.02399,0.15430,0.17850,-0.00368,3.35816,-0.39752,0.39187,0.00000,0.00000,0.00000,
1631130149426785024,3.26322,-0.31438,0.22865,0.99967,0.00956,-0.00219,-0.02370,0.11877,-0.00388,-0.02392,3.36636,-0.39907,0.39195,0.00000,0.00000,0.00000,
1631130149493456384,3.27199,-0.31856,0.22755,0.99948,0.01183,-0.00059,-0.02991,0.11415,-0.04543,-0.07622,3.37544,-0.40708,0.38593,0.00000,0.00000,0.00000,
1631130149560126464,3.28057,-0.32728,0.22395,0.99921,0.02544,0.00681,-0.02988,0.10344,-0.19483,-0.08408,3.38454,-0.42288,0.38208,0.00000,0.00000,0.00000,
1631130149626797824,3.28891,-0.34085,0.21950,0.99894,0.02561,0.01105,-0.03648,0.13389,-0.12715,0.04374,3.39104,-0.42866,0.38332,0.00000,0.00000,0.00000,
1631130149693468416,3.30018,-0.34966,0.22202,0.99918,0.02466,0.01467,-0.02844,0.11096,-0.14543,0.06666,3.40054,-0.43809,0.38855,0.00000,0.00000,0.00000,
1631130149760139520,3.30471,-0.35756,0.22811,0.99898,0.03290,-0.00356,-0.03088,0.10971,-0.04410,0.03261,3.40646,-0.43892,0.39031,0.00000,0.00000,0.00000,
1631130149826809856,3.31230,-0.35635,0.22792,0.99919,0.02904,-0.00169,-0.02786,0.10296,0.06453,-0.05148,3.41392,-0.43167,0.38523,0.00000,0.00000,0.00000,
1631130149893481216,3.31928,-0.34877,0.22470,0.99961,0.00584,0.00464,-0.02706,0.10503,0.16304,-0.07526,3.42392,-0.42068,0.38082,0.00000,0.00000,0.00000,
1631130149960151552,3.32880,-0.33929,0.22105,0.99953,0.01142,0.00964,-0.02693,0.14108,0.09524,0.05756,3.42843,-0.41841,0.38167,0.00000,0.00000,0.00000,
1631130150026822912,3.33781,-0.33198,0.22682,0.99910,0.01871,0.01465,-0.03513,0.13006,0.18384,0.08059,3.44019,-0.40683,0.38748,0.00000,0.00000,0.00000,
1631130150093494272,3.34486,-0.32422,0.23174,0.99939,0.01129,0.00451,-0.03264,0.10126,0.06362,0.05520,3.44555,-0.40566,0.38880,0.00000,0.00000,0.00000,
1631130150160164608,3.35175,-0.32474,0.23373,0.99934,0.00962,0.00226,-0.03507,0.08947,-0.01165,-0.02063,3.45299,-0.41081,0.38544,0.00000,0.00000,0.00000,
1631130150226836224,3.35747,-0.33009,0.22982,0.99917,0.02206,0.00852,-0.03328,0.07224,-0.12300,-0.05710,3.45907,-0.42342,0.38269,0.00000,0.00000,0.00000,
1631130150293506816,3.36303,-0.34028,0.22577,0.99893,0.02714,0.01273,-0.03514,0.08960,-0.14937,-0.00155,3.46367,-0.43111,0.38960,0.00000,0.00000,0.00000,
1631130150360178688,3.36832,-0.34977,0.23238,0.99898,0.03162,0.01044,-0.03060,0.05568,-0.17875,0.19395,3.46662,-0.44149,0.39886,0.00000,0.00000,0.00000,
1631130150426849280,3.36966,-0.36137,0.24046,0.99849,0.04155,-0.00948,-0.03469,0.04739,-0.11004,0.03641,3.46938,-0.44514,0.39907,0.00000,0.00000,0.00000,
1631130150493520896,3.37232,-0.36345,0.24071,0.99873,0.03909,-0.00824,-0.03056,0.01525,-0.00204,-0.00251,3.46913,-0.44580,0.39806,0.00000,0.00000,0.00000,
1631130150560191744,3.37238,-0.36344,0.23889,0.99943,0.01276,-0.00538,-0.03065,-0.00427,0.04112,-0.04056,3.46767,-0.44219,0.39651,0.00000,0.00000,0.00000,
1631130150626863360,3.37073,-0.36174,0.23781,0.99958,0.01479,-0.00752,-0.02370,-0.01446,0.02209,0.01130,3.46632,-0.44131,0.39524,0.00000,0.00000,0.00000,
1631130150693534464,3.37026,-0.36116,0.23585,0.99950,0.02289,-0.01154,-0.01827,-0.01151,0.00120,-0.02902,3.46474,-0.44117,0.39621,0.00000,0.00000,0.00000,
1631130150760206080,3.36909,-0.36076,0.23649,0.99951,0.02250,-0.01254,-0.01783,-0.01426,0.00492,-0.00164,3.46409,-0.44055,0.39582,0.00000,0.00000,0.00000,
1631130150826876928,3.36819,-0.35989,0.23647,0.99955,0.02149,-0.01238,-0.01703,0.00171,0.02117,0.00368,3.46442,-0.43926,0.39591,0.00000,0.00000,0.00000,
1631130150893548544,3.36877,-0.35925,0.23610,0.99956,0.02093,-0.01214,-0.01714,0.01026,0.00516,-0.00170,3.46481,-0.43888,0.39572,0.00000,0.00000,0.00000,
1631130150960219392,3.36901,-0.35921,0.23602,0.99956,0.02102,-0.01194,-0.01697,0.00256,-0.00531,0.00259,3.46466,-0.43952,0.39575,0.00000,0.00000,0.00000,
1631130151026891264,3.36868,-0.35978,0.23600,0.99955,0.02149,-0.01207,-0.01694,-0.00585,-0.00101,0.00363,3.46431,-0.44017,0.39578,0.00000,0.00000,0.00000,
1631130151093562112,3.36834,-0.35987,0.23608,0.99955,0.02164,-0.01219,-0.01677,-0.00073,0.00484,0.00247,3.46451,-0.43943,0.39578,0.00000,0.00000,0.00000,
1631130151160233728,3.36846,-0.35963,0.23607,0.99956,0.02137,-0.01197,-0.01675,0.00442,0.00946,0.00159,3.46471,-0.43908,0.39576,0.00000,0.00000,0.00000,
1631130151226904064,3.36874,-0.35942,0.23603,0.99957,0.02117,-0.01176,-0.01682,0.00036,0.00642,0.00251,3.46467,-0.43909,0.39575,0.00000,0.00000,0.00000,
1631130151293575168,3.36845,-0.35927,0.23603,0.99956,0.02131,-0.01180,-0.01680,-0.00434,0.00193,0.00362,3.46434,-0.43953,0.39595,0.00000,0.00000,0.00000,
1631130151360246528,3.36828,-0.35944,0.23616,0.99956,0.02154,-0.01184,-0.01680,-0.00129,0.00352,0.00342,3.46436,-0.43966,0.39594,0.00000,0.00000,0.00000,
1631130151426916608,3.36837,-0.35951,0.23613,0.99956,0.02156,-0.01166,-0.01678,0.00056,0.00714,0.00264,3.46460,-0.43933,0.39574,0.00000,0.00000,0.00000,
1631130151493587712,3.36833,-0.35927,0.23606,0.99957,0.02137,-0.01146,-0.01678,-0.00142,0.00944,0.00319,3.46459,-0.43919,0.39577,0.00000,0.00000,0.00000,
1631130151560257792,3.36828,-0.35907,0.23608,0.99957,0.02131,-0.01144,-0.01684,-0.00234,0.00692,0.00357,3.46454,-0.43932,0.39575,0.00000,0.00000,0.00000,
1631130151626929408,3.36834,-0.35932,0.23604,0.99957,0.02141,-0.01137,-0.01678,-0.00234,0.00437,0.00322,3.46454,-0.43939,0.39577,0.00000,0.00000,0.00000,
1631130151693599488,3.36824,-0.35925,0.23619,0.99957,0.02146,-0.01122,-0.01682,-0.00157,0.00688,0.00388,3.46454,-0.43933,0.39576,0.00000,0.00000,0.00000,
1631130151760270592,3.36817,-0.35918,0.23613,0.99957,0.02143,-0.01111,-0.01680,-0.00260,0.00913,0.00355,3.46454,-0.43926,0.39577,0.00000,0.00000,0.00000,
1631130151826940672,3.36823,-0.35906,0.23601,0.99957,0.02128,-0.01100,-0.01684,-0.00187,0.00769,0.00343,3.46456,-0.43926,0.39576,0.00000,0.00000,0.00000,
1631130151893612032,3.36830,-0.35906,0.23605,0.99957,0.02128,-0.01094,-0.01683,-0.00206,0.00658,0.00355,3.46454,-0.43935,0.39574,0.00000,0.00000,0.00000,
1631130151960282112,3.36844,-0.35938,0.23606,0.99957,0.02133,-0.01084,-0.01680,-0.00231,0.00701,0.00393,3.46453,-0.43937,0.39574,0.00000,0.00000,0.00000,
1631130152026953472,3.36839,-0.35921,0.23618,0.99957,0.02136,-0.01076,-0.01684,-0.00222,0.00781,0.00407,3.46454,-0.43932,0.39574,0.00000,0.00000,0.00000,
1631130152093623552,3.36834,-0.35900,0.23619,0.99957,0.02127,-0.01062,-0.01687,-0.00099,0.00935,0.00358,3.46455,-0.43928,0.39575,0.00000,0.00000,0.00000,
1631130152160294656,3.36827,-0.35889,0.23603,0.99957,0.02132,-0.01061,-0.01690,-0.00344,0.00895,0.00377,3.46454,-0.43927,0.39576,0.00000,0.00000,0.00000,
1631130152226964992,3.36826,-0.35883,0.23620,0.99958,0.02130,-0.01049,-0.01692,-0.00215,0.00823,0.00443,3.46436,-0.43948,0.39594,0.00000,0.00000,0.00000,
1631130152293636352,3.36833,-0.35886,0.23628,0.99957,0.02133,-0.01044,-0.01691,-0.00248,0.00885,0.00433,3.46453,-0.43931,0.39577,0.00000,0.00000,0.00000,
1631130152360306688,3.36832,-0.35877,0.23633,0.99958,0.02129,-0.01031,-0.01695,-0.00144,0.00987,0.00410,3.46454,-0.43929,0.39576,0.00000,0.00000,0.00000,
1631130152426977792,3.36823,-0.35871,0.23635,0.99958,0.02122,-0.01017,-0.01694,-0.00102,0.00812,0.00441,3.46454,-0.43929,0.39576,0.00000,0.00000,0.00000,
1631130152493648384,3.36823,-0.35873,0.23625,0.99958,0.02123,-0.01017,-0.01695,-0.00242,0.00761,0.00476,3.46436,-0.43949,0.39594,0.00000,0.00000,0.00000,
1631130152560319488,3.36825,-0.35866,0.23627,0.99958,0.02122,-0.01009,-0.01697,-0.00168,0.00869,0.00469,3.46436,-0.43950,0.39593,0.00000,0.00000,0.00000,
1631130152626989824,3.36823,-0.35875,0.23616,0.99958,0.02129,-0.01003,-0.01695,-0.00375,0.00766,0.00457,3.46452,-0.43933,0.39576,0.00000,0.00000,0.00000,
1631130152693661184,3.36828,-0.35868,0.23635,0.99958,0.02115,-0.00992,-0.01697,-0.00088,0.00849,0.00501,3.46452,-0.43931,0.39574,0.00000,0.00000,0.00000,
1631130152760332288,3.36827,-0.35873,0.23616,0.99958,0.02121,-0.00989,-0.01697,-0.00324,0.00745,0.00470,3.46452,-0.43931,0.39575,0.00000,0.00000,0.00000,
1631130152827002880,3.36835,-0.35874,0.23640,0.99958,0.02118,-0.00978,-0.01698,-0.00104,0.00642,0.00514,3.46435,-0.43948,0.39595,0.00000,0.00000,0.00000,
1631130152893673984,3.36847,-0.35901,0.23617,0.99959,0.02112,-0.00977,-0.01693,-0.00170,0.00884,0.00449,3.46451,-0.43935,0.39573,0.00000,0.00000,0.00000,
1631130152960344320,3.36846,-0.35903,0.23616,0.99959,0.02112,-0.00969,-0.01690,-0.00203,0.00833,0.00471,3.46451,-0.43933,0.39575,0.00000,0.00000,0.00000,
1631130153027015680,3.36845,-0.35896,0.23612,0.99959,0.02110,-0.00965,-0.01691,-0.00221,0.00937,0.00425,3.46451,-0.43931,0.39575,0.00000,0.00000,0.00000,
1631130153093685760,3.36832,-0.35860,0.23621,0.99959,0.02116,-0.00959,-0.01701,-0.00335,0.00847,0.00435,3.46452,-0.43934,0.39574,0.00000,0.00000,0.00000,
1631130153160357120,3.36825,-0.35857,0.23628,0.99959,0.02115,-0.00950,-0.01703,-0.00197,0.00775,0.00431,3.46451,-0.43932,0.39576,0.00000,0.00000,0.00000,
1631130153227029760,3.36830,-0.35860,0.23616,0.99959,0.02117,-0.00951,-0.01702,-0.00417,0.00792,0.00430,3.46451,-0.43933,0.39575,0.00000,0.00000,0.00000,
1631130153293703680,3.36832,-0.35853,0.23628,0.99959,0.02112,-0.00942,-0.01704,-0.00200,0.00817,0.00444,3.46451,-0.43934,0.39573,0.00000,0.00000,0.00000,
1631130153360376064,3.36826,-0.35853,0.23623,0.99959,0.02114,-0.00936,-0.01705,-0.00242,0.00781,0.00483,3.46450,-0.43930,0.39576,0.00000,0.00000,0.00000,
1631130153427050240,3.36826,-0.35846,0.23619,0.99959,0.02114,-0.00929,-0.01705,-0.00280,0.00806,0.00469,3.46438,-0.43964,0.39590,0.00000,0.00000,0.00000,
1631130153493722880,3.36835,-0.35842,0.23675,0.99959,0.02108,-0.00912,-0.01707,0.00300,0.00681,0.00629,3.46451,-0.43933,0.39573,0.00000,0.00000,0.00000,
1631130153560396800,3.36840,-0.35888,0.23628,0.99959,0.02105,-0.00915,-0.01697,-0.00248,0.00716,0.00560,3.46434,-0.43947,0.39593,0.00000,0.00000,0.00000,
1631130153627069696,3.36840,-0.35885,0.23629,0.99959,0.02104,-0.00909,-0.01695,-0.00215,0.00736,0.00542,3.46450,-0.43933,0.39575,0.00000,0.00000,0.00000,
1631130153693743616,3.36829,-0.35846,0.23630,0.99959,0.02110,-0.00906,-0.01703,-0.00338,0.00767,0.00534,3.46450,-0.43933,0.39574,0.00000,0.00000,0.00000,
1631130153760416768,3.36831,-0.35848,0.23638,0.99959,0.02110,-0.00900,-0.01705,-0.00227,0.00754,0.00546,3.46450,-0.43934,0.39575,0.00000,0.00000,0.00000,
1631130153827090432,3.36842,-0.35888,0.23626,0.99960,0.02100,-0.00893,-0.01694,-0.00155,0.00758,0.00548,3.46450,-0.43933,0.39574,0.00000,0.00000,0.00000,
1631130153893763840,3.36843,-0.35859,0.23657,0.99959,0.02108,-0.00890,-0.01702,-0.00069,0.00713,0.00612,3.46438,-0.43964,0.39590,0.00000,0.00000,0.00000,
1631130153960437760,3.36837,-0.35843,0.23658,0.99959,0.02107,-0.00879,-0.01707,0.00025,0.00766,0.00576,3.46449,-0.43934,0.39573,0.00000,0.00000,0.00000,
1631130154027111680,3.36825,-0.35842,0.23641,0.99959,0.02105,-0.00876,-0.01705,-0.00097,0.00678,0.00594,3.46433,-0.43950,0.39593,0.00000,0.00000,0.00000,
1631130154093784832,3.36830,-0.35841,0.23632,0.99959,0.02105,-0.00875,-0.01706,-0.00271,0.00810,0.00573,3.46449,-0.43934,0.39573,0.00000,0.00000,0.00000,
1631130154160459008,3.36836,-0.35888,0.23618,0.99960,0.02102,-0.00873,-0.01694,-0.00400,0.00741,0.00622,3.46449,-0.43933,0.39572,0.00000,0.00000,0.00000,
1631130154227129344,3.36835,-0.35891,0.23634,0.99960,0.02100,-0.00862,-0.01694,-0.00211,0.00563,0.00625,3.46450,-0.43931,0.39577,0.00000,0.00000,0.00000,
1631130154293800192,3.36825,-0.35841,0.23652,0.99960,0.02102,-0.00853,-0.01706,-0.00117,0.00743,0.00599,3.46449,-0.43937,0.39573,0.00000,0.00000,0.00000,
1631130154360470016,3.36820,-0.35837,0.23652,0.99960,0.02099,-0.00849,-0.01706,-0.00064,0.00749,0.00611,3.46433,-0.43949,0.39594,0.00000,0.00000,0.00000,
1631130154427140864,3.36820,-0.35838,0.23658,0.99960,0.02098,-0.00844,-0.01707,-0.00026,0.00622,0.00634,3.46433,-0.43949,0.39593,0.00000,0.00000,0.00000,
1631130154493810944,3.36825,-0.35840,0.23651,0.99960,0.02102,-0.00848,-0.01708,-0.00199,0.00656,0.00627,3.46449,-0.43934,0.39573,0.00000,0.00000,0.00000,
1631130154560481792,3.36828,-0.35831,0.23650,0.99960,0.02101,-0.00839,-0.01710,-0.00098,0.00743,0.00581,3.46449,-0.43934,0.39573,0.00000,0.00000,0.00000,
