1631130114024011776,0.00164,-0.00496,0.05661,1.00000,-0.00147,-0.00074,-0.00035,-0.00866,0.00110,0.02528,0.00207,-0.00879,0.18080,0.00000,0.00000,0.00000,
1631130114090625280,0.00120,-0.00558,0.05829,1.00000,-0.00063,-0.00085,-0.00053,-0.01402,-0.01452,0.04066,0.00178,-0.01043,0.18455,0.00000,0.00000,0.00000,
1631130114157239040,0.00259,-0.00431,0.03790,0.99999,0.00092,-0.00262,-0.00162,-0.00797,-0.02465,0.05191,0.00272,-0.01083,0.18778,0.00000,0.00000,0.00000,
1631130114223862528,0.00278,-0.00491,0.04105,0.99999,0.00133,-0.00358,-0.00199,0.00479,-0.01204,0.05472,0.00431,-0.01110,0.19120,0.00000,0.00000,0.00000,
1631130114290485504,0.00490,-0.00468,0.04256,0.99999,0.00065,-0.00255,-0.00219,0.02667,-0.00607,0.05452,0.00580,-0.01135,0.19498,0.00000,0.00000,0.00000,
1631130114357107200,0.00708,-0.00450,0.04418,1.00000,0.00041,-0.00164,-0.00240,0.02528,-0.00847,0.06142,0.00687,-0.01134,0.19822,0.00000,0.00000,0.00000,
1631130114423728896,0.00841,-0.00455,0.04771,0.99999,0.00016,-0.00164,-0.00290,0.01717,-0.00277,0.06119,0.00752,-0.01222,0.20121,0.00000,0.00000,0.00000,
1631130114490348800,0.00933,-0.00491,0.05091,0.99999,-0.00007,-0.00202,-0.00324,0.01435,-0.01256,0.04760,0.00757,-0.01383,0.20412,0.00000,0.00000,0.00000,
1631130114556968960,0.00958,-0.00598,0.05361,0.99999,0.00131,-0.00372,-0.00379,0.00017,-0.02179,0.04470,0.00705,-0.01423,0.20610,0.00000,0.00000,0.00000,
1631130114623587072,0.00936,-0.00698,0.05580,0.99997,0.00179,-0.00582,-0.00457,-0.00723,-0.00692,0.02717,0.00654,-0.01400,0.20764,0.00000,0.00000,0.00000,
1631130114690205696,0.00866,-0.00671,0.05639,0.99995,0.00159,-0.00803,-0.00484,-0.01040,0.00286,0.01780,0.00663,-0.01387,0.20818,0.00000,0.00000,0.00000,
1631130114756822272,0.00855,-0.00652,0.05728,0.99994,0.00146,-0.00935,-0.00463,-0.00415,-0.00070,0.00980,0.00704,-0.01392,0.20862,0.00000,0.00000,0.00000,
1631130114823438848,0.00934,-0.00663,0.05727,0.99994,0.00163,-0.00947,-0.00464,0.00578,0.00422,0.00366,0.00824,-0.01488,0.21138,0.00000,0.00000,0.00000,
1631130114890053888,0.00993,-0.00688,0.05764,0.99995,0.00284,-0.00888,-0.00475,0.01272,-0.00804,0.02245,0.00967,-0.01627,0.21565,0.00000,0.00000,0.00000,
1631130114956668928,0.01110,-0.00853,0.06092,0.99994,0.00488,-0.00858,-0.00532,0.02467,-0.02517,0.04792,0.01116,-0.01657,0.22051,0.00000,0.00000,0.00000,
1631130115023282176,0.01280,-0.00939,0.06601,0.99993,0.00454,-0.00934,-0.00558,0.02379,-0.00494,0.07614,0.01223,-0.01663,0.22562,0.00000,0.00000,0.00000,
1631130115089895680,0.01389,-0.00973,0.07200,0.99991,0.00456,-0.01136,-0.00586,0.01661,-0.00700,0.08548,0.01314,-0.01613,0.23003,0.00000,0.00000,0.00000,
1631130115156507136,0.01500,-0.00981,0.07755,0.99989,0.00425,-0.01323,-0.00567,0.01628,0.00529,0.08152,0.01387,-0.01461,0.23325,0.00000,0.00000,0.00000,
1631130115223131136,0.01520,-0.00911,0.08130,0.99986,0.00430,-0.01505,-0.00526,0.00558,0.01385,0.04844,0.01429,-0.01458,0.23492,0.00000,0.00000,0.00000,
1631130115289753088,0.01508,-0.00832,0.08227,0.99985,0.00440,-0.01592,-0.00483,0.00499,0.00776,0.02383,0.01489,-0.01442,0.23599,0.00000,0.00000,0.00000,
1631130115356375040,0.01589,-0.00838,0.08334,0.99984,0.00503,-0.01624,-0.00480,0.00644,0.00487,0.01627,0.01568,-0.01395,0.23628,0.00000,0.00000,0.00000,
1631130115422996224,0.01727,-0.00942,0.08338,0.99985,0.00620,-0.01567,-0.00460,0.01143,-0.00335,0.00273,0.01627,-0.01342,0.23704,0.00000,0.00000,0.00000,
1631130115489615616,0.01791,-0.00931,0.08414,0.99985,0.00645,-0.01540,-0.00446,0.00893,0.00630,0.01195,0.01623,-0.01397,0.23982,0.00000,0.00000,0.00000,
1631130115556235008,0.01761,-0.00845,0.08662,0.99983,0.00635,-0.01660,-0.00436,0.00018,0.00460,0.03602,0.01588,-0.01383,0.24341,0.00000,0.00000,0.00000,
1631130115622852864,0.01715,-0.00856,0.09013,0.99978,0.00749,-0.01926,-0.00434,-0.01047,-0.00062,0.05319,0.01512,-0.01472,0.24764,0.00000,0.00000,0.00000,
1631130115689470720,0.01673,-0.00992,0.09445,0.99969,0.00833,-0.02300,-0.00483,-0.01593,-0.00907,0.06833,0.01487,-0.01455,0.25167,0.00000,0.00000,0.00000,
1631130115756086528,0.01519,-0.01111,0.10504,0.99961,0.00955,-0.02585,-0.00478,-0.00497,-0.01450,0.06220,0.01591,-0.01530,0.25543,0.00000,0.00000,0.00000,
1631130115822702592,0.01570,-0.01203,0.10315,0.99958,0.01111,-0.02631,-0.00579,0.01210,-0.01472,0.04468,0.01737,-0.01533,0.25747,0.00000,0.00000,0.00000,
1631130115889317120,0.01735,-0.01171,0.10531,0.99958,0.01342,-0.02512,-0.00601,0.02389,-0.00222,0.02997,0.01909,-0.01481,0.25862,0.00000,0.00000,0.00000,
1631130115955931392,0.01994,-0.01142,0.10543,0.99965,0.01453,-0.02154,-0.00576,0.03206,0.01298,0.00333,0.02051,-0.01358,0.25923,0.00000,0.00000,0.00000,
1631130116022544128,0.02209,-0.01032,0.10627,0.99971,0.01563,-0.01731,-0.00510,0.02726,0.02080,0.00947,0.02194,-0.01222,0.26030,0.00000,0.00000,0.00000,
1631130116089156608,0.02303,-0.00934,0.10824,0.99975,0.01510,-0.01572,-0.00511,0.01691,0.01511,0.00830,0.02234,-0.01126,0.26206,0.00000,0.00000,0.00000,
1631130116155767808,0.02285,-0.00813,0.11126,0.99977,0.01387,-0.01581,-0.00507,0.00185,0.01597,0.02744,0.02174,-0.01072,0.26456,0.00000,0.00000,0.00000,
1631130116222391552,0.02163,-0.00748,0.11399,0.99972,0.01367,-0.01871,-0.00523,-0.01462,0.00135,0.05358,0.02095,-0.01103,0.26781,0.00000,0.00000,0.00000,
1631130116289013504,0.01993,-0.00820,0.11839,0.99963,0.01488,-0.02228,-0.00564,-0.02125,-0.01701,0.07414,0.01974,-0.01273,0.27298,0.00000,0.00000,0.00000,
1631130116355635968,0.01973,-0.01275,0.12274,0.99946,0.01884,-0.02644,-0.00569,-0.01644,-0.03937,0.07940,0.01895,-0.01536,0.27845,0.00000,0.00000,0.00000,
1631130116422255872,0.02012,-0.01720,0.12617,0.99929,0.02320,-0.02888,-0.00632,-0.00770,-0.03466,0.05914,0.01940,-0.01629,0.28105,0.00000,0.00000,0.00000,
1631130116488876800,0.02249,-0.02215,0.12665,0.99926,0.02570,-0.02792,-0.00674,0.01094,-0.02520,0.02694,0.02040,-0.01663,0.28285,0.00000,0.00000,0.00000,
1631130116555495168,0.02478,-0.02347,0.13153,0.99930,0.02744,-0.02446,-0.00689,0.02131,-0.00163,0.02665,0.02145,-0.01560,0.28467,0.00000,0.00000,0.00000,
1631130116622114304,0.02426,-0.02013,0.13114,0.99932,0.02829,-0.02262,-0.00677,0.01321,0.02237,0.02288,0.02167,-0.01480,0.28599,0.00000,0.00000,0.00000,
1631130116688732160,0.02568,-0.02129,0.13207,0.99933,0.02897,-0.02138,-0.00678,0.00744,0.00752,0.01263,0.02198,-0.01270,0.28665,0.00000,0.00000,0.00000,
1631130116755348480,0.02592,-0.02077,0.13284,0.99932,0.02969,-0.02049,-0.00696,0.00181,0.01698,0.02355,0.02196,-0.01319,0.28961,0.00000,0.00000,0.00000,
1631130116821964544,0.02595,-0.02069,0.13486,0.99927,0.03137,-0.02056,-0.00696,0.00102,0.00236,0.03600,0.02165,-0.01415,0.29371,0.00000,0.00000,0.00000,
1631130116888579072,0.02577,-0.02202,0.13859,0.99915,0.03426,-0.02189,-0.00704,-0.00156,-0.01616,0.06294,0.02176,-0.01493,0.29797,0.00000,0.00000,0.00000,
1631130116955193856,0.02548,-0.02399,0.14339,0.99892,0.03897,-0.02401,-0.00740,0.00038,-0.02050,0.06436,0.02232,-0.01519,0.30056,0.00000,0.00000,0.00000,
1631130117021806592,0.02627,-0.02602,0.14659,0.99878,0.04258,-0.02368,-0.00777,0.01605,-0.02179,0.04448,0.02356,-0.01563,0.30422,0.00000,0.00000,0.00000,
1631130117088419328,0.02748,-0.02620,0.14852,0.99869,0.04545,-0.02176,-0.00832,0.02277,-0.00597,0.04174,0.02490,-0.01534,0.30724,0.00000,0.00000,0.00000,
1631130117155030784,0.02861,-0.02658,0.15180,0.99866,0.04625,-0.02167,-0.00892,0.02563,0.01126,0.04456,0.02635,-0.01368,0.30937,0.00000,0.00000,0.00000,
1631130117221654016,0.02984,-0.02581,0.15473,0.99867,0.04567,-0.02192,-0.00929,0.02384,0.01727,0.03998,0.02760,-0.01276,0.31265,0.00000,0.00000,0.00000,
1631130117288275712,0.03088,-0.02506,0.15706,0.99865,0.04634,-0.02157,-0.00908,0.02065,0.01741,0.03029,0.02863,-0.01177,0.31366,0.00000,0.00000,0.00000,
1631130117354897408,0.03218,-0.02510,0.15793,0.99862,0.04784,-0.01970,-0.00877,0.02013,0.00489,0.00683,0.02903,-0.01225,0.31473,0.00000,0.00000,0.00000,
1631130117421517312,0.03285,-0.02577,0.15863,0.99858,0.04909,-0.01845,-0.00926,0.01342,0.00036,0.01131,0.02929,-0.01251,0.31569,0.00000,0.00000,0.00000,
1631130117488137472,0.03280,-0.02640,0.15998,0.99848,0.05136,-0.01772,-0.00894,0.00689,-0.01384,0.01781,0.02918,-0.01354,0.31795,0.00000,0.00000,0.00000,
1631130117554755584,0.03255,-0.02807,0.16215,0.99834,0.05392,-0.01806,-0.00921,-0.00002,-0.01815,0.03270,0.02845,-0.01451,0.32116,0.00000,0.00000,0.00000,
1631130117621373952,0.03156,-0.03017,0.16570,0.99815,0.05637,-0.02075,-0.00960,-0.01023,-0.01434,0.05097,0.02728,-0.01452,0.32491,0.00000,0.00000,0.00000,
1631130117687990528,0.02997,-0.03108,0.16960,0.99797,0.05813,-0.02426,-0.00974,-0.01403,-0.00215,0.04890,0.02592,-0.01495,0.32865,0.00000,0.00000,0.00000,
1631130117754606848,0.02817,-0.03192,0.17335,0.99781,0.05927,-0.02766,-0.00988,-0.01733,-0.00866,0.06011,0.02524,-0.01370,0.33125,0.00000,0.00000,0.00000,
1631130117821221888,0.02769,-0.03247,0.17625,0.99770,0.06045,-0.02872,-0.01027,-0.00792,0.00100,0.04685,0.02494,-0.01368,0.33362,0.00000,0.00000,0.00000,
1631130117887836672,0.02805,-0.03522,0.17761,0.99770,0.06091,-0.02803,-0.01023,0.00507,-0.00195,0.03351,0.02500,-0.01458,0.33667,0.00000,0.00000,0.00000,
1631130117954449920,0.02847,-0.03523,0.17917,0.99772,0.06105,-0.02672,-0.01043,0.01274,0.00145,0.03493,0.02593,-0.01358,0.33875,0.00000,0.00000,0.00000,
1631130118021063424,0.02940,-0.03555,0.18135,0.99777,0.06106,-0.02500,-0.01037,0.02494,-0.00235,0.03186,0.02718,-0.01397,0.34098,0.00000,0.00000,0.00000,
1631130118087675648,0.03011,-0.03554,0.18398,0.99779,0.06083,-0.02453,-0.01047,0.02442,0.00281,0.03553,0.02816,-0.01383,0.34367,0.00000,0.00000,0.00000,
1631130118154286080,0.03062,-0.03564,0.18682,0.99781,0.06056,-0.02443,-0.01045,0.02072,0.00157,0.03652,0.02912,-0.01337,0.34640,0.00000,0.00000,0.00000,
1631130118221172480,0.03134,-0.03620,0.18979,0.99779,0.06029,-0.02578,-0.01077,0.01910,-0.00129,0.04894,0.02986,-0.01353,0.34896,0.00000,0.00000,0.00000,
1631130118288064256,0.03244,-0.03644,0.19240,0.99777,0.06029,-0.02679,-0.01060,0.02357,0.00206,0.03529,0.03095,-0.01332,0.35151,0.00000,0.00000,0.00000,
1631130118354962944,0.03322,-0.03671,0.19495,0.99772,0.06041,-0.02809,-0.01039,0.01938,-0.00609,0.04420,0.03183,-0.01267,0.35394,0.00000,0.00000,0.00000,
1631130118421866752,0.03434,-0.03732,0.19723,0.99768,0.06112,-0.02800,-0.01042,0.02395,-0.01155,0.02909,0.03289,-0.01385,0.35543,0.00000,0.00000,0.00000,
1631130118488777728,0.03581,-0.03784,0.19772,0.99775,0.06132,-0.02511,-0.01050,0.02807,-0.01105,0.01658,0.03380,-0.01418,0.35614,0.00000,0.00000,0.00000,
1631130118555693568,0.03645,-0.03783,0.19827,0.99779,0.06117,-0.02342,-0.01077,0.02212,-0.00224,0.00853,0.03431,-0.01367,0.35590,0.00000,0.00000,0.00000,
1631130118622616832,0.03672,-0.03745,0.19847,0.99785,0.06076,-0.02224,-0.01066,0.01125,0.00713,0.00389,0.03372,-0.01365,0.35598,0.00000,0.00000,0.00000,
1631130118689544960,0.03635,-0.03742,0.19873,0.99786,0.06049,-0.02225,-0.01067,0.00024,-0.00211,0.00336,0.03290,-0.01355,0.35632,0.00000,0.00000,0.00000,
1631130118756480256,0.03543,-0.03725,0.19904,0.99787,0.06038,-0.02237,-0.01058,-0.00688,0.00171,0.00842,0.03175,-0.01238,0.35613,0.00000,0.00000,0.00000,
1631130118823420672,0.03422,-0.03698,0.19938,0.99788,0.06003,-0.02269,-0.01056,-0.00972,0.00409,0.00753,0.03065,-0.01235,0.35630,0.00000,0.00000,0.00000,
1631130118890368512,0.03312,-0.03664,0.19946,0.99791,0.05968,-0.02257,-0.01064,-0.00952,0.00145,0.00455,0.02985,-0.01281,0.35674,0.00000,0.00000,0.00000,
1631130118957320960,0.03215,-0.03656,0.19943,0.99792,0.05951,-0.02234,-0.01060,-0.00729,-0.00266,0.00049,0.02861,-0.01378,0.35661,0.00000,0.00000,0.00000,
1631130119024280832,0.03116,-0.03691,0.19925,0.99793,0.05934,-0.02230,-0.01078,-0.00739,-0.00186,0.00325,0.02720,-0.01316,0.35658,0.00000,0.00000,0.00000,
1631130119091245568,0.03022,-0.03688,0.19918,0.99795,0.05903,-0.02219,-0.01049,-0.00779,0.00208,0.00299,0.02618,-0.01286,0.35639,0.00000,0.00000,0.00000,
1631130119158216704,0.02925,-0.03652,0.19928,0.99797,0.05866,-0.02221,-0.01059,-0.00380,0.00104,0.00137,0.02554,-0.01291,0.35643,0.00000,0.00000,0.00000,
1631130119224887040,0.02851,-0.03625,0.19932,0.99800,0.05823,-0.02227,-0.01048,0.00092,-0.00373,0.00049,0.02526,-0.01300,0.35646,0.00000,0.00000,0.00000,
1631130119291558400,0.02822,-0.03626,0.19945,0.99802,0.05797,-0.02205,-0.01070,0.00649,0.00106,0.00255,0.02535,-0.01299,0.35643,0.00000,0.00000,0.00000,
1631130119358229760,0.02829,-0.03631,0.19953,0.99804,0.05761,-0.02199,-0.01067,0.01199,-0.00024,0.00087,0.02548,-0.01292,0.35638,0.00000,0.00000,0.00000,
1631130119424900096,0.02848,-0.03587,0.19940,0.99808,0.05710,-0.02168,-0.01067,0.01051,0.00116,0.00167,0.02548,-0.01293,0.35639,0.00000,0.00000,0.00000,
1631130119491571456,0.02848,-0.03592,0.19944,0.99810,0.05678,-0.02162,-0.01069,0.00804,0.00052,0.00207,0.02539,-0.01297,0.35641,0.00000,0.00000,0.00000,
1631130119558241792,0.02849,-0.03594,0.19949,0.99812,0.05645,-0.02156,-0.01070,0.00942,0.00024,0.00147,0.02542,-0.01296,0.35641,0.00000,0.00000,0.00000,
1631130119624913152,0.02858,-0.03541,0.19934,0.99815,0.05593,-0.02134,-0.01076,0.01021,0.00146,0.00086,0.02546,-0.01295,0.35639,0.00000,0.00000,0.00000,
1631130119691583744,0.02864,-0.03525,0.19948,0.99817,0.05551,-0.02124,-0.01075,0.01008,0.00043,0.00115,0.02544,-0.01294,0.35639,0.00000,0.00000,0.00000,
1631130119758255360,0.02864,-0.03516,0.19946,0.99820,0.05510,-0.02124,-0.01075,0.00927,-0.00054,0.00087,0.02544,-0.01295,0.35639,0.00000,0.00000,0.00000,
1631130119824925184,0.02868,-0.03534,0.19944,0.99822,0.05467,-0.02127,-0.01072,0.00990,-0.00031,0.00042,0.02545,-0.01296,0.35639,0.00000,0.00000,0.00000,
1631130119891596800,0.02875,-0.03524,0.19946,0.99824,0.05431,-0.02111,-0.01073,0.01044,0.00107,0.00027,0.02551,-0.01290,0.35643,0.00000,0.00000,0.00000,
1631130119958266880,0.02875,-0.03491,0.19955,0.99826,0.05402,-0.02104,-0.01076,0.00976,0.00051,0.00032,0.02545,-0.01295,0.35639,0.00000,0.00000,0.00000,
1631130120024938496,0.02886,-0.03495,0.19949,0.99828,0.05375,-0.02098,-0.01078,0.00929,0.00091,-0.00000,0.02545,-0.01295,0.35638,0.00000,0.00000,0.00000,
1631130120091609088,0.02890,-0.03479,0.19947,0.99829,0.05346,-0.02090,-0.01078,0.01019,0.00110,-0.00045,0.02548,-0.01304,0.35635,0.00000,0.00000,0.00000,
1631130120158280448,0.02888,-0.03459,0.19964,0.99831,0.05317,-0.02086,-0.01079,0.01019,-0.00010,-0.00014,0.02547,-0.01295,0.35638,0.00000,0.00000,0.00000,
1631130120224949760,0.02890,-0.03443,0.19962,0.99833,0.05285,-0.02077,-0.01082,0.00969,0.00063,-0.00042,0.02546,-0.01295,0.35637,0.00000,0.00000,0.00000,
1631130120291620608,0.02894,-0.03423,0.19959,0.99835,0.05252,-0.02064,-0.01084,0.00955,0.00214,-0.00029,0.02547,-0.01295,0.35638,0.00000,0.00000,0.00000,
1631130120358290176,0.02896,-0.03414,0.19974,0.99836,0.05227,-0.02062,-0.01083,0.01073,0.00158,-0.00052,0.02547,-0.01295,0.35636,0.00000,0.00000,0.00000,
1631130120424960768,0.02893,-0.03405,0.19974,0.99838,0.05198,-0.02069,-0.01080,0.01016,0.00115,-0.00030,0.02547,-0.01296,0.35638,0.00000,0.00000,0.00000,
1631130120491630592,0.02893,-0.03393,0.19985,0.99839,0.05167,-0.02066,-0.01082,0.01035,0.00164,-0.00020,0.02546,-0.01295,0.35639,0.00000,0.00000,0.00000,
1631130120558301184,0.02895,-0.03375,0.19982,0.99841,0.05136,-0.02059,-0.01083,0.01022,0.00168,-0.00040,0.02547,-0.01295,0.35638,0.00000,0.00000,0.00000,
1631130120624970752,0.02902,-0.03391,0.19983,0.99843,0.05104,-0.02062,-0.01080,0.01019,0.00256,-0.00062,0.02548,-0.01295,0.35637,0.00000,0.00000,0.00000,
1631130120691641344,0.02902,-0.03365,0.19980,0.99844,0.05069,-0.02056,-0.01082,0.00992,0.00377,-0.00085,0.02548,-0.01296,0.35637,0.00000,0.00000,0.00000,
1631130120758311936,0.02895,-0.03354,0.19994,0.99846,0.05042,-0.02069,-0.01081,0.01062,0.00222,-0.00081,0.02548,-0.01295,0.35636,0.00000,0.00000,0.00000,
1631130120824981504,0.02894,-0.03339,0.19978,0.99848,0.04996,-0.02079,-0.01080,0.01023,0.00292,-0.00118,0.02548,-0.01295,0.35636,0.00000,0.00000,0.00000,
1631130120891652096,0.02893,-0.03295,0.19967,0.99850,0.04956,-0.02070,-0.01083,0.00981,0.00399,-0.00172,0.02549,-0.01296,0.35636,0.00000,0.00000,0.00000,
1631130120958321664,0.02893,-0.03322,0.19981,0.99851,0.04925,-0.02086,-0.01079,0.01012,0.00191,-0.00112,0.02549,-0.01296,0.35637,0.00000,0.00000,0.00000,
1631130121024992256,0.02894,-0.03303,0.19998,0.99852,0.04896,-0.02083,-0.01081,0.01094,0.00300,-0.00066,0.02550,-0.01296,0.35638,0.00000,0.00000,0.00000,
1631130121091661568,0.02884,-0.03298,0.19993,0.99854,0.04861,-0.02097,-0.01078,0.00946,0.00203,-0.00120,0.02549,-0.01296,0.35637,0.00000,0.00000,0.00000,
1631130121158332160,0.02886,-0.03313,0.20007,0.99855,0.04838,-0.02100,-0.01077,0.01052,0.00291,-0.00123,0.02550,-0.01296,0.35637,0.00000,0.00000,0.00000,
1631130121225002496,0.02877,-0.03276,0.20020,0.99856,0.04817,-0.02105,-0.01078,0.00994,0.00211,-0.00110,0.02549,-0.01296,0.35636,0.00000,0.00000,0.00000,
1631130121291673600,0.02873,-0.03243,0.20023,0.99857,0.04800,-0.02097,-0.01081,0.00979,0.00173,-0.00193,0.02554,-0.01291,0.35641,0.00000,0.00000,0.00000,
1631130121358344192,0.02875,-0.03243,0.20021,0.99858,0.04777,-0.02093,-0.01080,0.00953,0.00130,-0.00155,0.02550,-0.01296,0.35636,0.00000,0.00000,0.00000,
1631130121425015552,0.02879,-0.03297,0.19971,0.99859,0.04758,-0.02110,-0.01075,0.00994,0.00177,-0.00151,0.02550,-0.01296,0.35635,0.00000,0.00000,0.00000,
1631130121491685632,0.02878,-0.03295,0.19962,0.99859,0.04736,-0.02126,-0.01073,0.00935,0.00202,-0.00152,0.02551,-0.01295,0.35635,0.00000,0.00000,0.00000,
1631130121558356992,0.02877,-0.03288,0.19960,0.99860,0.04711,-0.02136,-0.01073,0.00993,0.00280,-0.00192,0.02552,-0.01303,0.35630,0.00000,0.00000,0.00000,
1631130121625027328,0.02873,-0.03282,0.19970,0.99861,0.04691,-0.02145,-0.01072,0.01056,0.00262,-0.00137,0.02556,-0.01291,0.35639,0.00000,0.00000,0.00000,
1631130121691698432,0.02866,-0.03265,0.19963,0.99862,0.04672,-0.02150,-0.01072,0.00887,0.00225,-0.00129,0.02551,-0.01296,0.35634,0.00000,0.00000,0.00000,
1631130121758369024,0.02869,-0.03262,0.19970,0.99863,0.04655,-0.02144,-0.01073,0.00885,0.00342,-0.00198,0.02551,-0.01295,0.35635,0.00000,0.00000,0.00000,
1631130121825040384,0.02868,-0.03269,0.19977,0.99863,0.04644,-0.02148,-0.01071,0.00910,0.00178,-0.00148,0.02551,-0.01295,0.35632,0.00000,0.00000,0.00000,
1631130121891710720,0.02865,-0.03255,0.19981,0.99864,0.04635,-0.02145,-0.01075,0.00932,0.00194,-0.00179,0.02556,-0.01292,0.35639,0.00000,0.00000,0.00000,
1631130121958381824,0.02864,-0.03246,0.19968,0.99864,0.04620,-0.02145,-0.01072,0.00798,0.00292,-0.00179,0.02552,-0.01296,0.35634,0.00000,0.00000,0.00000,
1631130122025053184,0.02864,-0.03258,0.19974,0.99865,0.04608,-0.02160,-0.01070,0.00833,0.00281,-0.00219,0.02552,-0.01296,0.35634,0.00000,0.00000,0.00000,
1631130122091723776,0.02863,-0.03251,0.19991,0.99865,0.04598,-0.02167,-0.01070,0.01036,0.00300,-0.00185,0.02551,-0.01295,0.35633,0.00000,0.00000,0.00000,
1631130122158395136,0.02864,-0.03236,0.19983,0.99865,0.04586,-0.02170,-0.01071,0.01054,0.00319,-0.00190,0.02552,-0.01294,0.35633,0.00000,0.00000,0.00000,
1631130122225065472,0.02863,-0.03244,0.19984,0.99866,0.04572,-0.02178,-0.01069,0.01034,0.00234,-0.00188,0.02551,-0.01295,0.35634,0.00000,0.00000,0.00000,
1631130122291737088,0.02861,-0.03235,0.19977,0.99867,0.04550,-0.02186,-0.01069,0.00981,0.00360,-0.00195,0.02552,-0.01295,0.35634,0.00000,0.00000,0.00000,
1631130122358407680,0.02856,-0.03225,0.19980,0.99867,0.04529,-0.02200,-0.01069,0.01049,0.00179,-0.00256,0.02552,-0.01296,0.35633,0.00000,0.00000,0.00000,
1631130122425079296,0.02856,-0.03211,0.19984,0.99868,0.04507,-0.02199,-0.01069,0.01120,0.00196,-0.00214,0.02552,-0.01295,0.35633,0.00000,0.00000,0.00000,
1631130122491749888,0.02856,-0.03197,0.19975,0.99870,0.04483,-0.02193,-0.01071,0.01011,0.00270,-0.00231,0.02552,-0.01294,0.35633,0.00000,0.00000,0.00000,
1631130122558421248,0.02858,-0.03197,0.19998,0.99870,0.04468,-0.02188,-0.01069,0.01141,0.00197,-0.00244,0.02552,-0.01295,0.35632,0.00000,0.00000,0.00000,
1631130122625092096,0.02858,-0.03192,0.19996,0.99871,0.04446,-0.02188,-0.01070,0.01067,0.00251,-0.00227,0.02557,-0.01290,0.35636,0.00000,0.00000,0.00000,
1631130122691763712,0.02857,-0.03188,0.19992,0.99872,0.04430,-0.02185,-0.01071,0.01045,0.00298,-0.00222,0.02553,-0.01296,0.35633,0.00000,0.00000,0.00000,
1631130122758434304,0.02854,-0.03175,0.19977,0.99873,0.04406,-0.02197,-0.01070,0.00938,0.00219,-0.00271,0.02554,-0.01304,0.35627,0.00000,0.00000,0.00000,
1631130122825105920,0.02855,-0.03161,0.19979,0.99874,0.04374,-0.02204,-0.01069,0.01028,0.00311,-0.00257,0.02554,-0.01297,0.35632,0.00000,0.00000,0.00000,
1631130122891776512,0.02854,-0.03167,0.20002,0.99875,0.04350,-0.02214,-0.01067,0.01145,0.00272,-0.00203,0.02553,-0.01295,0.35632,0.00000,0.00000,0.00000,
1631130122958448128,0.02851,-0.03154,0.20005,0.99876,0.04331,-0.02217,-0.01067,0.01094,0.00279,-0.00228,0.02553,-0.01296,0.35632,0.00000,0.00000,0.00000,
1631130123025118976,0.02846,-0.03145,0.20011,0.99876,0.04318,-0.02215,-0.01069,0.01052,0.00232,-0.00210,0.02553,-0.01296,0.35633,0.00000,0.00000,0.00000,
1631130123091790592,0.02846,-0.03135,0.20003,0.99877,0.04305,-0.02217,-0.01069,0.01018,0.00415,-0.00290,0.02558,-0.01292,0.35637,0.00000,0.00000,0.00000,
1631130123158461440,0.02843,-0.03130,0.20008,0.99877,0.04297,-0.02222,-0.01069,0.01015,0.00387,-0.00226,0.02554,-0.01296,0.35631,0.00000,0.00000,0.00000,
1631130123225133056,0.02835,-0.03123,0.20013,0.99878,0.04283,-0.02234,-0.01068,0.00941,0.00310,-0.00248,0.02558,-0.01293,0.35637,0.00000,0.00000,0.00000,
1631130123291803392,0.02837,-0.03123,0.20035,0.99878,0.04278,-0.02229,-0.01068,0.01146,0.00381,-0.00210,0.02554,-0.01297,0.35632,0.00000,0.00000,0.00000,
1631130123358475264,0.02834,-0.03119,0.20020,0.99878,0.04271,-0.02232,-0.01070,0.00980,0.00293,-0.00285,0.02559,-0.01292,0.35636,0.00000,0.00000,0.00000,
1631130123425146880,0.02832,-0.03115,0.20022,0.99878,0.04265,-0.02228,-0.01068,0.00929,0.00273,-0.00220,0.02559,-0.01298,0.35632,0.00000,0.00000,0.00000,
1631130123491817472,0.02833,-0.03113,0.20012,0.99879,0.04260,-0.02224,-0.01069,0.00782,0.00488,-0.00235,0.02558,-0.01292,0.35636,0.00000,0.00000,0.00000,
1631130123558489088,0.02835,-0.03136,0.20042,0.99878,0.04271,-0.02227,-0.01065,0.00991,0.00271,-0.00209,0.02555,-0.01295,0.35630,0.00000,0.00000,0.00000,
1631130123625159680,0.02832,-0.03122,0.20024,0.99878,0.04270,-0.02230,-0.01067,0.00836,0.00402,-0.00271,0.02558,-0.01292,0.35636,0.00000,0.00000,0.00000,
1631130123691831296,0.02834,-0.03120,0.20030,0.99878,0.04267,-0.02230,-0.01067,0.01016,0.00407,-0.00248,0.02554,-0.01296,0.35632,0.00000,0.00000,0.00000,
1631130123758501888,0.02832,-0.03133,0.20031,0.99878,0.04267,-0.02237,-0.01065,0.01019,0.00136,-0.00235,0.02555,-0.01295,0.35631,0.00000,0.00000,0.00000,
1631130123825173504,0.02839,-0.03130,0.20030,0.99878,0.04265,-0.02229,-0.01067,0.01085,0.00415,-0.00283,0.02556,-0.01303,0.35627,0.00000,0.00000,0.00000,
1631130123891844352,0.02835,-0.03135,0.20021,0.99878,0.04263,-0.02239,-0.01066,0.00917,0.00343,-0.00221,0.02556,-0.01303,0.35627,0.00000,0.00000,0.00000,
1631130123958515968,0.02830,-0.03144,0.20041,0.99878,0.04267,-0.02246,-0.01064,0.01022,0.00239,-0.00248,0.02558,-0.01292,0.35635,0.00000,0.00000,0.00000,
1631130124025186560,0.02826,-0.03121,0.20028,0.99878,0.04266,-0.02241,-0.01067,0.00919,0.00323,-0.00319,0.02555,-0.01294,0.35631,0.00000,0.00000,0.00000,
1631130124091858432,0.02834,-0.03134,0.20030,0.99878,0.04269,-0.02241,-0.01066,0.00998,0.00396,-0.00297,0.02559,-0.01291,0.35635,0.00000,0.00000,0.00000,
1631130124158529024,0.02831,-0.03139,0.20032,0.99878,0.04272,-0.02250,-0.01066,0.00948,0.00328,-0.00226,0.02555,-0.01295,0.35630,0.00000,0.00000,0.00000,
1631130124225200640,0.02830,-0.03140,0.20029,0.99878,0.04272,-0.02257,-0.01066,0.00937,0.00445,-0.00296,0.02560,-0.01292,0.35634,0.00000,0.00000,0.00000,
1631130124291871232,0.02830,-0.03145,0.20046,0.99877,0.04282,-0.02259,-0.01065,0.01126,0.00394,-0.00254,0.02559,-0.01292,0.35636,0.00000,0.00000,0.00000,
1631130124358542848,0.02821,-0.03130,0.20033,0.99877,0.04286,-0.02266,-0.01067,0.00948,0.00419,-0.00296,0.02554,-0.01295,0.35631,0.00000,0.00000,0.00000,
1631130124425213696,0.02824,-0.03142,0.20027,0.99876,0.04288,-0.02273,-0.01065,0.00950,0.00455,-0.00295,0.02555,-0.01297,0.35631,0.00000,0.00000,0.00000,
1631130124491885312,0.02823,-0.03163,0.20063,0.99876,0.04304,-0.02278,-0.01063,0.01167,0.00265,-0.00208,0.02559,-0.01292,0.35634,0.00000,0.00000,0.00000,
1631130124558555904,0.02811,-0.03135,0.20030,0.99875,0.04314,-0.02282,-0.01066,0.00807,0.00610,-0.00303,0.02555,-0.01295,0.35630,0.00000,0.00000,0.00000,
1631130124625227776,0.02808,-0.03143,0.20030,0.99875,0.04323,-0.02287,-0.01066,0.00815,0.00537,-0.00299,0.02555,-0.01296,0.35628,0.00000,0.00000,0.00000,
1631130124691899392,0.02808,-0.03169,0.20052,0.99874,0.04342,-0.02293,-0.01063,0.01040,0.00258,-0.00275,0.02557,-0.01304,0.35626,0.00000,0.00000,0.00000,
1631130124758569984,0.02811,-0.03184,0.20048,0.99873,0.04352,-0.02302,-0.01060,0.01030,0.00373,-0.00279,0.02556,-0.01303,0.35625,0.00000,0.00000,0.00000,
1631130124825242112,0.02815,-0.03189,0.20036,0.99873,0.04356,-0.02309,-0.01061,0.01027,0.00392,-0.00316,0.02554,-0.01296,0.35629,0.00000,0.00000,0.00000,
1631130124891912704,0.02816,-0.03170,0.20025,0.99873,0.04358,-0.02304,-0.01064,0.01050,0.00422,-0.00306,0.02556,-0.01296,0.35629,0.00000,0.00000,0.00000,
1631130124958584576,0.02818,-0.03166,0.20020,0.99873,0.04362,-0.02294,-0.01065,0.01009,0.00372,-0.00248,0.02556,-0.01297,0.35629,0.00000,0.00000,0.00000,
1631130125025255168,0.02822,-0.03179,0.20028,0.99873,0.04368,-0.02285,-0.01065,0.01087,0.00285,-0.00238,0.02555,-0.01295,0.35630,0.00000,0.00000,0.00000,
1631130125091927040,0.02822,-0.03176,0.20023,0.99873,0.04371,-0.02278,-0.01067,0.01026,0.00233,-0.00294,0.02555,-0.01295,0.35628,0.00000,0.00000,0.00000,
1631130125158597632,0.02819,-0.03169,0.20011,0.99873,0.04370,-0.02274,-0.01066,0.00852,0.00253,-0.00250,0.02557,-0.01303,0.35624,0.00000,0.00000,0.00000,
1631130125225269760,0.02828,-0.03160,0.20027,0.99873,0.04372,-0.02256,-0.01069,0.01084,0.00465,-0.00300,0.02556,-0.01304,0.35623,0.00000,0.00000,0.00000,
1631130125291940608,0.02832,-0.03155,0.20016,0.99873,0.04375,-0.02242,-0.01070,0.00974,0.00515,-0.00266,0.02559,-0.01292,0.35634,0.00000,0.00000,0.00000,
1631130125358612480,0.02835,-0.03174,0.20032,0.99873,0.04387,-0.02239,-0.01068,0.01002,0.00283,-0.00195,0.02559,-0.01292,0.35633,0.00000,0.00000,0.00000,
1631130125425283584,0.02833,-0.03190,0.20035,0.99872,0.04398,-0.02243,-0.01068,0.00986,0.00271,-0.00235,0.02553,-0.01295,0.35613,0.00000,0.00000,0.00000,
1631130125491955456,0.02832,-0.03194,0.20038,0.99872,0.04411,-0.02244,-0.01066,0.01028,0.00288,-0.00229,0.02558,-0.01291,0.35618,0.00000,0.00000,0.00000,
1631130125558626560,0.02832,-0.03173,0.20015,0.99872,0.04413,-0.02238,-0.01071,0.00898,0.00451,-0.00331,0.02557,-0.01302,0.35634,0.00000,0.00000,0.00000,
1631130125625298688,0.02830,-0.03183,0.20010,0.99872,0.04416,-0.02240,-0.01069,0.00792,0.00121,-0.00277,0.02548,-0.01306,0.35624,0.00000,0.00000,0.00000,
1631130125691969536,0.02837,-0.03189,0.20022,0.99872,0.04418,-0.02237,-0.01070,0.00995,0.00335,-0.00309,0.02549,-0.01307,0.35623,0.00000,0.00000,0.00000,
1631130125758641920,0.02841,-0.03203,0.20018,0.99871,0.04420,-0.02239,-0.01068,0.01052,0.00355,-0.00256,0.02557,-0.01301,0.35632,0.00000,0.00000,0.00000,
1631130125825313024,0.02830,-0.03189,0.20001,0.99871,0.04424,-0.02242,-0.01069,0.00808,0.00274,-0.00274,0.02550,-0.01313,0.35619,0.00000,0.00000,0.00000,
1631130125891985152,0.02831,-0.03180,0.20019,0.99871,0.04429,-0.02234,-0.01070,0.01075,0.00248,-0.00314,0.02548,-0.01306,0.35624,0.00000,0.00000,0.00000,
1631130125958656256,0.02837,-0.03189,0.20016,0.99871,0.04436,-0.02231,-0.01072,0.01095,0.00185,-0.00251,0.02554,-0.01301,0.35627,0.00000,0.00000,0.00000,
1631130126025328384,0.02840,-0.03183,0.20012,0.99871,0.04433,-0.02231,-0.01071,0.01056,0.00231,-0.00320,0.02550,-0.01307,0.35622,0.00000,0.00000,0.00000,
1631130126092000768,0.02844,-0.03173,0.19999,0.99871,0.04425,-0.02231,-0.01071,0.01018,0.00497,-0.00319,0.02554,-0.01306,0.35627,0.00000,0.00000,0.00000,
1631130126158671872,0.02843,-0.03193,0.19999,0.99871,0.04418,-0.02244,-0.01070,0.00979,0.00224,-0.00282,0.02553,-0.01307,0.35627,0.00000,0.00000,0.00000,
1631130126225342976,0.02833,-0.03173,0.19999,0.99872,0.04413,-0.02246,-0.01071,0.00909,0.00320,-0.00266,0.02550,-0.01315,0.35620,0.00000,0.00000,0.00000,
1631130126292013312,0.02832,-0.03168,0.20017,0.99872,0.04415,-0.02243,-0.01072,0.01008,0.00284,-0.00223,0.02554,-0.01314,0.35621,0.00000,0.00000,0.00000,
1631130126358684416,0.02833,-0.03178,0.20013,0.99871,0.04418,-0.02244,-0.01072,0.00951,0.00156,-0.00304,0.02549,-0.01307,0.35623,0.00000,0.00000,0.00000,
1631130126425354752,0.02839,-0.03194,0.20017,0.99871,0.04421,-0.02252,-0.01070,0.01058,0.00327,-0.00233,0.02559,-0.01301,0.35619,0.00000,0.00000,0.00000,
1631130126492026112,0.02725,-0.03393,0.20324,0.99858,0.04704,-0.02278,-0.01053,-0.00015,0.00043,-0.00109,0.02585,-0.01274,0.35614,0.00000,0.00000,0.00000,
1631130126558696192,0.02711,-0.03479,0.20317,0.99842,0.04994,-0.02359,-0.01038,0.00127,-0.00489,-0.00193,0.02546,-0.01288,0.35647,0.00000,0.00000,0.00000,
1631130126625367296,0.02631,-0.03603,0.20338,0.99823,0.05301,-0.02498,-0.01029,-0.01673,-0.00863,0.00508,0.02485,-0.01291,0.35690,0.00000,0.00000,0.00000,
1631130126692037888,0.02554,-0.03701,0.20373,0.99807,0.05540,-0.02617,-0.01037,0.00289,-0.00657,0.00398,0.02612,-0.01171,0.35802,0.00000,0.00000,0.00000,
1631130126758708992,0.02197,-0.04188,0.20438,0.99795,0.05831,-0.02446,-0.00985,-0.12819,-0.13775,0.04217,0.02678,-0.01294,0.36433,0.00000,0.00000,0.00000,
1631130126825379072,0.02117,-0.04198,0.20879,0.99684,0.07299,-0.02855,-0.01275,-0.16362,-0.09295,0.02273,0.02562,-0.00978,0.36788,0.00000,0.00000,0.00000,
1631130126892050432,0.02012,-0.03744,0.21339,0.99701,0.07068,-0.02879,-0.01213,-0.18347,-0.08445,0.03666,0.02226,-0.00698,0.37062,0.00000,0.00000,0.00000,
1631130126958720768,0.01105,-0.03032,0.21871,0.99872,0.04283,-0.02519,-0.00997,-0.18726,0.05253,-0.00277,0.01881,0.00074,0.37884,0.00000,0.00000,0.00000,
1631130127025391872,0.01242,-0.03241,0.21797,0.99873,0.04980,-0.00725,-0.00153,-0.10635,0.22627,0.21268,0.02013,0.01214,0.38905,0.00000,0.00000,0.00000,
1631130127092062208,0.01861,-0.06189,0.22683,0.99670,0.08084,-0.00153,0.00675,0.11138,-0.40775,0.07673,0.02150,0.01895,0.39054,0.00000,0.00000,0.00000,
1631130127158733312,0.01657,-0.03224,0.23739,0.99814,0.05625,-0.02353,0.00173,0.08005,-0.05494,-0.02306,0.02312,0.02825,0.38551,0.00000,0.00000,0.00000,
1631130127225403648,0.01318,-0.01531,0.23501,0.99751,0.06264,-0.03211,0.00402,0.04276,0.04594,-0.05657,0.01982,0.03374,0.38446,0.00000,0.00000,0.00000,
1631130127292075008,0.01448,-0.00147,0.22933,0.99860,0.04556,-0.02649,0.00390,-0.00111,0.07510,-0.09123,0.01846,0.03217,0.38779,0.00000,0.00000,0.00000,
1631130127358746112,0.01179,-0.00897,0.22891,0.99821,0.05428,-0.02509,-0.00235,0.03887,-0.12559,0.01869,0.01508,0.02986,0.37791,0.00000,0.00000,0.00000,
1631130127425416192,0.01222,-0.01218,0.22903,0.99727,0.06890,-0.02641,0.00012,0.03110,0.00029,-0.12483,0.01147,0.02501,0.37038,0.00000,0.00000,0.00000,
1631130127492087296,0.01175,-0.01787,0.22242,0.99665,0.07746,-0.02472,-0.00935,0.01292,-0.14651,-0.15139,0.00886,0.01937,0.36811,0.00000,0.00000,0.00000,
1631130127558757888,0.01339,-0.01866,0.21206,0.99653,0.08034,-0.01852,-0.01156,0.01516,-0.08150,-0.09735,0.01030,0.02528,0.37946,0.00000,0.00000,0.00000,
1631130127625428992,0.00705,-0.01846,0.20917,0.99658,0.07919,-0.01913,-0.01379,0.02909,-0.02721,0.13670,0.01464,0.02724,0.38635,0.00000,0.00000,0.00000,
1631130127692099072,0.00494,-0.02048,0.22222,0.99728,0.07060,-0.02083,-0.00212,0.05021,-0.03253,0.14631,0.02365,0.03302,0.38747,0.00000,0.00000,0.00000,
1631130127758770176,0.00105,-0.01919,0.23588,0.99741,0.06392,-0.03170,-0.00903,0.08526,0.02529,0.11177,0.03796,0.04540,0.38414,0.00000,0.00000,0.00000,
1631130127825440768,0.01288,-0.00931,0.23488,0.99739,0.06412,-0.03079,-0.01234,0.15743,0.09952,0.04238,0.05867,0.06292,0.38594,0.00000,0.00000,0.00000,
1631130127892111872,0.03077,0.00783,0.23286,0.99858,0.04559,-0.02181,-0.01674,0.26240,0.26603,-0.00726,0.07716,0.07831,0.39748,0.00000,0.00000,0.00000,
1631130127958781952,0.04878,0.02213,0.23812,0.99884,0.03648,-0.02090,-0.02344,0.33070,0.14678,0.15676,0.08997,0.08349,0.40215,0.00000,0.00000,0.00000,
1631130128025453056,0.05971,0.03952,0.24979,0.99801,0.05056,-0.03061,-0.02217,0.11671,0.12365,0.29407,0.10465,0.08970,0.39916,0.00000,0.00000,0.00000,
1631130128092123392,0.06498,0.03457,0.24354,0.99611,0.07110,-0.04707,-0.02225,0.21751,0.10943,-0.13195,0.11527,0.08803,0.40322,0.00000,0.00000,0.00000,
1631130128158794752,0.07625,0.03848,0.24338,0.99817,0.01965,-0.05267,-0.02242,0.10535,-0.06102,0.07882,0.12400,0.08191,0.40487,0.00000,0.00000,0.00000,
1631130128225464832,0.07837,0.04241,0.24410,0.99746,-0.01693,-0.06184,-0.03111,0.08748,-0.13568,-0.05121,0.13122,0.07578,0.41135,0.00000,0.00000,0.00000,
1631130128292136192,0.08226,0.04150,0.24814,0.99815,-0.01757,-0.05467,-0.01992,-0.01009,-0.10286,0.14661,0.13752,0.06676,0.41206,0.00000,0.00000,0.00000,
1631130128358806272,0.08614,0.02269,0.25328,0.99782,-0.00420,-0.05997,-0.02721,0.00620,-0.09679,-0.00615,0.14255,0.06551,0.41086,0.00000,0.00000,0.00000,
1631130128425477632,0.09512,0.03190,0.25366,0.99849,-0.01570,-0.04680,-0.02397,-0.00597,-0.02135,-0.00967,0.14452,0.06544,0.41097,0.00000,0.00000,0.00000,
1631130128492147968,0.10051,0.02896,0.25358,0.99869,-0.02005,-0.03738,-0.02852,-0.02319,0.05512,0.01468,0.14760,0.06701,0.41339,0.00000,0.00000,0.00000,
1631130128558819072,0.10511,0.02975,0.25522,0.99905,-0.00363,-0.03735,-0.02203,0.03405,-0.02612,0.05125,0.15270,0.06698,0.41206,0.00000,0.00000,0.00000,
1631130128625489408,0.10793,0.02879,0.25685,0.99926,0.00575,-0.03029,-0.02310,0.05367,0.04755,-0.05036,0.15743,0.06472,0.40648,0.00000,0.00000,0.00000,
1631130128692160512,0.10875,0.03177,0.25360,0.99943,0.01038,-0.02272,-0.02292,0.02693,-0.09647,-0.01350,0.16185,0.05647,0.40474,0.00000,0.00000,0.00000,
1631130128758831616,0.11262,0.02481,0.24759,0.99934,0.02064,-0.01547,-0.02575,0.03996,-0.09845,-0.03034,0.16692,0.04761,0.40006,0.00000,0.00000,0.00000,
1631130128825502208,0.12131,0.01898,0.24409,0.99931,0.02694,-0.00839,-0.02418,0.07533,-0.14165,-0.05225,0.17390,0.04049,0.40498,0.00000,0.00000,0.00000,
1631130128892173312,0.12674,0.01267,0.24975,0.99955,0.02235,-0.00464,-0.01937,0.07943,-0.11144,0.18894,0.17921,0.03092,0.41271,0.00000,0.00000,0.00000,
1631130128958843392,0.12976,0.00664,0.25620,0.99938,0.01876,-0.01772,-0.02388,0.05793,-0.08016,0.04541,0.18545,0.02347,0.41401,0.00000,0.00000,0.00000,
1631130129025514752,0.13543,0.00221,0.25932,0.99935,0.02151,-0.02016,-0.02077,0.03862,-0.03635,0.05691,0.18783,0.02226,0.41261,0.00000,0.00000,0.00000,
1631130129092185088,0.13973,-0.00192,0.25931,0.99955,0.00645,-0.01944,-0.02187,0.01450,0.02574,-0.01987,0.18870,0.02285,0.41298,0.00000,0.00000,0.00000,
1631130129158856448,0.14369,-0.00238,0.25746,0.99960,0.00055,-0.02219,-0.01770,-0.00003,-0.01928,0.09855,0.18989,0.01977,0.41699,0.00000,0.00000,0.00000,
1631130129225526784,0.14234,-0.00397,0.26544,0.99939,0.01000,-0.02720,-0.01924,0.03634,0.01864,-0.02254,0.19264,0.01783,0.41098,0.00000,0.00000,0.00000,
1631130129292198144,0.14540,-0.00467,0.26103,0.99955,0.01029,-0.02171,-0.01800,0.03926,-0.04853,-0.03625,0.19527,0.01173,0.41063,0.00000,0.00000,0.00000,
1631130129358868736,0.14736,-0.01168,0.25659,0.99952,0.01534,-0.01825,-0.01998,0.04367,-0.06068,-0.02350,0.19857,0.00644,0.40753,0.00000,0.00000,0.00000,
1631130129425540096,0.14827,-0.01358,0.25502,0.99955,0.01969,-0.01398,-0.01781,0.06361,-0.07702,-0.04059,0.20426,-0.00176,0.40936,0.00000,0.00000,0.00000,
1631130129492210688,0.15303,-0.01786,0.25052,0.99968,0.01558,-0.01046,-0.01704,0.06928,-0.04105,0.15167,0.20874,-0.00618,0.41737,0.00000,0.00000,0.00000,
1631130129558882304,0.15538,-0.02124,0.26013,0.99940,0.01779,-0.02083,-0.02096,0.06742,-0.06908,0.08963,0.21519,-0.01176,0.42175,0.00000,0.00000,0.00000,
1631130129625552640,0.16324,-0.02999,0.26761,0.99928,0.02171,-0.02214,-0.02178,0.06900,-0.01843,-0.00476,0.21977,-0.01201,0.41980,0.00000,0.00000,0.00000,
1631130129692224256,0.16896,-0.02989,0.26520,0.99959,0.00394,-0.01586,-0.02370,0.05791,0.07321,-0.04263,0.22360,-0.00804,0.41668,0.00000,0.00000,0.00000,
1631130129758894592,0.17490,-0.02926,0.26150,0.99967,-0.00477,-0.01553,-0.01989,0.06472,0.07607,0.01579,0.23140,-0.00191,0.41700,0.00000,0.00000,0.00000,
1631130129825566208,0.18106,-0.02445,0.26304,0.99971,0.00510,-0.01671,-0.01649,0.10461,0.06037,-0.03212,0.23804,-0.00306,0.41280,0.00000,0.00000,0.00000,
1631130129892236800,0.18866,-0.02636,0.25820,0.99965,0.00374,-0.01751,-0.01959,0.08900,-0.04720,-0.02941,0.24573,-0.00795,0.40828,0.00000,0.00000,0.00000,
1631130129958908672,0.19433,-0.03039,0.25419,0.99961,0.00797,-0.01328,-0.02307,0.08093,-0.08791,-0.04164,0.25072,-0.01723,0.40477,0.00000,0.00000,0.00000,
1631130130025580288,0.19896,-0.03580,0.25098,0.99954,0.01690,-0.00825,-0.02394,0.08010,-0.16081,-0.05362,0.25924,-0.02757,0.40609,0.00000,0.00000,0.00000,
1631130130092250624,0.20291,-0.04286,0.24553,0.99949,0.01819,-0.00658,-0.02525,0.12521,-0.09422,0.05684,0.26613,-0.03459,0.40857,0.00000,0.00000,0.00000,
1631130130158922240,0.21163,-0.05138,0.24842,0.99946,0.01772,-0.01292,-0.02438,0.08862,-0.09255,-0.00176,0.27392,-0.03772,0.40879,0.00000,0.00000,0.00000,
1631130130225592320,0.21861,-0.05794,0.25305,0.99936,0.02342,-0.01649,-0.02129,0.10124,0.00097,0.01860,0.28152,-0.03655,0.40657,0.00000,0.00000,0.00000,
1631130130292263680,0.22730,-0.05785,0.25132,0.99971,0.00754,-0.01247,-0.01935,0.09016,0.04085,-0.04812,0.28905,-0.03182,0.40449,0.00000,0.00000,0.00000,
1631130130358934016,0.23491,-0.05601,0.24931,0.99979,-0.00382,-0.01086,-0.01710,0.10469,0.09693,0.00738,0.29872,-0.03168,0.41056,0.00000,0.00000,0.00000,
1631130130425605376,0.24346,-0.05383,0.25576,0.99970,0.00759,-0.01212,-0.02000,0.12136,0.03775,0.07696,0.30665,-0.02820,0.40701,0.00000,0.00000,0.00000,
1631130130492275456,0.24960,-0.05142,0.25286,0.99972,0.00466,-0.01463,-0.01799,0.10818,0.00776,-0.04192,0.31491,-0.03362,0.40495,0.00000,0.00000,0.00000,
1631130130558946560,0.25542,-0.05414,0.25019,0.99964,0.00683,-0.01283,-0.02254,0.08912,-0.06779,-0.00607,0.32111,-0.04161,0.40252,0.00000,0.00000,0.00000,
1631130130625617152,0.26306,-0.05839,0.24796,0.99957,0.01478,-0.00831,-0.02373,0.07682,-0.11966,-0.03375,0.32917,-0.04829,0.40299,0.00000,0.00000,0.00000,
1631130130692288256,0.26707,-0.06308,0.24525,0.99955,0.01482,-0.00708,-0.02529,0.11215,-0.08873,0.06903,0.33634,-0.05359,0.40792,0.00000,0.00000,0.00000,
1631130130758958592,0.27620,-0.06940,0.25040,0.99959,0.01342,-0.00954,-0.02352,0.09523,-0.09876,0.06750,0.34590,-0.05643,0.40847,0.00000,0.00000,0.00000,
1631130130825629696,0.28245,-0.07528,0.25397,0.99936,0.02062,-0.01686,-0.02369,0.09893,-0.01927,0.04194,0.35349,-0.05503,0.40550,0.00000,0.00000,0.00000,
1631130130892299776,0.28807,-0.07050,0.25162,0.99965,0.00741,-0.01350,-0.02132,0.09625,0.04479,-0.04563,0.36202,-0.04735,0.40321,0.00000,0.00000,0.00000,
1631130130958971136,0.29789,-0.06714,0.24766,0.99970,-0.00736,-0.00987,-0.02097,0.09520,0.11186,-0.00954,0.37067,-0.04424,0.40950,0.00000,0.00000,0.00000,
1631130131025641472,0.30381,-0.06407,0.25460,0.99968,0.00183,-0.01093,-0.02273,0.09251,0.02425,0.15551,0.37986,-0.04248,0.40764,0.00000,0.00000,0.00000,
1631130131092312832,0.30944,-0.05976,0.25699,0.99964,0.00358,-0.01679,-0.02042,0.09157,0.03414,-0.00308,0.38754,-0.04580,0.40543,0.00000,0.00000,0.00000,
1631130131158982912,0.31601,-0.06027,0.25518,0.99954,0.00233,-0.01706,-0.02485,0.07954,-0.03296,-0.01137,0.39197,-0.05244,0.40429,0.00000,0.00000,0.00000,
1631130131225654016,0.32200,-0.06312,0.25481,0.99951,0.00709,-0.01587,-0.02609,0.05164,-0.07876,-0.01459,0.39870,-0.05552,0.40760,0.00000,0.00000,0.00000,
1631130131292324608,0.32525,-0.06718,0.25248,0.99938,0.00951,-0.01631,-0.02960,0.07567,-0.07657,0.02998,0.40538,-0.05639,0.40590,0.00000,0.00000,0.00000,
1631130131358995712,0.33131,-0.07301,0.25782,0.99943,0.01101,-0.01661,-0.02709,0.08185,-0.07235,0.01328,0.41425,-0.05191,0.40389,0.00000,0.00000,0.00000,
1631130131425667072,0.33887,-0.07302,0.25491,0.99932,0.01395,-0.02072,-0.02705,0.09656,0.03427,-0.00069,0.42323,-0.04373,0.39898,0.00000,0.00000,0.00000,
1631130131492337152,0.34600,-0.06664,0.25185,0.99960,0.00483,-0.01601,-0.02295,0.11890,0.08643,-0.05853,0.43695,-0.03375,0.39704,0.00000,0.00000,0.00000,
1631130131559008512,0.35400,-0.06286,0.24910,0.99966,-0.00371,-0.01200,-0.02279,0.13555,0.14273,-0.03016,0.44954,-0.02606,0.40198,0.00000,0.00000,0.00000,
1631130131625678848,0.36233,-0.05692,0.24373,0.99964,0.00300,-0.01394,-0.02277,0.17860,0.05825,0.05870,0.46025,-0.02189,0.40318,0.00000,0.00000,0.00000,
1631130131692350208,0.37109,-0.04665,0.25005,0.99953,-0.00306,-0.02074,-0.02218,0.14756,0.09196,0.02146,0.46983,-0.02386,0.40303,0.00000,0.00000,0.00000,
1631130131759020288,0.38378,-0.04161,0.25618,0.99946,-0.00596,-0.02168,-0.02391,0.11522,-0.00062,0.05756,0.47804,-0.02954,0.39981,0.00000,0.00000,0.00000,
1631130131825691648,0.39267,-0.04086,0.25546,0.99954,-0.00029,-0.01843,-0.02421,0.10263,-0.02769,-0.01501,0.48422,-0.03470,0.40870,0.00000,0.00000,0.00000,
1631130131892361984,0.40094,-0.04366,0.25287,0.99959,0.00876,-0.01492,-0.02267,0.09683,-0.11232,-0.02627,0.49145,-0.04134,0.41676,0.00000,0.00000,0.00000,
1631130131959033344,0.40737,-0.04763,0.26218,0.99953,0.01220,-0.01871,-0.02109,0.07267,-0.08960,0.18119,0.49895,-0.04375,0.41711,0.00000,0.00000,0.00000,
1631130132025703424,0.40836,-0.05430,0.27116,0.99891,0.02138,-0.03147,-0.02693,0.06326,-0.07793,0.09489,0.50426,-0.04398,0.41542,0.00000,0.00000,0.00000,
1631130132092374784,0.41870,-0.05430,0.27350,0.99908,0.01577,-0.02804,-0.02839,0.08390,0.00424,-0.01027,0.51270,-0.03966,0.41648,0.00000,0.00000,0.00000,
1631130132159044864,0.42324,-0.05407,0.27048,0.99925,0.00172,-0.02159,-0.03208,0.06880,0.05093,-0.00645,0.52001,-0.03683,0.41461,0.00000,0.00000,0.00000,
1631130132225716480,0.42723,-0.05231,0.26962,0.99923,0.00725,-0.02546,-0.02891,0.08889,0.06996,0.06854,0.52541,-0.03913,0.41491,0.00000,0.00000,0.00000,
1631130132292386816,0.43577,-0.04925,0.27075,0.99919,0.00771,-0.02799,-0.02798,0.08366,0.01906,-0.02537,0.52973,-0.04353,0.41224,0.00000,0.00000,0.00000,
1631130132359058176,0.44094,-0.04827,0.27240,0.99908,0.00737,-0.02832,-0.03128,0.04920,-0.03824,0.04549,0.53270,-0.05236,0.41116,0.00000,0.00000,0.00000,
1631130132425728256,0.44534,-0.05193,0.27098,0.99911,0.01276,-0.02418,-0.03215,0.04029,-0.05224,-0.03008,0.53796,-0.05740,0.41475,0.00000,0.00000,0.00000,
1631130132492399616,0.44660,-0.05479,0.26999,0.99909,0.01653,-0.02214,-0.03264,0.02679,-0.11093,0.01189,0.54245,-0.06294,0.41675,0.00000,0.00000,0.00000,
1631130132559070208,0.45012,-0.06294,0.27340,0.99908,0.01584,-0.02091,-0.03380,0.04901,-0.09451,0.09241,0.54723,-0.06167,0.41468,0.00000,0.00000,0.00000,
1631130132625741568,0.45352,-0.06757,0.27651,0.99872,0.02244,-0.02793,-0.03583,0.05590,-0.05493,0.03861,0.55179,-0.05742,0.41154,0.00000,0.00000,0.00000,
1631130132692412928,0.45780,-0.06705,0.27500,0.99886,0.01887,-0.02636,-0.03508,0.05645,0.03979,-0.01629,0.55949,-0.04968,0.41163,0.00000,0.00000,0.00000,
1631130132759083008,0.46445,-0.06439,0.27022,0.99922,0.00143,-0.02125,-0.03333,0.05696,0.09289,-0.03282,0.56610,-0.05014,0.40872,0.00000,0.00000,0.00000,
1631130132825754368,0.46865,-0.06070,0.26980,0.99930,0.00405,-0.02334,-0.02909,0.09086,0.09234,0.00234,0.57259,-0.05346,0.40339,0.00000,0.00000,0.00000,
1631130132892424704,0.47626,-0.05654,0.26966,0.99929,0.00564,-0.02512,-0.02761,0.08586,0.00850,-0.03340,0.57798,-0.06510,0.39835,0.00000,0.00000,0.00000,
1631130132959096320,0.48056,-0.05523,0.26800,0.99915,0.00401,-0.02528,-0.03228,0.07489,-0.03270,-0.05686,0.58503,-0.07126,0.40093,0.00000,0.00000,0.00000,
1631130133025766656,0.48721,-0.05985,0.26437,0.99920,0.01188,-0.01904,-0.03310,0.07154,-0.09065,-0.05692,0.58978,-0.07657,0.40214,0.00000,0.00000,0.00000,
1631130133092437760,0.48974,-0.06587,0.25932,0.99909,0.01744,-0.01350,-0.03651,0.08100,-0.14040,-0.06069,0.59528,-0.07823,0.40293,0.00000,0.00000,0.00000,
1631130133159108096,0.49696,-0.07473,0.26065,0.99916,0.02011,-0.01083,-0.03399,0.08374,-0.07350,0.08966,0.59933,-0.07833,0.40114,0.00000,0.00000,0.00000,
1631130133225779456,0.50241,-0.07920,0.26203,0.99893,0.02322,-0.02062,-0.03429,0.07351,-0.07980,-0.01247,0.60296,-0.07480,0.40414,0.00000,0.00000,0.00000,
1631130133292450048,0.50583,-0.07893,0.26303,0.99905,0.02257,-0.02328,-0.02910,0.06586,-0.00811,0.02207,0.60992,-0.07469,0.40485,0.00000,0.00000,0.00000,
1631130133359121408,0.51221,-0.08080,0.26191,0.99928,0.01238,-0.02029,-0.02967,0.05318,0.01529,-0.03738,0.61254,-0.07560,0.40272,0.00000,0.00000,0.00000,
1631130133425791744,0.51629,-0.07873,0.25994,0.99943,0.00869,-0.02107,-0.02507,0.04700,0.01355,0.12545,0.62101,-0.08871,0.39797,0.00000,0.00000,0.00000,
1631130133492463104,0.51764,-0.08023,0.26834,0.99924,0.01350,-0.02498,-0.02684,0.07719,0.01447,0.02670,0.62840,-0.09670,0.40718,0.00000,0.00000,0.00000,
1631130133559133440,0.52387,-0.07874,0.26433,0.99936,0.01261,-0.02243,-0.02504,0.07540,-0.04307,-0.02460,0.63497,-0.10229,0.40925,0.00000,0.00000,0.00000,
1631130133625804800,0.52945,-0.08461,0.26186,0.99929,0.01658,-0.01800,-0.02873,0.05538,-0.08108,-0.01302,0.64244,-0.10155,0.40664,0.00000,0.00000,0.00000,
1631130133692475392,0.53215,-0.08793,0.26012,0.99928,0.02021,-0.01466,-0.02842,0.05503,-0.10406,-0.01212,0.64694,-0.09799,0.40526,0.00000,0.00000,0.00000,
1631130133759146752,0.53861,-0.09543,0.26199,0.99945,0.01653,-0.01087,-0.02654,0.06776,-0.04803,0.18205,0.66008,-0.09314,0.40667,0.00000,0.00000,0.00000,
1631130133825817088,0.53815,-0.09956,0.27091,0.99912,0.02078,-0.02299,-0.02821,0.06746,-0.09067,0.04706,0.67012,-0.09434,0.40473,0.00000,0.00000,0.00000,
1631130133892488448,0.54268,-0.10175,0.27113,0.99902,0.02409,-0.02491,-0.02759,0.07098,-0.00508,0.01863,0.68039,-0.10128,0.40039,0.00000,0.00000,0.00000,
1631130133959158784,0.54805,-0.09899,0.26841,0.99947,0.00190,-0.01849,-0.02689,0.06197,0.07028,-0.03982,0.69236,-0.11415,0.39590,0.00000,0.00000,0.00000,
1631130134025830144,0.55266,-0.09564,0.26805,0.99950,0.00126,-0.02010,-0.02454,0.07428,0.07795,0.04794,0.70599,-0.12324,0.40444,0.00000,0.00000,0.00000,
1631130134092501760,0.56086,-0.09174,0.27082,0.99951,0.00917,-0.01813,-0.02370,0.12074,0.05530,0.02260,0.71921,-0.12996,0.40657,0.00000,0.00000,0.00000,
1631130134159172096,0.56874,-0.08896,0.26942,0.99946,0.00688,-0.02087,-0.02437,0.12639,-0.02791,-0.00417,0.73312,-0.13103,0.40494,0.00000,0.00000,0.00000,
1631130134225843456,0.57560,-0.09367,0.26734,0.99938,0.01171,-0.01838,-0.02762,0.13066,-0.07795,-0.05824,0.74592,-0.12529,0.40041,0.00000,0.00000,0.00000,
1631130134292513536,0.58600,-0.10000,0.26373,0.99935,0.02118,-0.01137,-0.02696,0.14016,-0.16242,-0.04783,0.76086,-0.12312,0.40408,0.00000,0.00000,0.00000,
1631130134359184640,0.59533,-0.10592,0.25536,0.99939,0.02186,-0.00778,-0.02629,0.17742,-0.07051,0.09444,0.77603,-0.12171,0.40167,0.00000,0.00000,0.00000,
1631130134425855232,0.60263,-0.11364,0.26609,0.99922,0.02176,-0.01920,-0.02690,0.14608,-0.10920,0.08238,0.78959,-0.12638,0.40040,0.00000,0.00000,0.00000,
1631130134492526336,0.61526,-0.12227,0.27273,0.99902,0.02802,-0.02335,-0.02499,0.16715,-0.02929,0.02577,0.80168,-0.13443,0.39607,0.00000,0.00000,0.00000,
1631130134559196416,0.62997,-0.12294,0.26987,0.99943,0.01202,-0.02031,-0.02427,0.16366,0.04325,-0.04598,0.81692,-0.14515,0.39580,0.00000,0.00000,0.00000,
1631130134625867776,0.64019,-0.11669,0.26637,0.99956,-0.00373,-0.01852,-0.02306,0.19411,0.10391,-0.02983,0.83288,-0.15563,0.40399,0.00000,0.00000,0.00000,
1631130134692538112,0.65285,-0.11446,0.27084,0.99948,0.00623,-0.01865,-0.02542,0.19468,0.05248,0.03277,0.84607,-0.15883,0.40413,0.00000,0.00000,0.00000,
1631130134759209216,0.66653,-0.11132,0.27057,0.99951,0.00729,-0.01926,-0.02361,0.17804,-0.00487,-0.02956,0.85761,-0.15409,0.40108,0.00000,0.00000,0.00000,
1631130134825879552,0.67679,-0.11563,0.26871,0.99938,0.01035,-0.01917,-0.02770,0.16204,-0.07894,-0.03126,0.86985,-0.14659,0.40121,0.00000,0.00000,0.00000,
1631130134892550656,0.69026,-0.12201,0.26539,0.99938,0.01861,-0.01443,-0.02613,0.16784,-0.13544,-0.06123,0.88316,-0.14302,0.40313,0.00000,0.00000,0.00000,
1631130134959220992,0.69696,-0.12840,0.26339,0.99931,0.02355,-0.01243,-0.02586,0.19080,-0.09339,0.08533,0.89362,-0.14522,0.40208,0.00000,0.00000,0.00000,
1631130135025892352,0.70720,-0.13523,0.27170,0.99927,0.02200,-0.01925,-0.02474,0.14232,-0.12373,0.11186,0.90294,-0.14853,0.40077,0.00000,0.00000,0.00000,
1631130135092562432,0.71911,-0.14165,0.27394,0.99904,0.02597,-0.02611,-0.02391,0.14931,-0.01192,0.02647,0.91054,-0.15748,0.39809,0.00000,0.00000,0.00000,
1631130135159233536,0.72997,-0.13908,0.27216,0.99937,0.01309,-0.02425,-0.02233,0.13286,0.04531,-0.03822,0.95281,-0.15670,0.40637,0.00000,0.00000,0.00000,
1631130135225903872,0.73908,-0.13342,0.27023,0.99955,-0.00022,-0.02177,-0.02084,0.14757,0.13425,-0.01271,0.96263,-0.15852,0.40143,0.00000,0.00000,0.00000,
1631130135292575232,0.74861,-0.12998,0.27578,0.99942,0.00937,-0.02418,-0.02207,0.15410,0.05142,0.05972,0.96783,-0.16499,0.39891,0.00000,0.00000,0.00000,
1631130135359246592,0.75996,-0.12656,0.27722,0.99944,0.00755,-0.02536,-0.02041,0.13149,0.02157,0.00946,0.97446,-0.17191,0.39929,0.00000,0.00000,0.00000,
1631130135425916672,0.76844,-0.12827,0.27655,0.99937,0.00714,-0.02548,-0.02383,0.10873,-0.05107,0.01156,0.98276,-0.17687,0.40418,0.00000,0.00000,0.00000,
1631130135492588032,0.77675,-0.13231,0.27527,0.99945,0.01248,-0.02056,-0.02287,0.09481,-0.09104,-0.03859,0.99254,-0.17657,0.40293,0.00000,0.00000,0.00000,
1631130135559258112,0.78411,-0.13740,0.27274,0.99943,0.01623,-0.01905,-0.02285,0.10685,-0.07961,0.09546,1.00435,-0.16925,0.39782,0.00000,0.00000,0.00000,
1631130135625929472,0.78941,-0.14570,0.28205,0.99932,0.01876,-0.02317,-0.02163,0.10230,-0.11340,0.07021,1.01733,-0.15800,0.39316,0.00000,0.00000,0.00000,
1631130135692599808,0.79270,-0.14926,0.28433,0.99892,0.02544,-0.03122,-0.02305,0.08883,-0.02378,0.00980,1.03358,-0.15167,0.39869,0.00000,0.00000,0.00000,
1631130135759271168,0.79857,-0.14503,0.28258,0.99935,0.01301,-0.02704,-0.02009,0.07699,0.03662,-0.04768,1.04821,-0.14527,0.39947,0.00000,0.00000,0.00000,
1631130135825941248,0.80362,-0.14040,0.28150,0.99947,-0.00080,-0.02535,-0.02063,0.06937,0.11579,-0.01386,1.06374,-0.14654,0.39768,0.00000,0.00000,0.00000,
1631130135892612608,0.80986,-0.13604,0.28424,0.99948,0.00873,-0.02564,-0.01747,0.10053,0.03885,0.07483,1.08094,-0.16014,0.39026,0.00000,0.00000,0.00000,
1631130135959282944,0.81911,-0.13203,0.28411,0.99945,0.00801,-0.02777,-0.01648,0.11004,0.03109,-0.05475,1.09984,-0.16726,0.39333,0.00000,0.00000,0.00000,
1631130136025954048,0.82550,-0.13515,0.28056,0.99948,0.01064,-0.02197,-0.02110,0.09041,-0.04624,-0.02371,1.11574,-0.17413,0.39565,0.00000,0.00000,0.00000,
1631130136092624384,0.83150,-0.13916,0.27954,0.99943,0.01676,-0.01893,-0.02252,0.06800,-0.09511,-0.03259,1.13172,-0.17214,0.39472,0.00000,0.00000,0.00000,
1631130136159295488,0.83631,-0.14390,0.27671,0.99938,0.01745,-0.01796,-0.02472,0.09825,-0.07783,0.03268,1.14667,-0.16401,0.38954,0.00000,0.00000,0.00000,
1631130136225966080,0.84064,-0.14873,0.28368,0.99946,0.01562,-0.01845,-0.02241,0.10512,-0.06472,0.06740,1.16368,-0.15900,0.39260,0.00000,0.00000,0.00000,
1631130136292637184,0.84493,-0.15153,0.28436,0.99918,0.02160,-0.02453,-0.02388,0.12173,0.04326,0.01823,1.17954,-0.15151,0.39848,0.00000,0.00000,0.00000,
1631130136359307264,0.85441,-0.14413,0.28120,0.99959,0.01017,-0.01720,-0.02061,0.15098,0.12154,-0.07825,1.19066,-0.14990,0.39901,0.00000,0.00000,0.00000,
1631130136425978624,0.86437,-0.13714,0.27694,0.99970,-0.00181,-0.01112,-0.02153,0.16829,0.18592,-0.03628,1.20266,-0.15426,0.39590,0.00000,0.00000,0.00000,
1631130136492648960,0.88088,-0.12824,0.27515,0.99968,0.00915,-0.00766,-0.02252,0.22520,0.06673,0.09432,1.21261,-0.16139,0.39555,0.00000,0.00000,0.00000,
1631130136559320064,0.89279,-0.11989,0.27944,0.99960,0.00632,-0.01594,-0.02227,0.20109,0.12291,-0.00088,1.22105,-0.16928,0.40691,0.00000,0.00000,0.00000,
1631130136625990144,0.90409,-0.11937,0.27977,0.99948,0.00385,-0.01949,-0.02552,0.18433,-0.01886,-0.01095,1.22874,-0.17537,0.40779,0.00000,0.00000,0.00000,
1631130136692661504,0.91592,-0.12423,0.27767,0.99937,0.01725,-0.01477,-0.02716,0.16275,-0.10937,-0.07287,1.23260,-0.17851,0.40720,0.00000,0.00000,0.00000,
1631130136759332608,0.92849,-0.13296,0.27204,0.99910,0.02775,-0.00953,-0.03050,0.20592,-0.19262,-0.05539,1.23251,-0.18092,0.40818,0.00000,0.00000,0.00000,
1631130136826002944,0.94366,-0.13955,0.27441,0.99937,0.02423,-0.00699,-0.02491,0.19784,-0.08506,0.08645,1.23491,-0.18516,0.40859,0.00000,0.00000,0.00000,
1631130136892674304,0.95629,-0.14441,0.27797,0.99924,0.02269,-0.01708,-0.02670,0.18615,-0.06072,-0.00488,1.23794,-0.18963,0.40212,0.00000,0.00000,0.00000,
1631130136959344384,0.96546,-0.14393,0.27909,0.99932,0.02144,-0.01879,-0.02349,0.19049,0.04051,-0.02918,1.24155,-0.19655,0.40020,0.00000,0.00000,0.00000,
1631130137026015488,0.98168,-0.13949,0.27493,0.99964,0.00582,-0.01145,-0.02351,0.19762,0.13246,-0.06475,1.24808,-0.20491,0.39781,0.00000,0.00000,0.00000,
1631130137092685824,0.99327,-0.13300,0.27522,0.99965,0.00644,-0.01097,-0.02319,0.22529,0.04458,0.11381,1.25592,-0.21143,0.40449,0.00000,0.00000,0.00000,
1631130137159357184,1.01042,-0.13051,0.28495,0.99947,0.01042,-0.01230,-0.02843,0.18407,0.11420,0.10587,1.26328,-0.21491,0.40455,0.00000,0.00000,0.00000,
1631130137226027264,1.02063,-0.12120,0.28672,0.99945,0.00496,-0.01741,-0.02781,0.14961,0.00960,0.03493,1.27008,-0.21146,0.40268,0.00000,0.00000,0.00000,
1631130137292698368,1.02935,-0.12419,0.28681,0.99932,0.01081,-0.01692,-0.03094,0.12310,-0.04798,-0.03745,1.27707,-0.20386,0.40018,0.00000,0.00000,0.00000,
1631130137359368704,1.03987,-0.12768,0.28480,0.99919,0.02403,-0.01279,-0.02961,0.11416,-0.12043,-0.01635,1.28496,-0.19980,0.40571,0.00000,0.00000,0.00000,
1631130137426039808,1.04540,-0.13402,0.29269,0.99927,0.02324,-0.01321,-0.02713,0.09499,-0.08018,0.21002,1.29245,-0.19715,0.40322,0.00000,0.00000,0.00000,
1631130137492710144,1.04903,-0.14081,0.29915,0.99896,0.02323,-0.02428,-0.03075,0.06243,-0.09331,0.05001,1.29978,-0.20056,0.39724,0.00000,0.00000,0.00000,
1631130137559381504,1.05569,-0.14326,0.30137,0.99888,0.02714,-0.02858,-0.02616,0.03445,-0.03389,0.05520,1.30665,-0.20908,0.39143,0.00000,0.00000,0.00000,
1631130137626051584,1.06002,-0.14505,0.30018,0.99925,0.00822,-0.02676,-0.02687,0.00534,-0.00797,-0.02184,1.31373,-0.21268,0.39670,0.00000,0.00000,0.00000,
1631130137692722688,1.06163,-0.14606,0.30058,0.99921,0.00819,-0.03006,-0.02476,-0.02283,-0.01891,0.05425,1.31938,-0.21603,0.39825,0.00000,0.00000,0.00000,
1631130137759393280,1.06267,-0.14968,0.30488,0.99909,0.01948,-0.02685,-0.02679,0.02637,-0.00578,0.00986,1.32696,-0.21376,0.39684,0.00000,0.00000,0.00000,
1631130137826064384,1.06626,-0.15063,0.29737,0.99921,0.02108,-0.02262,-0.02485,0.04310,-0.06664,-0.07808,1.33642,-0.20711,0.39273,0.00000,0.00000,0.00000,
1631130137892734464,1.06925,-0.15773,0.29532,0.99912,0.02608,-0.01783,-0.02743,0.04816,-0.08183,0.00837,1.34588,-0.19981,0.39259,0.00000,0.00000,0.00000,
1631130137959405824,1.07423,-0.16241,0.29144,0.99913,0.03018,-0.01354,-0.02554,0.08172,-0.08883,-0.04279,1.35605,-0.19298,0.39932,0.00000,0.00000,0.00000,
1631130138026076928,1.07881,-0.16691,0.28848,0.99936,0.01866,-0.00952,-0.02896,0.09294,-0.04248,0.11882,1.36498,-0.18918,0.39972,0.00000,0.00000,0.00000,
1631130138092747264,1.08453,-0.17019,0.29320,0.99923,0.01898,-0.01866,-0.02886,0.09584,-0.06119,-0.00985,1.37254,-0.18853,0.39836,0.00000,0.00000,0.00000,
1631130138159418624,1.09215,-0.17463,0.29750,0.99914,0.02206,-0.02155,-0.02778,0.09546,0.01792,0.02240,1.37825,-0.19211,0.39763,0.00000,0.00000,0.00000,
1631130138226088704,1.09888,-0.17130,0.29482,0.99949,0.00821,-0.01635,-0.02617,0.09362,0.08288,-0.05310,1.38471,-0.19538,0.40266,0.00000,0.00000,0.00000,
1631130138292760320,1.10553,-0.16733,0.29397,0.99958,0.00458,-0.01585,-0.02386,0.10454,0.12241,-0.00639,1.39094,-0.20014,0.40627,0.00000,0.00000,0.00000,
1631130138359430400,1.11221,-0.16265,0.29952,0.99948,0.00964,-0.01781,-0.02494,0.10207,0.05610,0.09476,1.39750,-0.20080,0.40622,0.00000,0.00000,0.00000,
1631130138426102016,1.11891,-0.15737,0.29934,0.99943,0.00427,-0.02254,-0.02468,0.10906,0.02595,-0.04399,1.40231,-0.19686,0.40445,0.00000,0.00000,0.00000,
1631130138492772096,1.12578,-0.16000,0.29425,0.99944,0.00660,-0.01670,-0.02826,0.09171,-0.04084,-0.06649,1.40733,-0.19231,0.40434,0.00000,0.00000,0.00000,
1631130138559443456,1.13268,-0.16417,0.29017,0.99938,0.01565,-0.01041,-0.02974,0.09367,-0.11156,-0.06699,1.41344,-0.19197,0.40435,0.00000,0.00000,0.00000,
1631130138626113536,1.13528,-0.16791,0.28800,0.99931,0.01528,-0.00973,-0.03245,0.10288,-0.01536,0.09472,1.42026,-0.19510,0.40113,0.00000,0.00000,0.00000,
1631130138692785152,1.14191,-0.17198,0.29399,0.99938,0.01522,-0.01486,-0.02789,0.07895,-0.05939,0.04272,1.42691,-0.20381,0.39850,0.00000,0.00000,0.00000,
1631130138759455232,1.14781,-0.17502,0.29466,0.99922,0.01873,-0.02155,-0.02725,0.08254,0.05147,0.02833,1.43422,-0.21369,0.39586,0.00000,0.00000,0.00000,
1631130138826126848,1.15602,-0.16699,0.29208,0.99961,0.00571,-0.01408,-0.02352,0.11169,0.08893,-0.04134,1.44232,-0.22067,0.40496,0.00000,0.00000,0.00000,
1631130138892797184,1.16249,-0.16264,0.28849,0.99961,0.00034,-0.01278,-0.02489,0.11057,0.12025,-0.01323,1.45381,-0.22848,0.40644,0.00000,0.00000,0.00000,
1631130138959468288,1.17151,-0.15629,0.29201,0.99946,0.00922,-0.01191,-0.02912,0.12075,0.02892,0.14748,1.46086,-0.22664,0.40299,0.00000,0.00000,0.00000,
1631130139026138880,1.17983,-0.14778,0.29678,0.99945,0.00215,-0.02069,-0.02572,0.12639,0.11885,0.00156,1.46847,-0.22239,0.40410,0.00000,0.00000,0.00000,
1631130139092810240,1.18601,-0.14487,0.29779,0.99925,-0.00026,-0.02377,-0.03069,0.08906,0.01236,0.04047,1.47815,-0.22336,0.40567,0.00000,0.00000,0.00000,
1631130139159480320,1.19530,-0.14417,0.29651,0.99934,0.01256,-0.01890,-0.02823,0.09263,0.00666,-0.05665,1.48786,-0.22768,0.40174,0.00000,0.00000,0.00000,
1631130139226151680,1.19789,-0.14474,0.29619,0.99929,0.01690,-0.01828,-0.02821,0.06187,-0.06960,0.01677,1.49863,-0.23839,0.39635,0.00000,0.00000,0.00000,
1631130139292821760,1.20440,-0.14859,0.29970,0.99939,0.01420,-0.01743,-0.02666,0.07925,-0.06573,0.12011,1.51007,-0.25273,0.39291,0.00000,0.00000,0.00000,
1631130139359493376,1.20646,-0.15224,0.30335,0.99909,0.01568,-0.02518,-0.03056,0.08030,-0.05694,-0.00181,1.52234,-0.26170,0.40202,0.00000,0.00000,0.00000,
1631130139426164480,1.21361,-0.15282,0.30272,0.99910,0.01574,-0.02519,-0.03035,0.06981,0.01875,-0.00689,1.53377,-0.27161,0.40502,0.00000,0.00000,0.00000,
1631130139492834816,1.21744,-0.15181,0.30174,0.99925,0.01098,-0.02365,-0.02860,0.05640,0.05572,-0.02518,1.54411,-0.27447,0.40590,0.00000,0.00000,0.00000,
1631130139559505920,1.22064,-0.14853,0.30248,0.99930,0.00994,-0.02432,-0.02666,0.07391,0.07247,-0.02529,1.55330,-0.27055,0.40176,0.00000,0.00000,0.00000,
1631130139626176000,1.22594,-0.14581,0.30424,0.99934,0.00965,-0.02520,-0.02419,0.08137,0.00938,-0.00559,1.56330,-0.27044,0.40793,0.00000,0.00000,0.00000,
1631130139692847616,1.23394,-0.14672,0.30154,0.99928,0.00914,-0.02506,-0.02701,0.09552,-0.04857,-0.04314,1.57359,-0.26976,0.40405,0.00000,0.00000,0.00000,
1631130139759517696,1.23834,-0.15102,0.30034,0.99927,0.01574,-0.01984,-0.02860,0.08231,-0.08873,-0.03822,1.58190,-0.27409,0.40107,0.00000,0.00000,0.00000,
1631130139826189056,1.24356,-0.15716,0.29760,0.99926,0.02102,-0.01633,-0.02763,0.08308,-0.13182,-0.03552,1.59046,-0.28128,0.39728,0.00000,0.00000,0.00000,
1631130139892859136,1.25012,-0.16426,0.29550,0.99934,0.01805,-0.01305,-0.02878,0.11273,-0.07704,0.10685,1.60097,-0.29063,0.39807,0.00000,0.00000,0.00000,
1631130139959530496,1.25655,-0.17231,0.30327,0.99905,0.02252,-0.02282,-0.02964,0.09960,-0.13294,0.08973,1.61158,-0.29805,0.40324,0.00000,0.00000,0.00000,
1631130140026200832,1.26492,-0.17912,0.30622,0.99876,0.02790,-0.02766,-0.03053,0.11169,-0.05965,0.01395,1.62255,-0.30171,0.40312,0.00000,0.00000,0.00000,
1631130140092871936,1.27217,-0.17814,0.30389,0.99929,0.00603,-0.02248,-0.02961,0.09561,0.03700,-0.05708,1.63222,-0.29674,0.39938,0.00000,0.00000,0.00000,
1631130140159542272,1.27794,-0.17441,0.30270,0.99938,-0.00474,-0.02195,-0.02709,0.10169,0.05756,0.01810,1.64320,-0.29016,0.39742,0.00000,0.00000,0.00000,
1631130140226213376,1.28506,-0.17414,0.30901,0.99932,0.00831,-0.02414,-0.02647,0.12731,-0.00522,0.03425,1.65821,-0.28630,0.40214,0.00000,0.00000,0.00000,
1631130140292883968,1.29387,-0.17454,0.30567,0.99938,0.00956,-0.02244,-0.02552,0.13740,-0.05974,-0.05144,1.66992,-0.28564,0.40020,0.00000,0.00000,0.00000,
1631130140359555072,1.30211,-0.18112,0.30235,0.99928,0.01644,-0.01721,-0.02942,0.13217,-0.12584,-0.04222,1.68214,-0.29326,0.39590,0.00000,0.00000,0.00000,
1631130140426225408,1.31287,-0.18874,0.29836,0.99923,0.02553,-0.00910,-0.02827,0.15171,-0.16093,-0.07452,1.69405,-0.30456,0.39059,0.00000,0.00000,0.00000,
1631130140492896768,1.32106,-0.19885,0.29550,0.99927,0.02469,-0.00550,-0.02851,0.18149,-0.13528,0.11428,1.70890,-0.31398,0.39545,0.00000,0.00000,0.00000,
1631130140559566848,1.33173,-0.20911,0.30580,0.99920,0.02346,-0.01623,-0.02805,0.15573,-0.16765,0.12209,1.72039,-0.32119,0.39856,0.00000,0.00000,0.00000,
1631130140626238464,1.34118,-0.21617,0.30899,0.99887,0.03039,-0.02452,-0.02694,0.15352,-0.06824,0.02966,1.73221,-0.32308,0.39948,0.00000,0.00000,0.00000,
1631130140692909568,1.35254,-0.21851,0.30837,0.99930,0.01339,-0.02335,-0.02586,0.13288,-0.00091,-0.03684,1.74503,-0.31834,0.39485,0.00000,0.00000,0.00000,
1631130140759579904,1.35994,-0.21382,0.30515,0.99948,-0.00647,-0.01972,-0.02475,0.13586,0.07864,-0.01251,1.75828,-0.31525,0.40102,0.00000,0.00000,0.00000,
1631130140826251008,1.36784,-0.21264,0.31291,0.99937,0.00707,-0.02448,-0.02460,0.12742,-0.01709,0.08364,1.76967,-0.31203,0.40278,0.00000,0.00000,0.00000,
1631130140892921344,1.37683,-0.21201,0.31045,0.99943,0.01217,-0.02151,-0.02285,0.12939,-0.00239,-0.06617,1.77985,-0.31423,0.40268,0.00000,0.00000,0.00000,
1631130140959592704,1.38585,-0.21628,0.30640,0.99937,0.01583,-0.01680,-0.02677,0.11263,-0.08956,-0.01168,1.79148,-0.31900,0.39931,0.00000,0.00000,0.00000,
1631130141026263040,1.39228,-0.22087,0.30443,0.99930,0.02209,-0.01336,-0.02692,0.09965,-0.09494,-0.03317,1.80166,-0.32731,0.39793,0.00000,0.00000,0.00000,
1631130141092934144,1.40078,-0.22735,0.30095,0.99937,0.01972,-0.01026,-0.02781,0.14998,-0.12305,0.02767,1.81003,-0.33142,0.40554,0.00000,0.00000,0.00000,
1631130141159604480,1.41009,-0.23455,0.30818,0.99932,0.01995,-0.01450,-0.02728,0.14303,-0.09735,0.06517,1.81987,-0.33609,0.40588,0.00000,0.00000,0.00000,
1631130141226275584,1.41659,-0.23909,0.31030,0.99896,0.02687,-0.02152,-0.02977,0.14241,-0.04348,0.01705,1.83045,-0.33208,0.40391,0.00000,0.00000,0.00000,
1631130141292945920,1.42541,-0.23618,0.30766,0.99938,0.01356,-0.01657,-0.02797,0.13572,0.07909,-0.05806,1.83861,-0.32547,0.39978,0.00000,0.00000,0.00000,
1631130141359617280,1.43455,-0.23083,0.30494,0.99954,-0.00092,-0.01342,-0.02732,0.14821,0.10926,-0.01515,1.84986,-0.31748,0.40023,0.00000,0.00000,0.00000,
1631130141426287360,1.44657,-0.22565,0.30700,0.99950,0.01282,-0.01201,-0.02613,0.16980,0.03022,0.11754,1.86232,-0.31332,0.40530,0.00000,0.00000,0.00000,
1631130141492958464,1.45689,-0.22218,0.30990,0.99946,0.00818,-0.01722,-0.02682,0.16772,0.04150,-0.03004,1.87524,-0.31190,0.40393,0.00000,0.00000,0.00000,
1631130141559629056,1.46662,-0.22384,0.30886,0.99933,0.00841,-0.01803,-0.03057,0.15980,-0.07575,-0.03009,1.88662,-0.31825,0.39983,0.00000,0.00000,0.00000,
1631130141626300160,1.47895,-0.23138,0.30445,0.99920,0.02120,-0.01113,-0.03213,0.15574,-0.15774,-0.08269,1.89652,-0.32751,0.39576,0.00000,0.00000,0.00000,
1631130141692970240,1.49178,-0.24093,0.29866,0.99905,0.02322,-0.00864,-0.03593,0.19878,-0.14901,0.03049,1.89980,-0.33048,0.39449,0.00000,0.00000,0.00000,
1631130141759641600,1.50221,-0.24793,0.30486,0.99922,0.02287,-0.01168,-0.03006,0.17106,-0.11410,0.08037,1.92993,-0.35057,0.40003,0.00000,0.00000,0.00000,
1631130141826311936,1.51019,-0.25575,0.30833,0.99888,0.02848,-0.02193,-0.03080,0.15971,-0.05710,0.02339,1.94458,-0.35335,0.40073,0.00000,0.00000,0.00000,
1631130141892983040,1.52098,-0.25382,0.30710,0.99918,0.02090,-0.02037,-0.02799,0.15462,0.02238,-0.04867,1.96207,-0.34758,0.39468,0.00000,0.00000,0.00000,
1631130141959653120,1.53160,-0.24978,0.30404,0.99948,0.00044,-0.01438,-0.02874,0.15005,0.11322,-0.04919,1.98093,-0.34055,0.39258,0.00000,0.00000,0.00000,
1631130142026324480,1.54198,-0.24720,0.30603,0.99935,0.00721,-0.01899,-0.02963,0.13983,-0.03528,0.15284,1.99987,-0.33538,0.39539,0.00000,0.00000,0.00000,
1631130142092995584,1.55110,-0.24354,0.31154,0.99930,0.01067,-0.02277,-0.02786,0.16575,0.10296,-0.07430,2.01765,-0.33367,0.39671,0.00000,0.00000,0.00000,
1631130142159665920,1.56287,-0.24453,0.31103,0.99922,0.01197,-0.02242,-0.03032,0.13707,-0.04405,-0.02088,2.03541,-0.33811,0.39398,0.00000,0.00000,0.00000,
1631130142226337280,1.57216,-0.24792,0.30787,0.99924,0.01644,-0.01654,-0.03109,0.13454,-0.03633,-0.08731,2.05129,-0.35007,0.38829,0.00000,0.00000,0.00000,
1631130142293007360,1.58040,-0.25295,0.30304,0.99921,0.02390,-0.00906,-0.03027,0.14434,-0.13678,-0.09151,2.07037,-0.36186,0.38549,0.00000,0.00000,0.00000,
1631130142359678720,1.59034,-0.25977,0.30461,0.99929,0.02466,-0.00530,-0.02794,0.13559,-0.08793,0.08432,2.08899,-0.37513,0.39508,0.00000,0.00000,0.00000,
1631130142426348800,1.59577,-0.26618,0.30524,0.99892,0.03356,-0.00198,-0.03193,0.12364,-0.06082,-0.03920,2.10803,-0.38214,0.39642,0.00000,0.00000,0.00000,
1631130142493020416,1.60562,-0.26367,0.30064,0.99902,0.03394,0.00170,-0.02828,0.12747,0.06389,-0.02854,2.12655,-0.37880,0.39207,0.00000,0.00000,0.00000,
1631130142559690496,1.61474,-0.25904,0.29769,0.99932,0.02101,0.01091,-0.02834,0.11843,0.10913,-0.07522,2.14834,-0.37087,0.38743,0.00000,0.00000,0.00000,
1631130142626361600,1.62237,-0.25086,0.29631,0.99932,0.02636,0.00978,-0.02396,0.15947,0.15152,-0.02175,2.16876,-0.36953,0.39253,0.00000,0.00000,0.00000,
1631130142693031936,1.63401,-0.24825,0.30565,0.99868,0.04249,0.00689,-0.02792,0.16568,0.05483,0.10032,2.18729,-0.36718,0.39153,0.00000,0.00000,0.00000,
1631130142759703040,1.64476,-0.24103,0.30769,0.99890,0.03878,-0.00462,-0.02609,0.16024,0.01245,-0.01317,2.20491,-0.37327,0.39003,0.00000,0.00000,0.00000,
1631130142826373632,1.65440,-0.24580,0.30741,0.99854,0.04341,-0.00728,-0.03122,0.15892,-0.07850,-0.06365,2.22268,-0.38591,0.38321,0.00000,0.00000,0.00000,
1631130142893044736,1.66631,-0.25302,0.30434,0.99780,0.05864,-0.00200,-0.03070,0.15399,-0.17883,-0.09020,2.24266,-0.39637,0.38421,0.00000,0.00000,0.00000,
1631130142959715072,1.67840,-0.26266,0.29887,0.99778,0.05734,0.00080,-0.03399,0.20920,-0.16355,0.01298,2.25826,-0.40859,0.39060,0.00000,0.00000,0.00000,
1631130143026386176,1.69184,-0.27207,0.30538,0.99788,0.05805,-0.00030,-0.02929,0.19073,-0.14975,0.08158,2.27438,-0.41230,0.39132,0.00000,0.00000,0.00000,
1631130143093056768,1.70391,-0.28041,0.30869,0.99734,0.06521,-0.01177,-0.03043,0.19788,-0.05433,0.03351,2.28621,-0.41326,0.39059,0.00000,0.00000,0.00000,
1631130143159727872,1.71623,-0.27926,0.30773,0.99786,0.05805,-0.01168,-0.02773,0.20233,0.02703,-0.04880,2.30086,-0.40656,0.38852,0.00000,0.00000,0.00000,
1631130143226398208,1.73243,-0.27402,0.30405,0.99913,0.03171,-0.00372,-0.02700,0.21433,0.15834,-0.04607,2.31289,-0.40893,0.39432,0.00000,0.00000,0.00000,
1631130143293069312,1.74623,-0.26952,0.30660,0.99881,0.03967,-0.00573,-0.02776,0.28211,0.02393,0.03504,2.32581,-0.40354,0.39124,0.00000,0.00000,0.00000,
1631130143359740672,1.76620,-0.26806,0.31312,0.99856,0.04445,-0.00432,-0.02973,0.22599,0.08668,0.07247,2.33943,-0.41168,0.38825,0.00000,0.00000,0.00000,
1631130143426411008,1.78170,-0.26041,0.31419,0.99868,0.03936,-0.00980,-0.03153,0.20653,-0.02913,0.06012,2.35237,-0.42072,0.38363,0.00000,0.00000,0.00000,
1631130143493082368,1.79430,-0.26472,0.31248,0.99850,0.04228,-0.00815,-0.03386,0.21419,-0.07022,-0.09814,2.36962,-0.43200,0.38160,0.00000,0.00000,0.00000,
1631130143559752448,1.80941,-0.27398,0.30667,0.99793,0.05490,-0.00025,-0.03344,0.21848,-0.18650,-0.05503,2.38259,-0.44061,0.38405,0.00000,0.00000,0.00000,
1631130143626423808,1.82543,-0.28237,0.29907,0.99817,0.05213,0.00551,-0.03005,0.26234,-0.09630,0.04443,2.39602,-0.44210,0.38748,0.00000,0.00000,0.00000,
1631130143693093888,1.83768,-0.29346,0.30740,0.99811,0.05339,-0.00498,-0.03015,0.20902,-0.20515,0.12916,2.40908,-0.43947,0.38530,0.00000,0.00000,0.00000,
1631130143759765504,1.85510,-0.30529,0.31256,0.99757,0.06057,-0.01606,-0.03048,0.23331,-0.08586,0.01287,2.42464,-0.42709,0.37933,0.00000,0.00000,0.00000,
1631130143826435584,1.87414,-0.30616,0.31068,0.99865,0.04096,-0.01284,-0.02930,0.22579,0.03078,-0.05662,2.44183,-0.42413,0.38265,0.00000,0.00000,0.00000,
1631130143893106944,1.89068,-0.29709,0.30411,0.99949,0.01310,-0.00570,-0.02858,0.26524,0.11821,-0.07292,2.45739,-0.41188,0.38706,0.00000,0.00000,0.00000,
1631130143959777024,1.90700,-0.29550,0.30979,0.99891,0.03040,-0.00145,-0.03544,0.24088,-0.03901,0.16218,2.47016,-0.40992,0.38637,0.00000,0.00000,0.00000,
1631130144026448128,1.92345,-0.29188,0.31373,0.99877,0.03752,-0.00299,-0.03222,0.23093,0.05341,0.00958,2.48144,-0.41324,0.38488,0.00000,0.00000,0.00000,
1631130144093118720,1.93748,-0.29256,0.31262,0.99866,0.03541,-0.00669,-0.03708,0.20896,-0.08881,0.02163,2.49213,-0.42202,0.38261,0.00000,0.00000,0.00000,
1631130144159789824,1.95132,-0.29817,0.30913,0.99842,0.04134,-0.00534,-0.03777,0.21307,-0.13421,-0.08776,2.50340,-0.42403,0.38826,0.00000,0.00000,0.00000,
1631130144226460160,1.96712,-0.30908,0.30285,0.99782,0.05304,-0.00094,-0.03920,0.26213,-0.23979,-0.12529,2.51283,-0.43208,0.38884,0.00000,0.00000,0.00000,
1631130144293131520,1.98421,-0.31749,0.30516,0.99813,0.05333,0.00600,-0.02913,0.20752,-0.12238,0.16462,2.52696,-0.42658,0.38744,0.00000,0.00000,0.00000,
1631130144359801856,1.99763,-0.32563,0.31256,0.99828,0.04765,-0.00868,-0.03313,0.18151,-0.10936,0.04875,2.53839,-0.41924,0.38350,0.00000,0.00000,0.00000,
1631130144426473216,2.00863,-0.32680,0.31311,0.99855,0.04446,-0.01193,-0.02786,0.17198,-0.02540,0.04062,2.54906,-0.41110,0.37933,0.00000,0.00000,0.00000,
1631130144493143296,2.02024,-0.32663,0.31284,0.99895,0.03252,-0.01106,-0.03028,0.14303,0.08627,-0.01621,2.56926,-0.40383,0.38708,0.00000,0.00000,0.00000,
1631130144559814656,2.03100,-0.32273,0.31199,0.99922,0.02782,-0.01336,-0.02473,0.18700,0.07193,-0.01468,2.58181,-0.39538,0.38877,0.00000,0.00000,0.00000,
1631130144626484992,2.04201,-0.32490,0.31686,0.99857,0.03621,-0.00572,-0.03902,0.14628,0.00472,0.10858,2.59256,-0.39736,0.38952,0.00000,0.00000,0.00000,
1631130144693156352,2.05676,-0.32424,0.31839,0.99871,0.04021,-0.00611,-0.03032,0.16504,0.04259,-0.08535,2.60503,-0.40749,0.38399,0.00000,0.00000,0.00000,
1631130144759827712,2.06729,-0.32618,0.31408,0.99860,0.03641,-0.00477,-0.03799,0.15910,-0.10531,-0.03773,2.61987,-0.41579,0.38649,0.00000,0.00000,0.00000,
1631130144826497792,2.07826,-0.33034,0.31307,0.99844,0.04066,-0.00403,-0.03814,0.16195,-0.11682,-0.07680,2.63257,-0.42239,0.39253,0.00000,0.00000,0.00000,
1631130144893169152,2.09076,-0.33976,0.30657,0.99795,0.04988,0.00145,-0.04016,0.21936,-0.15681,-0.06147,2.64422,-0.42159,0.39195,0.00000,0.00000,0.00000,
1631130144959839232,2.10463,-0.34644,0.30748,0.99842,0.04538,0.00838,-0.03211,0.18889,-0.12726,0.05606,2.65532,-0.41492,0.38566,0.00000,0.00000,0.00000,
1631130145026510592,2.11467,-0.35133,0.30962,0.99850,0.04346,-0.00364,-0.03317,0.17490,-0.02790,0.03827,2.67105,-0.40144,0.38082,0.00000,0.00000,0.00000,
1631130145093180928,2.12515,-0.35099,0.31254,0.99859,0.04356,-0.00958,-0.02883,0.17618,0.02836,0.00572,2.68566,-0.39496,0.38539,0.00000,0.00000,0.00000,
1631130145159852288,2.13595,-0.34627,0.31075,0.99910,0.02886,-0.00502,-0.03059,0.16439,0.18458,-0.04959,2.69983,-0.38524,0.38925,0.00000,0.00000,0.00000,
1631130145226522368,2.15030,-0.33538,0.30604,0.99946,0.01989,-0.00161,-0.02614,0.23892,0.11308,-0.01927,2.71208,-0.38492,0.39122,0.00000,0.00000,0.00000,
1631130145293193728,2.16343,-0.33084,0.31236,0.99878,0.02925,0.00217,-0.03962,0.18929,0.15868,0.13527,2.72071,-0.38775,0.38770,0.00000,0.00000,0.00000,
1631130145359864064,2.17702,-0.32287,0.31546,0.99905,0.02555,-0.00573,-0.03474,0.17601,0.05986,-0.00744,2.73073,-0.39663,0.38619,0.00000,0.00000,0.00000,
1631130145426535424,2.18727,-0.32252,0.31592,0.99884,0.01952,-0.01133,-0.04255,0.14925,-0.02265,0.00612,2.74321,-0.40020,0.39220,0.00000,0.00000,0.00000,
1631130145493205760,2.19690,-0.32409,0.31433,0.99862,0.02902,-0.01076,-0.04254,0.12657,-0.10633,-0.07167,2.75569,-0.40204,0.39166,0.00000,0.00000,0.00000,
1631130145559876864,2.20756,-0.33099,0.30928,0.99810,0.04074,-0.00899,-0.04543,0.12009,-0.06568,0.13596,2.76692,-0.39642,0.38817,0.00000,0.00000,0.00000,
1631130145626547456,2.21366,-0.33377,0.31690,0.99868,0.03614,-0.00683,-0.03591,0.11759,-0.09807,0.05137,2.78346,-0.38007,0.38232,0.00000,0.00000,0.00000,
1631130145693218560,2.22325,-0.33898,0.32128,0.99840,0.03742,-0.01516,-0.03949,0.11828,-0.00756,0.03026,2.79890,-0.37360,0.38413,0.00000,0.00000,0.00000,
1631130145759888896,2.23243,-0.33558,0.31941,0.99874,0.03379,-0.01600,-0.03354,0.13462,0.06543,-0.00191,2.81265,-0.36353,0.39055,0.00000,0.00000,0.00000,
1631130145826560000,2.24385,-0.33121,0.31742,0.99911,0.02289,-0.01090,-0.03366,0.15186,0.14853,-0.02906,2.82729,-0.35990,0.39264,0.00000,0.00000,0.00000,
1631130145893230336,2.25443,-0.32193,0.31492,0.99925,0.02232,-0.00800,-0.03060,0.20462,0.15009,-0.04813,2.84326,-0.36277,0.38941,0.00000,0.00000,0.00000,
1631130145959901696,2.26843,-0.31759,0.32008,0.99859,0.03317,0.00012,-0.04148,0.16329,0.11025,0.16574,2.86141,-0.37288,0.38279,0.00000,0.00000,0.00000,
1631130146026573056,2.27879,-0.30663,0.32546,0.99893,0.02668,-0.01000,-0.03646,0.16659,0.09015,0.01973,2.87845,-0.38258,0.38929,0.00000,0.00000,0.00000,
1631130146093243136,2.28861,-0.30697,0.32632,0.99875,0.02330,-0.01555,-0.04139,0.14824,-0.04345,0.02411,2.89363,-0.39751,0.40261,0.00000,0.00000,0.00000,
1631130146159914496,2.30009,-0.30996,0.32435,0.99863,0.03012,-0.01289,-0.04068,0.14597,-0.10155,-0.07012,2.91558,-0.39958,0.39965,0.00000,0.00000,0.00000,
1631130146226584576,2.31139,-0.31807,0.31858,0.99832,0.03563,-0.01006,-0.04453,0.17111,-0.12709,0.00814,2.93062,-0.38983,0.39437,0.00000,0.00000,0.00000,
1631130146293255936,2.31734,-0.32258,0.32643,0.99862,0.03789,-0.00782,-0.03539,0.13306,-0.10918,0.09521,2.94929,-0.38072,0.38953,0.00000,0.00000,0.00000,
1631130146359926272,2.32652,-0.33023,0.32926,0.99823,0.03960,-0.01590,-0.04151,0.12539,-0.05876,0.01168,2.96962,-0.36701,0.39097,0.00000,0.00000,0.00000,
1631130146426597632,2.33932,-0.32516,0.32729,0.99866,0.03411,-0.01393,-0.03634,0.15081,0.08796,-0.01018,2.98604,-0.36143,0.39732,0.00000,0.00000,0.00000,
1631130146493267712,2.34960,-0.31957,0.32366,0.99918,0.01485,-0.00503,-0.03724,0.15776,0.14986,-0.07287,3.00350,-0.36165,0.39369,0.00000,0.00000,0.00000,
1631130146559938816,2.36291,-0.30892,0.32152,0.99927,0.01928,-0.00377,-0.03281,0.20530,0.15784,-0.01407,3.01984,-0.37080,0.38642,0.00000,0.00000,0.00000,
1631130146626609408,2.37707,-0.30308,0.32756,0.99864,0.02992,0.00094,-0.04268,0.18084,0.14728,0.13584,3.04128,-0.38561,0.38188,0.00000,0.00000,0.00000,
1631130146693280512,2.38740,-0.29152,0.33278,0.99901,0.01827,-0.01223,-0.03877,0.16632,0.08712,0.05522,3.06241,-0.39606,0.38866,0.00000,0.00000,0.00000,
1631130146759950848,2.39692,-0.29068,0.33582,0.99871,0.01495,-0.01881,-0.04468,0.14705,0.01271,0.00859,3.07780,-0.40181,0.39326,0.00000,0.00000,0.00000,
1631130146826621952,2.40838,-0.29325,0.33296,0.99845,0.03126,-0.01513,-0.04344,0.13117,-0.09998,-0.06030,3.09615,-0.39837,0.38921,0.00000,0.00000,0.00000,
1631130146893292544,2.41750,-0.30035,0.32721,0.99808,0.03836,-0.01257,-0.04694,0.12480,-0.06630,0.09179,3.11472,-0.38541,0.38093,0.00000,0.00000,0.00000,
1631130146959963648,2.42318,-0.30311,0.33274,0.99860,0.03563,-0.01042,-0.03772,0.12367,-0.10138,-0.00299,3.13619,-0.37416,0.37234,0.00000,0.00000,0.00000,
1631130147026633728,2.43167,-0.30830,0.33427,0.99836,0.03521,-0.01749,-0.04151,0.12147,-0.00486,-0.02667,3.16257,-0.36015,0.37655,0.00000,0.00000,0.00000,
1631130147093305088,2.44163,-0.30332,0.33427,0.99875,0.03060,-0.01562,-0.03644,0.14159,0.07906,-0.04558,3.18389,-0.35447,0.38378,0.00000,0.00000,0.00000,
1631130147159975168,2.45166,-0.29726,0.32985,0.99915,0.01693,-0.00608,-0.03718,0.14528,0.17901,-0.07095,3.20918,-0.35606,0.37908,0.00000,0.00000,0.00000,
1631130147226646784,2.46391,-0.28562,0.32927,0.99923,0.01887,-0.00630,-0.03396,0.22332,0.17441,-0.06427,3.23349,-0.37156,0.36630,0.00000,0.00000,0.00000,
1631130147293316864,2.47930,-0.27939,0.33344,0.99845,0.03555,-0.00272,-0.04265,0.18720,0.11130,0.17582,3.26717,-0.39273,0.35530,0.00000,0.00000,0.00000,
1631130147359988224,2.49025,-0.26774,0.33955,0.99888,0.02111,-0.01698,-0.03887,0.19606,0.09375,0.05992,3.28446,-0.40520,0.37320,0.00000,0.00000,0.00000,
1631130147426659584,2.50263,-0.26668,0.34179,0.99873,0.01841,-0.02285,-0.04093,0.18563,-0.00869,0.00430,3.30080,-0.41413,0.38608,0.00000,0.00000,0.00000,
1631130147493329664,2.51724,-0.27021,0.33832,0.99856,0.03485,-0.01575,-0.03763,0.19420,-0.09120,-0.07996,3.31494,-0.41679,0.38788,0.00000,0.00000,0.00000,
1631130147560001024,2.53078,-0.27702,0.33332,0.99845,0.04278,-0.00958,-0.03438,0.22931,-0.14302,-0.09646,3.32619,-0.41126,0.39024,0.00000,0.00000,0.00000,
1631130147626671360,2.54563,-0.28581,0.33710,0.99864,0.04451,-0.00594,-0.02636,0.18860,-0.21046,0.19104,3.33967,-0.40806,0.38863,0.00000,0.00000,0.00000,
1631130147693342720,2.55320,-0.30119,0.34808,0.99748,0.05620,-0.02427,-0.03580,0.16311,-0.14316,0.13947,3.35181,-0.40052,0.39191,0.00000,0.00000,0.00000,
1631130147760012800,2.56594,-0.30276,0.34998,0.99792,0.04675,-0.02849,-0.03407,0.19394,-0.00443,-0.07989,3.36104,-0.39641,0.39178,0.00000,0.00000,0.00000,
1631130147826684160,2.58030,-0.29724,0.34664,0.99911,0.01614,-0.01801,-0.03470,0.16505,0.17051,-0.06728,3.36972,-0.40091,0.39044,0.00000,0.00000,0.00000,
1631130147893354496,2.59412,-0.28860,0.34551,0.99924,0.01411,-0.01925,-0.03094,0.21153,0.11995,-0.01455,3.37723,-0.41082,0.38463,0.00000,0.00000,0.00000,
1631130147960025856,2.61181,-0.27717,0.33969,0.99859,0.04294,-0.01049,-0.02943,0.26095,0.22251,-0.01421,3.38799,-0.42526,0.38183,0.00000,0.00000,0.00000,
1631130148026695936,2.62804,-0.26666,0.34607,0.99884,0.02560,-0.02386,-0.03315,0.19540,0.08808,0.15147,3.39617,-0.43417,0.38749,0.00000,0.00000,0.00000,
1631130148093367296,2.64166,-0.26229,0.35156,0.99851,0.01569,-0.03717,-0.03683,0.21833,0.07775,-0.01856,3.40255,-0.43909,0.38944,0.00000,0.00000,0.00000,
1631130148160037632,2.65839,-0.26597,0.34783,0.99822,0.03718,-0.02860,-0.03692,0.21187,-0.11668,-0.06875,3.40958,-0.43636,0.38844,0.00000,0.00000,0.00000,
1631130148226708992,2.67533,-0.27416,0.34157,0.99760,0.05721,-0.02036,-0.03329,0.23418,-0.16005,-0.10648,3.41638,-0.42761,0.38294,0.00000,0.00000,0.00000,
1631130148293379328,2.69449,-0.28791,0.33958,0.99795,0.05212,-0.01301,-0.03465,0.28678,-0.17995,-0.00292,3.42752,-0.41895,0.38113,0.00000,0.00000,0.00000,
1631130148360050688,2.71002,-0.29640,0.34937,0.99766,0.05567,-0.02364,-0.03188,0.20578,-0.10376,0.19405,3.43712,-0.40985,0.38643,0.00000,0.00000,0.00000,
1631130148426721024,2.72433,-0.30229,0.35332,0.99736,0.05648,-0.03165,-0.03280,0.22398,-0.02318,0.01778,3.44449,-0.40489,0.38883,0.00000,0.00000,0.00000,
1631130148493392384,2.74115,-0.29702,0.35051,0.99863,0.03317,-0.02345,-0.03298,0.22240,0.17019,-0.07091,3.44983,-0.40663,0.38799,0.00000,0.00000,0.00000,
1631130148560062976,2.75899,-0.28429,0.34507,0.99943,0.00441,-0.01249,-0.03121,0.27829,0.22040,-0.06784,3.45491,-0.41407,0.38387,0.00000,0.00000,0.00000,
1631130148626734336,2.78193,-0.27128,0.33974,0.99907,0.02680,0.00207,-0.03376,0.37108,0.19392,-0.08529,3.45996,-0.42451,0.38280,0.00000,0.00000,0.00000,
1631130148693405952,2.80372,-0.25876,0.34866,0.99913,0.02389,-0.00343,-0.03395,0.28179,0.14476,0.24907,3.46436,-0.43352,0.39249,0.00000,0.00000,0.00000,
1631130148760076288,2.82126,-0.25397,0.35613,0.99911,0.01462,-0.01793,-0.03517,0.30421,0.04703,0.01950,3.46726,-0.44255,0.39836,0.00000,0.00000,0.00000,
1631130148826747648,2.84229,-0.25602,0.35180,0.99922,0.02424,-0.01094,-0.02904,0.30924,-0.10828,-0.12058,3.46999,-0.44527,0.39880,0.00000,0.00000,0.00000,
1631130148893417984,2.86655,-0.27096,0.34002,0.99773,0.06245,-0.00093,-0.02530,0.37084,-0.28783,-0.22976,3.46872,-0.44449,0.39707,0.00000,0.00000,0.00000,
1631130148960089344,2.89229,-0.28811,0.33260,0.99731,0.07150,0.00757,-0.01459,0.36030,-0.22177,-0.13322,3.46767,-0.44219,0.39651,0.00000,0.00000,0.00000,
1631130149026759936,2.90596,-0.29201,0.34585,0.99823,0.05843,0.00073,-0.01071,0.14430,-0.12917,0.36362,3.46626,-0.44153,0.39560,0.00000,0.00000,0.00000,
1631130149093431296,2.91530,-0.30094,0.36125,0.99903,0.03621,-0.02091,-0.01355,0.18007,-0.07843,0.11425,3.46474,-0.44117,0.39621,0.00000,0.00000,0.00000,
1631130149160101632,2.92811,-0.30508,0.36299,0.99905,0.03503,-0.02060,-0.01580,0.10091,0.04668,0.06622,3.46409,-0.44055,0.39582,0.00000,0.00000,0.00000,
1631130149226772992,2.93969,-0.30176,0.36594,0.99907,0.03143,-0.02718,-0.01184,0.16385,0.11139,0.00588,3.46430,-0.43932,0.39599,0.00000,0.00000,0.00000,
1631130149293443328,2.95188,-0.29793,0.36327,0.99898,0.03493,-0.02262,-0.01742,0.10025,0.12008,0.11606,3.46469,-0.43924,0.39583,0.00000,0.00000,0.00000,
1631130149360114688,2.96417,-0.29004,0.36551,0.99929,0.02877,-0.01064,-0.02202,0.12242,0.18670,-0.00644,3.46476,-0.43933,0.39576,0.00000,0.00000,0.00000,
1631130149426785024,2.97332,-0.28624,0.36441,0.99944,0.02074,-0.01477,-0.02193,0.09022,0.00013,-0.02893,3.46447,-0.44003,0.39557,0.00000,0.00000,0.00000,
1631130149493456384,2.98163,-0.29114,0.36288,0.99927,0.02324,-0.01098,-0.02817,0.09239,-0.04393,-0.08190,3.46447,-0.43989,0.39554,0.00000,0.00000,0.00000,
1631130149560126464,2.99061,-0.29986,0.35966,0.99888,0.03813,-0.00112,-0.02804,0.08794,-0.19199,-0.08972,3.46471,-0.43909,0.39577,0.00000,0.00000,0.00000,
1631130149626797824,2.99842,-0.31238,0.35539,0.99866,0.03840,0.00296,-0.03464,0.11843,-0.12445,0.04206,3.46465,-0.43912,0.39576,0.00000,0.00000,0.00000,
1631130149693468416,3.00989,-0.32087,0.35773,0.99889,0.03829,0.00624,-0.02655,0.09889,-0.14171,0.06212,3.46448,-0.43942,0.39578,0.00000,0.00000,0.00000,
1631130149760139520,3.01504,-0.32812,0.36297,0.99848,0.04600,-0.00819,-0.02936,0.10005,-0.03853,0.03205,3.46435,-0.43966,0.39594,0.00000,0.00000,0.00000,
1631130149826809856,3.02160,-0.32665,0.36288,0.99879,0.04123,-0.00567,-0.02629,0.09225,0.07059,-0.04984,3.46460,-0.43936,0.39574,0.00000,0.00000,0.00000,
1631130149893481216,3.02794,-0.31931,0.35986,0.99951,0.01778,0.00302,-0.02546,0.09412,0.16605,-0.07102,3.46459,-0.43919,0.39577,0.00000,0.00000,0.00000,
1631130149960151552,3.03620,-0.31064,0.35611,0.99939,0.02280,0.00800,-0.02515,0.12794,0.08993,0.05701,3.46455,-0.43921,0.39576,0.00000,0.00000,0.00000,
1631130150026822912,3.04478,-0.30420,0.36160,0.99888,0.03035,0.01449,-0.03330,0.11846,0.17705,0.08184,3.46438,-0.43954,0.39594,0.00000,0.00000,0.00000,
1631130150093494272,3.05187,-0.29699,0.36527,0.99926,0.02244,0.00462,-0.03085,0.09240,0.05550,0.05166,3.46439,-0.43954,0.39595,0.00000,0.00000,0.00000,
1631130150160164608,3.05722,-0.29728,0.36653,0.99923,0.02087,0.00052,-0.03330,0.08007,-0.01887,-0.02616,3.46439,-0.43949,0.39593,0.00000,0.00000,0.00000,
1631130150226836224,3.06227,-0.30213,0.36332,0.99894,0.03300,0.00596,-0.03145,0.06257,-0.12664,-0.06097,3.46456,-0.43927,0.39575,0.00000,0.00000,0.00000,
1631130150293506816,3.06794,-0.31206,0.35939,0.99870,0.03755,0.00959,-0.03319,0.08243,-0.15066,-0.00613,3.46455,-0.43931,0.39575,0.00000,0.00000,0.00000,
1631130150360178688,3.07303,-0.32119,0.36608,0.99870,0.04172,0.00592,-0.02856,0.04802,-0.18036,0.18956,3.46453,-0.43940,0.39573,0.00000,0.00000,0.00000,
1631130150426849280,3.07367,-0.33291,0.37408,0.99803,0.05163,-0.01440,-0.03271,0.03849,-0.10876,0.03469,3.46452,-0.43936,0.39576,0.00000,0.00000,0.00000,
1631130150493520896,3.07719,-0.33471,0.37390,0.99829,0.04909,-0.01375,-0.02860,0.01050,0.00176,-0.00419,3.46454,-0.43930,0.39575,0.00000,0.00000,0.00000,
1631130150560191744,3.07797,-0.33398,0.37273,0.99926,0.02274,-0.01108,-0.02889,-0.00578,0.04757,-0.04001,3.46455,-0.43929,0.39575,0.00000,0.00000,0.00000,
1631130150626863360,3.07754,-0.33200,0.37149,0.99936,0.02468,-0.01344,-0.02212,-0.01206,0.02600,0.01171,3.46453,-0.43935,0.39574,0.00000,0.00000,0.00000,
1631130150693534464,3.07781,-0.33126,0.36982,0.99916,0.03290,-0.01788,-0.01678,-0.00554,0.00486,-0.02998,3.46453,-0.43932,0.39576,0.00000,0.00000,0.00000,
1631130150760206080,3.07637,-0.33100,0.37022,0.99916,0.03246,-0.01897,-0.01628,-0.01086,0.00651,-0.00215,3.46454,-0.43930,0.39576,0.00000,0.00000,0.00000,
1631130150826876928,3.07536,-0.32983,0.36934,0.99921,0.03127,-0.01912,-0.01564,0.00323,0.02214,0.00266,3.46453,-0.43929,0.39575,0.00000,0.00000,0.00000,
1631130150893548544,3.07584,-0.32918,0.36902,0.99922,0.03073,-0.01903,-0.01576,0.01096,0.00557,-0.00251,3.46452,-0.43932,0.39575,0.00000,0.00000,0.00000,
1631130150960219392,3.07607,-0.32916,0.36891,0.99922,0.03085,-0.01887,-0.01560,0.00264,-0.00549,0.00155,3.46452,-0.43935,0.39576,0.00000,0.00000,0.00000,
1631130151026891264,3.07572,-0.32970,0.36886,0.99921,0.03129,-0.01904,-0.01559,-0.00603,-0.00122,0.00254,3.46452,-0.43933,0.39576,0.00000,0.00000,0.00000,
1631130151093562112,3.07536,-0.32977,0.36891,0.99920,0.03143,-0.01917,-0.01543,-0.00136,0.00422,0.00160,3.46451,-0.43930,0.39576,0.00000,0.00000,0.00000,
1631130151160233728,3.07550,-0.32948,0.36883,0.99922,0.03115,-0.01896,-0.01544,0.00333,0.00863,0.00090,3.46452,-0.43931,0.39575,0.00000,0.00000,0.00000,
1631130151226904064,3.07574,-0.32925,0.36880,0.99922,0.03094,-0.01881,-0.01551,-0.00098,0.00547,0.00172,3.46451,-0.43935,0.39573,0.00000,0.00000,0.00000,
1631130151293575168,3.07550,-0.32907,0.36876,0.99922,0.03105,-0.01890,-0.01552,-0.00592,0.00091,0.00265,3.46452,-0.43933,0.39576,0.00000,0.00000,0.00000,
1631130151360246528,3.07534,-0.32921,0.36887,0.99921,0.03127,-0.01894,-0.01553,-0.00297,0.00239,0.00257,3.46435,-0.43948,0.39594,0.00000,0.00000,0.00000,
1631130151426916608,3.07539,-0.32921,0.36883,0.99921,0.03128,-0.01882,-0.01553,-0.00134,0.00591,0.00195,3.46451,-0.43933,0.39574,0.00000,0.00000,0.00000,
1631130151493587712,3.07538,-0.32897,0.36878,0.99922,0.03108,-0.01865,-0.01554,-0.00345,0.00832,0.00257,3.46452,-0.43934,0.39574,0.00000,0.00000,0.00000,
1631130151560257792,3.07534,-0.32874,0.36881,0.99922,0.03100,-0.01867,-0.01561,-0.00433,0.00560,0.00290,3.46434,-0.43948,0.39594,0.00000,0.00000,0.00000,
1631130151626929408,3.07537,-0.32895,0.36878,0.99922,0.03107,-0.01861,-0.01557,-0.00458,0.00290,0.00254,3.46451,-0.43933,0.39574,0.00000,0.00000,0.00000,
1631130151693599488,3.07530,-0.32888,0.36892,0.99922,0.03114,-0.01846,-0.01561,-0.00386,0.00525,0.00320,3.46452,-0.43931,0.39575,0.00000,0.00000,0.00000,
1631130151760270592,3.07518,-0.32875,0.36885,0.99923,0.03106,-0.01837,-0.01561,-0.00497,0.00751,0.00300,3.46450,-0.43930,0.39576,0.00000,0.00000,0.00000,
1631130151826940672,3.07523,-0.32860,0.36877,0.99923,0.03093,-0.01828,-0.01566,-0.00430,0.00594,0.00287,3.46450,-0.43934,0.39575,0.00000,0.00000,0.00000,
1631130151893612032,3.07529,-0.32858,0.36881,0.99923,0.03090,-0.01827,-0.01567,-0.00459,0.00493,0.00298,3.46451,-0.43932,0.39575,0.00000,0.00000,0.00000,
1631130151960282112,3.07541,-0.32891,0.36888,0.99923,0.03096,-0.01816,-0.01562,-0.00498,0.00522,0.00350,3.46451,-0.43932,0.39575,0.00000,0.00000,0.00000,
1631130152026953472,3.07536,-0.32866,0.36900,0.99923,0.03099,-0.01810,-0.01569,-0.00478,0.00607,0.00360,3.46451,-0.43934,0.39574,0.00000,0.00000,0.00000,
1631130152093623552,3.07531,-0.32842,0.36899,0.99924,0.03089,-0.01802,-0.01573,-0.00360,0.00760,0.00311,3.46450,-0.43931,0.39576,0.00000,0.00000,0.00000,
1631130152160294656,3.07524,-0.32829,0.36885,0.99924,0.03089,-0.01802,-0.01578,-0.00600,0.00687,0.00341,3.46433,-0.43951,0.39593,0.00000,0.00000,0.00000,
1631130152226964992,3.07523,-0.32824,0.36899,0.99924,0.03092,-0.01793,-0.01579,-0.00541,0.00585,0.00410,3.46450,-0.43934,0.39574,0.00000,0.00000,0.00000,
1631130152293636352,3.07530,-0.32825,0.36911,0.99924,0.03092,-0.01791,-0.01579,-0.00546,0.00671,0.00394,3.46434,-0.43950,0.39593,0.00000,0.00000,0.00000,
1631130152360306688,3.07529,-0.32813,0.36920,0.99924,0.03087,-0.01784,-0.01584,-0.00431,0.00781,0.00379,3.46434,-0.43950,0.39593,0.00000,0.00000,0.00000,
1631130152426977792,3.07520,-0.32802,0.36918,0.99924,0.03081,-0.01773,-0.01585,-0.00417,0.00637,0.00406,3.46434,-0.43950,0.39593,0.00000,0.00000,0.00000,
1631130152493648384,3.07520,-0.32799,0.36907,0.99924,0.03081,-0.01777,-0.01588,-0.00601,0.00571,0.00434,3.46434,-0.43950,0.39593,0.00000,0.00000,0.00000,
1631130152560319488,3.07522,-0.32790,0.36917,0.99924,0.03078,-0.01771,-0.01590,-0.00455,0.00656,0.00436,3.46434,-0.43950,0.39593,0.00000,0.00000,0.00000,
