1631130114024011776,0.00163,-0.00496,0.05665,1.00000,-0.00147,-0.00075,-0.00035,-0.00872,0.00110,0.02537,0.00232,-0.00818,0.17947,0.00000,0.00000,0.00000,
1631130114090625280,0.00119,-0.00558,0.05833,1.00000,-0.00063,-0.00085,-0.00053,-0.01408,-0.01451,0.04074,0.00190,-0.00959,0.18159,0.00000,0.00000,0.00000,
1631130114157239040,0.00259,-0.00431,0.03791,0.99999,0.00092,-0.00263,-0.00162,-0.00798,-0.02465,0.05192,0.00180,-0.01046,0.18482,0.00000,0.00000,0.00000,
1631130114223862528,0.00278,-0.00491,0.04105,0.99999,0.00137,-0.00362,-0.00199,0.00478,-0.01205,0.05472,0.00316,-0.01098,0.18865,0.00000,0.00000,0.00000,
1631130114290485504,0.00489,-0.00469,0.04255,0.99999,0.00073,-0.00262,-0.00219,0.02668,-0.00606,0.05450,0.00498,-0.01112,0.19248,0.00000,0.00000,0.00000,
1631130114357107200,0.00708,-0.00451,0.04417,1.00000,0.00049,-0.00171,-0.00240,0.02529,-0.00847,0.06142,0.00610,-0.01139,0.19596,0.00000,0.00000,0.00000,
1631130114423728896,0.00840,-0.00456,0.04770,0.99999,0.00028,-0.00179,-0.00290,0.01717,-0.00278,0.06118,0.00717,-0.01154,0.19929,0.00000,0.00000,0.00000,
1631130114490348800,0.00932,-0.00492,0.05091,0.99999,0.00005,-0.00217,-0.00324,0.01436,-0.01257,0.04761,0.00745,-0.01250,0.20204,0.00000,0.00000,0.00000,
1631130114556968960,0.00957,-0.00599,0.05360,0.99998,0.00144,-0.00387,-0.00379,0.00017,-0.02180,0.04469,0.00750,-0.01406,0.20478,0.00000,0.00000,0.00000,
1631130114623587072,0.00934,-0.00700,0.05580,0.99997,0.00191,-0.00598,-0.00458,-0.00723,-0.00694,0.02716,0.00688,-0.01426,0.20647,0.00000,0.00000,0.00000,
1631130114690205696,0.00865,-0.00672,0.05638,0.99995,0.00172,-0.00818,-0.00484,-0.01043,0.00285,0.01778,0.00653,-0.01399,0.20770,0.00000,0.00000,0.00000,
1631130114756822272,0.00854,-0.00654,0.05727,0.99994,0.00158,-0.00950,-0.00463,-0.00416,-0.00071,0.00977,0.00665,-0.01394,0.20825,0.00000,0.00000,0.00000,
1631130114823438848,0.00932,-0.00664,0.05726,0.99994,0.00175,-0.00962,-0.00464,0.00579,0.00422,0.00362,0.00723,-0.01395,0.20906,0.00000,0.00000,0.00000,
1631130114890053888,0.00993,-0.00689,0.05762,0.99994,0.00297,-0.00902,-0.00475,0.01274,-0.00803,0.02238,0.00833,-0.01488,0.21154,0.00000,0.00000,0.00000,
1631130114956668928,0.01111,-0.00854,0.06089,0.99994,0.00502,-0.00871,-0.00532,0.02477,-0.02515,0.04780,0.00991,-0.01597,0.21578,0.00000,0.00000,0.00000,
1631130115023282176,0.01280,-0.00941,0.06599,0.99993,0.00478,-0.00958,-0.00558,0.02394,-0.00489,0.07612,0.01132,-0.01658,0.22156,0.00000,0.00000,0.00000,
1631130115089895680,0.01387,-0.00977,0.07198,0.99990,0.00492,-0.01173,-0.00586,0.01666,-0.00704,0.08545,0.01243,-0.01655,0.22645,0.00000,0.00000,0.00000,
1631130115156507136,0.01497,-0.00985,0.07753,0.99988,0.00462,-0.01359,-0.00567,0.01634,0.00526,0.08149,0.01333,-0.01579,0.23124,0.00000,0.00000,0.00000,
1631130115223131136,0.01516,-0.00917,0.08127,0.99985,0.00477,-0.01549,-0.00526,0.00564,0.01386,0.04843,0.01378,-0.01530,0.23364,0.00000,0.00000,0.00000,
1631130115289753088,0.01505,-0.00835,0.08218,0.99984,0.00476,-0.01629,-0.00484,0.00502,0.00782,0.02369,0.01441,-0.01449,0.23527,0.00000,0.00000,0.00000,
1631130115356375040,0.01587,-0.00845,0.08327,0.99983,0.00553,-0.01665,-0.00481,0.00652,0.00489,0.01619,0.01519,-0.01450,0.23618,0.00000,0.00000,0.00000,
1631130115422996224,0.01730,-0.00957,0.08327,0.99984,0.00671,-0.01606,-0.00460,0.01159,-0.00348,0.00254,0.01597,-0.01371,0.23651,0.00000,0.00000,0.00000,
1631130115489615616,0.01795,-0.00948,0.08401,0.99984,0.00698,-0.01577,-0.00445,0.00903,0.00615,0.01172,0.01629,-0.01331,0.23769,0.00000,0.00000,0.00000,
1631130115556235008,0.01758,-0.00853,0.08653,0.99982,0.00688,-0.01696,-0.00437,0.00013,0.00463,0.03592,0.01633,-0.01372,0.24076,0.00000,0.00000,0.00000,
1631130115622852864,0.01713,-0.00865,0.09006,0.99977,0.00802,-0.01960,-0.00434,-0.01049,-0.00065,0.05310,0.01550,-0.01345,0.24536,0.00000,0.00000,0.00000,
1631130115689470720,0.01673,-0.01005,0.09436,0.99968,0.00888,-0.02333,-0.00483,-0.01592,-0.00917,0.06818,0.01501,-0.01392,0.24988,0.00000,0.00000,0.00000,
1631130115756086528,0.01499,-0.01118,0.10519,0.99960,0.01011,-0.02611,-0.00478,-0.00519,-0.01466,0.06241,0.01531,-0.01510,0.25396,0.00000,0.00000,0.00000,
1631130115822702592,0.01569,-0.01214,0.10304,0.99956,0.01169,-0.02647,-0.00579,0.01207,-0.01470,0.04438,0.01660,-0.01568,0.25658,0.00000,0.00000,0.00000,
1631130115889317120,0.01738,-0.01181,0.10517,0.99957,0.01402,-0.02518,-0.00602,0.02396,-0.00214,0.02965,0.01828,-0.01493,0.25803,0.00000,0.00000,0.00000,
1631130115955931392,0.02003,-0.01152,0.10518,0.99964,0.01517,-0.02144,-0.00577,0.03223,0.01309,0.00275,0.01971,-0.01434,0.25894,0.00000,0.00000,0.00000,
1631130116022544128,0.02220,-0.01038,0.10608,0.99971,0.01609,-0.01719,-0.00511,0.02748,0.02095,0.00906,0.02152,-0.01226,0.25968,0.00000,0.00000,0.00000,
1631130116089156608,0.02312,-0.00939,0.10814,0.99975,0.01543,-0.01556,-0.00512,0.01706,0.01519,0.00812,0.02223,-0.01155,0.26086,0.00000,0.00000,0.00000,
1631130116155767808,0.02291,-0.00819,0.11126,0.99976,0.01419,-0.01564,-0.00507,0.00191,0.01602,0.02745,0.02199,-0.01073,0.26354,0.00000,0.00000,0.00000,
1631130116222391552,0.02167,-0.00754,0.11401,0.99972,0.01397,-0.01856,-0.00523,-0.01461,0.00138,0.05366,0.02119,-0.01099,0.26699,0.00000,0.00000,0.00000,
1631130116289013504,0.01995,-0.00826,0.11839,0.99962,0.01517,-0.02214,-0.00564,-0.02135,-0.01697,0.07416,0.01994,-0.01239,0.27233,0.00000,0.00000,0.00000,
1631130116355635968,0.01987,-0.01274,0.12276,0.99947,0.01888,-0.02583,-0.00570,-0.01634,-0.03943,0.07945,0.01909,-0.01488,0.27733,0.00000,0.00000,0.00000,
1631130116422255872,0.02041,-0.01745,0.12604,0.99931,0.02319,-0.02831,-0.00631,-0.00755,-0.03502,0.05897,0.01917,-0.01637,0.28048,0.00000,0.00000,0.00000,
1631130116488876800,0.02313,-0.02291,0.12624,0.99927,0.02575,-0.02731,-0.00669,0.01141,-0.02613,0.02616,0.02034,-0.01621,0.28249,0.00000,0.00000,0.00000,
1631130116555495168,0.02531,-0.02417,0.13149,0.99931,0.02762,-0.02395,-0.00685,0.02222,-0.00264,0.02677,0.02111,-0.01610,0.28396,0.00000,0.00000,0.00000,
1631130116622114304,0.02457,-0.02045,0.13105,0.99932,0.02851,-0.02229,-0.00676,0.01361,0.02243,0.02297,0.02170,-0.01473,0.28552,0.00000,0.00000,0.00000,
1631130116688732160,0.02604,-0.02180,0.13194,0.99932,0.02929,-0.02119,-0.00675,0.00792,0.00728,0.01261,0.02172,-0.01434,0.28650,0.00000,0.00000,0.00000,
1631130116755348480,0.02621,-0.02121,0.13273,0.99931,0.03011,-0.02045,-0.00693,0.00220,0.01691,0.02366,0.02197,-0.01337,0.28802,0.00000,0.00000,0.00000,
1631130116821964544,0.02619,-0.02117,0.13476,0.99925,0.03189,-0.02070,-0.00693,0.00127,0.00226,0.03611,0.02189,-0.01281,0.29125,0.00000,0.00000,0.00000,
1631130116888579072,0.02596,-0.02256,0.13850,0.99912,0.03489,-0.02219,-0.00700,-0.00136,-0.01638,0.06306,0.02165,-0.01429,0.29599,0.00000,0.00000,0.00000,
1631130116955193856,0.02561,-0.02452,0.14326,0.99889,0.03969,-0.02444,-0.00736,0.00044,-0.02061,0.06441,0.02194,-0.01464,0.29921,0.00000,0.00000,0.00000,
1631130117021806592,0.02643,-0.02654,0.14636,0.99874,0.04342,-0.02411,-0.00773,0.01634,-0.02175,0.04422,0.02314,-0.01537,0.30296,0.00000,0.00000,0.00000,
1631130117088419328,0.02768,-0.02672,0.14831,0.99864,0.04645,-0.02219,-0.00829,0.02345,-0.00594,0.04161,0.02443,-0.01585,0.30626,0.00000,0.00000,0.00000,
1631130117155030784,0.02876,-0.02711,0.15166,0.99859,0.04738,-0.02217,-0.00889,0.02622,0.01139,0.04470,0.02602,-0.01415,0.30893,0.00000,0.00000,0.00000,
1631130117221654016,0.02988,-0.02650,0.15452,0.99857,0.04757,-0.02263,-0.00926,0.02407,0.01754,0.04018,0.02706,-0.01347,0.31150,0.00000,0.00000,0.00000,
1631130117288275712,0.03123,-0.02629,0.15665,0.99854,0.04834,-0.02239,-0.00901,0.02093,0.01723,0.03032,0.02816,-0.01190,0.31319,0.00000,0.00000,0.00000,
1631130117354897408,0.03299,-0.02707,0.15698,0.99850,0.05000,-0.02077,-0.00862,0.02011,0.00489,0.00670,0.02897,-0.01175,0.31411,0.00000,0.00000,0.00000,
1631130117421517312,0.03359,-0.02780,0.15766,0.99844,0.05142,-0.01969,-0.00910,0.01333,0.00033,0.01115,0.02930,-0.01234,0.31536,0.00000,0.00000,0.00000,
1631130117488137472,0.03351,-0.02849,0.15900,0.99833,0.05383,-0.01911,-0.00877,0.00671,-0.01393,0.01757,0.02933,-0.01316,0.31737,0.00000,0.00000,0.00000,
1631130117554755584,0.03322,-0.03023,0.16116,0.99817,0.05651,-0.01958,-0.00903,-0.00028,-0.01836,0.03244,0.02855,-0.01438,0.32049,0.00000,0.00000,0.00000,
1631130117621373952,0.03218,-0.03239,0.16469,0.99796,0.05904,-0.02236,-0.00941,-0.01063,-0.01464,0.05071,0.02728,-0.01452,0.32491,0.00000,0.00000,0.00000,
1631130117687990528,0.03052,-0.03339,0.16857,0.99775,0.06109,-0.02603,-0.00954,-0.01444,-0.00231,0.04878,0.02644,-0.01402,0.32743,0.00000,0.00000,0.00000,
1631130117754606848,0.02871,-0.03427,0.17235,0.99758,0.06225,-0.02945,-0.00968,-0.01767,-0.00898,0.06005,0.02528,-0.01430,0.33134,0.00000,0.00000,0.00000,
1631130117821221888,0.02787,-0.03424,0.17543,0.99748,0.06338,-0.03040,-0.01012,-0.00823,0.00125,0.04699,0.02484,-0.01439,0.33367,0.00000,0.00000,0.00000,
1631130117887836672,0.02782,-0.03646,0.17733,0.99748,0.06369,-0.02948,-0.01013,0.00528,-0.00218,0.03379,0.02505,-0.01421,0.33623,0.00000,0.00000,0.00000,
1631130117954449920,0.02831,-0.03640,0.17897,0.99752,0.06371,-0.02800,-0.01034,0.01352,0.00140,0.03535,0.02573,-0.01360,0.33841,0.00000,0.00000,0.00000,
1631130118021063424,0.02927,-0.03674,0.18111,0.99758,0.06362,-0.02619,-0.01028,0.02540,-0.00259,0.03224,0.02608,-0.01334,0.33890,0.00000,0.00000,0.00000,
1631130118087675648,0.02993,-0.03668,0.18379,0.99761,0.06332,-0.02576,-0.01037,0.02486,0.00269,0.03609,0.02810,-0.01342,0.34292,0.00000,0.00000,0.00000,
1631130118154286080,0.03047,-0.03672,0.18661,0.99764,0.06288,-0.02551,-0.01036,0.02094,0.00151,0.03685,0.02859,-0.01403,0.34472,0.00000,0.00000,0.00000,
1631130118221172480,0.03124,-0.03723,0.18958,0.99763,0.06246,-0.02673,-0.01069,0.01928,-0.00129,0.04925,0.02964,-0.01338,0.34839,0.00000,0.00000,0.00000,
1631130118288064256,0.03236,-0.03743,0.19219,0.99762,0.06232,-0.02765,-0.01053,0.02376,0.00200,0.03556,0.03070,-0.01343,0.35064,0.00000,0.00000,0.00000,
1631130118354962944,0.03316,-0.03767,0.19475,0.99759,0.06230,-0.02887,-0.01032,0.01952,-0.00616,0.04442,0.03167,-0.01270,0.35354,0.00000,0.00000,0.00000,
1631130118421866752,0.03428,-0.03824,0.19701,0.99755,0.06290,-0.02879,-0.01036,0.02413,-0.01157,0.02924,0.03236,-0.01304,0.35457,0.00000,0.00000,0.00000,
1631130118488777728,0.03576,-0.03870,0.19750,0.99763,0.06293,-0.02584,-0.01043,0.02820,-0.01106,0.01679,0.03380,-0.01418,0.35614,0.00000,0.00000,0.00000,
1631130118555693568,0.03639,-0.03863,0.19807,0.99769,0.06265,-0.02414,-0.01070,0.02227,-0.00227,0.00878,0.03430,-0.01388,0.35591,0.00000,0.00000,0.00000,
1631130118622616832,0.03667,-0.03821,0.19828,0.99775,0.06215,-0.02292,-0.01059,0.01131,0.00722,0.00412,0.03413,-0.01358,0.35596,0.00000,0.00000,0.00000,
1631130118689544960,0.03629,-0.03816,0.19855,0.99777,0.06181,-0.02291,-0.01061,0.00032,-0.00202,0.00355,0.03335,-0.01360,0.35618,0.00000,0.00000,0.00000,
1631130118756480256,0.03537,-0.03795,0.19885,0.99778,0.06164,-0.02301,-0.01052,-0.00688,0.00183,0.00858,0.03212,-0.01383,0.35644,0.00000,0.00000,0.00000,
1631130118823420672,0.03416,-0.03768,0.19924,0.99779,0.06128,-0.02332,-0.01050,-0.00954,0.00415,0.00775,0.03108,-0.01264,0.35625,0.00000,0.00000,0.00000,
1631130118890368512,0.03305,-0.03734,0.19928,0.99782,0.06089,-0.02322,-0.01058,-0.00941,0.00153,0.00469,0.02994,-0.01291,0.35668,0.00000,0.00000,0.00000,
1631130118957320960,0.03207,-0.03723,0.19925,0.99784,0.06070,-0.02299,-0.01055,-0.00719,-0.00248,0.00069,0.02877,-0.01369,0.35659,0.00000,0.00000,0.00000,
1631130119024280832,0.03108,-0.03758,0.19909,0.99785,0.06051,-0.02295,-0.01072,-0.00729,-0.00177,0.00340,0.02766,-0.01322,0.35658,0.00000,0.00000,0.00000,
1631130119091245568,0.03015,-0.03757,0.19901,0.99787,0.06019,-0.02283,-0.01043,-0.00758,0.00223,0.00310,0.02656,-0.01290,0.35640,0.00000,0.00000,0.00000,
1631130119158216704,0.02918,-0.03716,0.19910,0.99789,0.05977,-0.02285,-0.01053,-0.00366,0.00132,0.00158,0.02578,-0.01292,0.35641,0.00000,0.00000,0.00000,
1631130119224887040,0.02848,-0.03714,0.19912,0.99792,0.05939,-0.02295,-0.01041,0.00128,-0.00358,0.00067,0.02533,-0.01299,0.35647,0.00000,0.00000,0.00000,
1631130119291558400,0.02825,-0.03721,0.19917,0.99793,0.05921,-0.02280,-0.01062,0.00654,0.00146,0.00271,0.02528,-0.01299,0.35645,0.00000,0.00000,0.00000,
1631130119358229760,0.02830,-0.03701,0.19927,0.99795,0.05895,-0.02269,-0.01063,0.01208,0.00045,0.00102,0.02545,-0.01294,0.35639,0.00000,0.00000,0.00000,
1631130119424900096,0.02848,-0.03663,0.19915,0.99798,0.05856,-0.02244,-0.01062,0.01062,0.00138,0.00191,0.02548,-0.01293,0.35639,0.00000,0.00000,0.00000,
1631130119491571456,0.02847,-0.03673,0.19917,0.99799,0.05827,-0.02241,-0.01064,0.00802,0.00071,0.00218,0.02541,-0.01295,0.35640,0.00000,0.00000,0.00000,
1631130119558241792,0.02846,-0.03678,0.19924,0.99801,0.05801,-0.02238,-0.01065,0.00942,0.00034,0.00165,0.02541,-0.01297,0.35640,0.00000,0.00000,0.00000,
1631130119624913152,0.02855,-0.03631,0.19916,0.99803,0.05766,-0.02218,-0.01070,0.01082,0.00153,0.00114,0.02545,-0.01294,0.35639,0.00000,0.00000,0.00000,
1631130119691583744,0.02861,-0.03613,0.19921,0.99806,0.05727,-0.02208,-0.01070,0.01033,0.00081,0.00125,0.02545,-0.01294,0.35638,0.00000,0.00000,0.00000,
1631130119758255360,0.02860,-0.03609,0.19923,0.99808,0.05690,-0.02208,-0.01069,0.00964,-0.00029,0.00107,0.02543,-0.01296,0.35640,0.00000,0.00000,0.00000,
1631130119824925184,0.02864,-0.03630,0.19918,0.99810,0.05655,-0.02210,-0.01067,0.01022,-0.00007,0.00059,0.02545,-0.01296,0.35639,0.00000,0.00000,0.00000,
1631130119891596800,0.02871,-0.03623,0.19920,0.99812,0.05623,-0.02201,-0.01068,0.01073,0.00098,0.00051,0.02547,-0.01294,0.35639,0.00000,0.00000,0.00000,
1631130119958266880,0.02869,-0.03586,0.19926,0.99814,0.05595,-0.02191,-0.01071,0.00993,0.00068,0.00034,0.02546,-0.01296,0.35639,0.00000,0.00000,0.00000,
1631130120024938496,0.02872,-0.03587,0.19929,0.99815,0.05567,-0.02179,-0.01072,0.00976,0.00090,0.00012,0.02545,-0.01296,0.35639,0.00000,0.00000,0.00000,
1631130120091609088,0.02877,-0.03572,0.19928,0.99817,0.05536,-0.02168,-0.01072,0.01070,0.00101,-0.00032,0.02547,-0.01296,0.35639,0.00000,0.00000,0.00000,
1631130120158280448,0.02876,-0.03547,0.19941,0.99819,0.05505,-0.02159,-0.01073,0.01054,0.00014,-0.00010,0.02547,-0.01296,0.35639,0.00000,0.00000,0.00000,
1631130120224949760,0.02879,-0.03532,0.19943,0.99821,0.05473,-0.02146,-0.01076,0.01027,0.00079,-0.00026,0.02547,-0.01296,0.35639,0.00000,0.00000,0.00000,
1631130120291620608,0.02884,-0.03515,0.19941,0.99823,0.05445,-0.02131,-0.01079,0.01018,0.00229,-0.00010,0.02547,-0.01296,0.35638,0.00000,0.00000,0.00000,
1631130120358290176,0.02887,-0.03501,0.19947,0.99825,0.05420,-0.02124,-0.01079,0.01088,0.00203,-0.00042,0.02547,-0.01295,0.35638,0.00000,0.00000,0.00000,
1631130120424960768,0.02885,-0.03493,0.19952,0.99826,0.05390,-0.02129,-0.01076,0.01062,0.00147,-0.00016,0.02547,-0.01297,0.35638,0.00000,0.00000,0.00000,
1631130120491630592,0.02886,-0.03483,0.19963,0.99828,0.05362,-0.02124,-0.01078,0.01079,0.00188,-0.00014,0.02547,-0.01294,0.35636,0.00000,0.00000,0.00000,
1631130120558301184,0.02888,-0.03465,0.19961,0.99830,0.05330,-0.02117,-0.01079,0.01076,0.00181,-0.00032,0.02549,-0.01290,0.35629,0.00000,0.00000,0.00000,
1631130120624970752,0.02896,-0.03485,0.19962,0.99831,0.05303,-0.02119,-0.01076,0.01075,0.00276,-0.00050,0.02548,-0.01297,0.35638,0.00000,0.00000,0.00000,
1631130120691641344,0.02894,-0.03463,0.19961,0.99833,0.05273,-0.02119,-0.01077,0.01051,0.00344,-0.00075,0.02548,-0.01296,0.35637,0.00000,0.00000,0.00000,
1631130120758311936,0.02887,-0.03448,0.19970,0.99834,0.05248,-0.02128,-0.01077,0.01106,0.00251,-0.00079,0.02548,-0.01297,0.35636,0.00000,0.00000,0.00000,
1631130120824981504,0.02888,-0.03438,0.19960,0.99836,0.05209,-0.02135,-0.01076,0.01111,0.00316,-0.00100,0.02549,-0.01296,0.35637,0.00000,0.00000,0.00000,
1631130120891652096,0.02884,-0.03402,0.19956,0.99837,0.05173,-0.02134,-0.01078,0.01081,0.00325,-0.00130,0.02549,-0.01296,0.35636,0.00000,0.00000,0.00000,
1631130120958321664,0.02884,-0.03423,0.19962,0.99839,0.05140,-0.02149,-0.01074,0.01089,0.00210,-0.00105,0.02550,-0.01303,0.35633,0.00000,0.00000,0.00000,
1631130121024992256,0.02885,-0.03404,0.19974,0.99840,0.05114,-0.02144,-0.01076,0.01148,0.00326,-0.00071,0.02549,-0.01296,0.35637,0.00000,0.00000,0.00000,
1631130121091661568,0.02878,-0.03400,0.19973,0.99842,0.05085,-0.02151,-0.01074,0.01041,0.00252,-0.00107,0.02554,-0.01291,0.35641,0.00000,0.00000,0.00000,
1631130121158332160,0.02881,-0.03420,0.19980,0.99842,0.05073,-0.02151,-0.01073,0.01100,0.00302,-0.00117,0.02550,-0.01296,0.35636,0.00000,0.00000,0.00000,
1631130121225002496,0.02873,-0.03381,0.19995,0.99843,0.05053,-0.02154,-0.01074,0.01059,0.00255,-0.00108,0.02550,-0.01296,0.35635,0.00000,0.00000,0.00000,
1631130121291673600,0.02868,-0.03350,0.20000,0.99844,0.05034,-0.02149,-0.01077,0.01050,0.00188,-0.00182,0.02550,-0.01296,0.35637,0.00000,0.00000,0.00000,
1631130121358344192,0.02870,-0.03412,0.19932,0.99845,0.05014,-0.02170,-0.01070,0.01003,0.00204,-0.00152,0.02550,-0.01296,0.35636,0.00000,0.00000,0.00000,
1631130121425015552,0.02868,-0.03407,0.19944,0.99846,0.04996,-0.02180,-0.01070,0.01053,0.00207,-0.00152,0.02550,-0.01297,0.35635,0.00000,0.00000,0.00000,
1631130121491685632,0.02869,-0.03407,0.19937,0.99846,0.04978,-0.02188,-0.01068,0.01013,0.00224,-0.00162,0.02555,-0.01292,0.35639,0.00000,0.00000,0.00000,
1631130121558356992,0.02871,-0.03399,0.19934,0.99847,0.04956,-0.02193,-0.01069,0.01064,0.00310,-0.00178,0.02555,-0.01291,0.35639,0.00000,0.00000,0.00000,
1631130121625027328,0.02868,-0.03394,0.19944,0.99848,0.04938,-0.02199,-0.01068,0.01127,0.00276,-0.00137,0.02555,-0.01291,0.35639,0.00000,0.00000,0.00000,
1631130121691698432,0.02862,-0.03380,0.19944,0.99849,0.04921,-0.02203,-0.01068,0.01008,0.00236,-0.00112,0.02555,-0.01291,0.35638,0.00000,0.00000,0.00000,
1631130121758369024,0.02864,-0.03378,0.19949,0.99850,0.04905,-0.02199,-0.01068,0.00995,0.00332,-0.00187,0.02551,-0.01296,0.35634,0.00000,0.00000,0.00000,
1631130121825040384,0.02862,-0.03381,0.19953,0.99850,0.04894,-0.02203,-0.01067,0.01008,0.00208,-0.00143,0.02551,-0.01295,0.35634,0.00000,0.00000,0.00000,
1631130121891710720,0.02861,-0.03365,0.19957,0.99851,0.04885,-0.02196,-0.01071,0.01030,0.00254,-0.00168,0.02552,-0.01296,0.35635,0.00000,0.00000,0.00000,
1631130121958381824,0.02861,-0.03364,0.19950,0.99851,0.04873,-0.02197,-0.01067,0.00931,0.00290,-0.00151,0.02552,-0.01296,0.35634,0.00000,0.00000,0.00000,
1631130122025053184,0.02861,-0.03374,0.19954,0.99852,0.04864,-0.02210,-0.01066,0.00969,0.00315,-0.00201,0.02555,-0.01290,0.35639,0.00000,0.00000,0.00000,
1631130122091723776,0.02859,-0.03363,0.19961,0.99852,0.04851,-0.02217,-0.01066,0.01095,0.00347,-0.00190,0.02552,-0.01296,0.35634,0.00000,0.00000,0.00000,
1631130122158395136,0.02859,-0.03349,0.19961,0.99852,0.04839,-0.02220,-0.01067,0.01158,0.00335,-0.00180,0.02552,-0.01296,0.35635,0.00000,0.00000,0.00000,
1631130122225065472,0.02859,-0.03358,0.19960,0.99853,0.04825,-0.02230,-0.01065,0.01132,0.00248,-0.00184,0.02556,-0.01290,0.35639,0.00000,0.00000,0.00000,
1631130122291737088,0.02858,-0.03352,0.19956,0.99854,0.04807,-0.02234,-0.01065,0.01108,0.00397,-0.00187,0.02551,-0.01296,0.35633,0.00000,0.00000,0.00000,
1631130122358407680,0.02854,-0.03343,0.19958,0.99854,0.04788,-0.02247,-0.01065,0.01180,0.00216,-0.00253,0.02552,-0.01295,0.35633,0.00000,0.00000,0.00000,
1631130122425079296,0.02854,-0.03327,0.19961,0.99855,0.04769,-0.02245,-0.01065,0.01242,0.00245,-0.00213,0.02553,-0.01295,0.35633,0.00000,0.00000,0.00000,
1631130122491749888,0.02854,-0.03318,0.19959,0.99856,0.04748,-0.02239,-0.01067,0.01186,0.00285,-0.00211,0.02552,-0.01295,0.35631,0.00000,0.00000,0.00000,
1631130122558421248,0.02854,-0.03315,0.19975,0.99857,0.04733,-0.02236,-0.01065,0.01257,0.00221,-0.00228,0.02552,-0.01295,0.35632,0.00000,0.00000,0.00000,
1631130122625092096,0.02856,-0.03312,0.19975,0.99858,0.04713,-0.02236,-0.01066,0.01214,0.00297,-0.00216,0.02556,-0.01291,0.35638,0.00000,0.00000,0.00000,
1631130122691763712,0.02855,-0.03308,0.19970,0.99859,0.04698,-0.02233,-0.01067,0.01184,0.00332,-0.00218,0.02559,-0.01299,0.35634,0.00000,0.00000,0.00000,
1631130122758434304,0.02855,-0.03295,0.19961,0.99860,0.04683,-0.02236,-0.01066,0.01171,0.00336,-0.00267,0.02553,-0.01296,0.35634,0.00000,0.00000,0.00000,
1631130122825105920,0.02856,-0.03288,0.19962,0.99860,0.04660,-0.02245,-0.01065,0.01228,0.00328,-0.00241,0.02553,-0.01295,0.35632,0.00000,0.00000,0.00000,
1631130122891776512,0.02854,-0.03291,0.19975,0.99861,0.04638,-0.02254,-0.01063,0.01274,0.00316,-0.00187,0.02553,-0.01295,0.35633,0.00000,0.00000,0.00000,
1631130122958448128,0.02851,-0.03282,0.19981,0.99862,0.04623,-0.02258,-0.01064,0.01240,0.00307,-0.00218,0.02553,-0.01296,0.35632,0.00000,0.00000,0.00000,
1631130123025118976,0.02846,-0.03272,0.19989,0.99862,0.04611,-0.02257,-0.01065,0.01221,0.00279,-0.00195,0.02553,-0.01297,0.35633,0.00000,0.00000,0.00000,
1631130123091790592,0.02844,-0.03267,0.19983,0.99863,0.04599,-0.02263,-0.01065,0.01192,0.00406,-0.00274,0.02553,-0.01295,0.35632,0.00000,0.00000,0.00000,
1631130123158461440,0.02840,-0.03259,0.19987,0.99863,0.04592,-0.02269,-0.01065,0.01178,0.00416,-0.00190,0.02554,-0.01297,0.35631,0.00000,0.00000,0.00000,
1631130123225133056,0.02834,-0.03254,0.19991,0.99863,0.04581,-0.02279,-0.01064,0.01116,0.00328,-0.00251,0.02554,-0.01298,0.35631,0.00000,0.00000,0.00000,
1631130123291803392,0.02834,-0.03252,0.20007,0.99864,0.04574,-0.02277,-0.01064,0.01264,0.00409,-0.00205,0.02553,-0.01295,0.35632,0.00000,0.00000,0.00000,
1631130123358475264,0.02833,-0.03249,0.20000,0.99864,0.04568,-0.02277,-0.01066,0.01172,0.00356,-0.00267,0.02553,-0.01297,0.35632,0.00000,0.00000,0.00000,
1631130123425146880,0.02831,-0.03246,0.20002,0.99864,0.04565,-0.02273,-0.01064,0.01117,0.00300,-0.00203,0.02554,-0.01296,0.35632,0.00000,0.00000,0.00000,
1631130123491817472,0.02831,-0.03250,0.19997,0.99864,0.04563,-0.02271,-0.01064,0.01016,0.00474,-0.00207,0.02554,-0.01296,0.35632,0.00000,0.00000,0.00000,
1631130123558489088,0.02832,-0.03267,0.20016,0.99864,0.04572,-0.02276,-0.01061,0.01134,0.00317,-0.00198,0.02559,-0.01291,0.35636,0.00000,0.00000,0.00000,
1631130123625159680,0.02830,-0.03259,0.20009,0.99864,0.04573,-0.02279,-0.01062,0.01065,0.00399,-0.00254,0.02558,-0.01292,0.35636,0.00000,0.00000,0.00000,
1631130123691831296,0.02831,-0.03254,0.20010,0.99864,0.04569,-0.02280,-0.01063,0.01208,0.00433,-0.00240,0.02555,-0.01296,0.35632,0.00000,0.00000,0.00000,
1631130123758501888,0.02829,-0.03264,0.20009,0.99864,0.04568,-0.02285,-0.01062,0.01202,0.00196,-0.00231,0.02554,-0.01295,0.35630,0.00000,0.00000,0.00000,
1631130123825173504,0.02835,-0.03262,0.20006,0.99864,0.04566,-0.02279,-0.01063,0.01238,0.00435,-0.00271,0.02559,-0.01292,0.35636,0.00000,0.00000,0.00000,
1631130123891844352,0.02832,-0.03265,0.20000,0.99864,0.04564,-0.02286,-0.01062,0.01119,0.00404,-0.00207,0.02559,-0.01293,0.35636,0.00000,0.00000,0.00000,
1631130123958515968,0.02827,-0.03274,0.20017,0.99864,0.04566,-0.02293,-0.01061,0.01188,0.00298,-0.00242,0.02559,-0.01291,0.35635,0.00000,0.00000,0.00000,
1631130124025186560,0.02824,-0.03255,0.20011,0.99864,0.04567,-0.02289,-0.01062,0.01132,0.00325,-0.00300,0.02555,-0.01297,0.35632,0.00000,0.00000,0.00000,
1631130124091858432,0.02831,-0.03267,0.20008,0.99864,0.04568,-0.02291,-0.01062,0.01180,0.00419,-0.00288,0.02556,-0.01303,0.35626,0.00000,0.00000,0.00000,
1631130124158529024,0.02829,-0.03268,0.20010,0.99863,0.04570,-0.02298,-0.01062,0.01142,0.00399,-0.00219,0.02556,-0.01303,0.35626,0.00000,0.00000,0.00000,
1631130124225200640,0.02829,-0.03271,0.20010,0.99863,0.04571,-0.02303,-0.01062,0.01155,0.00497,-0.00292,0.02555,-0.01296,0.35630,0.00000,0.00000,0.00000,
1631130124291871232,0.02827,-0.03274,0.20022,0.99863,0.04578,-0.02307,-0.01061,0.01285,0.00434,-0.00255,0.02559,-0.01292,0.35634,0.00000,0.00000,0.00000,
1631130124358542848,0.02820,-0.03255,0.20014,0.99863,0.04581,-0.02310,-0.01064,0.01168,0.00526,-0.00287,0.02554,-0.01295,0.35630,0.00000,0.00000,0.00000,
1631130124425213696,0.02823,-0.03272,0.20009,0.99862,0.04583,-0.02318,-0.01061,0.01161,0.00486,-0.00272,0.02560,-0.01291,0.35635,0.00000,0.00000,0.00000,
1631130124491885312,0.02819,-0.03284,0.20033,0.99862,0.04596,-0.02324,-0.01060,0.01272,0.00369,-0.00210,0.02555,-0.01296,0.35631,0.00000,0.00000,0.00000,
1631130124558555904,0.02808,-0.03265,0.20014,0.99861,0.04606,-0.02330,-0.01062,0.01018,0.00589,-0.00276,0.02556,-0.01303,0.35625,0.00000,0.00000,0.00000,
1631130124625227776,0.02807,-0.03273,0.20014,0.99861,0.04614,-0.02335,-0.01061,0.01047,0.00560,-0.00284,0.02556,-0.01303,0.35626,0.00000,0.00000,0.00000,
1631130124691899392,0.02806,-0.03293,0.20028,0.99860,0.04629,-0.02339,-0.01059,0.01194,0.00339,-0.00274,0.02556,-0.01304,0.35625,0.00000,0.00000,0.00000,
1631130124758569984,0.02809,-0.03308,0.20027,0.99859,0.04637,-0.02347,-0.01056,0.01203,0.00423,-0.00267,0.02556,-0.01303,0.35625,0.00000,0.00000,0.00000,
1631130124825242112,0.02813,-0.03313,0.20014,0.99859,0.04637,-0.02353,-0.01057,0.01196,0.00439,-0.00312,0.02555,-0.01297,0.35629,0.00000,0.00000,0.00000,
1631130124891912704,0.02814,-0.03293,0.20004,0.99859,0.04637,-0.02348,-0.01060,0.01231,0.00463,-0.00307,0.02556,-0.01296,0.35630,0.00000,0.00000,0.00000,
1631130124958584576,0.02817,-0.03290,0.20003,0.99859,0.04639,-0.02338,-0.01061,0.01225,0.00385,-0.00249,0.02557,-0.01303,0.35625,0.00000,0.00000,0.00000,
1631130125025255168,0.02820,-0.03300,0.20009,0.99859,0.04643,-0.02330,-0.01061,0.01280,0.00331,-0.00233,0.02555,-0.01296,0.35628,0.00000,0.00000,0.00000,
1631130125091927040,0.02822,-0.03294,0.20007,0.99860,0.04644,-0.02320,-0.01063,0.01260,0.00336,-0.00279,0.02557,-0.01303,0.35625,0.00000,0.00000,0.00000,
1631130125158597632,0.02820,-0.03291,0.20000,0.99860,0.04644,-0.02315,-0.01062,0.01133,0.00297,-0.00230,0.02557,-0.01303,0.35625,0.00000,0.00000,0.00000,
1631130125225269760,0.02826,-0.03283,0.20011,0.99860,0.04645,-0.02301,-0.01065,0.01284,0.00467,-0.00277,0.02556,-0.01303,0.35625,0.00000,0.00000,0.00000,
1631130125291940608,0.02830,-0.03280,0.20004,0.99860,0.04647,-0.02290,-0.01066,0.01210,0.00491,-0.00239,0.02555,-0.01297,0.35627,0.00000,0.00000,0.00000,
1631130125358612480,0.02832,-0.03293,0.20013,0.99860,0.04657,-0.02286,-0.01064,0.01184,0.00334,-0.00189,0.02555,-0.01296,0.35628,0.00000,0.00000,0.00000,
1631130125425283584,0.02831,-0.03309,0.20015,0.99859,0.04666,-0.02288,-0.01064,0.01171,0.00335,-0.00230,0.02553,-0.01295,0.35613,0.00000,0.00000,0.00000,
1631130125491955456,0.02829,-0.03313,0.20017,0.99859,0.04675,-0.02290,-0.01062,0.01187,0.00292,-0.00247,0.02553,-0.01295,0.35613,0.00000,0.00000,0.00000,
1631130125558626560,0.02830,-0.03290,0.20000,0.99859,0.04676,-0.02283,-0.01067,0.01119,0.00488,-0.00320,0.02553,-0.01302,0.35628,0.00000,0.00000,0.00000,
1631130125625298688,0.02831,-0.03299,0.20002,0.99859,0.04681,-0.02282,-0.01065,0.01107,0.00224,-0.00244,0.02548,-0.01307,0.35624,0.00000,0.00000,0.00000,
1631130125691969536,0.02837,-0.03305,0.20009,0.99859,0.04682,-0.02279,-0.01066,0.01255,0.00402,-0.00302,0.02548,-0.01307,0.35624,0.00000,0.00000,0.00000,
1631130125758641920,0.02840,-0.03321,0.20003,0.99859,0.04683,-0.02283,-0.01064,0.01270,0.00343,-0.00245,0.02550,-0.01314,0.35619,0.00000,0.00000,0.00000,
1631130125825313024,0.02829,-0.03306,0.19989,0.99858,0.04686,-0.02286,-0.01065,0.01064,0.00301,-0.00259,0.02554,-0.01300,0.35627,0.00000,0.00000,0.00000,
1631130125891985152,0.02829,-0.03297,0.20004,0.99858,0.04689,-0.02280,-0.01065,0.01284,0.00224,-0.00314,0.02549,-0.01307,0.35624,0.00000,0.00000,0.00000,
1631130125958656256,0.02836,-0.03300,0.20001,0.99858,0.04692,-0.02273,-0.01068,0.01328,0.00290,-0.00257,0.02551,-0.01313,0.35619,0.00000,0.00000,0.00000,
1631130126025328384,0.02839,-0.03297,0.20000,0.99858,0.04689,-0.02272,-0.01067,0.01308,0.00258,-0.00313,0.02549,-0.01306,0.35625,0.00000,0.00000,0.00000,
1631130126092000768,0.02843,-0.03290,0.19989,0.99859,0.04680,-0.02276,-0.01067,0.01276,0.00444,-0.00314,0.02553,-0.01306,0.35627,0.00000,0.00000,0.00000,
1631130126158671872,0.02841,-0.03307,0.19984,0.99859,0.04671,-0.02288,-0.01066,0.01205,0.00250,-0.00277,0.02549,-0.01307,0.35624,0.00000,0.00000,0.00000,
1631130126225342976,0.02835,-0.03296,0.19987,0.99859,0.04667,-0.02292,-0.01066,0.01177,0.00372,-0.00244,0.02549,-0.01308,0.35624,0.00000,0.00000,0.00000,
1631130126292013312,0.02832,-0.03292,0.20005,0.99859,0.04669,-0.02291,-0.01067,0.01266,0.00306,-0.00225,0.02554,-0.01304,0.35627,0.00000,0.00000,0.00000,
1631130126358684416,0.02833,-0.03292,0.20004,0.99859,0.04672,-0.02289,-0.01068,0.01251,0.00247,-0.00281,0.02548,-0.01307,0.35624,0.00000,0.00000,0.00000,
1631130126425354752,0.02839,-0.03305,0.20003,0.99859,0.04673,-0.02293,-0.01066,0.01320,0.00407,-0.00256,0.02555,-0.01315,0.35612,0.00000,0.00000,0.00000,
1631130126492026112,0.02720,-0.03505,0.20300,0.99844,0.04959,-0.02325,-0.01049,0.00052,0.00106,-0.00107,0.02582,-0.01276,0.35615,0.00000,0.00000,0.00000,
1631130126558696192,0.02704,-0.03584,0.20295,0.99828,0.05247,-0.02408,-0.01035,0.00182,-0.00244,-0.00186,0.02566,-0.01284,0.35635,0.00000,0.00000,0.00000,
1631130126625367296,0.02623,-0.03714,0.20315,0.99808,0.05545,-0.02547,-0.01023,-0.01656,-0.00873,0.00512,0.02480,-0.01292,0.35687,0.00000,0.00000,0.00000,
1631130126692037888,0.02544,-0.03824,0.20349,0.99790,0.05807,-0.02675,-0.01031,0.00338,-0.00735,0.00422,0.02583,-0.01255,0.35748,0.00000,0.00000,0.00000,
1631130126758708992,0.02292,-0.04229,0.20413,0.99778,0.06084,-0.02504,-0.00988,-0.09439,-0.11545,0.04460,0.02661,-0.01297,0.36328,0.00000,0.00000,0.00000,
1631130126825379072,0.01948,-0.04475,0.20855,0.99663,0.07567,-0.02907,-0.01248,-0.21568,-0.14006,0.02058,0.02634,-0.01109,0.36741,0.00000,0.00000,0.00000,
1631130126892050432,0.02031,-0.03872,0.21318,0.99678,0.07358,-0.02939,-0.01201,-0.17300,-0.08855,0.03832,0.02272,-0.00746,0.37020,0.00000,0.00000,0.00000,
1631130126958720768,0.01388,-0.03167,0.21827,0.99855,0.04761,-0.02296,-0.01004,-0.14905,0.04067,-0.02414,0.01984,-0.00529,0.37243,0.00000,0.00000,0.00000,
1631130127025391872,0.01699,-0.03011,0.21810,0.99876,0.04941,-0.00613,-0.00173,-0.05426,0.23630,0.19567,0.01950,0.01020,0.38536,0.00000,0.00000,0.00000,
1631130127092062208,0.02086,-0.06251,0.22891,0.99677,0.07979,-0.00540,0.00755,0.08934,-0.38007,0.14470,0.02089,0.01630,0.39167,0.00000,0.00000,0.00000,
1631130127158733312,0.02235,-0.04295,0.23909,0.99725,0.07060,-0.02251,0.00186,0.06631,-0.15830,0.01769,0.02293,0.02526,0.38737,0.00000,0.00000,0.00000,
1631130127225403648,0.02144,-0.01939,0.23577,0.99737,0.06761,-0.02606,0.00355,0.03141,-0.02740,-0.04917,0.02299,0.02957,0.38461,0.00000,0.00000,0.00000,
1631130127292075008,0.02378,-0.00176,0.22970,0.99896,0.04227,-0.01674,0.00303,-0.01696,0.02111,-0.09355,0.02005,0.03225,0.38612,0.00000,0.00000,0.00000,
1631130127358746112,0.01926,-0.01012,0.22543,0.99876,0.04791,-0.01271,-0.00369,0.01017,-0.19548,-0.01385,0.01804,0.03252,0.38661,0.00000,0.00000,0.00000,
1631130127425416192,0.01544,-0.01223,0.22755,0.99830,0.05614,-0.01533,-0.00138,-0.01940,-0.06188,-0.13551,0.01569,0.03023,0.38003,0.00000,0.00000,0.00000,
1631130127492087296,0.01330,-0.01535,0.22489,0.99790,0.06217,-0.01481,-0.01097,-0.03373,-0.19521,-0.13749,0.01202,0.02546,0.37103,0.00000,0.00000,0.00000,
1631130127558757888,0.01198,-0.01679,0.21500,0.99779,0.06444,-0.00949,-0.01319,-0.03795,-0.12557,-0.08212,0.00891,0.01955,0.36779,0.00000,0.00000,0.00000,
1631130127625428992,0.00558,-0.01567,0.21374,0.99782,0.06320,-0.01131,-0.01539,-0.01262,-0.05579,0.15508,0.00991,0.02480,0.37765,0.00000,0.00000,0.00000,
1631130127692099072,0.00925,-0.01577,0.22672,0.99832,0.05692,-0.00967,-0.00382,0.03548,-0.04364,0.17053,0.01464,0.02724,0.38635,0.00000,0.00000,0.00000,
1631130127758770176,0.01064,-0.01548,0.24239,0.99834,0.05335,-0.01877,-0.01049,0.08887,0.00972,0.13619,0.02256,0.03270,0.38721,0.00000,0.00000,0.00000,
1631130127825440768,0.02343,-0.00498,0.23926,0.99814,0.05692,-0.01734,-0.01362,0.16730,0.09028,0.05822,0.03796,0.04540,0.38414,0.00000,0.00000,0.00000,
1631130127892111872,0.04081,0.01488,0.23615,0.99891,0.04201,-0.00950,-0.01780,0.27632,0.26814,0.00103,0.05867,0.06292,0.38594,0.00000,0.00000,0.00000,
1631130127958781952,0.06041,0.02997,0.24238,0.99889,0.03875,-0.01186,-0.02397,0.35237,0.14525,0.16316,0.07478,0.07510,0.39543,0.00000,0.00000,0.00000,
1631130128025453056,0.08021,0.04910,0.24836,0.99763,0.06125,-0.02119,-0.02310,0.15732,0.11440,0.29573,0.08843,0.08296,0.40264,0.00000,0.00000,0.00000,
1631130128092123392,0.09081,0.04968,0.24599,0.99501,0.09303,-0.02606,-0.02479,0.26221,0.13394,-0.11854,0.10465,0.08970,0.39916,0.00000,0.00000,0.00000,
1631130128158794752,0.10525,0.05354,0.24066,0.99821,0.05143,-0.01860,-0.02415,0.16229,-0.04596,0.07178,0.11621,0.08722,0.40353,0.00000,0.00000,0.00000,
1631130128225464832,0.11027,0.05473,0.24081,0.99908,0.01765,-0.02190,-0.03225,0.13858,-0.12285,-0.06798,0.12636,0.08115,0.40726,0.00000,0.00000,0.00000,
1631130128292136192,0.11902,0.05948,0.24157,0.99965,0.01321,-0.00833,-0.02121,0.05826,-0.09042,0.13235,0.13302,0.07087,0.41219,0.00000,0.00000,0.00000,
1631130128358806272,0.12495,0.04021,0.24551,0.99932,0.02080,-0.00837,-0.02918,0.05229,-0.07047,-0.01352,0.13951,0.06710,0.41245,0.00000,0.00000,0.00000,
1631130128425477632,0.13226,0.04655,0.24571,0.99968,0.00437,0.00265,-0.02492,0.02399,-0.01133,-0.01233,0.14321,0.06423,0.41082,0.00000,0.00000,0.00000,
1631130128492147968,0.13705,0.04390,0.24536,0.99951,-0.00540,0.01036,-0.02914,-0.00081,0.06559,0.01838,0.14524,0.06691,0.41236,0.00000,0.00000,0.00000,
1631130128558819072,0.14346,0.04519,0.24611,0.99966,0.00732,0.00904,-0.02329,0.05598,-0.01782,0.04726,0.15052,0.06622,0.41388,0.00000,0.00000,0.00000,
1631130128625489408,0.14878,0.04394,0.24687,0.99949,0.01405,0.01467,-0.02454,0.06650,0.05830,-0.05822,0.15590,0.06660,0.40827,0.00000,0.00000,0.00000,
1631130128692160512,0.15322,0.04465,0.23994,0.99934,0.01873,0.01952,-0.02443,0.04411,-0.09323,-0.02887,0.16018,0.05906,0.40553,0.00000,0.00000,0.00000,
1631130128758831616,0.15879,0.03534,0.23340,0.99886,0.02988,0.02494,-0.02749,0.05500,-0.10127,-0.04276,0.16499,0.05109,0.40165,0.00000,0.00000,0.00000,
1631130128825502208,0.16616,0.02584,0.22867,0.99849,0.03723,0.03112,-0.02584,0.08353,-0.15461,-0.06873,0.17252,0.04122,0.40269,0.00000,0.00000,0.00000,
1631130128892173312,0.17366,0.01891,0.23283,0.99860,0.03355,0.03504,-0.02091,0.10611,-0.12992,0.17309,0.17775,0.03286,0.41178,0.00000,0.00000,0.00000,
1631130128958843392,0.17955,0.00959,0.23957,0.99895,0.03087,0.02240,-0.02533,0.07678,-0.10259,0.03754,0.18391,0.02509,0.41323,0.00000,0.00000,0.00000,
1631130129025514752,0.18510,0.00604,0.24118,0.99899,0.03338,0.01985,-0.02248,0.05269,-0.05463,0.05043,0.18692,0.02225,0.41384,0.00000,0.00000,0.00000,
1631130129092185088,0.18873,0.00364,0.24039,0.99932,0.01890,0.02168,-0.02319,0.01699,0.01650,-0.01911,0.18868,0.02301,0.41213,0.00000,0.00000,0.00000,
1631130129158856448,0.19199,0.00426,0.23710,0.99950,0.01441,0.02073,-0.01883,0.00997,-0.02690,0.10050,0.18956,0.02003,0.41737,0.00000,0.00000,0.00000,
1631130129225526784,0.19097,0.00215,0.24610,0.99938,0.02323,0.01626,-0.02083,0.03401,0.01423,-0.02530,0.19210,0.01835,0.41254,0.00000,0.00000,0.00000,
1631130129292198144,0.19330,0.00163,0.24034,0.99933,0.02304,0.02083,-0.01951,0.03169,-0.05200,-0.04162,0.19419,0.01354,0.41060,0.00000,0.00000,0.00000,
1631130129358868736,0.19732,-0.00552,0.23588,0.99905,0.02885,0.02458,-0.02172,0.04195,-0.06222,-0.02705,0.19790,0.00646,0.40871,0.00000,0.00000,0.00000,
1631130129425540096,0.20017,-0.01020,0.23273,0.99888,0.03291,0.02780,-0.01947,0.06244,-0.08381,-0.05041,0.20209,0.00100,0.40637,0.00000,0.00000,0.00000,
1631130129492210688,0.20602,-0.01400,0.22802,0.99888,0.02992,0.03173,-0.01857,0.08591,-0.05212,0.14749,0.20829,-0.00548,0.41646,0.00000,0.00000,0.00000,
1631130129558882304,0.21015,-0.02302,0.24143,0.99909,0.03040,0.01993,-0.02226,0.08666,-0.08739,0.08955,0.21377,-0.01121,0.42191,0.00000,0.00000,0.00000,
1631130129625552640,0.21763,-0.03021,0.24659,0.99901,0.03338,0.01760,-0.02354,0.07431,-0.02797,-0.00707,0.21920,-0.01213,0.42000,0.00000,0.00000,0.00000,
1631130129692224256,0.22212,-0.02828,0.24358,0.99927,0.01602,0.02434,-0.02480,0.05556,0.06960,-0.03957,0.22159,-0.00923,0.41760,0.00000,0.00000,0.00000,
1631130129758894592,0.22841,-0.02610,0.23864,0.99944,0.00701,0.02531,-0.02067,0.06864,0.07734,0.01521,0.23007,-0.00173,0.41702,0.00000,0.00000,0.00000,
1631130129825566208,0.23524,-0.02101,0.23968,0.99942,0.01667,0.02392,-0.01763,0.10400,0.06249,-0.03810,0.23534,-0.00144,0.41374,0.00000,0.00000,0.00000,
1631130129892236800,0.23981,-0.02023,0.23400,0.99944,0.01424,0.02208,-0.02077,0.08519,-0.03783,-0.03882,0.24236,-0.00441,0.41004,0.00000,0.00000,0.00000,
1631130129958908672,0.24749,-0.02624,0.23044,0.99917,0.01871,0.02709,-0.02419,0.07968,-0.08190,-0.04839,0.24887,-0.01441,0.40663,0.00000,0.00000,0.00000,
1631130130025580288,0.25268,-0.03467,0.22593,0.99881,0.02754,0.03134,-0.02513,0.07753,-0.16301,-0.06463,0.25409,-0.02480,0.40349,0.00000,0.00000,0.00000,
1631130130092250624,0.25861,-0.04488,0.22205,0.99865,0.02925,0.03401,-0.02626,0.13846,-0.10638,0.05207,0.26244,-0.03110,0.40818,0.00000,0.00000,0.00000,
1631130130158922240,0.26874,-0.05419,0.22454,0.99888,0.02953,0.02696,-0.02549,0.10140,-0.10527,-0.00621,0.27053,-0.03777,0.40844,0.00000,0.00000,0.00000,
1631130130225592320,0.27630,-0.05872,0.22635,0.99892,0.03442,0.02127,-0.02291,0.11373,-0.00463,0.00687,0.27864,-0.03746,0.40774,0.00000,0.00000,0.00000,
1631130130292263680,0.28431,-0.05615,0.22613,0.99924,0.01904,0.02703,-0.02057,0.09590,0.04052,-0.04884,0.28568,-0.03363,0.40472,0.00000,0.00000,0.00000,
1631130130358934016,0.29210,-0.05140,0.22261,0.99941,0.00764,0.02813,-0.01799,0.11371,0.10150,0.00609,0.29366,-0.03231,0.40800,0.00000,0.00000,0.00000,
1631130130425605376,0.30074,-0.04928,0.22882,0.99923,0.01883,0.02706,-0.02133,0.13143,0.04141,0.07178,0.30255,-0.02847,0.40923,0.00000,0.00000,0.00000,
1631130130492275456,0.30818,-0.04712,0.22554,0.99940,0.01651,0.02352,-0.01916,0.10936,0.01542,-0.05085,0.31047,-0.03175,0.40611,0.00000,0.00000,0.00000,
1631130130558946560,0.31546,-0.05011,0.22289,0.99920,0.01864,0.02608,-0.02382,0.09616,-0.06096,-0.01411,0.31765,-0.03616,0.40353,0.00000,0.00000,0.00000,
1631130130625617152,0.32225,-0.05593,0.21949,0.99888,0.02666,0.03016,-0.02502,0.07700,-0.11670,-0.04150,0.32458,-0.04572,0.40096,0.00000,0.00000,0.00000,
1631130130692288256,0.32844,-0.06373,0.21722,0.99879,0.02690,0.03158,-0.02636,0.12511,-0.09415,0.06210,0.33174,-0.05085,0.40568,0.00000,0.00000,0.00000,
1631130130758958592,0.33904,-0.07099,0.22226,0.99894,0.02579,0.02898,-0.02457,0.11141,-0.10607,0.06146,0.34122,-0.05668,0.40812,0.00000,0.00000,0.00000,
1631130130825629696,0.34612,-0.07620,0.22484,0.99893,0.03285,0.02036,-0.02520,0.11401,-0.02167,0.03488,0.34814,-0.05702,0.40819,0.00000,0.00000,0.00000,
1631130130892299776,0.35283,-0.07196,0.22348,0.99922,0.02040,0.02557,-0.02229,0.10703,0.04151,-0.04377,0.35467,-0.05252,0.40455,0.00000,0.00000,0.00000,
1631130130958971136,0.36168,-0.06639,0.21933,0.99935,0.00612,0.02841,-0.02142,0.10861,0.11325,-0.00638,0.36412,-0.04751,0.40534,0.00000,0.00000,0.00000,
1631130131025641472,0.36883,-0.06292,0.22651,0.99924,0.01512,0.02718,-0.02365,0.11816,0.02382,0.15362,0.37281,-0.04260,0.40911,0.00000,0.00000,0.00000,
1631130131092312832,0.37547,-0.05755,0.22812,0.99940,0.01669,0.02127,-0.02145,0.10415,0.03881,-0.00059,0.38024,-0.04300,0.40732,0.00000,0.00000,0.00000,
1631130131158982912,0.38319,-0.05775,0.22592,0.99932,0.01530,0.02152,-0.02588,0.09140,-0.02719,-0.00918,0.38670,-0.04608,0.40581,0.00000,0.00000,0.00000,
1631130131225654016,0.38861,-0.06115,0.22496,0.99918,0.02007,0.02231,-0.02716,0.05935,-0.07529,-0.01392,0.39142,-0.05234,0.40440,0.00000,0.00000,0.00000,
1631130131292324608,0.39331,-0.06695,0.22215,0.99904,0.02276,0.02170,-0.03063,0.08908,-0.07946,0.03162,0.39821,-0.05452,0.40760,0.00000,0.00000,0.00000,
1631130131358995712,0.39997,-0.07139,0.22694,0.99908,0.02425,0.02110,-0.02844,0.09251,-0.06672,0.00925,0.40307,-0.05757,0.40642,0.00000,0.00000,0.00000,
1631130131425667072,0.40710,-0.07218,0.22374,0.99909,0.02751,0.01571,-0.02843,0.10688,0.03650,-0.00290,0.41349,-0.05235,0.40419,0.00000,0.00000,0.00000,
1631130131492337152,0.41578,-0.06626,0.22092,0.99931,0.01869,0.02147,-0.02388,0.12805,0.08845,-0.05739,0.42096,-0.04665,0.40001,0.00000,0.00000,0.00000,
1631130131559008512,0.42396,-0.05851,0.21670,0.99934,0.01049,0.02561,-0.02368,0.14753,0.15532,-0.03203,0.43460,-0.03522,0.39658,0.00000,0.00000,0.00000,
1631130131625678848,0.43436,-0.04948,0.21216,0.99920,0.01742,0.02654,-0.02421,0.20275,0.07526,0.06234,0.44656,-0.02812,0.40131,0.00000,0.00000,0.00000,
1631130131692350208,0.44566,-0.03893,0.21803,0.99950,0.01137,0.01834,-0.02326,0.17024,0.11473,0.02660,0.45860,-0.02257,0.40288,0.00000,0.00000,0.00000,
1631130131759020288,0.45727,-0.03425,0.22209,0.99954,0.00871,0.01507,-0.02493,0.13524,0.01563,0.05210,0.46613,-0.02352,0.40360,0.00000,0.00000,0.00000,
1631130131825691648,0.46633,-0.03399,0.22137,0.99941,0.01431,0.01839,-0.02524,0.11574,-0.01412,-0.01875,0.47564,-0.02662,0.40003,0.00000,0.00000,0.00000,
1631130131892361984,0.47491,-0.03804,0.21787,0.99919,0.02386,0.02219,-0.02372,0.10977,-0.10100,-0.03154,0.48218,-0.03193,0.40499,0.00000,0.00000,0.00000,
1631130131959033344,0.48477,-0.04298,0.22531,0.99921,0.02753,0.01827,-0.02228,0.10268,-0.08840,0.17410,0.48895,-0.04017,0.41575,0.00000,0.00000,0.00000,
1631130132025703424,0.48599,-0.05264,0.23488,0.99890,0.03662,0.00595,-0.02858,0.09528,-0.07983,0.08811,0.49530,-0.04287,0.41790,0.00000,0.00000,0.00000,
1631130132092374784,0.49653,-0.05388,0.23798,0.99905,0.03042,0.00910,-0.02972,0.10056,-0.00009,-0.01188,0.50371,-0.04415,0.41555,0.00000,0.00000,0.00000,
1631130132159044864,0.50104,-0.05149,0.23596,0.99919,0.01639,0.01569,-0.03311,0.08584,0.05101,-0.00421,0.50831,-0.04160,0.41531,0.00000,0.00000,0.00000,
1631130132225716480,0.50609,-0.04851,0.23459,0.99922,0.02228,0.01224,-0.03030,0.11207,0.07458,0.07369,0.51663,-0.03720,0.41613,0.00000,0.00000,0.00000,
1631130132292386816,0.51443,-0.04606,0.23571,0.99927,0.02260,0.00963,-0.02932,0.09720,0.02502,-0.02728,0.52236,-0.03837,0.41460,0.00000,0.00000,0.00000,
1631130132359058176,0.52013,-0.04611,0.23708,0.99919,0.02186,0.00907,-0.03250,0.06526,-0.03720,0.04365,0.52727,-0.04069,0.41417,0.00000,0.00000,0.00000,
1631130132425728256,0.52452,-0.04973,0.23534,0.99899,0.02703,0.01332,-0.03346,0.04784,-0.04815,-0.02921,0.53060,-0.04544,0.41147,0.00000,0.00000,0.00000,
1631130132492399616,0.52604,-0.05434,0.23329,0.99884,0.03074,0.01457,-0.03396,0.03781,-0.11298,0.00679,0.53501,-0.05389,0.41216,0.00000,0.00000,0.00000,
1631130132559070208,0.53005,-0.06198,0.23628,0.99880,0.03002,0.01615,-0.03519,0.06581,-0.09476,0.08516,0.53984,-0.06007,0.41518,0.00000,0.00000,0.00000,
1631130132625741568,0.53450,-0.06777,0.23863,0.99858,0.03682,0.00892,-0.03756,0.06951,-0.05609,0.03361,0.54424,-0.06215,0.41611,0.00000,0.00000,0.00000,
1631130132692412928,0.53893,-0.06799,0.23807,0.99872,0.03336,0.01044,-0.03658,0.06569,0.03896,-0.01473,0.54944,-0.06013,0.41281,0.00000,0.00000,0.00000,
1631130132759083008,0.54386,-0.06340,0.23279,0.99916,0.01558,0.01585,-0.03433,0.06348,0.09490,-0.03062,0.55524,-0.05370,0.41129,0.00000,0.00000,0.00000,
1631130132825754368,0.54944,-0.05828,0.23139,0.99925,0.01899,0.01455,-0.03032,0.10341,0.10091,0.00292,0.56046,-0.04991,0.41170,0.00000,0.00000,0.00000,
1631130132892424704,0.55769,-0.05472,0.22985,0.99931,0.02008,0.01265,-0.02869,0.08883,0.00742,-0.04587,0.56705,-0.04945,0.40791,0.00000,0.00000,0.00000,
1631130132959096320,0.56260,-0.05489,0.22752,0.99921,0.01839,0.01197,-0.03311,0.07739,-0.03535,-0.07142,0.57019,-0.05099,0.40543,0.00000,0.00000,0.00000,
1631130133025766656,0.56758,-0.05864,0.22290,0.99892,0.02564,0.01847,-0.03419,0.06803,-0.09059,-0.07066,0.57629,-0.06076,0.39964,0.00000,0.00000,0.00000,
1631130133092437760,0.57147,-0.06627,0.21686,0.99852,0.03170,0.02322,-0.03766,0.08315,-0.14438,-0.07883,0.58251,-0.06935,0.39842,0.00000,0.00000,0.00000,
1631130133159108096,0.57897,-0.07451,0.21717,0.99844,0.03422,0.02637,-0.03527,0.09587,-0.07720,0.07442,0.58864,-0.07580,0.40216,0.00000,0.00000,0.00000,
1631130133225779456,0.58447,-0.08032,0.21821,0.99853,0.03767,0.01567,-0.03572,0.08246,-0.08113,-0.02469,0.59249,-0.07712,0.40249,0.00000,0.00000,0.00000,
1631130133292450048,0.58876,-0.08073,0.21923,0.99876,0.03743,0.01248,-0.03045,0.07937,-0.01350,0.01272,0.59749,-0.07862,0.40203,0.00000,0.00000,0.00000,
1631130133359121408,0.59416,-0.08124,0.21773,0.99904,0.02667,0.01590,-0.03077,0.05838,0.01648,-0.04118,0.60103,-0.07526,0.40039,0.00000,0.00000,0.00000,
1631130133425791744,0.59803,-0.07667,0.21563,0.99927,0.02331,0.01523,-0.02629,0.06531,0.01237,0.12541,0.60296,-0.07480,0.40414,0.00000,0.00000,0.00000,
1631130133492463104,0.59826,-0.07742,0.22678,0.99915,0.02766,0.01141,-0.02833,0.08788,0.01738,0.02093,0.60992,-0.07469,0.40485,0.00000,0.00000,0.00000,
1631130133559133440,0.60277,-0.07576,0.22350,0.99920,0.02651,0.01418,-0.02643,0.07965,-0.04139,-0.02978,0.61088,-0.07478,0.40398,0.00000,0.00000,0.00000,
1631130133625804800,0.61047,-0.08091,0.22033,0.99888,0.03081,0.01940,-0.03025,0.06232,-0.07647,-0.01519,0.61894,-0.08428,0.39883,0.00000,0.00000,0.00000,
1631130133692475392,0.61368,-0.08624,0.21748,0.99873,0.03418,0.02199,-0.02986,0.06171,-0.10668,-0.01786,0.62343,-0.09193,0.39882,0.00000,0.00000,0.00000,
1631130133759146752,0.62093,-0.09300,0.21856,0.99880,0.03062,0.02612,-0.02791,0.08831,-0.05353,0.17814,0.62894,-0.09733,0.40860,0.00000,0.00000,0.00000,
1631130133825817088,0.62284,-0.09951,0.22872,0.99885,0.03503,0.01363,-0.02989,0.08710,-0.09636,0.04342,0.63410,-0.10210,0.40964,0.00000,0.00000,0.00000,
1631130133892488448,0.62669,-0.10267,0.23021,0.99879,0.03776,0.01170,-0.02942,0.08891,-0.01224,0.02866,0.64119,-0.10162,0.40732,0.00000,0.00000,0.00000,
1631130133959158784,0.63219,-0.09950,0.22749,0.99933,0.01511,0.01841,-0.02784,0.07335,0.06483,-0.02667,0.64571,-0.09760,0.40496,0.00000,0.00000,0.00000,
1631130134025830144,0.63738,-0.09471,0.22630,0.99943,0.01434,0.01672,-0.02561,0.09177,0.07712,0.05609,0.65420,-0.09512,0.40733,0.00000,0.00000,0.00000,
1631130134092501760,0.64577,-0.09101,0.22828,0.99928,0.02195,0.01852,-0.02499,0.13325,0.05484,0.02397,0.66216,-0.09269,0.40570,0.00000,0.00000,0.00000,
1631130134159172096,0.65418,-0.08916,0.22629,0.99936,0.01972,0.01534,-0.02549,0.13638,-0.03049,-0.00730,0.67226,-0.09548,0.40431,0.00000,0.00000,0.00000,
1631130134225843456,0.66232,-0.09329,0.22496,0.99911,0.02454,0.01857,-0.02897,0.14061,-0.07603,-0.05994,0.68126,-0.10226,0.40002,0.00000,0.00000,0.00000,
1631130134292513536,0.67215,-0.10101,0.21964,0.99871,0.03394,0.02487,-0.02840,0.14675,-0.16524,-0.05597,0.69329,-0.11523,0.39619,0.00000,0.00000,0.00000,
1631130134359184640,0.68343,-0.11029,0.21227,0.99857,0.03508,0.02954,-0.02739,0.20082,-0.08754,0.09612,0.70408,-0.12214,0.40315,0.00000,0.00000,0.00000,
1631130134425855232,0.69333,-0.11866,0.22256,0.99886,0.03422,0.01751,-0.02821,0.17624,-0.12554,0.07900,0.71921,-0.12996,0.40657,0.00000,0.00000,0.00000,
1631130134492526336,0.70801,-0.12575,0.22665,0.99878,0.03982,0.01190,-0.02684,0.19280,-0.03679,0.01604,0.72909,-0.13131,0.40590,0.00000,0.00000,0.00000,
1631130134559196416,0.72154,-0.12552,0.22356,0.99923,0.02481,0.01620,-0.02560,0.17891,0.04012,-0.04777,0.74468,-0.12566,0.40084,0.00000,0.00000,0.00000,
1631130134625867776,0.73230,-0.11813,0.21917,0.99951,0.00910,0.01798,-0.02383,0.21274,0.10248,-0.03472,0.75819,-0.12495,0.40347,0.00000,0.00000,0.00000,
1631130134692538112,0.74644,-0.11550,0.22326,0.99930,0.01906,0.01798,-0.02659,0.21513,0.05194,0.03000,0.77388,-0.12142,0.40219,0.00000,0.00000,0.00000,
1631130134759209216,0.75868,-0.11085,0.22145,0.99936,0.01980,0.01613,-0.02490,0.19150,-0.00166,-0.03965,0.78522,-0.12373,0.40092,0.00000,0.00000,0.00000,
1631130134825879552,0.77042,-0.11516,0.21979,0.99917,0.02278,0.01704,-0.02915,0.17773,-0.07583,-0.03880,0.79747,-0.13088,0.39747,0.00000,0.00000,0.00000,
1631130134892550656,0.78308,-0.12216,0.21464,0.99890,0.03119,0.02148,-0.02769,0.17635,-0.13488,-0.07189,0.80813,-0.14004,0.39340,0.00000,0.00000,0.00000,
1631130134959220992,0.79323,-0.13090,0.21370,0.99870,0.03573,0.02383,-0.02745,0.21884,-0.10380,0.07649,0.82557,-0.15144,0.40234,0.00000,0.00000,0.00000,
1631130135025892352,0.80584,-0.13772,0.22044,0.99891,0.03429,0.01717,-0.02648,0.17439,-0.13119,0.10338,0.83569,-0.15605,0.40367,0.00000,0.00000,0.00000,
1631130135092562432,0.81940,-0.14404,0.22064,0.99890,0.03791,0.00962,-0.02590,0.17549,-0.01378,0.01352,0.84993,-0.15826,0.40357,0.00000,0.00000,0.00000,
1631130135159233536,0.83069,-0.14201,0.21901,0.99931,0.02578,0.01249,-0.02381,0.15377,0.04227,-0.04364,0.85862,-0.15235,0.40028,0.00000,0.00000,0.00000,
1631130135225903872,0.83873,-0.13466,0.21643,0.99958,0.01261,0.01416,-0.02196,0.16819,0.13449,-0.01794,0.87288,-0.14746,0.40284,0.00000,0.00000,0.00000,
1631130135292575232,0.84952,-0.13104,0.22192,0.99942,0.02162,0.01156,-0.02357,0.17932,0.05021,0.05036,0.88316,-0.14302,0.40313,0.00000,0.00000,0.00000,
1631130135359246592,0.85985,-0.12684,0.22210,0.99951,0.02006,0.00997,-0.02187,0.14882,0.02166,0.00057,0.89525,-0.14311,0.40153,0.00000,0.00000,0.00000,
1631130135425916672,0.87027,-0.12844,0.22103,0.99943,0.01965,0.01013,-0.02533,0.12802,-0.05012,0.00444,0.90243,-0.14909,0.40074,0.00000,0.00000,0.00000,
1631130135492588032,0.87828,-0.13264,0.21859,0.99927,0.02532,0.01508,-0.02446,0.10697,-0.09052,-0.04657,0.91104,-0.15674,0.39808,0.00000,0.00000,0.00000,
1631130135559258112,0.88691,-0.13892,0.21507,0.99913,0.02928,0.01701,-0.02447,0.12956,-0.08738,0.08895,0.91812,-0.16148,0.40458,0.00000,0.00000,0.00000,
1631130135625929472,0.89448,-0.14543,0.22355,0.99915,0.03151,0.01211,-0.02374,0.12454,-0.11173,0.05947,0.92615,-0.16775,0.40722,0.00000,0.00000,0.00000,
1631130135692599808,0.89779,-0.14911,0.22449,0.99898,0.03698,0.00400,-0.02550,0.10668,-0.02809,0.00271,0.93413,-0.16905,0.40732,0.00000,0.00000,0.00000,
1631130135759271168,0.90559,-0.14662,0.22316,0.99942,0.02449,0.00886,-0.02188,0.09166,0.02722,-0.04835,0.93957,-0.16485,0.40394,0.00000,0.00000,0.00000,
1631130135825941248,0.90911,-0.14144,0.22214,0.99966,0.01027,0.01028,-0.02187,0.08231,0.10905,-0.01229,0.94499,-0.15966,0.40524,0.00000,0.00000,0.00000,
1631130135892612608,0.91596,-0.13693,0.22297,0.99957,0.01983,0.00986,-0.01907,0.11749,0.03088,0.06416,0.95342,-0.15711,0.40558,0.00000,0.00000,0.00000,
1631130135959282944,0.92344,-0.13208,0.22306,0.99964,0.01880,0.00690,-0.01809,0.11573,0.02778,-0.06597,0.96086,-0.15749,0.40192,0.00000,0.00000,0.00000,
1631130136025954048,0.93034,-0.13391,0.22087,0.99945,0.02103,0.01153,-0.02289,0.09849,-0.04492,-0.03067,0.96604,-0.16163,0.40015,0.00000,0.00000,0.00000,
1631130136092624384,0.93557,-0.13852,0.21882,0.99922,0.02750,0.01458,-0.02440,0.07159,-0.09534,-0.04019,0.96977,-0.16780,0.39817,0.00000,0.00000,0.00000,
1631130136159295488,0.94114,-0.14507,0.21451,0.99909,0.02870,0.01695,-0.02647,0.10728,-0.08459,0.02570,0.97820,-0.17341,0.40313,0.00000,0.00000,0.00000,
1631130136225966080,0.94672,-0.14926,0.22152,0.99922,0.02674,0.01592,-0.02426,0.11834,-0.06855,0.05681,0.98537,-0.17799,0.40375,0.00000,0.00000,0.00000,
1631130136292637184,0.95159,-0.15093,0.22194,0.99911,0.03206,0.00887,-0.02609,0.13452,0.04543,0.00810,0.99504,-0.17464,0.40240,0.00000,0.00000,0.00000,
1631130136359307264,0.96319,-0.14519,0.21998,0.99941,0.02055,0.01640,-0.02215,0.16142,0.11941,-0.08157,1.00630,-0.16672,0.39611,0.00000,0.00000,0.00000,
1631130136425978624,0.97202,-0.13622,0.21600,0.99947,0.00841,0.02178,-0.02279,0.18125,0.19068,-0.03907,1.02329,-0.15556,0.39421,0.00000,0.00000,0.00000,
1631130136492648960,0.98857,-0.12675,0.21334,0.99920,0.01953,0.02529,-0.02410,0.24398,0.07010,0.08560,1.03740,-0.14954,0.39967,0.00000,0.00000,0.00000,
1631130136559320064,1.00224,-0.11803,0.21757,0.99943,0.01662,0.01748,-0.02376,0.21806,0.12857,-0.00701,1.04821,-0.14527,0.39947,0.00000,0.00000,0.00000,
1631130136625990144,1.01475,-0.11637,0.21738,0.99947,0.01320,0.01274,-0.02703,0.20275,-0.00976,-0.02183,1.06374,-0.14654,0.39768,0.00000,0.00000,0.00000,
1631130136692661504,1.02588,-0.12071,0.21520,0.99913,0.02526,0.01614,-0.02905,0.17429,-0.09973,-0.08288,1.07966,-0.15891,0.39050,0.00000,0.00000,0.00000,
1631130136759332608,1.03774,-0.12996,0.20907,0.99866,0.03491,0.01962,-0.03263,0.21614,-0.18802,-0.06934,1.09197,-0.16599,0.39096,0.00000,0.00000,0.00000,
1631130136826002944,1.05401,-0.13673,0.20991,0.99885,0.03244,0.02275,-0.02696,0.21732,-0.08336,0.07499,1.10895,-0.17254,0.39579,0.00000,0.00000,0.00000,
1631130136892674304,1.06750,-0.14234,0.21302,0.99904,0.03076,0.01189,-0.02876,0.20176,-0.06208,-0.01529,1.12454,-0.17466,0.39637,0.00000,0.00000,0.00000,
1631130136959344384,1.07935,-0.14176,0.21470,0.99922,0.02880,0.00892,-0.02550,0.21261,0.03817,-0.03899,1.13661,-0.17033,0.39272,0.00000,0.00000,0.00000,
1631130137026015488,1.09442,-0.13618,0.20998,0.99949,0.01227,0.01558,-0.02514,0.21202,0.13339,-0.07228,1.15529,-0.15923,0.38821,0.00000,0.00000,0.00000,
1631130137092685824,1.10763,-0.12760,0.21083,0.99951,0.01113,0.01462,-0.02516,0.25406,0.04833,0.10429,1.16875,-0.15720,0.39571,0.00000,0.00000,0.00000,
1631130137159357184,1.12239,-0.12365,0.21998,0.99933,0.01456,0.01412,-0.03060,0.19995,0.12487,0.10572,1.18384,-0.15002,0.39850,0.00000,0.00000,0.00000,
1631130137226027264,1.13421,-0.11733,0.22019,0.99948,0.00959,0.00832,-0.02949,0.16512,0.00978,0.02892,1.19530,-0.15059,0.39853,0.00000,0.00000,0.00000,
1631130137292698368,1.14367,-0.11909,0.22041,0.99930,0.01534,0.00962,-0.03288,0.13518,-0.04296,-0.03991,1.20550,-0.15628,0.39540,0.00000,0.00000,0.00000,
1631130137359368704,1.15328,-0.12356,0.21726,0.99899,0.02873,0.01362,-0.03178,0.12239,-0.11960,-0.02140,1.21390,-0.16279,0.39795,0.00000,0.00000,0.00000,
1631130137426039808,1.16141,-0.13014,0.22570,0.99914,0.02699,0.01186,-0.02929,0.11848,-0.08226,0.20534,1.22240,-0.17063,0.40759,0.00000,0.00000,0.00000,
1631130137492710144,1.16686,-0.13744,0.23214,0.99905,0.02828,0.00165,-0.03299,0.08150,-0.09529,0.04982,1.22874,-0.17537,0.40779,0.00000,0.00000,0.00000,
1631130137559381504,1.17431,-0.14139,0.23337,0.99905,0.03312,-0.00212,-0.02842,0.05277,-0.04029,0.05518,1.23137,-0.17810,0.40818,0.00000,0.00000,0.00000,
1631130137626051584,1.17746,-0.14366,0.23122,0.99947,0.01539,0.00119,-0.02863,0.01431,-0.01472,-0.01921,1.23234,-0.17923,0.40669,0.00000,0.00000,0.00000,
1631130137692722688,1.17837,-0.14427,0.23071,0.99952,0.01594,-0.00088,-0.02661,-0.01237,-0.02376,0.05717,1.23359,-0.18462,0.41044,0.00000,0.00000,0.00000,
1631130137759393280,1.17980,-0.14832,0.23448,0.99920,0.02752,0.00287,-0.02894,0.03403,-0.01083,0.00726,1.23564,-0.18536,0.40674,0.00000,0.00000,0.00000,
1631130137826064384,1.18292,-0.14960,0.22541,0.99916,0.02984,0.00787,-0.02703,0.04449,-0.07193,-0.08372,1.23863,-0.19150,0.40201,0.00000,0.00000,0.00000,
1631130137892734464,1.18526,-0.15563,0.22385,0.99885,0.03515,0.01297,-0.02990,0.05362,-0.08292,0.00522,1.24207,-0.19633,0.39887,0.00000,0.00000,0.00000,
1631130137959405824,1.19020,-0.15991,0.21859,0.99869,0.03919,0.01714,-0.02818,0.08365,-0.08952,-0.04892,1.24919,-0.20614,0.39864,0.00000,0.00000,0.00000,
1631130138026076928,1.19562,-0.16570,0.21685,0.99885,0.02911,0.02211,-0.03116,0.10916,-0.05103,0.12271,1.25536,-0.21078,0.40435,0.00000,0.00000,0.00000,
1631130138092747264,1.20191,-0.16899,0.22105,0.99901,0.02923,0.01258,-0.03121,0.10578,-0.06673,-0.00936,1.26191,-0.21545,0.40423,0.00000,0.00000,0.00000,
1631130138159418624,1.20908,-0.17198,0.22323,0.99901,0.03121,0.00943,-0.03040,0.10458,0.01716,0.01783,1.26782,-0.21301,0.40332,0.00000,0.00000,0.00000,
1631130138226088704,1.21543,-0.16836,0.22053,0.99933,0.01768,0.01493,-0.02834,0.09703,0.08414,-0.05386,1.27441,-0.20661,0.40026,0.00000,0.00000,0.00000,
1631130138292760320,1.22171,-0.16224,0.21876,0.99945,0.01380,0.01540,-0.02611,0.11060,0.13089,-0.00949,1.28158,-0.20150,0.40329,0.00000,0.00000,0.00000,
1631130138359430400,1.22914,-0.15731,0.22387,0.99936,0.01872,0.01312,-0.02736,0.11302,0.06104,0.08971,1.28945,-0.19749,0.40490,0.00000,0.00000,0.00000,
1631130138426102016,1.23601,-0.15296,0.22345,0.99951,0.01355,0.00847,-0.02683,0.11074,0.02926,-0.04998,1.29663,-0.19850,0.39984,0.00000,0.00000,0.00000,
1631130138492772096,1.24298,-0.15430,0.21879,0.99930,0.01594,0.01483,-0.03058,0.09308,-0.03270,-0.06880,1.30119,-0.20182,0.39600,0.00000,0.00000,0.00000,
1631130138559443456,1.24917,-0.15914,0.21326,0.99895,0.02493,0.02097,-0.03219,0.09149,-0.10642,-0.07306,1.30819,-0.21144,0.39166,0.00000,0.00000,0.00000,
1631130138626113536,1.25492,-0.16581,0.21316,0.99886,0.02445,0.02217,-0.03461,0.12181,-0.02090,0.09669,1.31482,-0.21317,0.39826,0.00000,0.00000,0.00000,
1631130138692785152,1.26120,-0.16883,0.21730,0.99909,0.02458,0.01722,-0.03025,0.09118,-0.05974,0.04272,1.31938,-0.21603,0.39825,0.00000,0.00000,0.00000,
1631130138759455232,1.26733,-0.16999,0.21636,0.99909,0.02847,0.01016,-0.02998,0.09490,0.05710,0.02494,1.32989,-0.21241,0.39547,0.00000,0.00000,0.00000,
1631130138826126848,1.27529,-0.16356,0.21475,0.99938,0.01572,0.01817,-0.02554,0.11754,0.08753,-0.03921,1.33843,-0.20542,0.39193,0.00000,0.00000,0.00000,
1631130138892797184,1.28178,-0.15724,0.21022,0.99939,0.01054,0.01953,-0.02698,0.11858,0.12610,-0.01249,1.34588,-0.19981,0.39259,0.00000,0.00000,0.00000,
1631130138959468288,1.29165,-0.15103,0.21282,0.99911,0.01932,0.02036,-0.03145,0.13775,0.03083,0.14330,1.35686,-0.19230,0.39924,0.00000,0.00000,0.00000,
1631130139026138880,1.30035,-0.14251,0.21714,0.99947,0.01233,0.01161,-0.02784,0.13364,0.12302,-0.00103,1.36433,-0.18931,0.39948,0.00000,0.00000,0.00000,
1631130139092810240,1.30798,-0.13911,0.21880,0.99937,0.00987,0.00884,-0.03289,0.10045,0.02138,0.04078,1.37019,-0.18861,0.40014,0.00000,0.00000,0.00000,
1631130139159480320,1.31547,-0.13818,0.21700,0.99918,0.02269,0.01373,-0.03068,0.09003,0.01732,-0.05535,1.37644,-0.19044,0.39799,0.00000,0.00000,0.00000,
1631130139226151680,1.32016,-0.14036,0.21592,0.99906,0.02730,0.01376,-0.03070,0.07054,-0.06604,0.01269,1.38238,-0.19533,0.40139,0.00000,0.00000,0.00000,
1631130139292821760,1.32696,-0.14379,0.21943,0.99916,0.02454,0.01489,-0.02910,0.09337,-0.06360,0.11703,1.38859,-0.19899,0.40654,0.00000,0.00000,0.00000,
1631130139359493376,1.33155,-0.14837,0.22260,0.99909,0.02613,0.00695,-0.03309,0.09353,-0.05445,-0.00707,1.39349,-0.20177,0.40647,0.00000,0.00000,0.00000,
1631130139426164480,1.33762,-0.14933,0.22195,0.99910,0.02608,0.00703,-0.03280,0.07913,0.01993,-0.00944,1.40005,-0.19943,0.40538,0.00000,0.00000,0.00000,
1631130139492834816,1.34162,-0.14776,0.21963,0.99926,0.02144,0.00838,-0.03089,0.06395,0.05835,-0.02874,1.40364,-0.19609,0.40460,0.00000,0.00000,0.00000,
1631130139559505920,1.34548,-0.14354,0.22009,0.99934,0.02037,0.00761,-0.02901,0.08261,0.07755,-0.03080,1.40925,-0.19204,0.40578,0.00000,0.00000,0.00000,
1631130139626176000,1.35126,-0.14047,0.22126,0.99942,0.02012,0.00662,-0.02658,0.09003,0.01357,-0.01357,1.41487,-0.19249,0.40346,0.00000,0.00000,0.00000,
1631130139692847616,1.35813,-0.14120,0.21775,0.99936,0.01934,0.00678,-0.02934,0.10241,-0.04185,-0.05842,1.42203,-0.19744,0.40081,0.00000,0.00000,0.00000,
1631130139759517696,1.36248,-0.14542,0.21644,0.99912,0.02565,0.01158,-0.03111,0.08779,-0.08338,-0.04960,1.42691,-0.20381,0.39850,0.00000,0.00000,0.00000,
1631130139826189056,1.36769,-0.15209,0.21329,0.99895,0.03086,0.01495,-0.03024,0.08861,-0.13161,-0.04782,1.43422,-0.21369,0.39586,0.00000,0.00000,0.00000,
1631130139892859136,1.37490,-0.16040,0.21173,0.99894,0.02838,0.01861,-0.03116,0.13089,-0.08568,0.10091,1.44171,-0.21983,0.40359,0.00000,0.00000,0.00000,
1631130139959530496,1.38291,-0.16870,0.21865,0.99889,0.03297,0.00878,-0.03235,0.11876,-0.14154,0.08296,1.44946,-0.22744,0.40625,0.00000,0.00000,0.00000,
1631130140026200832,1.39140,-0.17478,0.21890,0.99871,0.03801,0.00382,-0.03356,0.12301,-0.06343,0.00225,1.45648,-0.22838,0.40614,0.00000,0.00000,0.00000,
1631130140092871936,1.39875,-0.17383,0.21655,0.99932,0.01625,0.00912,-0.03192,0.10171,0.03324,-0.06306,1.46410,-0.22374,0.40233,0.00000,0.00000,0.00000,
1631130140159542272,1.40460,-0.16931,0.21412,0.99952,0.00531,0.00929,-0.02913,0.11137,0.05384,0.00974,1.47212,-0.22347,0.40672,0.00000,0.00000,0.00000,
1631130140226213376,1.41166,-0.16833,0.22009,0.99939,0.01805,0.00645,-0.02902,0.13561,-0.00806,0.02355,1.48117,-0.22336,0.40392,0.00000,0.00000,0.00000,
1631130140292883968,1.42069,-0.16871,0.21622,0.99938,0.01957,0.00827,-0.02811,0.14018,-0.06074,-0.06367,1.48859,-0.22837,0.40157,0.00000,0.00000,0.00000,
1631130140359555072,1.42944,-0.17489,0.21322,0.99904,0.02631,0.01394,-0.03226,0.13700,-0.12551,-0.05107,1.49863,-0.23839,0.39635,0.00000,0.00000,0.00000,
1631130140426225408,1.43922,-0.18308,0.20748,0.99864,0.03549,0.02196,-0.03122,0.14960,-0.16340,-0.08697,1.50929,-0.25212,0.39193,0.00000,0.00000,0.00000,
1631130140492896768,1.45000,-0.19459,0.20503,0.99856,0.03487,0.02584,-0.03140,0.19933,-0.14694,0.10392,1.52020,-0.26075,0.40114,0.00000,0.00000,0.00000,
1631130140559566848,1.46191,-0.20541,0.21472,0.99882,0.03389,0.01551,-0.03111,0.17516,-0.17857,0.11466,1.53200,-0.27049,0.40512,0.00000,0.00000,0.00000,
1631130140626238464,1.47442,-0.21417,0.21662,0.99872,0.04018,0.00630,-0.03021,0.17407,-0.08035,0.01843,1.54205,-0.27300,0.40589,0.00000,0.00000,0.00000,
1631130140692909568,1.48520,-0.21626,0.21607,0.99928,0.02349,0.00830,-0.02864,0.14642,-0.00737,-0.03643,1.55254,-0.27048,0.40212,0.00000,0.00000,0.00000,
1631130140759579904,1.49294,-0.21167,0.21218,0.99956,0.00314,0.01204,-0.02680,0.15044,0.07126,-0.01352,1.56014,-0.26959,0.40591,0.00000,0.00000,0.00000,
1631130140826251008,1.50182,-0.21102,0.22005,0.99948,0.01604,0.00686,-0.02711,0.14663,-0.02634,0.07895,1.56978,-0.26980,0.40614,0.00000,0.00000,0.00000,
1631130140892921344,1.50977,-0.20977,0.21708,0.99942,0.02076,0.00981,-0.02534,0.13413,-0.00143,-0.06271,1.57933,-0.27173,0.40130,0.00000,0.00000,0.00000,
1631130140959592704,1.51926,-0.21391,0.21316,0.99916,0.02433,0.01480,-0.02949,0.12057,-0.08840,-0.00794,1.58255,-0.27443,0.40079,0.00000,0.00000,0.00000,
1631130141026263040,1.52608,-0.21933,0.21056,0.99893,0.03043,0.01809,-0.02970,0.10602,-0.09648,-0.03161,1.59576,-0.28705,0.39562,0.00000,0.00000,0.00000,
1631130141092934144,1.53424,-0.22608,0.20645,0.99891,0.02820,0.02121,-0.03047,0.15736,-0.12778,0.02581,1.60578,-0.29433,0.40112,0.00000,0.00000,0.00000,
1631130141159604480,1.54392,-0.23291,0.21338,0.99903,0.02785,0.01638,-0.03007,0.15182,-0.09923,0.06106,1.61387,-0.30040,0.40354,0.00000,0.00000,0.00000,
1631130141226275584,1.55176,-0.23813,0.21565,0.99887,0.03336,0.00828,-0.03280,0.15351,-0.04500,0.00984,1.62518,-0.29967,0.40206,0.00000,0.00000,0.00000,
1631130141292945920,1.56163,-0.23629,0.21344,0.99925,0.01998,0.01330,-0.03046,0.14509,0.07436,-0.06089,1.63465,-0.29528,0.39846,0.00000,0.00000,0.00000,
1631130141359617280,1.57065,-0.23028,0.20984,0.99943,0.00454,0.01605,-0.02940,0.15841,0.10727,-0.02091,1.64320,-0.29016,0.39742,0.00000,0.00000,0.00000,
1631130141426287360,1.58362,-0.22497,0.21134,0.99928,0.01795,0.01726,-0.02859,0.18774,0.02719,0.10871,1.66020,-0.28517,0.40206,0.00000,0.00000,0.00000,
1631130141492958464,1.59451,-0.22162,0.21315,0.99943,0.01246,0.01160,-0.02918,0.17846,0.02488,-0.04987,1.67180,-0.28646,0.40000,0.00000,0.00000,0.00000,
1631130141559629056,1.60538,-0.22315,0.21139,0.99932,0.01236,0.01100,-0.03299,0.17283,-0.08861,-0.04951,1.68214,-0.29326,0.39590,0.00000,0.00000,0.00000,
1631130141626300160,1.61709,-0.23051,0.20562,0.99892,0.02491,0.01793,-0.03489,0.16102,-0.16654,-0.10106,1.69405,-0.30456,0.39059,0.00000,0.00000,0.00000,
1631130141692970240,1.63020,-0.24178,0.19798,0.99865,0.02793,0.02094,-0.03856,0.20982,-0.16331,0.01125,1.70890,-0.31398,0.39545,0.00000,0.00000,0.00000,
1631130141759641600,1.64211,-0.24799,0.20340,0.99890,0.02795,0.01853,-0.03285,0.18853,-0.12459,0.06343,1.71662,-0.31938,0.39819,0.00000,0.00000,0.00000,
1631130141826311936,1.65396,-0.25612,0.20616,0.99886,0.03273,0.00696,-0.03392,0.18166,-0.06332,0.00476,1.73221,-0.32308,0.39948,0.00000,0.00000,0.00000,
1631130141892983040,1.66514,-0.25570,0.20553,0.99915,0.02576,0.00906,-0.03073,0.17195,0.01200,-0.06053,1.74138,-0.31998,0.39614,0.00000,0.00000,0.00000,
1631130141959653120,1.67566,-0.25120,0.20214,0.99941,0.00435,0.01448,-0.03083,0.16538,0.10594,-0.06001,1.75449,-0.31458,0.39778,0.00000,0.00000,0.00000,
1631130142026324480,1.68770,-0.24815,0.20249,0.99933,0.01284,0.01186,-0.03209,0.16829,-0.04031,0.14295,1.76587,-0.31321,0.40364,0.00000,0.00000,0.00000,
1631130142092995584,1.69721,-0.24386,0.20762,0.99939,0.01523,0.00751,-0.03044,0.17981,0.10162,-0.08549,1.77479,-0.31280,0.40201,0.00000,0.00000,0.00000,
1631130142159665920,1.70871,-0.24532,0.20750,0.99936,0.01285,0.00532,-0.03286,0.14878,-0.04564,-0.03316,1.78464,-0.31600,0.40190,0.00000,0.00000,0.00000,
1631130142226337280,1.71817,-0.24919,0.20642,0.99934,0.01178,0.00688,-0.03360,0.14086,-0.03950,-0.09711,1.79470,-0.32135,0.39853,0.00000,0.00000,0.00000,
1631130142293007360,1.72706,-0.25581,0.20747,0.99940,0.00983,0.00463,-0.03274,0.15085,-0.14661,-0.09443,1.80385,-0.32822,0.40003,0.00000,0.00000,0.00000,
1631130142359678720,1.73662,-0.26240,0.21671,0.99953,0.00235,-0.00218,-0.03035,0.14190,-0.08929,0.09050,1.81354,-0.33410,0.40648,0.00000,0.00000,0.00000,
1631130142426348800,1.74428,-0.26808,0.22416,0.99931,0.00143,-0.01476,-0.03396,0.13574,-0.06710,-0.03645,1.82252,-0.33569,0.40587,0.00000,0.00000,0.00000,
1631130142493020416,1.75465,-0.26687,0.22249,0.99943,-0.00302,-0.01524,-0.03010,0.13871,0.05209,-0.03279,1.83271,-0.33072,0.40263,0.00000,0.00000,0.00000,
1631130142559690496,1.76453,-0.26181,0.22182,0.99920,-0.02268,-0.01116,-0.03085,0.13091,0.09643,-0.08299,1.84193,-0.32199,0.39915,0.00000,0.00000,0.00000,
1631130142626361600,1.77348,-0.25225,0.22097,0.99927,-0.02303,-0.01469,-0.02664,0.17252,0.14938,-0.03286,1.85386,-0.31773,0.40277,0.00000,0.00000,0.00000,
1631130142693031936,1.78334,-0.24711,0.23249,0.99926,-0.01282,-0.01953,-0.03045,0.17104,0.06919,0.10124,1.86730,-0.31125,0.40480,0.00000,0.00000,0.00000,
1631130142759703040,1.79478,-0.24156,0.23235,0.99908,-0.01708,-0.02739,-0.02826,0.17113,0.00597,-0.00740,1.87830,-0.31283,0.40353,0.00000,0.00000,0.00000,
1631130142826373632,1.80612,-0.24498,0.23280,0.99897,-0.01273,-0.02761,-0.03381,0.17341,-0.08234,-0.04218,1.88984,-0.32000,0.39885,0.00000,0.00000,0.00000,
1631130142893044736,1.81697,-0.25194,0.23090,0.99921,0.00232,-0.02084,-0.03363,0.16261,-0.18692,-0.05664,1.89652,-0.32751,0.39576,0.00000,0.00000,0.00000,
1631130142959715072,1.82951,-0.26338,0.22597,0.99917,0.00424,-0.01611,-0.03704,0.21490,-0.16722,0.04392,1.90193,-0.33316,0.39384,0.00000,0.00000,0.00000,
1631130143026386176,1.84279,-0.27079,0.23526,0.99930,0.00359,-0.01812,-0.03261,0.19423,-0.14247,0.10867,1.93346,-0.35221,0.40029,0.00000,0.00000,0.00000,
1631130143093056768,1.85705,-0.27883,0.23917,0.99897,0.00991,-0.02937,-0.03309,0.20942,-0.05350,0.04572,1.94458,-0.35335,0.40073,0.00000,0.00000,0.00000,
1631130143159727872,1.87124,-0.27909,0.23887,0.99913,0.00510,-0.02800,-0.03041,0.22141,0.01381,-0.04244,1.96207,-0.34758,0.39468,0.00000,0.00000,0.00000,
1631130143226398208,1.88667,-0.27333,0.23431,0.99910,-0.02176,-0.01972,-0.03058,0.22982,0.14740,-0.05429,1.97603,-0.34149,0.39171,0.00000,0.00000,0.00000,
1631130143293069312,1.90230,-0.26682,0.23989,0.99913,-0.01512,-0.02275,-0.03151,0.29959,0.02936,0.05278,1.99987,-0.33538,0.39539,0.00000,0.00000,0.00000,
1631130143359740672,1.91957,-0.26243,0.24550,0.99922,-0.00710,-0.01871,-0.03391,0.23511,0.10670,0.08383,2.01374,-0.33315,0.39616,0.00000,0.00000,0.00000,
1631130143426411008,1.93646,-0.25873,0.24330,0.99909,-0.00995,-0.02253,-0.03488,0.21548,-0.02530,0.07657,2.02861,-0.33641,0.39662,0.00000,0.00000,0.00000,
1631130143493082368,1.95028,-0.26280,0.24189,0.99910,-0.00523,-0.01958,-0.03725,0.22834,-0.07960,-0.07655,2.04708,-0.34647,0.38897,0.00000,0.00000,0.00000,
1631130143559752448,1.96453,-0.27252,0.23708,0.99921,0.00878,-0.01106,-0.03710,0.22559,-0.19176,-0.02365,2.06200,-0.35796,0.38474,0.00000,0.00000,0.00000,
1631130143626423808,1.98192,-0.28380,0.23079,0.99936,0.01181,-0.00247,-0.03365,0.27220,-0.10306,0.07230,2.08489,-0.37222,0.39331,0.00000,0.00000,0.00000,
1631130143693093888,1.99778,-0.29668,0.23928,0.99925,0.01630,-0.01163,-0.03311,0.22882,-0.21231,0.15681,2.10058,-0.38073,0.39679,0.00000,0.00000,0.00000,
1631130143759765504,2.01586,-0.30623,0.24387,0.99893,0.02223,-0.02309,-0.03320,0.25466,-0.09461,0.02328,2.11660,-0.38174,0.39495,0.00000,0.00000,0.00000,
1631130143826435584,2.03430,-0.30698,0.24167,0.99930,0.00403,-0.01819,-0.03236,0.24360,0.01728,-0.05335,2.13405,-0.37579,0.38927,0.00000,0.00000,0.00000,
1631130143893106944,2.05321,-0.29924,0.23386,0.99918,-0.02259,-0.01040,-0.03190,0.28650,0.10144,-0.07509,2.15353,-0.37110,0.38806,0.00000,0.00000,0.00000,
1631130143959777024,2.07075,-0.29717,0.24120,0.99919,-0.00665,-0.00754,-0.03887,0.25991,-0.03543,0.17320,2.17181,-0.36785,0.39317,0.00000,0.00000,0.00000,
1631130144026448128,2.08624,-0.29126,0.24418,0.99933,0.00227,-0.00721,-0.03572,0.24772,0.05143,0.01834,2.18729,-0.36718,0.39153,0.00000,0.00000,0.00000,
1631130144093118720,2.10095,-0.29178,0.24236,0.99913,0.00128,-0.01015,-0.04049,0.22433,-0.08811,0.03879,2.20336,-0.37238,0.39055,0.00000,0.00000,0.00000,
1631130144159789824,2.11799,-0.29774,0.23784,0.99909,0.00844,-0.00782,-0.04112,0.23219,-0.14142,-0.07184,2.22120,-0.38539,0.38332,0.00000,0.00000,0.00000,
1631130144226460160,2.13438,-0.30997,0.23263,0.99888,0.02014,-0.00358,-0.04264,0.27892,-0.25179,-0.10315,2.24129,-0.39611,0.38325,0.00000,0.00000,0.00000,
1631130144293131520,2.15261,-0.31820,0.23422,0.99921,0.02170,0.00489,-0.03291,0.22449,-0.11489,0.17581,2.25353,-0.40480,0.38953,0.00000,0.00000,0.00000,
1631130144359801856,2.16571,-0.32818,0.24257,0.99915,0.01696,-0.00946,-0.03628,0.19736,-0.11574,0.05970,2.26670,-0.41160,0.39095,0.00000,0.00000,0.00000,
1631130144426473216,2.17883,-0.33103,0.24330,0.99934,0.01487,-0.01192,-0.03079,0.19173,-0.03937,0.04757,2.28277,-0.41346,0.39049,0.00000,0.00000,0.00000,
1631130144493143296,2.19129,-0.33138,0.24212,0.99939,0.00366,-0.01019,-0.03325,0.16261,0.07038,-0.01614,2.29264,-0.40976,0.38913,0.00000,0.00000,0.00000,
1631130144559814656,2.20298,-0.32588,0.24004,0.99954,-0.00092,-0.01164,-0.02790,0.20795,0.06370,-0.01683,2.30573,-0.40821,0.39062,0.00000,0.00000,0.00000,
1631130144626484992,2.21570,-0.32819,0.24534,0.99906,0.00804,-0.00391,-0.04245,0.16873,0.00466,0.11198,2.31929,-0.40601,0.39377,0.00000,0.00000,0.00000,
1631130144693156352,2.22932,-0.32271,0.24361,0.99934,0.01190,-0.00386,-0.03401,0.18301,0.05139,-0.09309,2.33055,-0.40597,0.38942,0.00000,0.00000,0.00000,
1631130144759827712,2.24045,-0.32581,0.24001,0.99909,0.00794,-0.00283,-0.04172,0.17443,-0.09651,-0.03639,2.34274,-0.41230,0.38728,0.00000,0.00000,0.00000,
1631130144826497792,2.25079,-0.33087,0.23862,0.99905,0.01196,-0.00263,-0.04192,0.17180,-0.11718,-0.07475,2.35589,-0.42422,0.38157,0.00000,0.00000,0.00000,
1631130144893169152,2.26394,-0.34075,0.23052,0.99879,0.02154,0.00360,-0.04412,0.22842,-0.15611,-0.05810,2.37219,-0.43327,0.38147,0.00000,0.00000,0.00000,
1631130144959839232,2.27854,-0.34769,0.23047,0.99912,0.01761,0.01118,-0.03628,0.19842,-0.12358,0.05334,2.38160,-0.44011,0.38397,0.00000,0.00000,0.00000,
1631130145026510592,2.29033,-0.35425,0.23543,0.99920,0.01525,-0.00182,-0.03698,0.18681,-0.03112,0.03480,2.39602,-0.44210,0.38748,0.00000,0.00000,0.00000,
1631130145093180928,2.30229,-0.35454,0.23867,0.99933,0.01480,-0.00783,-0.03251,0.19230,0.02220,-0.00092,2.40560,-0.44122,0.38616,0.00000,0.00000,0.00000,
1631130145159852288,2.31322,-0.34934,0.23655,0.99940,-0.00063,-0.00348,-0.03447,0.18042,0.17821,-0.06373,2.42464,-0.42709,0.37933,0.00000,0.00000,0.00000,
1631130145226522368,2.32874,-0.33790,0.23004,0.99950,-0.00880,0.00118,-0.03024,0.25390,0.11184,-0.02687,2.43904,-0.42347,0.38260,0.00000,0.00000,0.00000,
1631130145293193728,2.34379,-0.33286,0.23647,0.99903,0.00004,0.00454,-0.04383,0.20993,0.16723,0.12362,2.45425,-0.41528,0.38616,0.00000,0.00000,0.00000,
1631130145359864064,2.35669,-0.32348,0.23788,0.99924,-0.00343,-0.00242,-0.03876,0.18720,0.06569,-0.01112,2.46924,-0.41037,0.38615,0.00000,0.00000,0.00000,
1631130145426535424,2.36781,-0.32259,0.23835,0.99884,-0.00974,-0.00823,-0.04646,0.16006,-0.01462,0.00842,2.47918,-0.41067,0.38618,0.00000,0.00000,0.00000,
1631130145493205760,2.37777,-0.32504,0.23703,0.99889,-0.00005,-0.00801,-0.04636,0.13432,-0.11015,-0.06233,2.48884,-0.42015,0.38161,0.00000,0.00000,0.00000,
1631130145559876864,2.38838,-0.33257,0.23111,0.99867,0.01382,-0.00567,-0.04941,0.12503,-0.05898,0.14260,2.49997,-0.42467,0.38728,0.00000,0.00000,0.00000,
1631130145626547456,2.39656,-0.33514,0.24067,0.99916,0.00858,-0.00321,-0.03999,0.12825,-0.09658,0.06281,2.50960,-0.43145,0.38906,0.00000,0.00000,0.00000,
1631130145693218560,2.40616,-0.34059,0.24498,0.99894,0.00991,-0.01229,-0.04325,0.12408,-0.00892,0.03316,2.52039,-0.42903,0.38911,0.00000,0.00000,0.00000,
1631130145759888896,2.41696,-0.33771,0.24292,0.99920,0.00872,-0.01174,-0.03731,0.14281,0.06055,-0.00018,2.53265,-0.42542,0.38469,0.00000,0.00000,0.00000,
1631130145826560000,2.42800,-0.33257,0.23946,0.99927,-0.00185,-0.00619,-0.03766,0.15645,0.14620,-0.03394,2.54402,-0.41550,0.38095,0.00000,0.00000,0.00000,
1631130145893230336,2.44014,-0.32233,0.23652,0.99939,-0.00201,-0.00260,-0.03484,0.21255,0.15004,-0.05273,2.55983,-0.40920,0.38142,0.00000,0.00000,0.00000,
1631130145959901696,2.45437,-0.31803,0.24097,0.99889,0.00926,0.00548,-0.04595,0.17249,0.12228,0.16330,2.57023,-0.40191,0.38675,0.00000,0.00000,0.00000,
1631130146026573056,2.46594,-0.30771,0.24634,0.99917,0.00327,-0.00432,-0.04044,0.17453,0.09018,0.02062,2.58406,-0.39754,0.38860,0.00000,0.00000,0.00000,
1631130146093243136,2.47733,-0.30745,0.24671,0.99893,0.00031,-0.00948,-0.04531,0.15848,-0.03878,0.03042,2.59460,-0.39841,0.38770,0.00000,0.00000,0.00000,
1631130146159914496,2.48937,-0.31057,0.24443,0.99895,0.00757,-0.00663,-0.04467,0.15225,-0.10219,-0.06068,2.60795,-0.41072,0.38292,0.00000,0.00000,0.00000,
1631130146226584576,2.50062,-0.31961,0.23832,0.99871,0.01416,-0.00366,-0.04860,0.17583,-0.12690,0.01717,2.61987,-0.41579,0.38649,0.00000,0.00000,0.00000,
1631130146293255936,2.50933,-0.32412,0.24877,0.99910,0.01553,-0.00166,-0.03950,0.14917,-0.10622,0.10398,2.63197,-0.42250,0.39217,0.00000,0.00000,0.00000,
1631130146359926272,2.52046,-0.33168,0.25085,0.99875,0.01774,-0.00985,-0.04559,0.14365,-0.05759,0.01632,2.64245,-0.42155,0.39131,0.00000,0.00000,0.00000,
1631130146426597632,2.53291,-0.32827,0.24806,0.99908,0.01284,-0.00790,-0.04013,0.16432,0.08049,-0.01247,2.65374,-0.41693,0.38707,0.00000,0.00000,0.00000,
1631130146493267712,2.54408,-0.32223,0.24402,0.99913,-0.00653,0.00117,-0.04125,0.16996,0.14278,-0.07703,2.66055,-0.41150,0.38286,0.00000,0.00000,0.00000,
1631130146559938816,2.55785,-0.31044,0.24048,0.99931,-0.00207,0.00293,-0.03700,0.21678,0.15868,-0.01874,2.68108,-0.39839,0.38319,0.00000,0.00000,0.00000,
1631130146626609408,2.57222,-0.30397,0.24533,0.99883,0.00858,0.00741,-0.04702,0.19306,0.15758,0.12950,2.69545,-0.38664,0.38852,0.00000,0.00000,0.00000,
1631130146693280512,2.58475,-0.29317,0.25087,0.99908,-0.00256,-0.00541,-0.04257,0.18057,0.08833,0.05428,2.70584,-0.38438,0.39079,0.00000,0.00000,0.00000,
1631130146759950848,2.59674,-0.29105,0.25409,0.99874,-0.00565,-0.01126,-0.04849,0.16456,0.01765,0.01286,2.71755,-0.38609,0.38888,0.00000,0.00000,0.00000,
1631130146826621952,2.60785,-0.29298,0.25061,0.99878,0.01123,-0.00724,-0.04753,0.14174,-0.09734,-0.05166,2.72818,-0.39524,0.38545,0.00000,0.00000,0.00000,
1631130146893292544,2.61731,-0.30057,0.24396,0.99849,0.01951,-0.00436,-0.05116,0.13628,-0.05901,0.09779,2.73857,-0.39691,0.39074,0.00000,0.00000,0.00000,
1631130146959963648,2.62542,-0.30311,0.25100,0.99898,0.01620,-0.00221,-0.04203,0.14024,-0.09736,0.00323,2.74750,-0.40221,0.39281,0.00000,0.00000,0.00000,
1631130147026633728,2.63457,-0.30808,0.25188,0.99879,0.01495,-0.01034,-0.04572,0.13835,-0.00263,-0.02942,2.75773,-0.39984,0.39305,0.00000,0.00000,0.00000,
1631130147093305088,2.64509,-0.30423,0.25265,0.99909,0.01023,-0.00918,-0.04045,0.15669,0.07400,-0.04904,2.76692,-0.39642,0.38817,0.00000,0.00000,0.00000,
1631130147159975168,2.65544,-0.29725,0.24719,0.99913,-0.00443,0.00036,-0.04148,0.15848,0.17671,-0.07992,2.78109,-0.38183,0.38295,0.00000,0.00000,0.00000,
1631130147226646784,2.66762,-0.28420,0.24514,0.99925,-0.00381,0.00063,-0.03854,0.23539,0.17762,-0.07561,2.79554,-0.37536,0.38175,0.00000,0.00000,0.00000,
1631130147293316864,2.68309,-0.27723,0.24813,0.99877,0.01323,0.00471,-0.04754,0.20086,0.12747,0.16901,2.81265,-0.36353,0.39055,0.00000,0.00000,0.00000,
1631130147359988224,2.69611,-0.26659,0.25461,0.99903,-0.00029,-0.00970,-0.04299,0.21333,0.09640,0.05506,2.82475,-0.35983,0.39236,0.00000,0.00000,0.00000,
1631130147426659584,2.70909,-0.26437,0.25765,0.99886,-0.00236,-0.01529,-0.04505,0.20312,-0.00481,0.00652,2.84080,-0.36174,0.39007,0.00000,0.00000,0.00000,
1631130147493329664,2.72347,-0.26753,0.25448,0.99898,0.01460,-0.00774,-0.04209,0.20624,-0.09163,-0.07309,2.85183,-0.36715,0.38595,0.00000,0.00000,0.00000,
1631130147560001024,2.73779,-0.27495,0.25013,0.99899,0.02244,-0.00191,-0.03901,0.24091,-0.14767,-0.08821,2.87187,-0.37752,0.38478,0.00000,0.00000,0.00000,
1631130147626671360,2.75347,-0.28381,0.25408,0.99921,0.02460,0.00189,-0.03115,0.20418,-0.20346,0.20177,2.88641,-0.39249,0.39722,0.00000,0.00000,0.00000,
1631130147693342720,2.76495,-0.29771,0.26669,0.99838,0.03624,-0.01576,-0.04082,0.19487,-0.13296,0.14832,2.89936,-0.39850,0.40422,0.00000,0.00000,0.00000,
1631130147760012800,2.77850,-0.30046,0.26808,0.99871,0.02635,-0.01952,-0.03886,0.22160,-0.01225,-0.08121,2.91832,-0.39817,0.39923,0.00000,0.00000,0.00000,
1631130147826684160,2.79280,-0.29545,0.26410,0.99917,-0.00417,-0.00916,-0.03949,0.18921,0.16305,-0.07528,2.93233,-0.38877,0.39450,0.00000,0.00000,0.00000,
1631130147893354496,2.80649,-0.28632,0.26229,0.99928,-0.00591,-0.01111,-0.03584,0.23229,0.11821,-0.02139,2.94929,-0.38072,0.38953,0.00000,0.00000,0.00000,
1631130147960025856,2.82536,-0.27465,0.25568,0.99912,0.02319,-0.00231,-0.03477,0.28444,0.22186,-0.02487,2.96962,-0.36701,0.39097,0.00000,0.00000,0.00000,
1631130148026695936,2.84271,-0.26354,0.26122,0.99913,0.00573,-0.01581,-0.03808,0.21984,0.09596,0.14600,2.98604,-0.36143,0.39732,0.00000,0.00000,0.00000,
1631130148093367296,2.85795,-0.25883,0.26662,0.99871,-0.00430,-0.02914,-0.04136,0.24281,0.07944,-0.02342,3.00200,-0.36091,0.39408,0.00000,0.00000,0.00000,
1631130148160037632,2.87501,-0.26214,0.26291,0.99875,0.01749,-0.02096,-0.04181,0.23028,-0.11338,-0.06454,3.01984,-0.37080,0.38642,0.00000,0.00000,0.00000,
1631130148226708992,2.89142,-0.27074,0.25674,0.99848,0.03737,-0.01279,-0.03852,0.24651,-0.16042,-0.10190,3.03746,-0.38367,0.38214,0.00000,0.00000,0.00000,
1631130148293379328,2.91063,-0.28503,0.25510,0.99866,0.03240,-0.00583,-0.04001,0.29785,-0.17859,0.00087,3.05953,-0.39450,0.38701,0.00000,0.00000,0.00000,
1631130148360050688,2.92718,-0.29405,0.26525,0.99850,0.03654,-0.01673,-0.03713,0.22282,-0.10013,0.19472,3.07780,-0.40181,0.39326,0.00000,0.00000,0.00000,
1631130148426721024,2.94367,-0.29988,0.26954,0.99827,0.03760,-0.02465,-0.03796,0.24387,-0.02585,0.01660,3.09071,-0.40179,0.39073,0.00000,0.00000,0.00000,
1631130148493392384,2.96033,-0.29540,0.26590,0.99904,0.01407,-0.01640,-0.03804,0.23839,0.16161,-0.08020,3.11131,-0.38795,0.38284,0.00000,0.00000,0.00000,
1631130148560062976,2.97868,-0.28282,0.25953,0.99922,-0.01467,-0.00538,-0.03630,0.29374,0.21339,-0.07825,3.13185,-0.37586,0.37426,0.00000,0.00000,0.00000,
1631130148626734336,3.00300,-0.27025,0.25258,0.99916,0.00730,0.00937,-0.03926,0.38801,0.18770,-0.09751,3.15680,-0.36326,0.37372,0.00000,0.00000,0.00000,
1631130148693405952,3.02552,-0.25737,0.26066,0.99921,0.00434,0.00386,-0.03921,0.30239,0.15388,0.24041,3.17995,-0.35504,0.38333,0.00000,0.00000,0.00000,
1631130148760076288,3.04570,-0.25231,0.26823,0.99914,-0.00483,-0.00989,-0.04003,0.32783,0.04698,0.01815,3.20577,-0.35512,0.38017,0.00000,0.00000,0.00000,
1631130148826747648,3.06832,-0.25474,0.26363,0.99940,0.00516,-0.00261,-0.03406,0.33015,-0.11392,-0.11589,3.22943,-0.36825,0.36908,0.00000,0.00000,0.00000,
1631130148893417984,3.09239,-0.27074,0.25215,0.99855,0.04356,0.00723,-0.03078,0.38320,-0.29931,-0.21897,3.25602,-0.38758,0.35964,0.00000,0.00000,0.00000,
1631130148960089344,3.12004,-0.28838,0.24557,0.99833,0.05183,0.01519,-0.02032,0.37962,-0.22936,-0.12651,3.27673,-0.39976,0.36226,0.00000,0.00000,0.00000,
1631130149026759936,3.13670,-0.29852,0.25781,0.99901,0.03963,0.01317,-0.01564,0.18039,-0.15297,0.37436,3.29383,-0.41083,0.38239,0.00000,0.00000,0.00000,
1631130149093431296,3.15073,-0.30797,0.27319,0.99966,0.01727,-0.00747,-0.01787,0.22126,-0.10889,0.12073,3.30710,-0.41605,0.38654,0.00000,0.00000,0.00000,
1631130149160101632,3.16548,-0.31258,0.27467,0.99964,0.01630,-0.00755,-0.02015,0.14002,0.02014,0.07005,3.31950,-0.41498,0.38942,0.00000,0.00000,0.00000,
1631130149226772992,3.17778,-0.30850,0.27709,0.99966,0.01290,-0.01602,-0.01603,0.19681,0.09228,0.00232,3.33706,-0.40834,0.38688,0.00000,0.00000,0.00000,
1631130149293443328,3.19163,-0.30421,0.27442,0.99954,0.01659,-0.01302,-0.02188,0.13699,0.11428,0.11211,3.34751,-0.40429,0.39077,0.00000,0.00000,0.00000,
1631130149360114688,3.20497,-0.29664,0.27553,0.99959,0.01052,-0.00184,-0.02639,0.14890,0.17576,-0.01150,3.35891,-0.39646,0.39178,0.00000,0.00000,0.00000,
1631130149426785024,3.21514,-0.29172,0.27385,0.99962,0.00212,-0.00840,-0.02610,0.11268,-0.00387,-0.03042,3.36570,-0.39877,0.39175,0.00000,0.00000,0.00000,
1631130149493456384,3.22346,-0.29552,0.27269,0.99944,0.00450,-0.00713,-0.03237,0.10847,-0.04406,-0.08189,3.37486,-0.40630,0.38625,0.00000,0.00000,0.00000,
1631130149560126464,3.23186,-0.30416,0.27014,0.99930,0.01863,-0.00042,-0.03232,0.09652,-0.19252,-0.08393,3.38202,-0.41894,0.38249,0.00000,0.00000,0.00000,
1631130149626797824,3.24039,-0.31810,0.26608,0.99906,0.01857,0.00404,-0.03892,0.12701,-0.12597,0.04432,3.39247,-0.42878,0.38457,0.00000,0.00000,0.00000,
1631130149693468416,3.25191,-0.32686,0.26908,0.99934,0.01724,0.00773,-0.03092,0.10484,-0.14311,0.06781,3.39931,-0.43718,0.38839,0.00000,0.00000,0.00000,
1631130149760139520,3.25685,-0.33396,0.27488,0.99909,0.02489,-0.00966,-0.03335,0.10687,-0.04118,0.03006,3.40646,-0.43892,0.39031,0.00000,0.00000,0.00000,
1631130149826809856,3.26415,-0.33298,0.27489,0.99930,0.02070,-0.00750,-0.03032,0.10066,0.06284,-0.05407,3.41267,-0.43339,0.38662,0.00000,0.00000,0.00000,
1631130149893481216,3.27087,-0.32566,0.27148,0.99956,-0.00273,-0.00084,-0.02966,0.10256,0.15967,-0.07968,3.42209,-0.42117,0.38082,0.00000,0.00000,0.00000,
1631130149960151552,3.28008,-0.31615,0.26751,0.99955,0.00264,0.00430,-0.02959,0.13567,0.09476,0.05528,3.42843,-0.41841,0.38167,0.00000,0.00000,0.00000,
1631130150026822912,3.28945,-0.30902,0.27345,0.99920,0.00963,0.00942,-0.03777,0.12635,0.18229,0.07699,3.44019,-0.40683,0.38748,0.00000,0.00000,0.00000,
1631130150093494272,3.29634,-0.30138,0.27788,0.99938,0.00229,-0.00077,-0.03517,0.09645,0.06181,0.05212,3.44591,-0.40474,0.38882,0.00000,0.00000,0.00000,
1631130150160164608,3.30267,-0.30124,0.27977,0.99928,0.00086,-0.00353,-0.03770,0.08459,-0.01279,-0.02091,3.45177,-0.40863,0.38630,0.00000,0.00000,0.00000,
1631130150226836224,3.30848,-0.30622,0.27628,0.99926,0.01355,0.00237,-0.03599,0.06681,-0.12288,-0.05450,3.45709,-0.41933,0.38268,0.00000,0.00000,0.00000,
1631130150293506816,3.31371,-0.31680,0.27251,0.99909,0.01884,0.00650,-0.03780,0.08266,-0.15046,0.00159,3.46275,-0.42877,0.38727,0.00000,0.00000,0.00000,
1631130150360178688,3.31907,-0.32654,0.27937,0.99917,0.02350,0.00413,-0.03310,0.04786,-0.17554,0.19575,3.46662,-0.44149,0.39886,0.00000,0.00000,0.00000,
1631130150426849280,3.32118,-0.33703,0.28770,0.99862,0.03354,-0.01586,-0.03723,0.04616,-0.10531,0.03636,3.46938,-0.44514,0.39907,0.00000,0.00000,0.00000,
1631130150493520896,3.32312,-0.34015,0.28805,0.99887,0.03100,-0.01452,-0.03287,0.01132,-0.00388,-0.00410,3.46909,-0.44597,0.39803,0.00000,0.00000,0.00000,
1631130150560191744,3.32324,-0.34009,0.28633,0.99937,0.00469,-0.01168,-0.03310,-0.00788,0.03984,-0.04273,3.46829,-0.44318,0.39628,0.00000,0.00000,0.00000,
1631130150626863360,3.32249,-0.33843,0.28574,0.99954,0.00690,-0.01384,-0.02620,-0.01454,0.02262,0.01198,3.46674,-0.44149,0.39574,0.00000,0.00000,0.00000,
1631130150693534464,3.32214,-0.33781,0.28369,0.99952,0.01491,-0.01781,-0.02073,-0.01172,0.00113,-0.02834,3.46516,-0.44146,0.39588,0.00000,0.00000,0.00000,
1631130150760206080,3.32051,-0.33737,0.28420,0.99951,0.01449,-0.01886,-0.02024,-0.01568,0.00510,-0.00116,3.46409,-0.44055,0.39582,0.00000,0.00000,0.00000,
1631130150826876928,3.31964,-0.33650,0.28417,0.99955,0.01340,-0.01865,-0.01942,0.00053,0.02127,0.00403,3.46430,-0.43932,0.39599,0.00000,0.00000,0.00000,
1631130150893548544,3.32020,-0.33580,0.28388,0.99956,0.01282,-0.01837,-0.01957,0.00947,0.00501,-0.00070,3.46481,-0.43888,0.39572,0.00000,0.00000,0.00000,
1631130150960219392,3.32041,-0.33572,0.28378,0.99956,0.01294,-0.01816,-0.01941,0.00158,-0.00528,0.00340,3.46475,-0.43937,0.39576,0.00000,0.00000,0.00000,
1631130151026891264,3.32011,-0.33620,0.28376,0.99956,0.01336,-0.01827,-0.01941,-0.00617,-0.00059,0.00422,3.46427,-0.44018,0.39579,0.00000,0.00000,0.00000,
1631130151093562112,3.31976,-0.33626,0.28385,0.99955,0.01352,-0.01839,-0.01925,-0.00109,0.00502,0.00309,3.46451,-0.43943,0.39578,0.00000,0.00000,0.00000,
1631130151160233728,3.31988,-0.33593,0.28384,0.99956,0.01326,-0.01820,-0.01926,0.00411,0.01002,0.00213,3.46468,-0.43912,0.39576,0.00000,0.00000,0.00000,
1631130151226904064,3.32015,-0.33574,0.28383,0.99957,0.01307,-0.01797,-0.01932,0.00012,0.00644,0.00322,3.46463,-0.43915,0.39574,0.00000,0.00000,0.00000,
1631130151293575168,3.31989,-0.33556,0.28384,0.99956,0.01319,-0.01799,-0.01932,-0.00428,0.00204,0.00433,3.46450,-0.43940,0.39576,0.00000,0.00000,0.00000,
1631130151360246528,3.31970,-0.33570,0.28396,0.99956,0.01344,-0.01803,-0.01932,-0.00140,0.00359,0.00411,3.46436,-0.43966,0.39594,0.00000,0.00000,0.00000,
1631130151426916608,3.31978,-0.33573,0.28395,0.99956,0.01347,-0.01788,-0.01932,0.00059,0.00724,0.00337,3.46459,-0.43934,0.39575,0.00000,0.00000,0.00000,
1631130151493587712,3.31976,-0.33545,0.28388,0.99957,0.01328,-0.01770,-0.01933,-0.00138,0.00989,0.00386,3.46458,-0.43921,0.39575,0.00000,0.00000,0.00000,
1631130151560257792,3.31972,-0.33525,0.28393,0.99957,0.01322,-0.01765,-0.01939,-0.00216,0.00683,0.00444,3.46454,-0.43926,0.39574,0.00000,0.00000,0.00000,
1631130151626929408,3.31978,-0.33548,0.28391,0.99957,0.01329,-0.01757,-0.01934,-0.00182,0.00440,0.00416,3.46438,-0.43957,0.39595,0.00000,0.00000,0.00000,
1631130151693599488,3.31970,-0.33537,0.28393,0.99957,0.01338,-0.01747,-0.01938,-0.00183,0.00716,0.00451,3.46454,-0.43939,0.39574,0.00000,0.00000,0.00000,
1631130151760270592,3.31961,-0.33524,0.28392,0.99957,0.01328,-0.01731,-0.01938,-0.00207,0.00926,0.00443,3.46454,-0.43927,0.39577,0.00000,0.00000,0.00000,
1631130151826940672,3.31968,-0.33509,0.28377,0.99958,0.01316,-0.01724,-0.01943,-0.00164,0.00832,0.00420,3.46457,-0.43923,0.39576,0.00000,0.00000,0.00000,
1631130151893612032,3.31974,-0.33509,0.28385,0.99958,0.01315,-0.01714,-0.01943,-0.00165,0.00660,0.00451,3.46454,-0.43934,0.39577,0.00000,0.00000,0.00000,
1631130151960282112,3.31988,-0.33539,0.28384,0.99958,0.01320,-0.01707,-0.01940,-0.00205,0.00757,0.00482,3.46437,-0.43954,0.39593,0.00000,0.00000,0.00000,
1631130152026953472,3.31980,-0.33514,0.28400,0.99958,0.01326,-0.01702,-0.01945,-0.00184,0.00874,0.00496,3.46453,-0.43932,0.39576,0.00000,0.00000,0.00000,
1631130152093623552,3.31973,-0.33494,0.28397,0.99958,0.01318,-0.01686,-0.01949,-0.00106,0.00959,0.00447,3.46455,-0.43926,0.39575,0.00000,0.00000,0.00000,
1631130152160294656,3.31969,-0.33479,0.28391,0.99958,0.01316,-0.01680,-0.01953,-0.00212,0.00911,0.00488,3.46455,-0.43932,0.39575,0.00000,0.00000,0.00000,
1631130152226964992,3.31969,-0.33475,0.28398,0.99958,0.01319,-0.01672,-0.01954,-0.00213,0.00830,0.00537,3.46452,-0.43934,0.39576,0.00000,0.00000,0.00000,
1631130152293636352,3.31975,-0.33477,0.28410,0.99958,0.01321,-0.01665,-0.01954,-0.00207,0.00889,0.00540,3.46453,-0.43931,0.39577,0.00000,0.00000,0.00000,
1631130152360306688,3.31973,-0.33469,0.28412,0.99958,0.01318,-0.01652,-0.01958,-0.00142,0.00949,0.00521,3.46454,-0.43930,0.39576,0.00000,0.00000,0.00000,
1631130152426977792,3.31964,-0.33458,0.28408,0.99959,0.01312,-0.01642,-0.01958,-0.00155,0.00870,0.00549,3.46454,-0.43929,0.39576,0.00000,0.00000,0.00000,
1631130152493648384,3.31971,-0.33458,0.28410,0.99959,0.01312,-0.01638,-0.01961,-0.00208,0.00800,0.00577,3.46436,-0.43949,0.39594,0.00000,0.00000,0.00000,
1631130152560319488,3.31972,-0.33452,0.28409,0.99959,0.01312,-0.01631,-0.01962,-0.00165,0.00855,0.00584,3.46452,-0.43933,0.39575,0.00000,0.00000,0.00000,
1631130152626989824,3.31965,-0.33455,0.28406,0.99959,0.01314,-0.01621,-0.01962,-0.00234,0.00816,0.00579,3.46452,-0.43931,0.39575,0.00000,0.00000,0.00000,
1631130152693661184,3.31968,-0.33454,0.28409,0.99959,0.01305,-0.01612,-0.01962,-0.00131,0.00835,0.00594,3.46439,-0.43961,0.39593,0.00000,0.00000,0.00000,
1631130152760332288,3.31969,-0.33454,0.28402,0.99959,0.01306,-0.01608,-0.01963,-0.00213,0.00786,0.00603,3.46439,-0.43961,0.39592,0.00000,0.00000,0.00000,
1631130152827002880,3.31975,-0.33454,0.28413,0.99959,0.01307,-0.01601,-0.01964,-0.00148,0.00744,0.00617,3.46451,-0.43935,0.39575,0.00000,0.00000,0.00000,
1631130152893673984,3.31987,-0.33484,0.28400,0.99960,0.01301,-0.01597,-0.01958,-0.00151,0.00893,0.00577,3.46451,-0.43932,0.39577,0.00000,0.00000,0.00000,
1631130152960344320,3.31985,-0.33485,0.28398,0.99960,0.01301,-0.01589,-0.01956,-0.00201,0.00855,0.00602,3.46451,-0.43933,0.39575,0.00000,0.00000,0.00000,
1631130153027015680,3.31985,-0.33480,0.28397,0.99960,0.01298,-0.01582,-0.01958,-0.00172,0.00894,0.00560,3.46451,-0.43931,0.39575,0.00000,0.00000,0.00000,
1631130153093685760,3.31972,-0.33441,0.28408,0.99960,0.01302,-0.01576,-0.01967,-0.00230,0.00829,0.00578,3.46452,-0.43934,0.39573,0.00000,0.00000,0.00000,
1631130153160357120,3.31966,-0.33436,0.28410,0.99960,0.01302,-0.01568,-0.01970,-0.00147,0.00803,0.00572,3.46450,-0.43933,0.39575,0.00000,0.00000,0.00000,
1631130153227029760,3.31971,-0.33437,0.28413,0.99960,0.01302,-0.01565,-0.01969,-0.00185,0.00780,0.00602,3.46451,-0.43933,0.39575,0.00000,0.00000,0.00000,
1631130153293703680,3.31972,-0.33434,0.28409,0.99960,0.01301,-0.01559,-0.01970,-0.00184,0.00794,0.00581,3.46451,-0.43935,0.39573,0.00000,0.00000,0.00000,
1631130153360376064,3.31967,-0.33428,0.28410,0.99960,0.01300,-0.01552,-0.01973,-0.00129,0.00845,0.00619,3.46450,-0.43930,0.39576,0.00000,0.00000,0.00000,
1631130153427050240,3.31967,-0.33425,0.28408,0.99960,0.01300,-0.01545,-0.01972,-0.00150,0.00809,0.00645,3.46450,-0.43933,0.39574,0.00000,0.00000,0.00000,
1631130153493722880,3.31972,-0.33424,0.28429,0.99960,0.01300,-0.01537,-0.01972,-0.00020,0.00802,0.00716,3.46434,-0.43948,0.39593,0.00000,0.00000,0.00000,
1631130153560396800,3.31981,-0.33463,0.28414,0.99961,0.01292,-0.01531,-0.01964,-0.00177,0.00792,0.00700,3.46434,-0.43948,0.39594,0.00000,0.00000,0.00000,
1631130153627069696,3.31980,-0.33459,0.28417,0.99961,0.01291,-0.01524,-0.01963,-0.00143,0.00792,0.00693,3.46450,-0.43934,0.39573,0.00000,0.00000,0.00000,
1631130153693743616,3.31969,-0.33417,0.28424,0.99961,0.01296,-0.01518,-0.01971,-0.00138,0.00807,0.00684,3.46433,-0.43951,0.39594,0.00000,0.00000,0.00000,
1631130153760416768,3.31972,-0.33420,0.28428,0.99961,0.01296,-0.01513,-0.01974,-0.00086,0.00762,0.00702,3.46433,-0.43950,0.39593,0.00000,0.00000,0.00000,
