1629344764017670400,0.00064,-0.00063,0.00051,0.99996,0.00537,-0.00691,-0.00054,-0.00157,0.00298,-0.00006,
1629344764084339968,0.00215,-0.00003,0.01585,0.99998,0.00377,-0.00467,-0.00060,0.00337,0.00487,0.02802,
1629344764151008512,0.00315,0.00077,0.02010,0.99998,0.00302,-0.00456,-0.00064,0.00664,0.01148,0.03522,
1629344764217678080,0.00377,0.00139,0.02204,0.99999,0.00247,-0.00476,-0.00027,0.01645,0.00151,0.02227,
1629344764284346112,0.00474,0.00085,0.02349,0.99998,0.00400,-0.00389,-0.00055,0.01772,-0.01489,0.03782,
1629344764351015680,0.00575,-0.00041,0.02597,0.99997,0.00595,-0.00370,-0.00111,0.01025,-0.02225,0.05551,
1629344764417683712,0.00694,-0.00184,0.02946,0.99996,0.00710,-0.00440,-0.00216,0.01293,-0.01269,0.06040,
1629344764484353280,0.00809,-0.00239,0.03346,0.99995,0.00749,-0.00548,-0.00254,0.01535,-0.00194,0.06737,
1629344764551021568,0.00927,-0.00250,0.03839,0.99996,0.00593,-0.00642,-0.00284,0.01418,-0.00300,0.06398,
1629344764617690368,0.01009,-0.00276,0.04177,0.99995,0.00678,-0.00714,-0.00296,0.01345,-0.00320,0.04032,
1629344764684358656,0.01013,-0.00284,0.04421,0.99994,0.00722,-0.00770,-0.00279,0.00540,0.01052,0.03734,
1629344764751028480,0.00961,-0.00295,0.04649,0.99992,0.00733,-0.00960,-0.00215,0.00362,0.00662,0.04218,
1629344764817697280,0.00876,-0.00297,0.04968,0.99991,0.00713,-0.01124,-0.00210,-0.00230,0.00411,0.04643,
1629344764884367104,0.00844,-0.00278,0.05289,0.99988,0.00742,-0.01323,-0.00199,0.00291,0.00138,0.04112,
1629344764951035904,0.00863,-0.00237,0.05538,0.99986,0.00805,-0.01467,-0.00200,0.00830,0.00432,0.03213,
1629344765017705728,0.00902,-0.00191,0.05747,0.99985,0.00764,-0.01553,-0.00211,0.01010,0.00761,0.03209,
1629344765084374272,0.00897,-0.00275,0.05929,0.99983,0.00743,-0.01687,-0.00177,0.01401,0.00975,0.03952,
1629344765151043840,0.00941,-0.00296,0.06232,0.99983,0.00779,-0.01674,-0.00150,0.01776,0.00265,0.04908,
1629344765217713664,0.01016,-0.00306,0.06576,0.99983,0.00855,-0.01644,-0.00075,0.02155,0.00427,0.05369,
1629344765284382208,0.01158,-0.00288,0.06908,0.99983,0.00794,-0.01659,-0.00059,0.01900,0.02091,0.05228,
1629344765351051520,0.01254,-0.00157,0.07248,0.99983,0.00615,-0.01732,0.00024,0.01097,0.01844,0.05128,
1629344765417720064,0.01396,0.00024,0.07562,0.99982,0.00549,-0.01826,0.00072,0.00525,0.00403,0.05216,
1629344765484389376,0.01474,0.00053,0.07857,0.99980,0.00629,-0.01872,0.00080,0.01065,-0.00423,0.03457,
1629344765551057920,0.01575,0.00026,0.08041,0.99979,0.00810,-0.01889,0.00045,0.00911,-0.00907,0.02726,
1629344765617726976,0.01624,-0.00056,0.08231,0.99977,0.01018,-0.01902,0.00030,0.00738,-0.00993,0.03626,
1629344765684395520,0.01648,-0.00137,0.08486,0.99974,0.01150,-0.01981,-0.00025,-0.00089,-0.00518,0.04272,
1629344765751065088,0.01621,-0.00218,0.08786,0.99970,0.01238,-0.02109,-0.00054,0.00460,-0.00582,0.04284,
1629344765817733376,0.01717,-0.00302,0.09099,0.99967,0.01497,-0.02073,-0.00021,0.01502,-0.00854,0.04696,
1629344765884402688,0.01797,-0.00410,0.09383,0.99964,0.01729,-0.02050,-0.00036,0.02324,-0.01017,0.03868,
1629344765951070976,0.01932,-0.00435,0.09650,0.99966,0.01685,-0.01998,-0.00057,0.02540,0.00747,0.03355,
1629344766017740544,0.02070,-0.00368,0.09857,0.99970,0.01549,-0.01878,-0.00068,0.02204,0.02159,0.02690,
1629344766084408832,0.02232,-0.00225,0.10038,0.99975,0.01446,-0.01683,-0.00038,0.02197,0.01728,0.03310,
1629344766151077888,0.02369,-0.00089,0.10243,0.99978,0.01375,-0.01572,-0.00015,0.01844,0.01424,0.03520,
1629344766217745920,0.02504,-0.00036,0.10463,0.99977,0.01463,-0.01585,-0.00048,0.00691,0.00284,0.05372,
1629344766284414976,0.02551,-0.00073,0.10770,0.99972,0.01662,-0.01662,-0.00047,-0.00361,-0.01652,0.05746,
1629344766351083264,0.02496,-0.00254,0.11157,0.99965,0.02018,-0.01707,-0.00069,-0.00661,-0.02201,0.05562,
1629344766417752320,0.02461,-0.00462,0.11569,0.99954,0.02459,-0.01799,-0.00112,-0.01258,-0.03260,0.06811,
1629344766484421376,0.02376,-0.00689,0.11895,0.99945,0.02744,-0.01871,-0.00237,-0.00794,-0.02455,0.02684,
1629344766551088896,0.02408,-0.00800,0.12104,0.99940,0.02950,-0.01767,-0.00281,-0.00448,-0.01183,0.02883,
1629344766617757696,0.02383,-0.00909,0.12249,0.99937,0.03121,-0.01686,-0.00291,-0.00726,0.00128,0.03656,
1629344766684425472,0.02286,-0.00922,0.12495,0.99936,0.03135,-0.01730,-0.00240,-0.01194,0.01221,0.04980,
1629344766751096576,0.02197,-0.00834,0.12755,0.99938,0.02966,-0.01902,-0.00246,-0.00079,0.01748,0.02588,
1629344766817766400,0.02180,-0.00701,0.12949,0.99943,0.02804,-0.01858,-0.00230,0.00515,0.01603,0.03017,
1629344766884437504,0.02176,-0.00630,0.13164,0.99944,0.02773,-0.01867,-0.00215,0.00499,-0.00443,0.04412,
1629344766951107584,0.02213,-0.00698,0.13464,0.99940,0.02887,-0.01873,-0.00250,0.01640,-0.02511,0.05460,
1629344767017778432,0.02332,-0.00847,0.13827,0.99937,0.03056,-0.01759,-0.00301,0.02333,-0.02414,0.05527,
1629344767084448256,0.02493,-0.01054,0.14235,0.99934,0.03201,-0.01669,-0.00403,0.03149,-0.02455,0.05865,
1629344767151119104,0.02829,-0.01226,0.14587,0.99935,0.03437,-0.01007,-0.00413,0.02663,-0.01418,0.04942,
1629344767217788928,0.03100,-0.01388,0.14817,0.99929,0.03694,-0.00638,-0.00487,0.02068,-0.02333,0.03560,
1629344767284459776,0.03212,-0.01563,0.15064,0.99924,0.03843,-0.00461,-0.00555,0.01427,-0.00722,0.02137,
1629344767351129600,0.03292,-0.01637,0.15188,0.99921,0.03928,-0.00327,-0.00534,0.00842,0.00086,0.01682,
1629344767417800448,0.03304,-0.01607,0.15296,0.99924,0.03853,-0.00291,-0.00526,-0.00278,0.01057,0.02752,
1629344767484470016,0.03264,-0.01511,0.15498,0.99929,0.03700,-0.00389,-0.00554,-0.01444,0.01306,0.04578,
1629344767551141120,0.03164,-0.01429,0.15803,0.99933,0.03594,-0.00501,-0.00541,-0.01325,0.00372,0.04653,
1629344767617810688,0.03071,-0.01399,0.16153,0.99935,0.03534,-0.00504,-0.00527,-0.00888,0.00094,0.04650,
1629344767684481536,0.02934,-0.01411,0.16463,0.99933,0.03591,-0.00574,-0.00488,-0.00759,-0.00186,0.04447,
1629344767751152640,0.02865,-0.01431,0.16763,0.99928,0.03685,-0.00765,-0.00477,-0.00756,-0.00900,0.04874,
1629344767817824512,0.02774,-0.01533,0.17058,0.99921,0.03836,-0.00914,-0.00427,0.00137,-0.01959,0.03443,
1629344767884496896,0.02727,-0.01682,0.17351,0.99913,0.04036,-0.00942,-0.00440,0.00392,-0.02196,0.04122,
1629344767951167744,0.02719,-0.01827,0.17660,0.99902,0.04254,-0.01171,-0.00466,0.01610,-0.01517,0.03683,
1629344768017839872,0.02687,-0.01927,0.17878,0.99895,0.04352,-0.01353,-0.00394,0.02125,-0.00615,0.03788,
1629344768084510976,0.02790,-0.01962,0.18126,0.99897,0.04305,-0.01340,-0.00439,0.02249,0.00701,0.03720,
1629344768151183104,0.02914,-0.01906,0.18345,0.99900,0.04242,-0.01357,-0.00397,0.01994,0.00992,0.03916,
1629344768217853952,0.03026,-0.01842,0.18581,0.99903,0.04168,-0.01356,-0.00335,0.01594,0.00785,0.03593,
1629344768284526080,0.03157,-0.01691,0.18778,0.99910,0.04021,-0.01266,-0.00356,0.01294,0.00844,0.02277,
1629344768351197184,0.03292,-0.01560,0.18925,0.99916,0.03907,-0.01203,-0.00381,0.01005,0.00802,0.03388,
1629344768417869312,0.03377,-0.01492,0.19142,0.99918,0.03837,-0.01247,-0.00396,0.00544,0.00179,0.05063,
1629344768484540416,0.03423,-0.01482,0.19494,0.99919,0.03817,-0.01232,-0.00347,0.00763,-0.00370,0.05058,
1629344768551212800,0.03494,-0.01511,0.19829,0.99918,0.03863,-0.01172,-0.00403,0.00848,-0.01085,0.05233,
1629344768617883904,0.03567,-0.01570,0.20137,0.99916,0.03894,-0.01199,-0.00423,0.01094,-0.01000,0.03890,
1629344768684556288,0.03638,-0.01645,0.20394,0.99915,0.03953,-0.01111,-0.00471,0.00973,-0.01200,0.01929,
1629344768751227648,0.03665,-0.01719,0.20459,0.99913,0.04020,-0.01040,-0.00497,-0.00002,-0.01193,0.00274,
1629344768817900032,0.03620,-0.01816,0.20440,0.99908,0.04112,-0.01085,-0.00520,-0.00851,-0.00674,0.00511,
1629344768884571392,0.03551,-0.01840,0.20453,0.99907,0.04143,-0.01098,-0.00536,-0.01339,0.00155,0.00058,
1629344768951243776,0.03463,-0.01807,0.20440,0.99907,0.04127,-0.01099,-0.00536,-0.01629,0.00373,0.00381,
1629344769017915136,0.03227,-0.01891,0.20454,0.99907,0.04132,-0.01135,-0.00529,-0.01467,-0.00271,0.00171,
1629344769084587776,0.03113,-0.01899,0.20467,0.99906,0.04136,-0.01148,-0.00525,-0.00980,-0.00143,0.00081,
1629344769151260160,0.03040,-0.01885,0.20491,0.99907,0.04120,-0.01123,-0.00528,-0.00307,-0.00065,0.00029,
1629344769217932032,0.02979,-0.01878,0.20517,0.99909,0.04088,-0.01083,-0.00529,-0.00228,0.00344,0.00221,
1629344769284604416,0.02963,-0.01858,0.20496,0.99910,0.04069,-0.01084,-0.00525,-0.00001,-0.00086,0.00174,
1629344769351276032,0.02957,-0.01872,0.20463,0.99908,0.04113,-0.01117,-0.00539,0.00289,0.00027,0.00172,
1629344769417948416,0.02961,-0.01858,0.20475,0.99909,0.04092,-0.01088,-0.00535,0.00539,0.00041,0.00122,
1629344769484620032,0.02969,-0.01855,0.20471,0.99910,0.04076,-0.01068,-0.00537,0.00413,0.00072,0.00134,
1629344769551292672,0.02984,-0.01843,0.20455,0.99910,0.04065,-0.01059,-0.00536,0.00322,0.00012,0.00144,
1629344769617964288,0.02979,-0.01848,0.20456,0.99910,0.04075,-0.01062,-0.00537,0.00342,-0.00037,0.00157,
1629344769684637184,0.02955,-0.01850,0.20461,0.99910,0.04068,-0.01071,-0.00535,0.00274,-0.00001,0.00116,
1629344769751308544,0.02946,-0.01842,0.20502,0.99912,0.04039,-0.01037,-0.00535,0.00427,0.00123,0.00178,
1629344769817980928,0.02965,-0.01835,0.20478,0.99913,0.04010,-0.01018,-0.00533,0.00351,-0.00014,0.00074,
1629344769884652288,0.02973,-0.01836,0.20458,0.99912,0.04032,-0.01048,-0.00539,0.00387,-0.00018,0.00165,
1629344769951324928,0.02986,-0.01832,0.20464,0.99912,0.04027,-0.01035,-0.00539,0.00467,0.00059,0.00139,
1629344770017996288,0.03002,-0.01812,0.20454,0.99914,0.03997,-0.01011,-0.00542,0.00336,0.00166,0.00091,
1629344770084668928,0.02250,-0.02114,0.19954,0.99915,0.03870,-0.01171,-0.00805,-0.10766,-0.13763,0.06182,
1629344770151340544,0.02065,-0.02194,0.20354,0.99898,0.04047,-0.01488,-0.01328,-0.11048,-0.09713,0.02539,
1629344770218013184,0.01893,-0.01925,0.20650,0.99926,0.03077,-0.01628,-0.01607,-0.13392,-0.03949,0.02559,
1629344770284684544,0.01348,-0.01647,0.20772,0.99965,0.01511,-0.01291,-0.01719,-0.17705,-0.03846,0.00406,
1629344770351357184,-0.00245,-0.02232,0.21019,0.99954,0.02240,-0.01487,-0.01400,-0.18883,0.04529,0.16167,
1629344770418028800,-0.01801,-0.02372,0.22182,0.99935,0.02038,-0.02913,-0.00650,-0.14353,-0.01373,0.14100,
1629344770484701696,-0.01873,-0.02017,0.22600,0.99925,0.02323,-0.02734,-0.01442,-0.03643,0.02027,-0.05031,
1629344770551374080,-0.01877,-0.01369,0.22369,0.99966,0.01772,-0.01346,-0.01380,0.01861,0.20577,-0.05800,
1629344770618045696,-0.01287,-0.00333,0.21778,0.99991,0.00645,0.00701,-0.00964,0.08009,0.22581,-0.07164,
1629344770684718592,-0.00459,0.01121,0.21477,0.99956,0.01874,0.02059,-0.01045,0.15932,0.24882,-0.09814,
1629344770751390720,0.00549,0.02033,0.21823,0.99880,0.03202,0.02813,-0.02416,0.14225,0.12934,0.19683,
1629344770818063616,0.01271,0.03314,0.23381,0.99941,0.02284,0.00870,-0.02397,0.10368,0.21184,0.21041,
1629344770884735744,0.01611,0.04412,0.23985,0.99949,0.02194,-0.00201,-0.02318,0.06450,0.09579,0.05251,
1629344770951409152,0.01893,0.04611,0.23920,0.99833,0.05299,-0.00282,-0.02283,0.03462,0.02958,-0.01197,
1629344771018081280,0.02196,0.04720,0.23872,0.99755,0.06735,-0.00198,-0.01874,0.01826,-0.02706,0.02732,
1629344771084754432,0.02346,0.04368,0.24210,0.99806,0.05951,-0.00484,-0.01787,0.01836,0.01462,0.16811,
1629344771151426816,0.02343,0.04198,0.24802,0.99877,0.04729,-0.00659,-0.01374,0.01049,-0.10786,0.11579,
1629344771218099968,0.02106,0.03716,0.24747,0.99847,0.05041,-0.01312,-0.01875,0.01666,-0.08880,-0.01425,
1629344771284772352,0.02362,0.03577,0.24527,0.99848,0.05087,-0.01286,-0.01706,0.00427,-0.00854,0.01219,
1629344771351446016,0.02371,0.03471,0.24471,0.99874,0.04553,-0.01207,-0.01735,-0.00791,-0.02245,-0.01046,
1629344771418118144,0.02190,0.03375,0.24467,0.99856,0.04819,-0.01554,-0.01780,-0.02676,-0.01600,0.01034,
1629344771484791552,0.01972,0.03100,0.24732,0.99825,0.05288,-0.01226,-0.02363,-0.01669,-0.09184,0.06939,
1629344771551463936,0.01871,0.03035,0.24819,0.99849,0.04922,-0.01313,-0.02052,0.01918,0.02364,-0.08178,
1629344771618137344,0.02062,0.02456,0.24576,0.99839,0.05208,-0.00681,-0.02126,0.03039,-0.11169,-0.02752,
1629344771684809984,0.02251,0.01676,0.24227,0.99786,0.06085,-0.00033,-0.02387,0.06016,-0.12344,-0.07185,
1629344771751482880,0.02872,0.00844,0.23772,0.99742,0.06751,0.00689,-0.02344,0.10600,-0.15658,-0.08647,
1629344771818155776,0.03695,-0.00176,0.23447,0.99762,0.06333,0.01594,-0.02199,0.12177,-0.12856,0.07828,
1629344771884827648,0.04645,-0.01464,0.24427,0.99798,0.06157,0.00681,-0.01444,0.09656,-0.20628,0.15178,
1629344771951500288,0.05120,-0.02773,0.24885,0.99795,0.06101,-0.00964,-0.01653,0.08990,-0.16088,0.02760,
1629344772018172416,0.05575,-0.03226,0.24978,0.99837,0.05374,-0.01386,-0.01323,0.05361,-0.10938,0.02714,
1629344772084845568,0.05914,-0.03607,0.24924,0.99909,0.03769,-0.01390,-0.01424,0.02217,-0.08503,-0.00599,
1629344772151517696,0.06073,-0.04174,0.25065,0.99886,0.04030,-0.02177,-0.01334,-0.01712,-0.10182,0.07494,
1629344772218190592,0.05998,-0.04970,0.25640,0.99846,0.04670,-0.02112,-0.02114,0.00397,-0.08558,0.02354,
1629344772284862464,0.06071,-0.05189,0.25194,0.99864,0.04612,-0.01645,-0.01788,0.04904,-0.06550,-0.11540,
1629344772351535616,0.06331,-0.05988,0.24587,0.99852,0.04947,-0.00652,-0.02181,0.06808,-0.16394,-0.06898,
1629344772418207744,0.07101,-0.07214,0.23988,0.99785,0.06126,0.00364,-0.02301,0.12546,-0.19549,-0.09939,
1629344772484880896,0.08140,-0.08762,0.23104,0.99764,0.06251,0.01379,-0.02503,0.18693,-0.24355,-0.12996,
1629344772551553280,0.09488,-0.10230,0.22820,0.99808,0.05373,0.02270,-0.02061,0.18568,-0.16130,0.08123,
1629344772618226176,0.10646,-0.11731,0.23767,0.99810,0.05851,0.00696,-0.01798,0.14934,-0.24453,0.14486,
1629344772684898304,0.11396,-0.13456,0.24232,0.99747,0.06776,-0.01294,-0.01742,0.14075,-0.18757,0.04548,
1629344772751571456,0.12022,-0.14602,0.24535,0.99830,0.05265,-0.01929,-0.01609,0.08678,-0.18878,0.00261,
1629344772818243840,0.12502,-0.15718,0.24336,0.99932,0.02017,-0.01533,-0.02697,0.05162,-0.19388,-0.01503,
1629344772884916992,0.12545,-0.17167,0.24678,0.99864,0.02843,-0.02487,-0.03599,0.02054,-0.26426,0.11436,
1629344772951589120,0.12720,-0.18970,0.25225,0.99748,0.04694,-0.01777,-0.05022,0.04812,-0.16591,-0.01660,
1629344773018262272,0.13332,-0.19979,0.24608,0.99739,0.04663,-0.00991,-0.05424,0.11391,-0.20008,-0.10454,
1629344773084934656,0.14067,-0.21262,0.24124,0.99679,0.04595,0.00060,-0.06562,0.14230,-0.26125,-0.04598,
1629344773151608064,0.15112,-0.22897,0.23160,0.99567,0.05943,0.01254,-0.07043,0.20310,-0.26176,-0.16606,
1629344773218281216,0.16785,-0.25058,0.21930,0.99443,0.06618,0.02784,-0.07719,0.27641,-0.32593,-0.08012,
1629344773284953600,0.18382,-0.26707,0.22248,0.99499,0.05815,0.03550,-0.07316,0.27023,-0.26197,0.15761,
1629344773351626752,0.20250,-0.28170,0.23143,0.99514,0.05425,0.02295,-0.07893,0.27247,-0.23706,0.14480,
1629344773418299648,0.21700,-0.29194,0.23519,0.99515,0.05201,0.01283,-0.08250,0.29708,-0.16886,-0.02446,
1629344773484973056,0.23601,-0.29671,0.22961,0.99508,0.04325,0.02065,-0.08670,0.31174,-0.02470,-0.09078,
1629344773551645184,0.25696,-0.29480,0.22404,0.99540,0.02093,0.02726,-0.08939,0.35377,0.05213,-0.14748,
1629344773618318848,0.27805,-0.29379,0.22182,0.99448,0.01353,0.03126,-0.09928,0.30797,-0.06027,0.04439,
1629344773684991232,0.30054,-0.28889,0.22736,0.99378,0.01110,0.03522,-0.10505,0.31834,0.12280,0.03974,
1629344773751663872,0.31593,-0.28296,0.23127,0.99436,0.00245,0.02544,-0.10297,0.28032,0.06895,-0.01162,
1629344773818335488,0.32878,-0.28422,0.23577,0.99478,0.01318,0.01723,-0.09974,0.24264,-0.01824,-0.04185,
1629344773885008128,0.34358,-0.28707,0.23463,0.99489,0.01315,0.01967,-0.09817,0.21963,-0.07764,0.00679,
1629344773951679488,0.35689,-0.29240,0.23260,0.99481,0.00865,0.02234,-0.09888,0.23314,-0.10155,-0.01657,
1629344774018352128,0.37292,-0.30135,0.24051,0.99551,0.01030,0.02343,-0.09114,0.20273,-0.13239,0.09933,
1629344774085023744,0.37660,-0.30815,0.24571,0.99533,0.01397,0.00410,-0.09542,0.17701,-0.13278,0.04552,
1629344774151696128,0.39023,-0.31075,0.24428,0.99520,0.01428,0.00705,-0.09656,0.21021,-0.03519,-0.01200,
1629344774218367744,0.40676,-0.31091,0.24075,0.99520,0.00582,0.01484,-0.09659,0.22768,0.04098,-0.04614,
1629344774285040640,0.42394,-0.31008,0.23803,0.99515,0.00415,0.01334,-0.09737,0.27247,0.06763,-0.05272,
1629344774351712256,0.43933,-0.30748,0.23995,0.99429,0.00988,0.02002,-0.10433,0.23864,-0.01040,0.12739,
1629344774418384896,0.45611,-0.30604,0.24560,0.99468,0.00350,0.01218,-0.10219,0.25743,0.04815,0.02293,
1629344774485057280,0.47462,-0.30877,0.24469,0.99503,0.00233,0.01012,-0.09904,0.25616,-0.05999,-0.02894,
1629344774551728896,0.48312,-0.31881,0.24116,0.99537,0.01597,0.00996,-0.09422,0.20788,-0.13699,-0.09027,
1629344774618401536,0.50405,-0.33284,0.23327,0.99486,0.04324,0.00758,-0.09124,0.26137,-0.31044,-0.17987,
1629344774685073152,0.51816,-0.34993,0.22750,0.99501,0.03228,0.01855,-0.09254,0.22618,-0.27444,0.05777,
1629344774751746816,0.53461,-0.37144,0.24074,0.99526,0.03467,0.00860,-0.09041,0.18839,-0.30288,0.21878,
1629344774818419200,0.54318,-0.38773,0.24836,0.99525,0.02727,-0.01000,-0.09289,0.20341,-0.20740,0.02207,
1629344774885092608,0.55729,-0.39616,0.24731,0.99542,0.00650,-0.00367,-0.09535,0.20948,-0.09684,0.00154,
1629344774951765248,0.57421,-0.39964,0.24532,0.99544,-0.00243,0.00219,-0.09536,0.22827,-0.01429,0.01795,
1629344775018439168,0.58947,-0.40176,0.24396,0.99548,0.00522,-0.00167,-0.09485,0.25559,-0.02609,0.02062,
1629344775085111552,0.60466,-0.40176,0.24569,0.99430,0.00810,0.00651,-0.10609,0.23440,0.01114,0.02744,
1629344775151785216,0.62094,-0.40258,0.24601,0.99486,0.00402,0.00609,-0.10097,0.22166,-0.02648,-0.03702,
1629344775218457856,0.63250,-0.40711,0.24465,0.99457,0.00524,0.00583,-0.10377,0.19227,-0.14076,-0.03890,
1629344775285131776,0.64518,-0.41600,0.24033,0.99430,0.01384,0.01371,-0.10479,0.19397,-0.18461,-0.09753,
1629344775351804416,0.65945,-0.43094,0.23381,0.99399,0.02590,0.02192,-0.10406,0.21843,-0.27410,-0.13336,
1629344775418478336,0.67509,-0.44507,0.23600,0.99448,0.02983,0.03065,-0.09578,0.21957,-0.19085,0.10110,
1629344775485150720,0.68669,-0.45686,0.24346,0.99493,0.02769,0.01471,-0.09553,0.18099,-0.19032,0.07929,
1629344775551824896,0.69865,-0.46733,0.24287,0.99502,0.02979,0.00543,-0.09501,0.18669,-0.13803,-0.02239,
1629344775618497792,0.70971,-0.47348,0.24089,0.99547,0.01406,0.00578,-0.09386,0.16373,-0.06225,-0.06350,
1629344775685171712,0.72057,-0.47528,0.23862,0.99546,-0.00315,0.01014,-0.09457,0.15673,-0.01337,-0.04063,
1629344775751844352,0.73003,-0.47794,0.23946,0.99537,0.00294,0.00472,-0.09598,0.13513,-0.10535,0.03585,
1629344775818518528,0.73941,-0.47914,0.24478,0.99469,0.00556,0.00694,-0.10253,0.14299,0.04903,0.01643,
1629344775885192704,0.74821,-0.48033,0.24338,0.99505,0.00316,0.00622,-0.09916,0.12465,-0.03924,-0.02954,
1629344775951865600,0.75577,-0.48695,0.24192,0.99466,0.00762,0.00915,-0.10252,0.10991,-0.09414,-0.03790,
1629344776018540032,0.76263,-0.49444,0.23910,0.99455,0.01461,0.01283,-0.10245,0.10373,-0.13104,-0.04887,
1629344776085212928,0.77120,-0.50553,0.23506,0.99435,0.02048,0.01780,-0.10265,0.14752,-0.16084,-0.04738,
1629344776151886848,0.78060,-0.51515,0.24073,0.99496,0.01793,0.02179,-0.09624,0.12203,-0.14156,0.15980,
1629344776218560256,0.78771,-0.52287,0.24709,0.99493,0.02007,0.00897,-0.09813,0.11773,-0.11665,0.05358,
1629344776285234688,0.79557,-0.52670,0.24755,0.99504,0.02346,0.00402,-0.09659,0.13490,-0.04887,0.01264,
1629344776351907840,0.80585,-0.52838,0.24594,0.99527,0.00716,0.00917,-0.09640,0.13627,0.01439,-0.03963,
1629344776418582272,0.81713,-0.52601,0.24246,0.99528,-0.00479,0.01371,-0.09598,0.16439,0.07079,-0.02512,
1629344776485255680,0.82756,-0.52463,0.24467,0.99497,0.00030,0.01345,-0.09929,0.15329,-0.04832,0.07581,
1629344776551929856,0.83772,-0.52410,0.24733,0.99496,0.00250,0.01031,-0.09975,0.16321,0.05151,-0.01451,
1629344776618603520,0.84805,-0.52414,0.24759,0.99493,-0.00117,0.00825,-0.10020,0.14015,-0.04187,0.02632,
1629344776685277952,0.85532,-0.52626,0.24731,0.99476,-0.00049,0.00918,-0.10180,0.12952,-0.06567,-0.04541,
1629344776751949568,0.86457,-0.53286,0.24490,0.99473,0.00565,0.01403,-0.10142,0.12029,-0.13825,-0.03903,
1629344776818622208,0.87250,-0.53975,0.24056,0.99465,0.01309,0.01695,-0.10107,0.12556,-0.12435,0.06415,
1629344776885293824,0.88318,-0.54867,0.25083,0.99534,0.01436,0.01900,-0.09345,0.12869,-0.12665,0.09485,
1629344776951965952,0.88890,-0.55572,0.25392,0.99513,0.01872,0.00575,-0.09663,0.13525,-0.10569,-0.01342,
1629344777018637568,0.89984,-0.55669,0.25323,0.99525,0.01568,0.00662,-0.09584,0.16010,-0.00200,-0.01831,
1629344777085310208,0.90766,-0.55429,0.25295,0.99533,-0.00313,0.01282,-0.09567,0.17134,0.05592,-0.07759,
1629344777151983104,0.92022,-0.54949,0.24975,0.99542,-0.00713,0.01544,-0.09405,0.20664,0.11010,-0.02400,
1629344777218654720,0.93337,-0.54482,0.25214,0.99510,0.00137,0.01879,-0.09707,0.19858,0.06273,0.08062,
1629344777285326848,0.94612,-0.54001,0.25370,0.99529,-0.00558,0.01258,-0.09600,0.18117,0.03262,0.01778,
1629344777351998464,0.95646,-0.54145,0.25194,0.99492,-0.00803,0.00942,-0.09995,0.17009,-0.04110,0.00528,
1629344777418671104,0.96747,-0.54590,0.24979,0.99458,0.00295,0.01097,-0.10337,0.14345,-0.11278,-0.03794,
1629344777485342720,0.97773,-0.55463,0.24677,0.99422,0.01114,0.01256,-0.10603,0.15472,-0.16167,-0.02505,
1629344777552015360,0.98926,-0.56275,0.24512,0.99419,0.01442,0.01994,-0.10476,0.19466,-0.05987,0.07897,
1629344777618686720,1.00166,-0.57090,0.24710,0.99473,0.01384,0.01516,-0.10046,0.16226,-0.12166,0.02823,
1629344777685359360,1.01346,-0.57659,0.24684,0.99454,0.01776,0.00652,-0.10266,0.19421,-0.05846,0.00515,
1629344777752030976,1.02736,-0.57571,0.24354,0.99459,0.01039,0.01300,-0.10257,0.21861,0.04726,-0.07254,
1629344777818703872,1.04495,-0.57031,0.23717,0.99456,-0.00103,0.01965,-0.10232,0.25593,0.12463,-0.08449,
1629344777885375488,1.06463,-0.56304,0.22998,0.99432,-0.00017,0.02307,-0.10395,0.29913,0.10720,0.01472,
1629344777952048128,1.08416,-0.55588,0.23519,0.99324,-0.00397,0.02821,-0.11256,0.28401,0.16137,0.09627,
1629344778018719744,1.09711,-0.54585,0.24134,0.99379,-0.01950,0.01522,-0.10849,0.23900,0.12032,0.03846,
1629344778085392128,1.11256,-0.54147,0.24190,0.99390,-0.01678,0.00968,-0.10858,0.19623,0.03832,0.01521,
1629344778152063744,1.12489,-0.54071,0.24080,0.99416,0.00722,0.01319,-0.10686,0.16656,-0.00489,-0.03670,
1629344778218736896,1.13633,-0.54233,0.23903,0.99407,0.01426,0.01482,-0.10676,0.15414,-0.05872,0.00429,
1629344778285408512,1.14657,-0.54336,0.24370,0.99485,0.00916,0.01791,-0.09938,0.17652,0.04203,0.10456,
1629344778352081152,1.15593,-0.54456,0.24520,0.99485,0.00748,0.01173,-0.10035,0.16454,-0.03423,-0.01799,
1629344778418752768,1.16832,-0.54498,0.24343,0.99465,0.00732,0.01094,-0.10244,0.21634,0.06581,-0.04891,
1629344778485425152,1.18532,-0.53850,0.23965,0.99484,-0.00430,0.02028,-0.09928,0.25479,0.15719,-0.09422,
1629344778552098048,1.20352,-0.52994,0.23271,0.99478,-0.01170,0.02711,-0.09763,0.32027,0.16661,-0.10876,
1629344778618769920,1.22624,-0.52089,0.22725,0.99412,0.00064,0.03528,-0.10239,0.31595,0.06918,0.04537,
1629344778685442560,1.25144,-0.50913,0.23693,0.99387,-0.01094,0.02553,-0.10700,0.30332,0.18440,0.13172,
1629344778752114176,1.26870,-0.50056,0.24074,0.99388,-0.02424,0.01148,-0.10711,0.26151,0.08058,0.01609,
1629344778818786304,1.28256,-0.49935,0.24056,0.99377,-0.00669,0.00716,-0.11105,0.20205,-0.00028,-0.03543,
1629344778885457664,1.29388,-0.50156,0.23685,0.99355,0.02339,0.01074,-0.11040,0.17576,-0.04410,-0.03990,
1629344778952130304,1.30567,-0.50351,0.23720,0.99353,0.01771,0.01288,-0.11142,0.19955,-0.04068,0.02717,
1629344779018801664,1.31566,-0.50738,0.24425,0.99470,0.01025,0.01604,-0.10104,0.14745,-0.09622,0.09343,
1629344779085474304,1.32465,-0.51307,0.24696,0.99454,0.01116,0.00665,-0.10353,0.15465,-0.08228,-0.00116,
1629344779152145920,1.33580,-0.51485,0.24703,0.99469,0.00963,0.00699,-0.10219,0.18707,0.00225,-0.03681,
1629344779218818304,1.34869,-0.51167,0.24442,0.99475,0.00022,0.01395,-0.10135,0.19969,0.07391,-0.05120,
1629344779285489920,1.36320,-0.50536,0.24031,0.99482,-0.00147,0.01475,-0.10057,0.24678,0.09669,-0.05949,
1629344779352162048,1.37847,-0.50110,0.24067,0.99371,0.00309,0.02358,-0.10940,0.21740,0.02000,0.12325,
1629344779418833408,1.39336,-0.49764,0.24638,0.99400,-0.00387,0.01421,-0.10836,0.23069,0.07913,0.03505,
1629344779485506048,1.40920,-0.49687,0.24632,0.99408,-0.00886,0.00925,-0.10790,0.20757,-0.03405,0.01406,
1629344779552177408,1.42249,-0.50033,0.24552,0.99383,-0.00266,0.01167,-0.11029,0.18746,-0.10613,-0.04204,
1629344779618849792,1.43505,-0.50905,0.24259,0.99367,0.00895,0.01811,-0.11055,0.18558,-0.18536,-0.07831,
1629344779685521664,1.44828,-0.52108,0.23811,0.99370,0.01900,0.02387,-0.10785,0.20867,-0.12095,0.02827,
1629344779752194048,1.45942,-0.53157,0.24180,0.99450,0.02254,0.01912,-0.10051,0.14729,-0.18971,0.10182,
1629344779818866432,1.46936,-0.54185,0.24418,0.99428,0.03007,0.00434,-0.10244,0.16346,-0.12554,0.03288,
1629344779885538048,1.48221,-0.54508,0.24648,0.99466,0.02011,0.00636,-0.10099,0.17956,-0.02978,-0.02760,
1629344779952210432,1.49485,-0.54431,0.24321,0.99467,-0.00509,0.01642,-0.10166,0.18968,0.03632,-0.05039,
1629344780018882048,1.50941,-0.54237,0.23921,0.99479,-0.00380,0.01515,-0.10078,0.20986,0.01633,0.07756,
1629344780085554432,1.52351,-0.54165,0.24577,0.99377,0.00229,0.01700,-0.11012,0.20456,0.06179,0.11682,
1629344780152226048,1.53594,-0.53799,0.25041,0.99429,-0.00202,0.00970,-0.10625,0.19424,0.04270,0.04234,
1629344780218898688,1.54850,-0.53921,0.25172,0.99412,-0.00368,0.00678,-0.10797,0.17687,-0.03679,0.02111,
1629344780285570048,1.56100,-0.54371,0.25135,0.99408,0.00134,0.01137,-0.10800,0.15641,-0.09673,-0.02319,
1629344780352242688,1.57232,-0.55241,0.24784,0.99389,0.00958,0.01551,-0.10883,0.16109,-0.16911,-0.06454,
1629344780418914048,1.58392,-0.56226,0.24729,0.99426,0.01810,0.02116,-0.10331,0.17932,-0.06844,0.07799,
1629344780485586688,1.59447,-0.57160,0.25297,0.99453,0.02137,0.01170,-0.10160,0.15183,-0.16017,0.07090,
1629344780552258304,1.60437,-0.57792,0.25308,0.99428,0.02562,0.00238,-0.10363,0.19127,-0.07742,-0.03610,
1629344780618930688,1.61664,-0.58005,0.25114,0.99471,0.01363,0.00586,-0.10163,0.19757,0.01762,-0.06945,
1629344780685602304,1.63189,-0.57732,0.24692,0.99477,-0.00437,0.01339,-0.10115,0.22725,0.07910,-0.08331,
1629344780752274688,1.64818,-0.57335,0.24452,0.99487,-0.00095,0.01313,-0.10035,0.25445,0.02207,0.02208,
1629344780818946304,1.66542,-0.56978,0.25035,0.99408,-0.00119,0.01661,-0.10736,0.24546,0.08973,0.04218,
1629344780885618944,1.68054,-0.56666,0.25147,0.99443,-0.00576,0.00982,-0.10482,0.23295,-0.00715,-0.01254,
1629344780952290304,1.69283,-0.56980,0.25125,0.99398,-0.00796,0.00811,-0.10899,0.21034,-0.07671,-0.04750,
1629344781018962944,1.70593,-0.57749,0.24756,0.99379,0.00423,0.01357,-0.11036,0.18883,-0.17183,-0.07661,
1629344781085634304,1.71938,-0.59080,0.24224,0.99347,0.01500,0.01879,-0.11156,0.21591,-0.20200,-0.07273,
1629344781152306688,1.73361,-0.60152,0.24376,0.99442,0.01941,0.02376,-0.10089,0.18825,-0.14459,0.18140,
1629344781218979584,1.74477,-0.61218,0.25033,0.99462,0.02205,0.00980,-0.10079,0.17171,-0.15087,0.09632,
1629344781285650944,1.75711,-0.61984,0.25160,0.99461,0.02624,0.00251,-0.10024,0.20332,-0.08008,0.01858,
1629344781352323584,1.77150,-0.62119,0.24987,0.99481,0.00793,0.00920,-0.10100,0.21547,0.02953,-0.04417,
1629344781418994944,1.78752,-0.61673,0.24278,0.99470,-0.00786,0.01725,-0.10109,0.25384,0.08837,-0.06336,
1629344781485667584,1.80455,-0.61343,0.24015,0.99394,-0.00398,0.02050,-0.10790,0.25136,-0.00780,0.02360,
1629344781552339200,1.82219,-0.61023,0.24353,0.99382,-0.00781,0.01808,-0.10928,0.24115,0.05859,0.00143,
1629344781619011328,1.83441,-0.60840,0.24257,0.99385,-0.01682,0.01014,-0.10902,0.19786,-0.04878,-0.02762,
1629344781685682944,1.84648,-0.61028,0.24166,0.99373,-0.01276,0.00906,-0.11075,0.16471,-0.10604,-0.10084,
1629344781752355584,1.85717,-0.61829,0.23702,0.99368,0.00678,0.01597,-0.11094,0.14281,-0.18329,-0.10658,
1629344781819027200,1.86772,-0.62869,0.23249,0.99356,0.01509,0.01897,-0.11065,0.15428,-0.15990,0.01463,
1629344781885699584,1.87752,-0.63846,0.23898,0.99451,0.01548,0.02365,-0.10079,0.11646,-0.17988,0.13685,
1629344781952371200,1.88483,-0.64943,0.24715,0.99466,0.02039,0.00582,-0.10105,0.11120,-0.13921,0.07586,
1629344782019043584,1.89322,-0.65586,0.24990,0.99481,0.02204,0.00132,-0.09936,0.10189,-0.06878,0.05380,
1629344782085714944,1.89936,-0.65770,0.24888,0.99505,-0.00267,0.00615,-0.09918,0.08763,0.01826,-0.02261,
1629344782152387584,1.90566,-0.65679,0.24703,0.99505,-0.01083,0.00831,-0.09844,0.08490,0.03462,0.03120,
1629344782219058944,1.90849,-0.65791,0.25126,0.99432,-0.00275,0.00727,-0.10618,0.05789,-0.02317,0.10365,
1629344782285731840,1.91367,-0.65598,0.25122,0.99461,-0.00057,0.00165,-0.10366,0.07382,0.06352,-0.06647,
1629344782352403200,1.91845,-0.65827,0.24738,0.99454,0.00041,0.00414,-0.10427,0.03522,-0.03716,-0.00718,
1629344782419075840,1.92047,-0.66260,0.24583,0.99441,0.00538,0.00677,-0.10524,0.01613,-0.05961,-0.04881,
1629344782485747968,1.92172,-0.66891,0.24351,0.99442,0.01059,0.00922,-0.10456,0.02585,-0.09829,-0.05435,
1629344782552419584,1.92450,-0.67630,0.24190,0.99448,0.01490,0.01595,-0.10264,0.06286,-0.05139,0.02979,
1629344782619091968,1.92711,-0.68071,0.24856,0.99500,0.01193,0.01001,-0.09867,0.03483,-0.09200,0.08430,
1629344782685763584,1.92908,-0.68701,0.24869,0.99483,0.01777,0.00089,-0.09999,0.04314,-0.05486,-0.05620,
1629344782752435968,1.93078,-0.68719,0.24647,0.99524,0.01036,0.00306,-0.09684,0.02876,0.03378,-0.06490,
1629344782819107840,1.93295,-0.68567,0.24644,0.99539,-0.00554,0.00745,-0.09546,0.02539,0.03947,-0.05663,
1629344782885780224,1.93345,-0.68422,0.24839,0.99562,-0.00243,0.00493,-0.09336,0.01733,0.04665,-0.01838,
1629344782952451584,1.93368,-0.68404,0.25343,0.99568,0.00210,0.00537,-0.09266,0.02159,0.01869,0.01601,
1629344783019123968,1.93458,-0.68210,0.25136,0.99580,-0.00459,0.00301,-0.09141,0.02986,-0.02008,-0.07555,
1629344783085795584,1.93595,-0.68473,0.24862,0.99535,-0.00317,0.00528,-0.09610,0.01953,-0.03422,0.00793,
1629344783152467968,1.93677,-0.68587,0.24801,0.99540,-0.00259,0.00545,-0.09559,0.02087,-0.02498,-0.03724,
1629344783219139584,1.93703,-0.68833,0.24711,0.99538,-0.00062,0.00609,-0.09577,0.01753,-0.05368,-0.02496,
1629344783285811968,1.93878,-0.69094,0.24758,0.99547,0.00255,0.01050,-0.09448,0.03307,-0.00102,0.07383,
1629344783352483584,1.94144,-0.69007,0.25124,0.99592,0.00136,0.00544,-0.09006,0.05021,0.02456,0.00061,
1629344783419155968,1.94563,-0.68951,0.24864,0.99640,0.00590,0.00419,-0.08447,0.07114,0.09241,-0.02769,
1629344783485827328,1.95058,-0.68281,0.24641,0.99716,-0.00252,0.00977,-0.07464,0.08522,0.16588,-0.10569,
1629344783552499968,1.95597,-0.67054,0.24006,0.99788,-0.01536,0.01908,-0.06036,0.11258,0.22246,-0.08542,
1629344783619171328,1.96432,-0.65719,0.23525,0.99868,-0.00658,0.02454,-0.04465,0.14197,0.19252,-0.00002,
1629344783685843968,1.97428,-0.64547,0.23746,0.99915,-0.00205,0.02654,-0.03157,0.13658,0.22029,0.08441,
1629344783752515584,1.98264,-0.63126,0.24164,0.99972,-0.01262,0.01551,-0.01282,0.11674,0.18924,0.07812,
1629344783819188224,1.99073,-0.62067,0.24315,0.99985,-0.01220,0.01168,0.00292,0.10298,0.12628,0.00880,
1629344783885860864,1.99848,-0.61449,0.24187,0.99963,0.00330,0.01701,0.02102,0.08167,0.08757,-0.01997,
1629344783952532736,2.00458,-0.60958,0.24058,0.99915,0.00404,0.01559,0.03784,0.08109,0.04520,0.01225,
1629344784019205376,2.00970,-0.60654,0.24376,0.99817,-0.00050,0.01760,0.05790,0.06730,0.08825,0.10484,
1629344784085876992,2.01447,-0.60196,0.24717,0.99696,0.00035,0.00678,0.07761,0.05449,0.06942,-0.00857,
1629344784152549632,2.01905,-0.59423,0.24445,0.99461,0.00429,0.00438,0.10346,0.04967,0.17991,-0.02277,
1629344784219220992,2.02455,-0.57906,0.23830,0.99180,-0.00942,0.00618,0.12730,0.05661,0.20933,-0.12483,
1629344784285894144,2.02899,-0.56346,0.23222,0.98863,-0.01726,0.00963,0.14905,0.07176,0.26426,-0.08871,
1629344784352565760,2.03686,-0.54783,0.22693,0.98535,-0.00591,0.01432,0.16986,0.10646,0.22761,-0.01624,
1629344784419238400,2.04739,-0.53343,0.22881,0.98319,-0.01300,0.02048,0.18095,0.10287,0.23955,0.03470,
1629344784485910272,2.05196,-0.51904,0.22867,0.97918,-0.01652,0.01389,0.20184,0.11188,0.20570,-0.06204,
1629344784552582656,2.06109,-0.50907,0.22643,0.97550,-0.01767,0.01891,0.21847,0.15576,0.11619,-0.07815,
1629344784619254272,2.07437,-0.50622,0.22206,0.97166,0.00053,0.03201,0.23421,0.19880,0.03241,-0.08543,
1629344784685927168,2.09016,-0.50530,0.21699,0.96685,0.00557,0.03804,0.25245,0.23098,0.03322,-0.06114,
1629344784752598528,2.10225,-0.50148,0.22070,0.95794,0.00365,0.04061,0.28406,0.17231,0.04910,0.11553,
1629344784819271168,2.11088,-0.50133,0.22465,0.95164,0.01601,0.02057,0.30610,0.14276,0.03738,-0.06174,
1629344784885942784,2.11084,-0.49579,0.22077,0.94076,0.01454,0.01330,0.33851,0.02131,0.12702,-0.13236,
1629344784952614912,2.10780,-0.48729,0.21477,0.93047,-0.00663,0.00365,0.36629,-0.04278,0.12470,-0.14452,
1629344785019286272,2.10250,-0.47999,0.21148,0.91977,-0.00671,-0.00285,0.39239,-0.08325,0.12771,-0.06336,
1629344785085958912,2.10003,-0.47684,0.21163,0.91089,0.01131,-0.00056,0.41248,0.00727,0.03221,0.04507,
1629344785152631296,2.09651,-0.46724,0.21203,0.90249,0.00749,0.00286,0.43064,-0.10506,0.17350,-0.07365,
1629344785219302656,2.09028,-0.45878,0.20780,0.88975,-0.00238,0.00554,0.45641,-0.07773,0.13168,-0.07628,
1629344785285975552,2.08677,-0.45281,0.20573,0.87817,-0.00732,0.01027,0.47819,-0.00918,0.06651,-0.01705,
1629344785352646912,2.08617,-0.44688,0.20588,0.86732,-0.00140,0.02009,0.49734,0.01040,0.07130,-0.05040,
1629344785419319040,2.08796,-0.44271,0.20394,0.85391,-0.00327,0.02245,0.51992,0.03177,0.06637,-0.00420,
1629344785485990656,2.08565,-0.43916,0.21199,0.83696,-0.00155,0.02179,0.54682,-0.00689,0.05685,0.17724,
1629344785552663040,2.08187,-0.43714,0.21671,0.82436,0.00570,0.00860,0.56597,-0.04898,0.06814,-0.00779,
1629344785619334400,2.06964,-0.43400,0.21379,0.80411,0.00228,0.00502,0.59446,-0.17412,0.07913,-0.03909,
1629344785686007040,2.05655,-0.42799,0.21079,0.78535,-0.00559,-0.00109,0.61902,-0.21164,0.06491,-0.05841,
1629344785752678400,2.04388,-0.42347,0.20688,0.76626,-0.00689,-0.00270,0.64249,-0.22400,0.07019,-0.03239,
1629344785819350784,2.03859,-0.42185,0.20692,0.75286,0.00226,0.00550,0.65815,-0.02997,0.02621,0.09193,
1629344785886022400,2.02666,-0.41753,0.20972,0.74052,-0.00399,0.00669,0.67199,-0.26798,0.08137,-0.03368,
1629344785952694784,2.01562,-0.41057,0.20681,0.71850,-0.00850,0.00969,0.69541,-0.16885,0.07276,-0.05230,
1629344786019366144,2.00831,-0.40615,0.20555,0.70087,-0.01058,0.01415,0.71307,-0.08451,0.05920,0.00914,
1629344786086038784,2.00399,-0.40119,0.20530,0.68251,-0.01065,0.02099,0.73050,-0.05506,0.06877,-0.01813,
1629344786152710144,2.00057,-0.39685,0.20520,0.66197,-0.01189,0.01978,0.74917,-0.04217,0.07088,0.04696,
1629344786219382528,1.99950,-0.39309,0.21379,0.63734,-0.00801,0.01962,0.77029,-0.01193,0.05791,0.13225,
1629344786286053888,1.99779,-0.39050,0.21748,0.61831,0.00232,0.01243,0.78583,-0.07870,0.04201,0.00117,
1629344786352726528,1.98292,-0.39151,0.21387,0.58983,-0.00217,0.00745,0.80749,-0.16806,-0.00039,-0.01745,
1629344786419397888,1.97168,-0.39327,0.21028,0.56497,-0.00649,0.00150,0.82508,-0.19139,-0.02546,-0.03020,
1629344786486070272,1.95987,-0.39438,0.20728,0.54119,-0.00254,0.00357,0.84089,-0.19336,-0.01530,-0.05510,
1629344786552742912,1.95122,-0.39460,0.20834,0.52815,-0.00153,0.01095,0.84908,-0.05558,0.03264,0.10844,
1629344786619414272,1.94060,-0.39608,0.21505,0.50657,-0.00660,0.01266,0.86208,-0.25550,-0.04838,0.03005,
1629344786686086656,1.92995,-0.39270,0.21433,0.47802,-0.01345,0.01305,0.87815,-0.14908,0.00254,0.07049,
1629344786752758272,1.92310,-0.38819,0.21425,0.45394,-0.01548,0.01564,0.89076,-0.08266,0.06762,0.02266,
1629344786819430656,1.91483,-0.38410,0.21097,0.42880,-0.01962,0.02197,0.90292,-0.05952,0.09793,-0.00399,
1629344786886102016,1.91159,-0.37757,0.20957,0.40029,-0.01738,0.02334,0.91593,-0.03130,0.08789,0.15977,
1629344786952774656,1.91202,-0.36916,0.22197,0.37053,-0.00605,0.03152,0.92827,0.01479,0.09052,0.17874,
1629344787019446016,1.91684,-0.36648,0.22774,0.34495,0.00954,0.02528,0.93823,-0.06874,-0.03447,-0.04586,
1629344787086118400,1.90714,-0.37613,0.22511,0.30636,0.00533,0.00960,0.95185,-0.06280,-0.12946,-0.02305,
1629344787152790016,1.90296,-0.38496,0.22280,0.27765,0.00560,-0.00266,0.96066,-0.03193,-0.15714,-0.00645,
1629344787219462400,1.90289,-0.39460,0.22412,0.24808,0.01922,0.00453,0.96854,0.01754,-0.16090,0.03172,
1629344787286133760,1.90628,-0.39938,0.22656,0.23755,0.01865,0.01411,0.97109,0.02188,-0.10095,0.10401,
1629344787352806144,1.90052,-0.41087,0.22557,0.20754,0.01084,0.01460,0.97806,-0.08416,-0.19651,-0.06064,
1629344787419477760,1.89473,-0.41840,0.22053,0.17612,-0.00019,0.01046,0.98431,-0.04756,-0.11253,-0.03762,
1629344787486150144,1.89206,-0.42083,0.21819,0.14852,-0.00605,0.01406,0.98879,-0.02545,-0.00304,-0.01996,
1629344787552821760,1.88551,-0.42247,0.21547,0.12239,-0.01043,0.01772,0.99227,-0.03819,0.03694,-0.02796,
1629344787619494144,1.88570,-0.41903,0.21506,0.09100,-0.01061,0.02059,0.99558,-0.03739,0.02343,0.07985,
1629344787686165504,1.88299,-0.41280,0.22239,0.06058,-0.00465,0.02625,0.99781,-0.01016,0.06877,0.06927,
1629344787752837888,1.88464,-0.41426,0.22387,0.03268,0.00559,0.02282,0.99919,-0.00529,-0.07773,-0.04922,
1629344787819510272,1.88487,-0.42632,0.22345,-0.00537,0.00783,0.01209,0.99988,0.03734,-0.11632,-0.03256,
1629344787886181888,1.88972,-0.42835,0.22304,-0.01745,0.01012,0.00699,0.99977,0.07245,0.02773,0.04181,
1629344787952854272,1.89528,-0.42352,0.22579,-0.02100,0.01582,0.01343,0.99956,0.10829,0.02450,0.03315,
1629344788019525632,1.89998,-0.42170,0.22787,-0.01373,0.01407,0.01912,0.99962,0.08333,0.08438,0.06887,
1629344788086198016,1.90638,-0.42419,0.22824,-0.02130,0.00751,0.01604,0.99962,0.04065,-0.05702,-0.08032,
1629344788152869376,1.90583,-0.42091,0.22603,-0.02956,0.00154,0.01414,0.99946,-0.00652,0.05021,-0.00665,
1629344788219542016,1.90288,-0.41457,0.22382,-0.03489,-0.00531,0.02151,0.99915,-0.06396,0.09505,-0.07561,
1629344788286213376,1.89579,-0.40599,0.21963,-0.03829,-0.01364,0.02796,0.99878,-0.12722,0.14515,-0.06583,
1629344788352885760,1.88789,-0.39914,0.21604,-0.04379,-0.01770,0.02248,0.99863,-0.13666,0.09839,0.08707,
1629344788419557120,1.87765,-0.39111,0.22495,-0.05553,-0.01770,0.02077,0.99808,-0.12767,0.14071,0.12729,
1629344788486229760,1.87064,-0.38466,0.22975,-0.05794,-0.00930,0.02030,0.99807,-0.10837,0.07837,0.00510,
1629344788552901120,1.86555,-0.38364,0.23119,-0.06656,-0.00584,0.01247,0.99769,-0.06077,0.01955,0.01711,
1629344788619573504,1.86126,-0.38412,0.23136,-0.07117,-0.00492,0.00081,0.99745,-0.03903,0.01326,0.01640,
1629344788686244864,1.85852,-0.38387,0.23284,-0.07606,-0.00195,0.00477,0.99709,-0.01647,0.00485,0.03967,
1629344788752917504,1.85654,-0.38195,0.23506,-0.07335,-0.00169,0.01101,0.99724,-0.03411,0.07679,0.04865,
1629344788819588864,1.85328,-0.38067,0.23354,-0.07915,-0.00557,0.01132,0.99678,-0.05636,-0.02894,-0.08297,
1629344788886261248,1.84626,-0.37782,0.23032,-0.08195,-0.01339,0.00921,0.99650,-0.10618,0.10722,-0.03507,
1629344788952932864,1.83957,-0.37069,0.22645,-0.08209,-0.02155,0.01909,0.99621,-0.13626,0.14201,-0.07129,
1629344789019605248,1.82793,-0.36008,0.21960,-0.08306,-0.03167,0.02731,0.99567,-0.19007,0.17937,-0.08133,
1629344789086276864,1.81404,-0.34930,0.21430,-0.08448,-0.03648,0.01501,0.99564,-0.21250,0.14414,0.09913,
1629344789152949248,1.79998,-0.33913,0.22139,-0.09519,-0.03571,0.01556,0.99470,-0.20986,0.16006,0.13797,
1629344789219621888,1.79090,-0.32852,0.22955,-0.09500,-0.01685,0.02637,0.99498,-0.18607,0.12282,0.05702,
1629344789286293248,1.77807,-0.32637,0.22891,-0.10078,-0.01333,0.02425,0.99452,-0.15644,0.01940,0.01261,
1629344789352965632,1.76906,-0.32841,0.22576,-0.10263,-0.01542,-0.00572,0.99458,-0.12805,-0.03859,-0.06232,
1629344789419637248,1.76058,-0.33271,0.22242,-0.10476,-0.01643,-0.01715,0.99421,-0.12079,-0.09144,0.01142,
1629344789486309632,1.75239,-0.33622,0.22556,-0.10151,-0.01807,-0.00453,0.99466,-0.15676,-0.01521,0.07555,
1629344789552981248,1.74362,-0.34140,0.22662,-0.10456,-0.01797,-0.00169,0.99435,-0.12561,-0.09402,-0.03342,
1629344789619653376,1.73194,-0.34160,0.22617,-0.10561,-0.01821,-0.00037,0.99424,-0.16522,0.02545,0.00505,
1629344789686324736,1.72086,-0.33749,0.22263,-0.10358,-0.02447,0.00659,0.99430,-0.18588,0.08859,-0.07062,
1629344789752997632,1.70544,-0.33018,0.21674,-0.10364,-0.03262,0.01834,0.99391,-0.24544,0.14747,-0.10422,
1629344789819669248,1.68681,-0.31970,0.20889,-0.10622,-0.03868,0.01880,0.99341,-0.26720,0.09259,0.02799,
1629344789886341888,1.66900,-0.31628,0.21576,-0.11546,-0.04172,0.01490,0.99232,-0.23780,0.05068,0.12865,
1629344789953013504,1.65437,-0.30969,0.22298,-0.11564,-0.02636,0.02136,0.99271,-0.22154,0.00635,0.03987,
1629344790019685632,1.63990,-0.31511,0.22112,-0.11863,-0.02576,0.01808,0.99244,-0.19609,-0.09330,-0.01542,
1629344790086357248,1.62897,-0.32288,0.21560,-0.11888,-0.02939,-0.00814,0.99244,-0.16760,-0.17708,-0.10764,
1629344790153029888,1.61738,-0.33519,0.20953,-0.12097,-0.03267,-0.01799,0.99196,-0.19787,-0.24569,-0.06552,
1629344790219701760,1.60176,-0.34824,0.20757,-0.11325,-0.04062,-0.01025,0.99268,-0.22952,-0.18185,0.01304,
1629344790286374400,1.58797,-0.36419,0.21341,-0.11325,-0.03195,-0.01616,0.99292,-0.17567,-0.26793,0.05478,
1629344790353046016,1.57547,-0.37629,0.21588,-0.11413,-0.02065,-0.02075,0.99303,-0.19757,-0.14036,0.04134,
1629344790419718144,1.56349,-0.38265,0.21524,-0.11358,-0.01957,-0.01366,0.99324,-0.19360,-0.06956,-0.05291,
1629344790486390784,1.55004,-0.38316,0.21186,-0.11437,-0.02741,0.00021,0.99306,-0.20205,0.00253,-0.04740,
1629344790553062400,1.53749,-0.38220,0.20870,-0.11558,-0.02941,0.00139,0.99286,-0.18968,0.00238,0.07898,
1629344790619735040,1.52416,-0.38193,0.21785,-0.12674,-0.03655,0.00345,0.99126,-0.17948,0.00740,0.12694,
1629344790686406912,1.51451,-0.37894,0.22325,-0.12424,-0.02315,0.01051,0.99193,-0.18445,0.00450,0.02678,
1629344790753079296,1.50100,-0.38582,0.21997,-0.12410,-0.02426,0.00744,0.99194,-0.18005,-0.10531,-0.03122,
1629344790819750912,1.49199,-0.39580,0.21595,-0.12582,-0.02878,-0.00445,0.99163,-0.14336,-0.19952,-0.05214,
1629344790886423040,1.48206,-0.40885,0.21147,-0.12657,-0.03034,-0.00909,0.99145,-0.18814,-0.23240,-0.07675,
1629344790953094400,1.47105,-0.42235,0.21086,-0.12180,-0.03960,-0.00339,0.99176,-0.19672,-0.13345,0.10437,
1629344791019767040,1.45803,-0.44024,0.22254,-0.12083,-0.02999,-0.01651,0.99208,-0.15202,-0.25689,0.15185,
1629344791086438400,1.45189,-0.45318,0.22830,-0.12461,-0.01651,-0.02269,0.99181,-0.17066,-0.14834,0.04730,
1629344791153110784,1.43979,-0.45655,0.22857,-0.12130,-0.01849,-0.00772,0.99241,-0.17434,-0.04121,0.00112,
1629344791219782400,1.42786,-0.45757,0.22482,-0.12194,-0.02700,0.00675,0.99215,-0.18240,0.02304,-0.00518,
1629344791286455040,1.41505,-0.45738,0.22310,-0.12036,-0.02581,0.00195,0.99239,-0.19807,0.02397,0.06698,
1629344791353126400,1.40275,-0.45467,0.22896,-0.13198,-0.03082,0.00238,0.99077,-0.17122,0.04484,0.12196,
1629344791419798784,1.39534,-0.44968,0.23555,-0.12898,-0.01915,0.01233,0.99139,-0.16008,0.05587,0.06560,
1629344791486470144,1.38629,-0.45096,0.23439,-0.13029,-0.01754,0.01381,0.99123,-0.14320,-0.03613,0.02469,
1629344791553142528,1.37785,-0.45799,0.22948,-0.13178,-0.01961,-0.00128,0.99108,-0.11129,-0.10397,-0.03161,
1629344791619813888,1.36928,-0.46695,0.22661,-0.13396,-0.02067,-0.00922,0.99073,-0.12207,-0.14919,0.01197,
1629344791686486528,1.36000,-0.47657,0.22273,-0.13286,-0.02517,-0.00405,0.99081,-0.17725,-0.08197,0.01189,
1629344791753157888,1.35003,-0.48420,0.22638,-0.12717,-0.02598,-0.00480,0.99153,-0.13112,-0.15274,0.07050,
1629344791819830784,1.34056,-0.49274,0.22880,-0.13081,-0.01804,-0.00957,0.99120,-0.17168,-0.06482,0.02443,
1629344791886502912,1.33053,-0.49266,0.22681,-0.12825,-0.01946,-0.00655,0.99153,-0.19829,0.02941,-0.05193,
1629344791953174528,1.31511,-0.48900,0.21987,-0.12582,-0.02983,0.00512,0.99159,-0.24272,0.16370,-0.09832,
1629344792019846912,1.29630,-0.47361,0.20949,-0.11101,-0.04115,0.01214,0.99289,-0.33606,0.29581,-0.18290,
1629344792086518528,1.27514,-0.45682,0.20311,-0.09672,-0.05252,0.00776,0.99389,-0.29902,0.13819,0.01777,
1629344792153191168,1.25502,-0.44294,0.21083,-0.08800,-0.04535,0.01521,0.99497,-0.28534,0.24821,0.18822,
1629344792219862528,1.23879,-0.42345,0.22098,-0.06637,-0.02257,0.02567,0.99721,-0.27323,0.21068,0.08092,
1629344792286535168,1.22229,-0.42175,0.21906,-0.05942,-0.02266,0.00745,0.99795,-0.24138,-0.05296,-0.07083,
1629344792353206528,1.20710,-0.43024,0.21332,-0.06040,-0.02858,-0.01984,0.99757,-0.22260,-0.11128,-0.06166,
1629344792419879168,1.19201,-0.44013,0.20964,-0.06097,-0.02415,-0.01010,0.99780,-0.25143,-0.17633,-0.04677,
1629344792486550528,1.17685,-0.44758,0.21083,-0.04980,-0.03170,-0.00190,0.99825,-0.21112,-0.11813,0.15129,
1629344792553223168,1.16732,-0.46095,0.21730,-0.05329,-0.01740,-0.01496,0.99832,-0.18328,-0.18952,0.04997,
1629344792619894528,1.15437,-0.46795,0.21918,-0.05605,-0.01365,-0.01489,0.99822,-0.19504,-0.03517,0.02381,
1629344792686567168,1.13931,-0.46587,0.21560,-0.05474,-0.02259,0.00108,0.99824,-0.20581,0.04406,-0.04443,
1629344792753238528,1.12410,-0.46098,0.21095,-0.05674,-0.03028,0.01025,0.99788,-0.24067,0.13475,-0.04602,
1629344792819911168,1.10555,-0.45265,0.20611,-0.05719,-0.03621,0.01060,0.99765,-0.28571,0.10777,-0.03094,
1629344792886582784,1.08663,-0.44242,0.21533,-0.06120,-0.03786,0.01143,0.99734,-0.25208,0.19567,0.18761,
1629344792953255168,1.07252,-0.42731,0.22391,-0.04800,-0.02058,0.02365,0.99836,-0.23235,0.17953,0.07636,
1629344793019926784,1.05738,-0.41999,0.22418,-0.03699,-0.01808,0.01590,0.99903,-0.22673,0.07808,-0.00852,
1629344793086599424,1.04279,-0.42004,0.22082,-0.02399,-0.02476,-0.01368,0.99931,-0.20958,-0.00575,-0.06097,
1629344793153271552,1.02771,-0.42255,0.21645,-0.01274,-0.02601,-0.01868,0.99941,-0.22541,-0.07871,-0.00134,
1629344793219943168,1.01050,-0.42661,0.21625,0.00171,-0.02953,-0.00166,0.99956,-0.23729,-0.04469,0.06174,
1629344793286615552,0.99573,-0.43520,0.22403,0.01290,-0.02077,-0.01180,0.99963,-0.20306,-0.14429,0.09375,
1629344793353287424,0.98334,-0.44181,0.22717,0.01331,-0.01116,-0.01694,0.99971,-0.20649,-0.05860,0.03662,
1629344793419960064,0.97086,-0.44144,0.22662,0.01536,-0.01435,-0.00888,0.99974,-0.20032,0.03982,-0.03048,
1629344793486631424,0.95687,-0.43531,0.22222,0.01288,-0.02358,0.00733,0.99961,-0.21541,0.11207,-0.06652,
1629344793553304064,0.93998,-0.42623,0.21712,0.01301,-0.03336,0.01269,0.99928,-0.26713,0.15678,-0.08822,
1629344793619975424,0.92251,-0.41736,0.22107,0.00233,-0.04243,0.01039,0.99904,-0.24129,0.11830,0.18733,
1629344793686647808,0.90799,-0.40984,0.22976,0.00444,-0.02888,0.01584,0.99945,-0.22042,0.11725,0.12177,
1629344793753319424,0.89293,-0.40452,0.23129,0.00635,-0.01940,0.02113,0.99957,-0.24525,0.03022,-0.02414,
1629344793819991808,0.87557,-0.40863,0.22595,0.00622,-0.02566,-0.00007,0.99965,-0.24236,-0.11423,-0.07475,
1629344793886663680,0.85749,-0.41829,0.21808,0.00665,-0.03195,-0.01685,0.99933,-0.27178,-0.17940,-0.09372,
1629344793953336064,0.83715,-0.42998,0.20995,0.00962,-0.03291,-0.00851,0.99938,-0.33381,-0.16844,-0.05199,
1629344794020007680,0.81587,-0.44102,0.21452,0.01970,-0.03905,-0.01042,0.99899,-0.27242,-0.21712,0.16037,
1629344794086680064,0.80064,-0.45452,0.22402,0.01836,-0.01802,-0.02740,0.99929,-0.24249,-0.15992,0.06997,
1629344794153351424,0.78673,-0.45943,0.22510,0.02096,-0.01360,-0.01901,0.99951,-0.20854,-0.00845,-0.02312,
1629344794220024064,0.77407,-0.45343,0.22133,0.02474,-0.02147,0.01289,0.99938,-0.17911,0.08121,-0.05305,
1629344794286695424,0.76076,-0.44664,0.21807,0.02590,-0.02506,0.01631,0.99922,-0.19926,0.12669,-0.02242,
1629344794353368320,0.74753,-0.43806,0.21670,0.02422,-0.03196,0.00432,0.99919,-0.20563,0.06799,0.06914,
1629344794420039936,0.73429,-0.42862,0.22619,0.01903,-0.02430,0.00773,0.99949,-0.17903,0.18176,0.14434,
1629344794486712320,0.72465,-0.41699,0.23034,0.02496,-0.01003,0.01991,0.99944,-0.17887,0.11439,0.02419,
1629344794553384704,0.71503,-0.41426,0.22873,0.02414,-0.01061,0.01392,0.99956,-0.16813,-0.02467,-0.03049,
1629344794620056064,0.70448,-0.41969,0.22518,0.02325,-0.01777,-0.00943,0.99953,-0.15968,-0.08740,-0.08662,
1629344794686728704,0.69317,-0.42690,0.22048,0.02279,-0.01933,-0.01177,0.99948,-0.18418,-0.14149,-0.03607,
1629344794753400064,0.68004,-0.43494,0.21891,0.02425,-0.02479,-0.00223,0.99940,-0.20764,-0.06292,0.04904,
1629344794820072448,0.66660,-0.44231,0.22492,0.03050,-0.01956,-0.00817,0.99931,-0.18250,-0.14054,0.07666,
1629344794886743808,0.65587,-0.44894,0.22491,0.02701,-0.01332,-0.01462,0.99944,-0.16670,-0.04629,0.00774,
1629344794953416704,0.64842,-0.44823,0.22449,0.03077,-0.01378,-0.01127,0.99937,-0.14199,0.04433,-0.04426,
1629344795020088064,0.63924,-0.44192,0.22173,0.03184,-0.01913,-0.00113,0.99931,-0.12636,0.12519,-0.06354,
1629344795086760192,0.63074,-0.42977,0.21637,0.03812,-0.02519,0.00678,0.99893,-0.15137,0.23258,-0.11362,
1629344795153431552,0.62289,-0.41658,0.21508,0.04259,-0.03336,0.01375,0.99844,-0.13704,0.10275,0.06475,
1629344795220103936,0.61473,-0.40150,0.22524,0.05132,-0.02722,0.01882,0.99813,-0.09741,0.26751,0.17120,
1629344795286775296,0.60933,-0.38499,0.23129,0.06725,-0.01396,0.02388,0.99735,-0.10988,0.19257,0.05759,
1629344795353447680,0.60276,-0.37670,0.23392,0.07951,-0.01666,0.00832,0.99666,-0.09763,0.13381,0.00738,
1629344795420119040,0.59616,-0.37137,0.23323,0.09480,-0.02211,-0.00937,0.99521,-0.08614,0.06659,0.02154,
1629344795486791680,0.59215,-0.36640,0.23461,0.10618,-0.01590,-0.00253,0.99422,-0.08934,0.05526,0.06228,
1629344795553463040,0.58647,-0.36639,0.23392,0.11215,-0.01725,0.00735,0.99351,-0.10352,-0.03702,0.10309,
1629344795620135424,0.58006,-0.37007,0.23734,0.11022,-0.01340,-0.00516,0.99380,-0.11198,-0.04274,0.00244,
1629344795686806784,0.57613,-0.36894,0.23529,0.11285,-0.01221,-0.00628,0.99352,-0.08376,0.09965,0.01699,
1629344795753479168,0.57066,-0.36283,0.23260,0.11642,-0.01701,0.00225,0.99305,-0.07436,0.12749,-0.06632,
1629344795820151552,0.56600,-0.35341,0.22794,0.11701,-0.02171,0.01101,0.99283,-0.07152,0.22146,-0.04628,
1629344795886822912,0.55994,-0.33896,0.22123,0.11873,-0.03132,0.01777,0.99227,-0.13209,0.21902,-0.10744,
1629344795953495552,0.55220,-0.32719,0.22471,0.11201,-0.03410,0.01956,0.99293,-0.10444,0.20712,0.18817,
1629344796020166912,0.54797,-0.31439,0.23334,0.11693,-0.01593,0.02194,0.99277,-0.08871,0.16692,0.07948,
1629344796086839552,0.54032,-0.30821,0.23436,0.11650,-0.00923,0.02623,0.99280,-0.10308,0.09783,0.01671,
1629344796153510912,0.53517,-0.30454,0.23260,0.11606,-0.01283,0.00795,0.99313,-0.08283,0.02410,-0.05653,
1629344796220183296,0.53004,-0.30643,0.22819,0.11677,-0.02064,-0.01453,0.99284,-0.08489,-0.02915,-0.02683,
1629344796286854656,0.52521,-0.30657,0.22825,0.11479,-0.01482,-0.00510,0.99327,-0.10516,-0.02943,0.00772,
1629344796353527040,0.51926,-0.30702,0.23064,0.11915,-0.01781,-0.00058,0.99272,-0.11127,-0.04580,0.03300,
1629344796420198400,0.51288,-0.30956,0.23045,0.11730,-0.01427,-0.00105,0.99299,-0.09978,0.01846,-0.02573,
1629344796486871040,0.50775,-0.30505,0.22900,0.12119,-0.01550,0.00182,0.99251,-0.08138,0.08647,-0.02146,
1629344796553542400,0.50311,-0.29839,0.22606,0.12130,-0.01969,0.01005,0.99237,-0.06771,0.14204,-0.05255,
1629344796620215040,0.49783,-0.28597,0.22180,0.12257,-0.02521,0.02003,0.99194,-0.10057,0.19644,-0.08949,
1629344796686886656,0.48981,-0.27207,0.21385,0.12267,-0.03345,0.02156,0.99165,-0.12721,0.19847,0.00086,
1629344796753558784,0.48219,-0.26060,0.21931,0.11807,-0.03549,0.02219,0.99212,-0.10415,0.19583,0.13290,
1629344796820230144,0.47724,-0.24833,0.22541,0.12104,-0.01770,0.02619,0.99214,-0.10893,0.16372,0.01871,
1629344796886902528,0.47095,-0.24112,0.22807,0.11803,-0.01268,0.02673,0.99257,-0.09817,0.09939,0.01891,
1629344796953573888,0.46604,-0.23764,0.22674,0.11910,-0.01782,0.00186,0.99272,-0.07890,0.03740,-0.04353,
1629344797020246272,0.46109,-0.23718,0.22613,0.11792,-0.02044,-0.00985,0.99276,-0.07731,0.00469,0.03668,
1629344797086917888,0.45650,-0.23502,0.22838,0.11736,-0.01374,0.00307,0.99299,-0.11201,0.05565,-0.02234,
1629344797153590528,0.44969,-0.23433,0.23095,0.12127,-0.01583,0.00353,0.99249,-0.11703,-0.01828,0.01603,
1629344797220262656,0.44175,-0.23429,0.22915,0.11768,-0.01535,0.00327,0.99293,-0.11451,0.05622,-0.00442,
1629344797286934016,0.43443,-0.22621,0.22665,0.11963,-0.01990,0.01120,0.99256,-0.11418,0.13808,-0.06932,
1629344797353606400,0.42704,-0.21482,0.22084,0.11975,-0.02713,0.02370,0.99215,-0.11857,0.21065,-0.07264,
1629344797420277760,0.41789,-0.19792,0.21221,0.11926,-0.03599,0.02813,0.99181,-0.18017,0.27590,-0.14058,
1629344797486950144,0.40703,-0.18271,0.20710,0.11619,-0.04557,0.02374,0.99190,-0.19978,0.21992,0.06672,
1629344797553621760,0.39481,-0.16665,0.21592,0.10968,-0.03804,0.02730,0.99286,-0.16714,0.28102,0.19023,
1629344797620294144,0.38531,-0.14890,0.22758,0.11365,-0.01165,0.03140,0.99296,-0.16521,0.21027,0.11494,
1629344797686965504,0.37493,-0.13806,0.22864,0.11474,-0.00912,0.02260,0.99310,-0.16152,0.12453,-0.01701,
1629344797753638144,0.36597,-0.13363,0.22739,0.11617,-0.01393,-0.00753,0.99310,-0.14988,0.03706,-0.04729,
1629344797820309504,0.35519,-0.13093,0.22580,0.11544,-0.01175,-0.01000,0.99320,-0.15356,-0.00160,0.02237,
1629344797886981888,0.34368,-0.12948,0.22558,0.11729,-0.01178,0.00038,0.99303,-0.17322,0.03499,0.02365,
1629344797953653248,0.33234,-0.13067,0.22784,0.11929,-0.01225,-0.00140,0.99278,-0.17588,-0.04226,-0.02400,
1629344798020325632,0.32182,-0.13000,0.22724,0.11921,-0.01002,-0.00080,0.99282,-0.14676,0.07722,0.01002,
1629344798086996992,0.31251,-0.12391,0.22489,0.12270,-0.01341,0.00304,0.99235,-0.14381,0.11215,-0.05521,
1629344798153669632,0.30344,-0.11421,0.21978,0.12222,-0.02012,0.01334,0.99221,-0.13736,0.19377,-0.08176,
1629344798220340992,0.29352,-0.09880,0.21189,0.12230,-0.02783,0.02692,0.99174,-0.17591,0.26650,-0.14212,
1629344798287013632,0.28081,-0.08475,0.20947,0.11697,-0.03654,0.02988,0.99201,-0.19879,0.16089,0.06098,
1629344798353684992,0.26979,-0.07053,0.21887,0.11653,-0.03055,0.02321,0.99245,-0.14875,0.22583,0.15506,
1629344798420357376,0.26126,-0.05823,0.22519,0.11841,-0.01411,0.02359,0.99258,-0.16939,0.16599,0.00378,
1629344798487029760,0.25078,-0.05177,0.22541,0.11791,-0.01221,0.01964,0.99276,-0.15977,0.07006,-0.00070,
1629344798553701120,0.24034,-0.05221,0.22081,0.11918,-0.01763,-0.00287,0.99271,-0.17013,-0.02418,-0.07282,
1629344798620373504,0.22787,-0.05573,0.21749,0.11831,-0.01973,-0.00823,0.99275,-0.20148,-0.06752,-0.03523,
1629344798687044864,0.21378,-0.05863,0.21574,0.12173,-0.02511,-0.00291,0.99224,-0.18999,0.00615,0.03319,
1629344798753717504,0.20125,-0.06212,0.21855,0.12628,-0.02158,-0.00457,0.99175,-0.18262,-0.08817,0.02989,
1629344798820389120,0.19011,-0.06680,0.21914,0.12708,-0.01413,-0.01131,0.99173,-0.15445,-0.00323,0.05779,
1629344798887061504,0.18005,-0.06644,0.22033,0.13032,-0.01085,-0.01474,0.99130,-0.13885,0.01722,-0.02367,
1629344798953732864,0.17102,-0.06193,0.21786,0.13164,-0.01445,-0.00252,0.99119,-0.09572,0.11029,-0.02784,
1629344799020405504,0.16388,-0.05382,0.21451,0.13424,-0.01867,0.00791,0.99074,-0.10058,0.15432,-0.04355,
1629344799087076864,0.15606,-0.04489,0.21278,0.13398,-0.02339,0.01028,0.99066,-0.14134,0.09622,-0.00500,
1629344799153749504,0.14741,-0.03754,0.21787,0.12542,-0.02441,0.01088,0.99174,-0.10757,0.13821,0.07658,
1629344799220420864,0.14143,-0.02980,0.21960,0.12937,-0.01275,0.01522,0.99140,-0.13069,0.09795,0.00219,
1629344799287093504,0.13150,-0.02830,0.21863,0.12843,-0.01493,0.01164,0.99154,-0.17009,-0.00191,-0.04414,
1629344799353765120,0.11947,-0.03304,0.21372,0.12738,-0.02264,0.00049,0.99160,-0.19455,-0.09579,-0.07281,
1629344799420437504,0.10418,-0.04148,0.20775,0.12661,-0.02989,-0.00814,0.99147,-0.25938,-0.13660,-0.10163,
1629344799487108864,0.08382,-0.05144,0.19799,0.12836,-0.03934,-0.00274,0.99094,-0.31367,-0.14212,-0.05261,
1629344799553781504,0.06512,-0.06034,0.19989,0.13906,-0.04438,-0.00785,0.98926,-0.25270,-0.11827,0.16815,
1629344799620452864,0.04817,-0.07246,0.20812,0.13621,-0.02911,-0.02665,0.98989,-0.23393,-0.16929,0.10278,
1629344799687125504,0.03535,-0.08029,0.21179,0.13960,-0.01682,-0.02538,0.98974,-0.18141,-0.06795,0.03821,
1629344799753797376,0.02494,-0.08392,0.21030,0.14004,-0.01530,0.00438,0.99002,-0.13725,-0.05226,-0.02195,
1629344799820470272,0.01734,-0.08601,0.20964,0.13829,-0.01492,0.01653,0.99014,-0.10975,-0.00602,0.02838,
1629344799887143168,0.01046,-0.08777,0.21256,0.14187,-0.00746,-0.00160,0.98986,-0.10986,-0.00287,0.02176,
1629344799953815296,0.00373,-0.08887,0.21270,0.13377,-0.01430,-0.00421,0.99090,-0.09254,-0.04297,0.09205,
1629344800020487936,-0.00298,-0.08758,0.21517,0.13476,-0.00961,0.00172,0.99083,-0.08721,0.05402,-0.00895,
1629344800087159808,-0.01129,-0.08861,0.21274,0.13549,-0.00663,0.00516,0.99074,-0.16182,-0.08250,-0.04041,
1629344800153832960,-0.02423,-0.09724,0.20527,0.13300,-0.02181,-0.01071,0.99082,-0.20260,-0.14584,-0.13890,
1629344800220505088,-0.04043,-0.10870,0.19586,0.13255,-0.03618,-0.02497,0.99020,-0.27529,-0.21615,-0.12695,
1629344800287177728,-0.06252,-0.12039,0.18625,0.13522,-0.04105,-0.00570,0.98995,-0.37338,-0.19449,-0.17414,
1629344800353849856,-0.08750,-0.13055,0.18046,0.14621,-0.04870,0.00431,0.98804,-0.32431,-0.12381,0.11293,
1629344800420522752,-0.11100,-0.14586,0.19269,0.15091,-0.03340,-0.02581,0.98765,-0.33694,-0.28247,0.22925,
1629344800487194624,-0.12899,-0.16412,0.20441,0.14313,-0.00928,-0.04448,0.98866,-0.26927,-0.16640,0.07987,
1629344800553867520,-0.14462,-0.16811,0.20487,0.14384,-0.00723,-0.00568,0.98956,-0.21774,-0.06099,-0.06409,
1629344800620539648,-0.16052,-0.17004,0.20095,0.13536,-0.01271,0.03396,0.99013,-0.21277,-0.07117,-0.02867,
1629344800687212800,-0.17188,-0.17422,0.20476,0.13629,-0.00785,0.00477,0.99063,-0.19350,0.00444,0.10280,
1629344800753884160,-0.18489,-0.17620,0.20793,0.13519,-0.01241,-0.02682,0.99038,-0.21421,-0.00846,0.00764,
1629344800820556544,-0.19813,-0.17374,0.21239,0.13065,-0.00979,-0.01043,0.99133,-0.17108,0.09320,0.03835,
1629344800887227904,-0.20583,-0.16801,0.21346,0.13314,-0.00102,0.00968,0.99105,-0.20109,-0.00541,-0.00870,
1629344800953900288,-0.22374,-0.17369,0.20773,0.13137,-0.01250,-0.00381,0.99125,-0.27095,-0.09942,-0.14194,
1629344801020571904,-0.24551,-0.18424,0.19570,0.12971,-0.03306,-0.02600,0.99066,-0.32219,-0.21707,-0.15845,
1629344801087244288,-0.26988,-0.19575,0.18569,0.13116,-0.03642,-0.01497,0.99058,-0.40644,-0.17881,-0.15507,
1629344801153916928,-0.30087,-0.20803,0.17416,0.13653,-0.04468,0.01057,0.98957,-0.45221,-0.19961,-0.07770,
1629344801220588544,-0.32912,-0.22049,0.18429,0.14574,-0.04266,-0.00919,0.98836,-0.37291,-0.17518,0.30087,
1629344801287260672,-0.34572,-0.23414,0.20338,0.14639,-0.01175,-0.01338,0.98907,-0.29953,-0.11908,0.13267,
1629344801353932032,-0.36275,-0.23766,0.20661,0.14805,-0.01378,-0.01719,0.98873,-0.21733,-0.02740,0.05449,
1629344801420604672,-0.37391,-0.23646,0.20779,0.15186,-0.01673,-0.02008,0.98806,-0.12418,0.06096,0.03331,
1629344801487276032,-0.37768,-0.23169,0.20410,0.15283,-0.01913,-0.01753,0.98791,-0.05257,0.07603,0.00074,
1629344801553948416,-0.38075,-0.22795,0.20039,0.15086,-0.02035,-0.01333,0.98826,-0.00671,0.05694,0.00760,
1629344801620620032,-0.38256,-0.22550,0.19970,0.15042,-0.02009,-0.01105,0.98836,0.01374,0.01731,0.01302,
1629344801687292672,-0.38171,-0.22612,0.19972,0.15023,-0.01932,-0.01136,0.98840,0.01742,-0.02549,0.01195,
1629344801753964032,-0.38109,-0.22779,0.20007,0.15065,-0.01830,-0.01283,0.98833,0.01143,-0.01213,0.00917,
1629344801820636160,-0.38063,-0.22839,0.20011,0.15121,-0.01785,-0.01352,0.98825,-0.00172,0.00828,0.00099,
1629344801887307520,-0.38089,-0.22769,0.19980,0.15094,-0.01824,-0.01276,0.98829,-0.00945,0.02555,-0.00539,
1629344801953980160,-0.38132,-0.22683,0.19948,0.15068,-0.01878,-0.01189,0.98833,-0.00777,0.01173,-0.00128,
1629344802020651520,-0.38128,-0.22700,0.19943,0.15069,-0.01872,-0.01205,0.98833,0.00126,-0.00225,0.00328,
1629344802087323904,-0.38084,-0.22762,0.19972,0.15082,-0.01832,-0.01268,0.98831,0.00123,-0.00193,0.00457,
1629344802153995264,-0.38069,-0.22776,0.19973,0.15091,-0.01813,-0.01295,0.98830,-0.00589,0.00954,-0.00044,
1629344802220667904,-0.38086,-0.22741,0.19945,0.15078,-0.01833,-0.01259,0.98832,-0.00711,0.01467,-0.00225,
1629344802287339264,-0.38097,-0.22711,0.19940,0.15071,-0.01852,-0.01230,0.98833,-0.00455,0.00762,0.00080,
1629344802354011648,-0.38090,-0.22718,0.19942,0.15075,-0.01840,-0.01246,0.98832,-0.00240,0.00182,0.00262,
1629344802420683008,-0.38076,-0.22748,0.19949,0.15083,-0.01823,-0.01280,0.98831,-0.00449,0.00507,0.00176,
1629344802487355136,-0.38075,-0.22744,0.19937,0.15084,-0.01817,-0.01282,0.98831,-0.00559,0.01029,0.00031,
1629344802554027520,-0.38082,-0.22718,0.19931,0.15077,-0.01830,-0.01261,0.98832,-0.00540,0.01059,0.00064,
1629344802620698880,-0.38078,-0.22712,0.19933,0.15077,-0.01836,-0.01259,0.98832,-0.00558,0.00627,0.00174,
1629344802687371520,-0.38079,-0.22726,0.19923,0.15078,-0.01820,-0.01276,0.98832,-0.00292,0.00497,0.00254,
1629344802754042880,-0.38075,-0.22732,0.19936,0.15080,-0.01818,-0.01284,0.98831,-0.00553,0.00737,0.00215,
1629344802820715520,-0.38080,-0.22720,0.19933,0.15078,-0.01820,-0.01278,0.98832,-0.00649,0.00943,0.00144,
1629344802887386880,-0.38080,-0.22704,0.19929,0.15076,-0.01824,-0.01268,0.98832,-0.00573,0.00863,0.00180,
1629344802954059008,-0.38080,-0.22701,0.19938,0.15074,-0.01826,-0.01275,0.98832,-0.00610,0.00602,0.00294,
1629344803020730368,-0.38084,-0.22708,0.19927,0.15077,-0.01813,-0.01285,0.98832,-0.00491,0.00687,0.00244,
1629344803087402752,-0.38077,-0.22715,0.19919,0.15077,-0.01810,-0.01287,0.98832,-0.00446,0.00872,0.00232,
1629344803154074112,-0.38073,-0.22711,0.19926,0.15075,-0.01814,-0.01280,0.98832,-0.00566,0.00861,0.00279,
1629344803220746496,-0.38077,-0.22701,0.19923,0.15074,-0.01815,-0.01281,0.98832,-0.00650,0.00758,0.00254,
1629344803287417856,-0.38073,-0.22680,0.19937,0.15070,-0.01814,-0.01287,0.98833,-0.00645,0.00759,0.00338,
1629344803354090240,-0.38061,-0.22676,0.19972,0.15066,-0.01816,-0.01283,0.98834,-0.00691,0.01024,0.00328,
1629344803420761856,-0.38061,-0.22692,0.19938,0.15070,-0.01807,-0.01289,0.98833,-0.00604,0.00920,0.00281,
1629344803487434240,-0.38053,-0.22708,0.19926,0.15074,-0.01805,-0.01288,0.98832,-0.00498,0.00880,0.00302,
1629344803554105600,-0.38056,-0.22711,0.19918,0.15074,-0.01798,-0.01291,0.98833,-0.00455,0.00651,0.00391,
1629344803620777728,-0.38053,-0.22716,0.19920,0.15075,-0.01799,-0.01294,0.98832,-0.00560,0.00655,0.00314,
1629344803687449344,-0.38052,-0.22711,0.19911,0.15072,-0.01795,-0.01289,0.98833,-0.00423,0.00806,0.00266,
1629344803754121472,-0.38051,-0.22709,0.19924,0.15073,-0.01800,-0.01290,0.98833,-0.00663,0.00777,0.00348,
1629344803820793856,-0.38050,-0.22710,0.19914,0.15073,-0.01796,-0.01291,0.98833,-0.00528,0.00757,0.00355,
