1629344764017670400,0.00064,-0.00063,0.00051,0.99996,0.00537,-0.00691,-0.00054,-0.00157,0.00298,-0.00006,
1629344764084339968,0.00215,-0.00003,0.01586,0.99998,0.00377,-0.00466,-0.00060,0.00338,0.00487,0.02808,
1629344764151008512,0.00315,0.00077,0.02012,0.99998,0.00302,-0.00456,-0.00064,0.00667,0.01149,0.03529,
1629344764217678080,0.00377,0.00139,0.02207,0.99999,0.00247,-0.00476,-0.00027,0.01648,0.00151,0.02236,
1629344764284346112,0.00474,0.00085,0.02353,0.99998,0.00400,-0.00390,-0.00055,0.01777,-0.01489,0.03802,
1629344764351015680,0.00575,-0.00042,0.02601,0.99997,0.00595,-0.00372,-0.00111,0.01031,-0.02226,0.05568,
1629344764417683712,0.00694,-0.00185,0.02951,0.99996,0.00710,-0.00442,-0.00216,0.01299,-0.01267,0.06056,
1629344764484353280,0.00809,-0.00240,0.03352,0.99995,0.00749,-0.00552,-0.00254,0.01543,-0.00193,0.06759,
1629344764551021568,0.00927,-0.00251,0.03846,0.99996,0.00594,-0.00646,-0.00284,0.01427,-0.00299,0.06420,
1629344764617690368,0.01009,-0.00277,0.04183,0.99995,0.00680,-0.00722,-0.00296,0.01353,-0.00319,0.04049,
1629344764684358656,0.01012,-0.00287,0.04428,0.99994,0.00726,-0.00780,-0.00278,0.00547,0.01052,0.03750,
1629344764751028480,0.00961,-0.00296,0.04654,0.99992,0.00738,-0.00971,-0.00215,0.00369,0.00662,0.04235,
1629344764817697280,0.00875,-0.00298,0.04974,0.99991,0.00717,-0.01135,-0.00210,-0.00222,0.00412,0.04659,
1629344764884367104,0.00844,-0.00280,0.05297,0.99988,0.00747,-0.01334,-0.00198,0.00300,0.00138,0.04132,
1629344764951035904,0.00863,-0.00238,0.05546,0.99986,0.00810,-0.01479,-0.00199,0.00841,0.00434,0.03232,
1629344765017705728,0.00902,-0.00193,0.05757,0.99985,0.00769,-0.01566,-0.00211,0.01024,0.00764,0.03234,
1629344765084374272,0.00894,-0.00277,0.05938,0.99982,0.00751,-0.01727,-0.00177,0.01413,0.00977,0.03987,
1629344765151043840,0.00939,-0.00298,0.06246,0.99982,0.00787,-0.01717,-0.00150,0.01797,0.00270,0.04963,
1629344765217713664,0.01014,-0.00309,0.06595,0.99982,0.00863,-0.01690,-0.00074,0.02183,0.00430,0.05439,
1629344765284382208,0.01155,-0.00290,0.06931,0.99982,0.00801,-0.01712,-0.00058,0.01932,0.02099,0.05299,
1629344765351051520,0.01251,-0.00159,0.07275,0.99982,0.00622,-0.01789,0.00024,0.01127,0.01854,0.05198,
1629344765417720064,0.01392,0.00022,0.07589,0.99981,0.00554,-0.01886,0.00072,0.00555,0.00413,0.05277,
1629344765484389376,0.01469,0.00051,0.07885,0.99979,0.00632,-0.01935,0.00081,0.01098,-0.00412,0.03517,
1629344765551057920,0.01570,0.00025,0.08068,0.99978,0.00811,-0.01953,0.00046,0.00943,-0.00894,0.02778,
1629344765617726976,0.01620,-0.00056,0.08259,0.99976,0.01016,-0.01966,0.00030,0.00776,-0.00976,0.03677,
1629344765684395520,0.01643,-0.00137,0.08515,0.99973,0.01145,-0.02044,-0.00024,-0.00053,-0.00503,0.04321,
1629344765751065088,0.01616,-0.00218,0.08817,0.99969,0.01230,-0.02171,-0.00053,0.00497,-0.00570,0.04336,
1629344765817733376,0.01709,-0.00300,0.09124,0.99966,0.01479,-0.02138,-0.00020,0.01535,-0.00852,0.04759,
1629344765884402688,0.01789,-0.00407,0.09417,0.99963,0.01700,-0.02122,-0.00034,0.02368,-0.01010,0.03957,
1629344765951070976,0.01924,-0.00432,0.09690,0.99965,0.01654,-0.02073,-0.00055,0.02594,0.00757,0.03447,
1629344766017740544,0.02063,-0.00363,0.09899,0.99969,0.01515,-0.01955,-0.00066,0.02261,0.02174,0.02774,
1629344766084408832,0.02208,-0.00226,0.10095,0.99974,0.01416,-0.01769,-0.00034,0.02258,0.01735,0.03421,
1629344766151077888,0.02362,-0.00080,0.10291,0.99977,0.01339,-0.01660,-0.00014,0.01903,0.01461,0.03604,
1629344766217745920,0.02499,-0.00000,0.10513,0.99977,0.01304,-0.01683,-0.00047,0.00758,0.00330,0.05456,
1629344766284414976,0.02546,-0.00038,0.10820,0.99973,0.01505,-0.01753,-0.00046,-0.00299,-0.01611,0.05823,
1629344766351083264,0.02491,-0.00220,0.11210,0.99967,0.01867,-0.01791,-0.00066,-0.00595,-0.02169,0.05636,
1629344766417752320,0.02456,-0.00430,0.11622,0.99955,0.02318,-0.01877,-0.00109,-0.01201,-0.03230,0.06876,
1629344766484421376,0.02370,-0.00658,0.11947,0.99947,0.02609,-0.01945,-0.00233,-0.00742,-0.02434,0.02728,
1629344766551088896,0.02395,-0.00771,0.12138,0.99943,0.02816,-0.01846,-0.00277,-0.00427,-0.01173,0.02901,
1629344766617757696,0.02369,-0.00872,0.12288,0.99940,0.02953,-0.01778,-0.00286,-0.00695,0.00137,0.03673,
1629344766684425472,0.02275,-0.00899,0.12531,0.99939,0.02992,-0.01796,-0.00234,-0.01167,0.01219,0.04986,
1629344766751096576,0.02187,-0.00809,0.12788,0.99941,0.02829,-0.01958,-0.00241,-0.00058,0.01761,0.02586,
1629344766817766400,0.02176,-0.00671,0.12987,0.99946,0.02675,-0.01910,-0.00227,0.00550,0.01622,0.03034,
1629344766884437504,0.02172,-0.00602,0.13205,0.99946,0.02651,-0.01917,-0.00212,0.00538,-0.00421,0.04443,
1629344766951107584,0.02211,-0.00670,0.13508,0.99943,0.02773,-0.01924,-0.00246,0.01689,-0.02490,0.05513,
1629344767017778432,0.02331,-0.00819,0.13878,0.99940,0.02946,-0.01813,-0.00298,0.02402,-0.02393,0.05603,
1629344767084448256,0.02492,-0.01028,0.14294,0.99936,0.03097,-0.01728,-0.00399,0.03237,-0.02436,0.05962,
1629344767151119104,0.02824,-0.01206,0.14634,0.99937,0.03351,-0.01066,-0.00409,0.02745,-0.01412,0.05040,
1629344767217788928,0.03097,-0.01373,0.14865,0.99930,0.03631,-0.00703,-0.00483,0.02153,-0.02327,0.03642,
1629344767284459776,0.03218,-0.01565,0.15112,0.99924,0.03835,-0.00497,-0.00553,0.01508,-0.00718,0.02204,
1629344767351129600,0.03297,-0.01640,0.15235,0.99921,0.03923,-0.00364,-0.00532,0.00913,0.00091,0.01737,
1629344767417800448,0.03309,-0.01610,0.15341,0.99924,0.03848,-0.00327,-0.00524,-0.00217,0.01069,0.02796,
1629344767484470016,0.03271,-0.01511,0.15540,0.99929,0.03695,-0.00422,-0.00552,-0.01386,0.01329,0.04613,
1629344767551141120,0.03175,-0.01426,0.15847,0.99933,0.03588,-0.00528,-0.00540,-0.01261,0.00397,0.04690,
1629344767617810688,0.03084,-0.01397,0.16199,0.99935,0.03529,-0.00526,-0.00526,-0.00822,0.00114,0.04692,
1629344767684481536,0.02952,-0.01408,0.16510,0.99933,0.03581,-0.00578,-0.00488,-0.00694,-0.00168,0.04482,
1629344767751152640,0.02884,-0.01428,0.16810,0.99928,0.03673,-0.00766,-0.00477,-0.00692,-0.00883,0.04911,
1629344767817824512,0.02795,-0.01527,0.17101,0.99922,0.03817,-0.00906,-0.00426,0.00194,-0.01950,0.03476,
1629344767884496896,0.02749,-0.01676,0.17398,0.99914,0.04012,-0.00929,-0.00439,0.00460,-0.02187,0.04165,
1629344767951167744,0.02734,-0.01819,0.17699,0.99903,0.04217,-0.01158,-0.00466,0.01673,-0.01511,0.03732,
1629344768017839872,0.02703,-0.01920,0.17924,0.99897,0.04318,-0.01350,-0.00393,0.02210,-0.00610,0.03853,
1629344768084510976,0.02802,-0.01951,0.18181,0.99899,0.04263,-0.01330,-0.00438,0.02323,0.00721,0.03782,
1629344768151183104,0.02929,-0.01897,0.18403,0.99902,0.04206,-0.01350,-0.00397,0.02086,0.01011,0.03979,
1629344768217853952,0.03045,-0.01835,0.18634,0.99904,0.04141,-0.01357,-0.00335,0.01688,0.00805,0.03649,
1629344768284526080,0.03183,-0.01678,0.18825,0.99912,0.03990,-0.01258,-0.00357,0.01375,0.00876,0.02316,
1629344768351197184,0.03317,-0.01548,0.18971,0.99917,0.03874,-0.01191,-0.00381,0.01083,0.00833,0.03424,
1629344768417869312,0.03400,-0.01478,0.19187,0.99919,0.03799,-0.01243,-0.00396,0.00619,0.00210,0.05096,
1629344768484540416,0.03449,-0.01467,0.19545,0.99920,0.03779,-0.01223,-0.00347,0.00859,-0.00338,0.05104,
1629344768551212800,0.03523,-0.01494,0.19882,0.99919,0.03823,-0.01158,-0.00403,0.00944,-0.01049,0.05277,
1629344768617883904,0.03600,-0.01553,0.20191,0.99918,0.03853,-0.01181,-0.00424,0.01194,-0.00970,0.03934,
1629344768684556288,0.03701,-0.01604,0.20454,0.99917,0.03904,-0.01078,-0.00476,0.01081,-0.01143,0.01963,
1629344768751227648,0.03662,-0.01746,0.20534,0.99915,0.03971,-0.01000,-0.00490,0.00073,-0.01172,0.00299,
1629344768817900032,0.03613,-0.01851,0.20512,0.99911,0.04051,-0.01022,-0.00512,-0.00796,-0.00660,0.00525,
1629344768884571392,0.03545,-0.01873,0.20520,0.99910,0.04080,-0.01030,-0.00528,-0.01298,0.00164,0.00060,
1629344768951243776,0.03419,-0.01876,0.20500,0.99909,0.04100,-0.01061,-0.00523,-0.01610,0.00353,0.00377,
1629344769017915136,0.03266,-0.01861,0.20501,0.99909,0.04083,-0.01087,-0.00533,-0.01445,-0.00233,0.00171,
1629344769084587776,0.03146,-0.01872,0.20513,0.99909,0.04085,-0.01108,-0.00528,-0.00954,-0.00133,0.00066,
1629344769151260160,0.03073,-0.01858,0.20526,0.99910,0.04061,-0.01084,-0.00529,-0.00288,-0.00049,0.00017,
1629344769217932032,0.03011,-0.01851,0.20554,0.99912,0.04026,-0.01045,-0.00530,-0.00207,0.00361,0.00214,
1629344769284604416,0.02988,-0.01835,0.20531,0.99912,0.04016,-0.01061,-0.00526,0.00022,-0.00070,0.00166,
1629344769351276032,0.02981,-0.01844,0.20496,0.99911,0.04049,-0.01096,-0.00540,0.00311,0.00041,0.00162,
1629344769417948416,0.02985,-0.01829,0.20510,0.99912,0.04025,-0.01067,-0.00536,0.00564,0.00055,0.00117,
1629344769484620032,0.02991,-0.01826,0.20504,0.99913,0.04009,-0.01049,-0.00537,0.00432,0.00081,0.00124,
1629344769551292672,0.03007,-0.01810,0.20487,0.99914,0.03990,-0.01038,-0.00537,0.00338,0.00025,0.00132,
1629344769617964288,0.02997,-0.01819,0.20487,0.99913,0.04011,-0.01052,-0.00537,0.00356,-0.00028,0.00145,
1629344769684637184,0.02977,-0.01814,0.20492,0.99914,0.03986,-0.01052,-0.00536,0.00279,0.00004,0.00098,
1629344769751308544,0.02967,-0.01806,0.20534,0.99915,0.03952,-0.01016,-0.00536,0.00428,0.00134,0.00162,
1629344769817980928,0.02985,-0.01799,0.20510,0.99917,0.03925,-0.00999,-0.00534,0.00355,-0.00008,0.00056,
1629344769884652288,0.02993,-0.01797,0.20489,0.99916,0.03937,-0.01026,-0.00539,0.00396,-0.00011,0.00151,
1629344769951324928,0.03002,-0.01800,0.20496,0.99915,0.03951,-0.01025,-0.00539,0.00484,0.00070,0.00131,
1629344770017996288,0.03018,-0.01779,0.20485,0.99917,0.03918,-0.01000,-0.00542,0.00346,0.00177,0.00078,
1629344770084668928,0.02267,-0.02036,0.19914,0.99926,0.03606,-0.01086,-0.00802,-0.11354,-0.14122,0.05820,
1629344770151340544,0.02130,-0.02041,0.20331,0.99915,0.03666,-0.01314,-0.01330,-0.11320,-0.09680,0.02207,
1629344770218013184,0.02008,-0.01552,0.20645,0.99957,0.02129,-0.01269,-0.01597,-0.13764,-0.04045,0.02412,
1629344770284684544,0.01452,-0.01265,0.20759,0.99981,0.00488,-0.00830,-0.01692,-0.18313,-0.03902,0.00178,
1629344770351357184,-0.00166,-0.01878,0.20997,0.99977,0.01233,-0.01074,-0.01384,-0.19330,0.04744,0.15776,
1629344770418028800,-0.01725,-0.02046,0.22233,0.99963,0.01007,-0.02444,-0.00631,-0.14629,-0.01347,0.13947,
1629344770484701696,-0.01722,-0.01667,0.22742,0.99954,0.01397,-0.02300,-0.01428,-0.03697,0.01914,-0.05079,
1629344770551374080,-0.01898,-0.00976,0.22476,0.99980,0.00735,-0.01270,-0.01367,0.01756,0.20367,-0.06279,
1629344770618045696,-0.01059,-0.00091,0.21903,0.99989,0.00152,0.01086,-0.00973,0.08124,0.22748,-0.07323,
1629344770684718592,-0.00081,0.01358,0.21601,0.99949,0.01479,0.02636,-0.01067,0.16202,0.25234,-0.10076,
1629344770751390720,0.00971,0.02254,0.21974,0.99867,0.03054,0.03364,-0.02443,0.14895,0.13652,0.19655,
1629344770818063616,0.01775,0.03571,0.23564,0.99939,0.02066,0.01437,-0.02418,0.11201,0.21937,0.21177,
1629344770884735744,0.02163,0.04713,0.24186,0.99953,0.01954,0.00341,-0.02338,0.07128,0.10342,0.05534,
1629344770951409152,0.02452,0.04944,0.24134,0.99847,0.05027,0.00139,-0.02315,0.04070,0.03690,-0.00842,
1629344771018081280,0.02761,0.05018,0.24076,0.99773,0.06455,0.00180,-0.01907,0.02425,-0.02150,0.03071,
1629344771084754432,0.02920,0.04634,0.24390,0.99823,0.05658,-0.00174,-0.01812,0.02487,0.01909,0.17019,
1629344771151426816,0.02954,0.04475,0.25064,0.99890,0.04467,-0.00348,-0.01385,0.01784,-0.10591,0.12003,
1629344771218099968,0.02693,0.04019,0.24997,0.99863,0.04780,-0.01028,-0.01886,0.02147,-0.08793,-0.01080,
1629344771284772352,0.02958,0.03827,0.24815,0.99864,0.04816,-0.01007,-0.01721,0.00896,-0.00836,0.01554,
1629344771351446016,0.03023,0.03714,0.24805,0.99889,0.04277,-0.00929,-0.01750,-0.00279,-0.02312,-0.00734,
1629344771418118144,0.02839,0.03604,0.24812,0.99873,0.04530,-0.01287,-0.01794,-0.02245,-0.01701,0.01366,
1629344771484791552,0.02583,0.03352,0.25033,0.99843,0.04981,-0.01001,-0.02377,-0.01414,-0.09256,0.07116,
1629344771551463936,0.02479,0.03295,0.25146,0.99866,0.04625,-0.01060,-0.02071,0.02026,0.02443,-0.07949,
1629344771618137344,0.02749,0.02684,0.24982,0.99855,0.04909,-0.00440,-0.02144,0.03387,-0.11262,-0.02482,
1629344771684809984,0.02934,0.01898,0.24653,0.99805,0.05761,0.00196,-0.02408,0.06289,-0.12524,-0.06915,
1629344771751482880,0.03512,0.01022,0.24173,0.99763,0.06409,0.00874,-0.02362,0.10779,-0.15988,-0.08431,
1629344771818155776,0.04339,-0.00068,0.23856,0.99781,0.05991,0.01739,-0.02218,0.12514,-0.13380,0.07896,
1629344771884827648,0.05375,-0.01616,0.24855,0.99813,0.05890,0.00803,-0.01444,0.10226,-0.21602,0.15562,
1629344771951500288,0.05858,-0.02976,0.25263,0.99809,0.05904,-0.00805,-0.01657,0.09587,-0.17026,0.02837,
1629344772018172416,0.06322,-0.03633,0.25360,0.99850,0.05166,-0.01220,-0.01310,0.05918,-0.12287,0.02776,
1629344772084845568,0.06765,-0.04012,0.25282,0.99920,0.03551,-0.01180,-0.01404,0.03039,-0.09705,-0.00611,
1629344772151517696,0.06726,-0.04646,0.25322,0.99896,0.03910,-0.01938,-0.01316,-0.01430,-0.11300,0.07024,
1629344772218190592,0.06701,-0.05447,0.25813,0.99858,0.04522,-0.01909,-0.02093,0.00480,-0.09886,0.02251,
1629344772284862464,0.06838,-0.05633,0.25322,0.99876,0.04418,-0.01454,-0.01766,0.05155,-0.07258,-0.12170,
1629344772351535616,0.07021,-0.06466,0.24662,0.99869,0.04611,-0.00487,-0.02142,0.06994,-0.17082,-0.07490,
1629344772418207744,0.07906,-0.07761,0.24043,0.99802,0.05843,0.00523,-0.02272,0.12746,-0.20294,-0.10472,
1629344772484880896,0.09047,-0.09428,0.23242,0.99773,0.06063,0.01599,-0.02472,0.19062,-0.25259,-0.13119,
1629344772551553280,0.10413,-0.10971,0.23027,0.99812,0.05174,0.02560,-0.02046,0.19138,-0.17084,0.08143,
1629344772618226176,0.11681,-0.12551,0.24006,0.99814,0.05722,0.01113,-0.01762,0.15995,-0.25010,0.14893,
1629344772684898304,0.12496,-0.14449,0.24525,0.99753,0.06765,-0.00841,-0.01721,0.15051,-0.19690,0.05120,
1629344772751571456,0.13189,-0.15709,0.24851,0.99837,0.05255,-0.01581,-0.01559,0.09610,-0.19938,0.00981,
1629344772818243840,0.13665,-0.16858,0.24676,0.99938,0.01949,-0.01258,-0.02633,0.06033,-0.20453,-0.01195,
1629344772884916992,0.13728,-0.18356,0.25013,0.99876,0.02677,-0.02255,-0.03528,0.02532,-0.26732,0.12732,
1629344772951589120,0.13924,-0.20172,0.25492,0.99765,0.04433,-0.01600,-0.04975,0.05945,-0.16781,-0.02854,
1629344773018262272,0.14572,-0.21194,0.24769,0.99756,0.04395,-0.00805,-0.05370,0.12542,-0.19980,-0.12131,
1629344773084934656,0.15394,-0.22507,0.24280,0.99696,0.04255,0.00270,-0.06516,0.15370,-0.26187,-0.05588,
1629344773151608064,0.16510,-0.24251,0.23354,0.99588,0.05587,0.01416,-0.07005,0.21341,-0.26473,-0.17329,
1629344773218281216,0.18296,-0.26573,0.22174,0.99464,0.06294,0.02883,-0.07680,0.28859,-0.33480,-0.09128,
1629344773284953600,0.19991,-0.28312,0.22508,0.99515,0.05493,0.03679,-0.07286,0.28349,-0.26993,0.15820,
1629344773351626752,0.22000,-0.29844,0.23362,0.99512,0.05273,0.02777,-0.07863,0.28878,-0.24649,0.14280,
1629344773418299648,0.23625,-0.30921,0.23732,0.99505,0.05169,0.02089,-0.08231,0.31520,-0.17598,-0.02433,
1629344773484973056,0.25637,-0.31429,0.23136,0.99488,0.04297,0.02972,-0.08650,0.32966,-0.02939,-0.09112,
1629344773551645184,0.27853,-0.31232,0.22459,0.99518,0.02072,0.03560,-0.08895,0.37149,0.05096,-0.14921,
1629344773618318848,0.30091,-0.31151,0.22242,0.99422,0.01296,0.03997,-0.09876,0.33079,-0.05882,0.04429,
1629344773684991232,0.32567,-0.30569,0.22748,0.99337,0.01155,0.04611,-0.10467,0.34602,0.13167,0.03883,
1629344773751663872,0.34258,-0.29960,0.23157,0.99409,0.00197,0.03585,-0.10247,0.30667,0.07902,-0.00854,
1629344773818335488,0.35654,-0.30119,0.23631,0.99461,0.01215,0.02735,-0.09930,0.26712,-0.00918,-0.03710,
1629344773885008128,0.37248,-0.30459,0.23554,0.99477,0.01131,0.02753,-0.09766,0.24406,-0.07057,0.01069,
1629344773951679488,0.38712,-0.30996,0.23398,0.99474,0.00589,0.02862,-0.09818,0.25644,-0.09694,-0.01514,
1629344774018352128,0.40455,-0.31985,0.24192,0.99545,0.00776,0.02908,-0.09043,0.22722,-0.12960,0.10347,
1629344774085023744,0.40800,-0.32777,0.24953,0.99546,0.00954,0.00816,-0.09437,0.19490,-0.13358,0.05687,
1629344774151696128,0.42569,-0.32815,0.24554,0.99525,0.01169,0.01189,-0.09596,0.23854,-0.02862,-0.00825,
1629344774218367744,0.44554,-0.33176,0.24363,0.99522,0.00196,0.01826,-0.09593,0.25783,0.03312,-0.03234,
1629344774285040640,0.46294,-0.33198,0.24107,0.99520,-0.00027,0.01570,-0.09660,0.29967,0.05993,-0.03961,
1629344774351712256,0.47563,-0.32516,0.24213,0.99434,0.00552,0.02205,-0.10376,0.25701,-0.00617,0.13544,
1629344774418384896,0.50068,-0.32566,0.25180,0.99472,-0.00136,0.01531,-0.10144,0.28907,0.04905,0.03963,
1629344774485057280,0.51577,-0.32888,0.25030,0.99508,-0.00189,0.01246,-0.09827,0.27759,-0.05893,-0.01590,
1629344774551728896,0.52186,-0.34015,0.24593,0.99545,0.01352,0.01139,-0.09361,0.22372,-0.14077,-0.08423,
1629344774618401536,0.54595,-0.35620,0.23749,0.99502,0.04102,0.00828,-0.09051,0.27803,-0.31826,-0.17434,
1629344774685073152,0.56011,-0.37428,0.23169,0.99514,0.02986,0.01898,-0.09188,0.24318,-0.28555,0.06207,
1629344774751746816,0.57869,-0.39689,0.24555,0.99540,0.03285,0.00884,-0.08956,0.20754,-0.31422,0.21930,
1629344774818419200,0.58672,-0.41428,0.25384,0.99538,0.02582,-0.00928,-0.09206,0.22095,-0.22807,0.03508,
1629344774885092608,0.60285,-0.42349,0.25309,0.99551,0.00504,-0.00281,-0.09451,0.22853,-0.11687,0.01410,
1629344774951765248,0.61932,-0.42791,0.25247,0.99550,-0.00434,0.00255,-0.09464,0.24547,-0.03064,0.03070,
1629344775018439168,0.63636,-0.43014,0.25015,0.99555,0.00421,-0.00095,-0.09412,0.27440,-0.03191,0.03240,
1629344775085111552,0.65189,-0.42967,0.25179,0.99437,0.00750,0.00752,-0.10542,0.25181,0.00587,0.03979,
1629344775151785216,0.66942,-0.43091,0.25261,0.99493,0.00381,0.00738,-0.10028,0.24083,-0.02939,-0.02665,
1629344775218457856,0.68277,-0.43535,0.25119,0.99464,0.00526,0.00706,-0.10299,0.21244,-0.14315,-0.03060,
1629344775285131776,0.69657,-0.44517,0.24743,0.99437,0.01385,0.01466,-0.10399,0.21397,-0.18867,-0.09053,
1629344775351804416,0.71163,-0.46054,0.24062,0.99407,0.02598,0.02244,-0.10323,0.23688,-0.28004,-0.12827,
1629344775418478336,0.72832,-0.47559,0.24327,0.99454,0.02996,0.03095,-0.09503,0.23954,-0.19839,0.10075,
1629344775485150720,0.74093,-0.48794,0.25134,0.99501,0.02752,0.01490,-0.09470,0.19955,-0.19641,0.08563,
1629344775551824896,0.75365,-0.49943,0.25093,0.99511,0.02943,0.00534,-0.09418,0.20418,-0.14678,-0.01820,
1629344775618497792,0.76553,-0.50648,0.24852,0.99556,0.01392,0.00537,-0.09297,0.17978,-0.07243,-0.06064,
1629344775685171712,0.77675,-0.50856,0.24580,0.99555,-0.00312,0.00959,-0.09370,0.17118,-0.02283,-0.04051,
1629344775751844352,0.78679,-0.51126,0.24636,0.99546,0.00300,0.00414,-0.09509,0.14908,-0.11092,0.03619,
1629344775818518528,0.79651,-0.51202,0.25195,0.99477,0.00553,0.00670,-0.10179,0.15552,0.04441,0.02106,
1629344775885192704,0.80597,-0.51375,0.25054,0.99513,0.00336,0.00581,-0.09830,0.13645,-0.04347,-0.02835,
1629344775951865600,0.81319,-0.52054,0.24867,0.99475,0.00791,0.00864,-0.10167,0.11975,-0.09823,-0.03780,
1629344776018540032,0.82070,-0.52850,0.24623,0.99464,0.01481,0.01243,-0.10159,0.11342,-0.13576,-0.04719,
1629344776085212928,0.82984,-0.54034,0.24235,0.99445,0.02065,0.01724,-0.10175,0.15712,-0.16802,-0.05079,
1629344776151886848,0.83918,-0.55046,0.24889,0.99505,0.01775,0.02137,-0.09542,0.13039,-0.14787,0.16490,
1629344776218560256,0.84597,-0.55861,0.25492,0.99502,0.01988,0.00850,-0.09727,0.12445,-0.12382,0.05563,
1629344776285234688,0.85395,-0.56269,0.25516,0.99513,0.02336,0.00345,-0.09572,0.14074,-0.05597,0.01369,
1629344776351907840,0.86477,-0.56474,0.25342,0.99536,0.00708,0.00858,-0.09552,0.14224,0.00757,-0.03932,
1629344776418582272,0.87649,-0.56238,0.25016,0.99536,-0.00497,0.01337,-0.09515,0.17062,0.06579,-0.02472,
1629344776485255680,0.88765,-0.56123,0.25188,0.99507,0.00028,0.01318,-0.09835,0.16020,-0.05287,0.07533,
1629344776551929856,0.89767,-0.55990,0.25541,0.99504,0.00227,0.01039,-0.09891,0.17112,0.05066,-0.01306,
1629344776618603520,0.90868,-0.55995,0.25546,0.99502,-0.00126,0.00837,-0.09928,0.14843,-0.04283,0.02580,
1629344776685277952,0.91655,-0.56195,0.25504,0.99485,-0.00063,0.00925,-0.10092,0.13789,-0.06625,-0.04606,
1629344776751949568,0.92656,-0.56907,0.25289,0.99482,0.00542,0.01412,-0.10049,0.12903,-0.14031,-0.03862,
1629344776818622208,0.93489,-0.57624,0.24879,0.99474,0.01270,0.01714,-0.10018,0.13372,-0.12736,0.06481,
1629344776885293824,0.94601,-0.58435,0.25761,0.99538,0.01466,0.01932,-0.09287,0.13530,-0.13599,0.10171,
1629344776951965952,0.95204,-0.59251,0.26233,0.99517,0.01903,0.00540,-0.09611,0.13578,-0.10965,-0.00602,
1629344777018637568,0.96285,-0.59247,0.26085,0.99527,0.01672,0.00620,-0.09546,0.15991,-0.00231,-0.01563,
1629344777085310208,0.97378,-0.59048,0.25970,0.99538,-0.00124,0.01289,-0.09515,0.17680,0.05662,-0.08139,
1629344777151983104,0.98735,-0.58555,0.25677,0.99548,-0.00529,0.01571,-0.09356,0.21317,0.11213,-0.02578,
1629344777218654720,1.00124,-0.58069,0.25956,0.99514,0.00292,0.01911,-0.09651,0.20637,0.06321,0.07900,
1629344777285326848,1.01439,-0.57581,0.26145,0.99534,-0.00423,0.01300,-0.09542,0.18941,0.03590,0.01618,
1629344777351998464,1.02488,-0.57675,0.25963,0.99498,-0.00691,0.00975,-0.09938,0.17823,-0.03723,0.00332,
1629344777418671104,1.03664,-0.58122,0.25750,0.99463,0.00399,0.01137,-0.10279,0.15199,-0.10992,-0.03982,
1629344777485342720,1.04745,-0.59027,0.25453,0.99427,0.01233,0.01295,-0.10539,0.16278,-0.16124,-0.02639,
1629344777552015360,1.05961,-0.59884,0.25258,0.99423,0.01562,0.02020,-0.10421,0.20315,-0.06294,0.07361,
1629344777618686720,1.07457,-0.60710,0.25613,0.99478,0.01479,0.01564,-0.09978,0.17607,-0.12295,0.02856,
1629344777685359360,1.08625,-0.61319,0.25634,0.99458,0.01862,0.00694,-0.10201,0.20551,-0.06207,0.00777,
1629344777752030976,1.10196,-0.61216,0.25279,0.99463,0.01154,0.01346,-0.10195,0.23171,0.04492,-0.07129,
1629344777818703872,1.12060,-0.60710,0.24668,0.99461,0.00005,0.02020,-0.10170,0.26850,0.12264,-0.08228,
1629344777885375488,1.14175,-0.59964,0.24001,0.99436,0.00064,0.02381,-0.10334,0.31449,0.10758,0.01794,
1629344777952048128,1.16271,-0.59183,0.24579,0.99327,-0.00318,0.02919,-0.11201,0.30157,0.16191,0.09490,
1629344778018719744,1.17898,-0.58087,0.25202,0.99380,-0.01947,0.01680,-0.10815,0.26452,0.12802,0.04319,
1629344778085392128,1.19580,-0.57634,0.25355,0.99392,-0.01737,0.01133,-0.10817,0.22157,0.04586,0.02340,
1629344778152063744,1.20874,-0.57511,0.25303,0.99419,0.00637,0.01449,-0.10643,0.18928,0.00349,-0.03034,
1629344778218736896,1.22138,-0.57641,0.25141,0.99411,0.01376,0.01608,-0.10627,0.17632,-0.05123,0.00953,
1629344778285408512,1.23220,-0.57782,0.25564,0.99487,0.00894,0.01920,-0.09890,0.19375,0.04837,0.10223,
1629344778352081152,1.24260,-0.57918,0.25719,0.99489,0.00715,0.01310,-0.09981,0.18119,-0.03141,-0.01956,
1629344778418752768,1.25560,-0.57964,0.25521,0.99469,0.00711,0.01214,-0.10197,0.23154,0.06730,-0.05029,
1629344778485425152,1.27014,-0.57390,0.25083,0.99490,-0.00508,0.02112,-0.09849,0.26358,0.15341,-0.09524,
1629344778552098048,1.29034,-0.56445,0.24482,0.99480,-0.01298,0.02778,-0.09717,0.33205,0.16885,-0.10780,
1629344778618769920,1.31490,-0.55458,0.23896,0.99415,-0.00041,0.03597,-0.10185,0.33250,0.07229,0.04181,
1629344778685442560,1.33853,-0.54327,0.24970,0.99389,-0.01131,0.02674,-0.10652,0.31640,0.19688,0.14442,
1629344778752114176,1.35709,-0.53341,0.25447,0.99391,-0.02484,0.01267,-0.10658,0.27750,0.09388,0.02790,
1629344778818786304,1.37279,-0.53075,0.25433,0.99381,-0.00769,0.00803,-0.11058,0.21986,0.01394,-0.02436,
1629344778885457664,1.38591,-0.53214,0.25244,0.99363,0.02214,0.01161,-0.10986,0.19523,-0.03552,-0.03144,
1629344778952130304,1.39796,-0.53483,0.25149,0.99359,0.01690,0.01332,-0.11094,0.21725,-0.03904,0.03042,
1629344779018801664,1.40901,-0.53939,0.25884,0.99474,0.00982,0.01681,-0.10052,0.16427,-0.09599,0.10222,
1629344779085474304,1.41897,-0.54454,0.26141,0.99457,0.01072,0.00735,-0.10326,0.16875,-0.08088,0.00428,
1629344779152145920,1.43031,-0.54627,0.26146,0.99471,0.00949,0.00758,-0.10202,0.20002,0.00309,-0.03424,
1629344779218818304,1.44444,-0.54317,0.25892,0.99476,0.00015,0.01461,-0.10118,0.21354,0.07394,-0.05015,
1629344779285489920,1.46026,-0.53655,0.25447,0.99482,-0.00172,0.01539,-0.10043,0.26154,0.09791,-0.05799,
1629344779352162048,1.47629,-0.53170,0.25494,0.99373,0.00279,0.02421,-0.10916,0.23311,0.02204,0.12106,
1629344779418833408,1.49218,-0.52798,0.26089,0.99401,-0.00444,0.01461,-0.10822,0.24644,0.08150,0.03874,
1629344779485506048,1.50793,-0.52635,0.26076,0.99410,-0.00892,0.00990,-0.10769,0.22260,-0.03300,0.00955,
1629344779552177408,1.52116,-0.53056,0.25979,0.99385,-0.00286,0.01207,-0.11007,0.19955,-0.10864,-0.04444,
1629344779618849792,1.53471,-0.53997,0.25659,0.99367,0.00875,0.01848,-0.11045,0.19844,-0.18925,-0.08159,
1629344779685521664,1.54877,-0.55236,0.25230,0.99370,0.01878,0.02432,-0.10779,0.22320,-0.13063,0.01985,
1629344779752194048,1.56051,-0.56381,0.25647,0.99450,0.02219,0.01987,-0.10038,0.16020,-0.19887,0.10354,
1629344779818866432,1.57050,-0.57565,0.25948,0.99429,0.02981,0.00531,-0.10231,0.17498,-0.13689,0.03372,
1629344779885538048,1.58364,-0.57918,0.26134,0.99467,0.02035,0.00706,-0.10082,0.19020,-0.03515,-0.02225,
1629344779952210432,1.59718,-0.57915,0.25829,0.99469,-0.00476,0.01744,-0.10136,0.20064,0.02902,-0.04740,
1629344780018882048,1.61290,-0.57680,0.25506,0.99479,-0.00389,0.01638,-0.10050,0.22342,0.01238,0.07516,
1629344780085554432,1.62716,-0.57612,0.26147,0.99378,0.00167,0.01760,-0.10993,0.21662,0.06071,0.12003,
1629344780152226048,1.64234,-0.57124,0.26606,0.99428,-0.00199,0.01095,-0.10619,0.21020,0.04471,0.04807,
1629344780218898688,1.65500,-0.57238,0.26706,0.99413,-0.00350,0.00793,-0.10786,0.19015,-0.03607,0.02446,
1629344780285570048,1.66685,-0.57624,0.26587,0.99405,0.00161,0.01227,-0.10824,0.16708,-0.09602,-0.02092,
1629344780352242688,1.67848,-0.58566,0.26217,0.99388,0.00987,0.01657,-0.10879,0.17148,-0.17173,-0.06373,
1629344780418914048,1.69033,-0.59569,0.26146,0.99422,0.01843,0.02218,-0.10341,0.18841,-0.07157,0.08045,
1629344780485586688,1.70177,-0.60579,0.26811,0.99450,0.02188,0.01305,-0.10162,0.16247,-0.16866,0.07266,
1629344780552258304,1.71121,-0.61485,0.26737,0.99427,0.02606,0.00349,-0.10366,0.20223,-0.09027,-0.03948,
1629344780618930688,1.72598,-0.61673,0.26552,0.99469,0.01431,0.00713,-0.10170,0.20915,0.00925,-0.06795,
1629344780685602304,1.74088,-0.61353,0.26070,0.99474,-0.00393,0.01444,-0.10136,0.23672,0.07346,-0.08474,
1629344780752274688,1.75808,-0.60888,0.25736,0.99483,-0.00063,0.01408,-0.10054,0.26581,0.02534,0.02222,
1629344780818946304,1.77628,-0.60578,0.26393,0.99404,-0.00064,0.01811,-0.10746,0.25557,0.08888,0.04444,
1629344780885618944,1.79173,-0.60221,0.26658,0.99442,-0.00494,0.01151,-0.10472,0.24058,-0.00850,-0.01124,
1629344780952290304,1.80373,-0.60507,0.26564,0.99398,-0.00618,0.00982,-0.10891,0.21479,-0.07937,-0.05092,
1629344781018962944,1.81622,-0.61400,0.26189,0.99379,0.00573,0.01496,-0.11008,0.19041,-0.17674,-0.08014,
1629344781085634304,1.83097,-0.62740,0.25687,0.99341,0.01625,0.02048,-0.11156,0.22230,-0.20776,-0.08077,
1629344781152306688,1.84522,-0.63869,0.25816,0.99440,0.01968,0.02504,-0.10074,0.19423,-0.14658,0.18356,
1629344781218979584,1.85785,-0.64978,0.26456,0.99460,0.02259,0.01144,-0.10069,0.18072,-0.15558,0.09500,
1629344781285650944,1.87069,-0.65802,0.26592,0.99460,0.02697,0.00403,-0.10012,0.21227,-0.08510,0.01957,
1629344781352323584,1.88675,-0.65943,0.26302,0.99481,0.00890,0.01092,-0.10074,0.22625,0.02552,-0.04542,
1629344781418994944,1.90335,-0.65529,0.25706,0.99469,-0.00724,0.01909,-0.10089,0.26542,0.08466,-0.06261,
1629344781485667584,1.92179,-0.65185,0.25425,0.99391,-0.00287,0.02235,-0.10782,0.26378,-0.01307,0.02392,
1629344781552339200,1.94048,-0.64696,0.25615,0.99377,-0.00645,0.01954,-0.10953,0.26234,0.10003,-0.00051,
1629344781619011328,1.95513,-0.64402,0.25542,0.99384,-0.01495,0.01168,-0.10917,0.21851,-0.01688,-0.02925,
1629344781685682944,1.96735,-0.64646,0.25394,0.99372,-0.01057,0.01053,-0.11086,0.18095,-0.08731,-0.10306,
1629344781752355584,1.97783,-0.65487,0.24961,0.99361,0.00938,0.01736,-0.11112,0.15440,-0.17622,-0.10860,
1629344781819027200,1.98815,-0.66581,0.24482,0.99346,0.01785,0.02035,-0.11094,0.16077,-0.16244,0.01648,
1629344781885699584,1.99781,-0.67646,0.25121,0.99439,0.01858,0.02517,-0.10106,0.12197,-0.18704,0.13459,
1629344781952371200,2.00499,-0.68842,0.25932,0.99455,0.02339,0.00716,-0.10139,0.11415,-0.14683,0.07583,
1629344782019043584,2.01274,-0.69575,0.26200,0.99471,0.02540,0.00242,-0.09953,0.09834,-0.08062,0.05289,
1629344782085714944,2.01926,-0.69772,0.26090,0.99502,0.00081,0.00730,-0.09937,0.08486,0.00714,-0.02491,
1629344782152387584,2.02492,-0.69681,0.25948,0.99505,-0.00798,0.00938,-0.09858,0.08184,0.02467,0.03024,
1629344782219058944,2.02702,-0.69833,0.26376,0.99431,-0.00011,0.00802,-0.10622,0.05247,-0.03466,0.10228,
1629344782285731840,2.03141,-0.69663,0.26366,0.99460,0.00179,0.00217,-0.10377,0.06685,0.05701,-0.06379,
1629344782352403200,2.03679,-0.69885,0.25975,0.99454,0.00256,0.00461,-0.10424,0.03066,-0.04218,-0.00524,
1629344782419075840,2.03925,-0.70325,0.25799,0.99439,0.00743,0.00724,-0.10524,0.01252,-0.06448,-0.04898,
1629344782485747968,2.04045,-0.70978,0.25545,0.99440,0.01263,0.00968,-0.10448,0.02150,-0.10419,-0.05493,
1629344782552419584,2.04354,-0.71719,0.25358,0.99444,0.01693,0.01634,-0.10266,0.05958,-0.05721,0.02708,
1629344782619091968,2.04684,-0.72184,0.26029,0.99495,0.01386,0.01076,-0.09879,0.03245,-0.09962,0.07988,
1629344782685763584,2.04938,-0.72878,0.26007,0.99478,0.01950,0.00143,-0.10012,0.04192,-0.06359,-0.06200,
1629344782752435968,2.05109,-0.72947,0.25793,0.99520,0.01218,0.00327,-0.09701,0.02530,0.02310,-0.06335,
1629344782819107840,2.05343,-0.72822,0.25703,0.99538,-0.00416,0.00747,-0.09558,0.02252,0.03011,-0.05933,
1629344782885780224,2.05392,-0.72672,0.25860,0.99562,-0.00128,0.00475,-0.09334,0.01323,0.04100,-0.02094,
1629344782952451584,2.05459,-0.72603,0.26327,0.99568,0.00285,0.00487,-0.09264,0.01966,0.02407,0.00513,
1629344783019123968,2.05576,-0.72417,0.26119,0.99581,-0.00430,0.00238,-0.09131,0.02872,-0.01286,-0.08901,
1629344783085795584,2.05730,-0.72692,0.25870,0.99536,-0.00337,0.00445,-0.09602,0.01776,-0.02996,-0.00254,
1629344783152467968,2.05823,-0.72810,0.25830,0.99541,-0.00309,0.00435,-0.09556,0.01856,-0.02270,-0.04093,
1629344783219139584,2.05932,-0.73094,0.25776,0.99540,-0.00198,0.00451,-0.09572,0.01760,-0.05037,-0.02920,
1629344783285811968,2.06080,-0.73378,0.25822,0.99550,0.00142,0.00890,-0.09438,0.03108,0.00100,0.06624,
1629344783352483584,2.06330,-0.73374,0.26372,0.99594,-0.00163,0.00366,-0.08995,0.04254,-0.00657,0.01270,
1629344783419155968,2.06720,-0.73235,0.26239,0.99641,0.00229,0.00161,-0.08458,0.06276,0.06787,-0.01841,
1629344783485827328,2.07187,-0.72488,0.25967,0.99715,-0.00663,0.00700,-0.07480,0.07803,0.14688,-0.09862,
1629344783552499968,2.07803,-0.71177,0.25348,0.99783,-0.02018,0.01567,-0.06062,0.10907,0.21382,-0.08178,
1629344783619171328,2.08649,-0.69784,0.24850,0.99870,-0.01195,0.02087,-0.04497,0.14057,0.19463,-0.00138,
1629344783685843968,2.09618,-0.68475,0.25135,0.99921,-0.00776,0.02251,-0.03193,0.13439,0.22846,0.08748,
1629344783752515584,2.10540,-0.66975,0.25605,0.99967,-0.01881,0.01148,-0.01326,0.11922,0.19914,0.08054,
1629344783819188224,2.11363,-0.65921,0.25866,0.99980,-0.01765,0.00904,0.00251,0.10760,0.13118,0.01467,
1629344783885860864,2.12364,-0.65272,0.25631,0.99968,-0.00192,0.01475,0.02056,0.09114,0.09277,-0.01809,
1629344783952532736,2.13164,-0.64868,0.25490,0.99919,-0.00107,0.01429,0.03764,0.09647,0.04812,0.01472,
1629344784019205376,2.13784,-0.64447,0.25753,0.99819,-0.00573,0.01602,0.05773,0.08256,0.09949,0.10556,
1629344784085876992,2.14333,-0.63879,0.26070,0.99697,-0.00443,0.00546,0.07750,0.06966,0.07875,-0.00807,
1629344784152549632,2.14876,-0.63009,0.25798,0.99465,-0.00039,0.00280,0.10331,0.06542,0.19342,-0.02363,
1629344784219220992,2.15419,-0.61463,0.25232,0.99178,-0.01331,0.00466,0.12715,0.06972,0.22010,-0.12265,
1629344784285894144,2.15985,-0.59718,0.24583,0.98857,-0.02144,0.00812,0.14899,0.08687,0.28054,-0.08745,
1629344784352565760,2.16710,-0.58169,0.24057,0.98531,-0.00864,0.01419,0.16994,0.11839,0.24498,-0.01168,
1629344784419238400,2.17845,-0.56682,0.24153,0.98314,-0.01479,0.02096,0.18102,0.11361,0.25906,0.02486,
1629344784485910272,2.18442,-0.55226,0.24109,0.97908,-0.01769,0.01579,0.20210,0.12491,0.21940,-0.06969,
1629344784552582656,2.19413,-0.54228,0.23833,0.97536,-0.01833,0.02170,0.21878,0.16967,0.12348,-0.08432,
1629344784619254272,2.20876,-0.53939,0.23304,0.97145,-0.00021,0.03550,0.23457,0.21677,0.03467,-0.09216,
1629344784685927168,2.22459,-0.53817,0.22825,0.96660,0.00540,0.04166,0.25283,0.24854,0.03169,-0.06635,
1629344784752598528,2.23815,-0.53386,0.23163,0.95764,0.00335,0.04455,0.28447,0.19294,0.04795,0.11285,
1629344784819271168,2.24864,-0.53348,0.23532,0.95142,0.01556,0.02419,0.30654,0.16732,0.03239,-0.06452,
1629344784885942784,2.25030,-0.52885,0.23119,0.94055,0.01463,0.01723,0.33890,0.04664,0.11843,-0.13486,
1629344784952614912,2.24754,-0.52138,0.22585,0.93023,-0.00590,0.00745,0.36685,-0.01611,0.10876,-0.14827,
1629344785019286272,2.24265,-0.51533,0.22274,0.91956,-0.00610,0.00057,0.39290,-0.05912,0.11026,-0.06912,
1629344785085958912,2.24124,-0.51288,0.22256,0.91061,0.01205,0.00246,0.41308,0.03177,0.01499,0.03769,
1629344785152631296,2.23922,-0.50481,0.22210,0.90229,0.00846,0.00588,0.43101,-0.07979,0.15155,-0.07974,
1629344785219302656,2.23347,-0.49666,0.21778,0.88950,-0.00143,0.00816,0.45686,-0.05620,0.11283,-0.08181,
1629344785285975552,2.23122,-0.49137,0.21477,0.87788,-0.00665,0.01264,0.47866,0.01296,0.04812,-0.02398,
1629344785352646912,2.23039,-0.48357,0.21378,0.86696,-0.00112,0.02169,0.49791,0.03027,0.05946,-0.05685,
1629344785419319040,2.23389,-0.48011,0.21148,0.85355,-0.00298,0.02410,0.52045,0.05385,0.05341,-0.01255,
1629344785485990656,2.23302,-0.47722,0.22049,0.83658,-0.00148,0.02338,0.54735,0.01309,0.04635,0.17564,
1629344785552663040,2.22834,-0.47333,0.22529,0.82396,0.00544,0.00952,0.56654,-0.03006,0.06366,-0.01018,
1629344785619334400,2.21724,-0.47037,0.22194,0.80370,0.00221,0.00593,0.59501,-0.15548,0.07452,-0.04158,
1629344785686007040,2.20650,-0.46453,0.21802,0.78493,-0.00562,0.00008,0.61956,-0.18930,0.05937,-0.06159,
1629344785752678400,2.19521,-0.46021,0.21429,0.76585,-0.00700,-0.00176,0.64298,-0.20220,0.06484,-0.03500,
1629344785819350784,2.19254,-0.45889,0.21369,0.75229,0.00213,0.00645,0.65879,-0.00608,0.02222,0.09356,
1629344785886022400,2.18199,-0.45398,0.21624,0.74016,-0.00420,0.00759,0.67237,-0.24610,0.07940,-0.03533,
1629344785952694784,2.17216,-0.44678,0.21367,0.71807,-0.00868,0.01053,0.69584,-0.14911,0.07243,-0.05393,
1629344786019366144,2.16687,-0.44181,0.21257,0.70043,-0.01086,0.01483,0.71349,-0.06465,0.06029,0.00602,
1629344786086038784,2.16252,-0.43579,0.21258,0.68198,-0.01095,0.02148,0.73098,-0.03895,0.07292,-0.02164,
1629344786152710144,2.15992,-0.43074,0.21270,0.66137,-0.01226,0.02022,0.74969,-0.02534,0.07766,0.03956,
1629344786219382528,2.15917,-0.42589,0.22171,0.63670,-0.00881,0.02029,0.77080,-0.00877,0.06371,0.13464,
1629344786286053888,2.15832,-0.42213,0.22638,0.61773,0.00146,0.01321,0.78628,-0.07148,0.05192,0.00377,
1629344786352726528,2.14479,-0.42272,0.22318,0.58922,-0.00282,0.00833,0.80792,-0.15914,0.01033,-0.01537,
1629344786419397888,2.13386,-0.42478,0.21907,0.56434,-0.00712,0.00210,0.82551,-0.17926,-0.01603,-0.03034,
1629344786486070272,2.12366,-0.42523,0.21562,0.54052,-0.00320,0.00407,0.84131,-0.17953,-0.00549,-0.05573,
1629344786552742912,2.11544,-0.42487,0.21648,0.52728,-0.00204,0.01147,0.84961,-0.04044,0.04572,0.10570,
1629344786619414272,2.10631,-0.42509,0.22377,0.50594,-0.00720,0.01322,0.86244,-0.24069,-0.03524,0.03379,
1629344786686086656,2.09619,-0.42105,0.22293,0.47733,-0.01406,0.01359,0.87850,-0.13642,0.01636,0.06981,
1629344786752758272,2.09015,-0.41539,0.22305,0.45323,-0.01607,0.01607,0.89111,-0.06976,0.08329,0.02405,
1629344786819430656,2.08341,-0.40963,0.22018,0.42811,-0.02026,0.02252,0.90322,-0.04499,0.11681,-0.00335,
1629344786886102016,2.08084,-0.40129,0.21865,0.39960,-0.01822,0.02388,0.91620,-0.01868,0.10900,0.16378,
1629344786952774656,2.08175,-0.39002,0.23160,0.36971,-0.00717,0.03241,0.92856,0.02671,0.11803,0.18071,
1629344787019446016,2.08787,-0.38573,0.23707,0.34427,0.00879,0.02626,0.93846,-0.05460,-0.00531,-0.04754,
1629344787086118400,2.07942,-0.39359,0.23459,0.30561,0.00472,0.01070,0.95208,-0.04932,-0.10102,-0.02320,
1629344787152790016,2.07625,-0.40126,0.23158,0.27678,0.00497,-0.00170,0.96092,-0.01860,-0.12772,-0.01072,
1629344787219462400,2.07717,-0.41008,0.23266,0.24725,0.01863,0.00527,0.96876,0.02908,-0.13553,0.02899,
1629344787286133760,2.08082,-0.41411,0.23464,0.23658,0.01825,0.01481,0.97133,0.03529,-0.07133,0.10238,
1629344787352806144,2.07538,-0.42466,0.23414,0.20673,0.01052,0.01519,0.97822,-0.07393,-0.17123,-0.06215,
1629344787419477760,2.07042,-0.43110,0.22884,0.17516,-0.00029,0.01098,0.98448,-0.03687,-0.08699,-0.04235,
1629344787486150144,2.06798,-0.43234,0.22615,0.14747,-0.00620,0.01440,0.98894,-0.01615,0.02231,-0.02516,
1629344787552821760,2.06206,-0.43172,0.22325,0.12135,-0.01060,0.01816,0.99239,-0.02889,0.06488,-0.03290,
1629344787619494144,2.06148,-0.42690,0.22224,0.08996,-0.01083,0.02076,0.99567,-0.03133,0.05348,0.07365,
1629344787686165504,2.05786,-0.41893,0.23003,0.05934,-0.00534,0.02643,0.99787,-0.00688,0.09761,0.07144,
1629344787752837888,2.05962,-0.41783,0.23195,0.03166,0.00508,0.02313,0.99922,-0.00362,-0.04619,-0.05227,
1629344787819510272,2.05999,-0.42874,0.23113,-0.00648,0.00732,0.01232,0.99988,0.04115,-0.08592,-0.03094,
1629344787886181888,2.06491,-0.43052,0.23056,-0.01883,0.00964,0.00687,0.99975,0.07495,0.05475,0.04289,
1629344787952854272,2.07077,-0.42548,0.23307,-0.02237,0.01541,0.01316,0.99954,0.11050,0.04571,0.03391,
1629344788019525632,2.07612,-0.42348,0.23499,-0.01522,0.01385,0.01885,0.99961,0.08658,0.10230,0.06861,
1629344788086198016,2.08265,-0.42681,0.23539,-0.02272,0.00734,0.01556,0.99959,0.04403,-0.04923,-0.08002,
1629344788152869376,2.08207,-0.42338,0.23303,-0.03111,0.00135,0.01357,0.99942,-0.00458,0.05653,-0.00864,
1629344788219542016,2.07863,-0.41641,0.23071,-0.03647,-0.00555,0.02080,0.99910,-0.06369,0.10200,-0.07584,
1629344788286213376,2.07088,-0.40737,0.22638,-0.03991,-0.01398,0.02730,0.99873,-0.12973,0.15157,-0.06646,
1629344788352885760,2.06228,-0.39993,0.22288,-0.04535,-0.01809,0.02178,0.99857,-0.14230,0.10859,0.08723,
1629344788419557120,2.05106,-0.39139,0.23196,-0.05728,-0.01829,0.02040,0.99798,-0.13465,0.13332,0.12798,
1629344788486229760,2.04314,-0.38424,0.23700,-0.05967,-0.00984,0.02005,0.99797,-0.11856,0.07641,0.00261,
1629344788552901120,2.03782,-0.38289,0.23859,-0.06834,-0.00634,0.01240,0.99756,-0.07034,0.01947,0.01677,
1629344788619573504,2.03311,-0.38307,0.23886,-0.07303,-0.00554,0.00072,0.99731,-0.04686,0.01211,0.01686,
1629344788686244864,2.03031,-0.38259,0.24043,-0.07792,-0.00261,0.00464,0.99695,-0.02392,0.00501,0.04200,
1629344788752917504,2.02829,-0.38040,0.24245,-0.07534,-0.00218,0.01094,0.99710,-0.04067,0.08100,0.05015,
1629344788819588864,2.02492,-0.37969,0.24080,-0.08097,-0.00608,0.01140,0.99663,-0.05978,-0.04205,-0.08598,
1629344788886261248,2.01732,-0.37668,0.23765,-0.08393,-0.01388,0.00928,0.99633,-0.11230,0.09911,-0.04045,
1629344788952932864,2.01000,-0.36924,0.23359,-0.08403,-0.02211,0.01922,0.99603,-0.14366,0.13675,-0.07459,
1629344789019605248,1.99794,-0.35802,0.22678,-0.08503,-0.03235,0.02748,0.99547,-0.19967,0.17700,-0.08450,
1629344789086276864,1.98293,-0.34655,0.22154,-0.08648,-0.03736,0.01542,0.99543,-0.22494,0.14471,0.09431,
1629344789152949248,1.96741,-0.33564,0.22855,-0.09720,-0.03652,0.01576,0.99447,-0.22543,0.16669,0.13170,
1629344789219621888,1.95825,-0.32515,0.23676,-0.09693,-0.01753,0.02657,0.99478,-0.19979,0.13100,0.05771,
1629344789286293248,1.94405,-0.32269,0.23614,-0.10262,-0.01389,0.02469,0.99432,-0.17115,0.02790,0.01364,
1629344789352965632,1.93387,-0.32470,0.23246,-0.10442,-0.01585,-0.00520,0.99439,-0.14274,-0.03026,-0.06176,
1629344789419637248,1.92517,-0.32868,0.22891,-0.10649,-0.01692,-0.01706,0.99402,-0.13435,-0.08382,0.01101,
1629344789486309632,1.91688,-0.33202,0.23200,-0.10332,-0.01843,-0.00446,0.99447,-0.16999,-0.00918,0.07561,
1629344789552981248,1.90623,-0.33651,0.23375,-0.10645,-0.01845,-0.00129,0.99415,-0.13752,-0.09126,-0.02989,
1629344789619653376,1.89283,-0.33742,0.23295,-0.10750,-0.01868,-0.00013,0.99403,-0.18078,0.02700,0.00645,
1629344789686324736,1.88072,-0.33274,0.22952,-0.10553,-0.02486,0.00676,0.99408,-0.20240,0.09212,-0.06988,
1629344789752997632,1.86463,-0.32494,0.22336,-0.10566,-0.03301,0.01848,0.99368,-0.26169,0.15281,-0.10330,
1629344789819669248,1.84531,-0.31673,0.21491,-0.10786,-0.03911,0.01883,0.99322,-0.28344,0.09468,0.02881,
1629344789886341888,1.82536,-0.31194,0.22257,-0.11734,-0.04248,0.01490,0.99207,-0.25595,0.04937,0.13235,
1629344789953013504,1.81097,-0.30587,0.22924,-0.11733,-0.02693,0.02134,0.99250,-0.23793,0.00704,0.04307,
1629344790019685632,1.79568,-0.31068,0.22870,-0.12037,-0.02642,0.01838,0.99221,-0.21490,-0.09185,-0.01201,
1629344790086357248,1.78425,-0.31849,0.22358,-0.12049,-0.02986,-0.00765,0.99224,-0.18505,-0.17490,-0.10463,
1629344790153029888,1.77074,-0.33148,0.21656,-0.12274,-0.03339,-0.01791,0.99172,-0.21622,-0.24681,-0.06401,
1629344790219701760,1.75603,-0.34611,0.21558,-0.11472,-0.04084,-0.01024,0.99250,-0.24501,-0.18609,0.01422,
1629344790286374400,1.74109,-0.36151,0.22216,-0.11486,-0.03280,-0.01631,0.99271,-0.19200,-0.27471,0.05973,
1629344790353046016,1.72796,-0.37378,0.22458,-0.11582,-0.02133,-0.02092,0.99282,-0.21525,-0.14691,0.04208,
1629344790419718144,1.71560,-0.38038,0.22373,-0.11531,-0.02010,-0.01392,0.99303,-0.21041,-0.07680,-0.05296,
1629344790486390784,1.70048,-0.38182,0.22063,-0.11614,-0.02804,-0.00021,0.99284,-0.21979,-0.00602,-0.04523,
1629344790553062400,1.68668,-0.38107,0.21666,-0.11742,-0.03030,0.00112,0.99262,-0.21008,-0.00282,0.08445,
1629344790619735040,1.67208,-0.38078,0.22617,-0.12848,-0.03760,0.00312,0.99099,-0.20039,-0.00223,0.12628,
1629344790686406912,1.66415,-0.37717,0.23305,-0.12601,-0.02349,0.00998,0.99170,-0.19488,-0.00430,0.03166,
1629344790753079296,1.65151,-0.38149,0.23160,-0.12593,-0.02442,0.00734,0.99171,-0.18563,-0.10493,-0.02514,
1629344790819750912,1.64132,-0.39240,0.22621,-0.12769,-0.02931,-0.00470,0.99137,-0.15110,-0.20240,-0.05376,
1629344790886423040,1.63050,-0.40624,0.22133,-0.12842,-0.03089,-0.00955,0.99119,-0.19687,-0.23835,-0.07932,
1629344790953094400,1.61883,-0.42080,0.21947,-0.12391,-0.04006,-0.00389,0.99148,-0.20751,-0.14123,0.10345,
1629344791019767040,1.60479,-0.43812,0.23134,-0.12279,-0.03100,-0.01691,0.99180,-0.16488,-0.26501,0.14580,
1629344791086438400,1.59823,-0.45062,0.23635,-0.12653,-0.01736,-0.02294,0.99155,-0.18285,-0.15783,0.04363,
1629344791153110784,1.58478,-0.45601,0.23663,-0.12353,-0.01913,-0.00852,0.99212,-0.18613,-0.05341,-0.00010,
1629344791219782400,1.57231,-0.45726,0.23221,-0.12408,-0.02769,0.00605,0.99187,-0.19516,0.01118,-0.00778,
1629344791286455040,1.55877,-0.45727,0.23041,-0.12249,-0.02649,0.00141,0.99212,-0.21118,0.01419,0.06221,
1629344791353126400,1.54679,-0.45492,0.23666,-0.13398,-0.03135,0.00185,0.99049,-0.18243,0.03578,0.12002,
1629344791419798784,1.53829,-0.44999,0.24351,-0.13100,-0.01983,0.01182,0.99111,-0.17228,0.04995,0.06756,
1629344791486470144,1.52825,-0.45093,0.24123,-0.13245,-0.01830,0.01368,0.99093,-0.15675,-0.03798,0.02363,
1629344791553142528,1.51936,-0.45797,0.23732,-0.13393,-0.02012,-0.00138,0.99078,-0.12278,-0.10491,-0.03102,
1629344791619813888,1.51026,-0.46757,0.23506,-0.13606,-0.02116,-0.00957,0.99043,-0.13213,-0.15475,0.01360,
1629344791686486528,1.49991,-0.47752,0.23270,-0.13506,-0.02550,-0.00433,0.99050,-0.18877,-0.09149,0.01405,
1629344791753157888,1.48993,-0.48598,0.23709,-0.12925,-0.02648,-0.00510,0.99125,-0.14092,-0.16050,0.07690,
1629344791819830784,1.47902,-0.49516,0.24056,-0.13306,-0.01837,-0.00987,0.99089,-0.18077,-0.07362,0.02881,
1629344791886502912,1.46760,-0.49598,0.23727,-0.13041,-0.01986,-0.00693,0.99124,-0.21118,0.02012,-0.04826,
1629344791953174528,1.45141,-0.49059,0.23112,-0.12797,-0.03022,0.00489,0.99131,-0.25672,0.15825,-0.09484,
1629344792019846912,1.43249,-0.47515,0.21897,-0.11329,-0.04174,0.01214,0.99261,-0.35206,0.29183,-0.18035,
1629344792086518528,1.41008,-0.45962,0.21235,-0.09881,-0.05312,0.00753,0.99366,-0.31708,0.13470,0.02226,
1629344792153191168,1.39035,-0.44546,0.22047,-0.09022,-0.04633,0.01486,0.99473,-0.30351,0.24585,0.19321,
1629344792219862528,1.37374,-0.42662,0.23068,-0.06838,-0.02324,0.02540,0.99707,-0.28974,0.20611,0.08712,
1629344792286535168,1.35563,-0.42571,0.22873,-0.06143,-0.02315,0.00750,0.99781,-0.25911,-0.05921,-0.06782,
1629344792353206528,1.33953,-0.43455,0.22377,-0.06237,-0.02897,-0.02010,0.99743,-0.23977,-0.11779,-0.05771,
1629344792419879168,1.32264,-0.44444,0.22049,-0.06290,-0.02473,-0.01073,0.99766,-0.27210,-0.17585,-0.04105,
1629344792486550528,1.30649,-0.45217,0.22162,-0.05179,-0.03225,-0.00232,0.99813,-0.23394,-0.11663,0.14800,
1629344792553223168,1.29580,-0.46597,0.22869,-0.05509,-0.01779,-0.01537,0.99820,-0.20271,-0.19242,0.05745,
1629344792619894528,1.28197,-0.47380,0.23038,-0.05804,-0.01387,-0.01555,0.99810,-0.21609,-0.04163,0.01663,
1629344792686567168,1.26578,-0.47249,0.22728,-0.05669,-0.02275,0.00032,0.99813,-0.22701,0.03774,-0.05031,
1629344792753238528,1.25003,-0.46767,0.22257,-0.05871,-0.03047,0.00960,0.99776,-0.25977,0.12841,-0.05046,
1629344792819911168,1.23026,-0.45882,0.21752,-0.05913,-0.03631,0.01014,0.99754,-0.30559,0.11207,-0.03695,
1629344792886582784,1.20967,-0.44738,0.22719,-0.06330,-0.03838,0.01094,0.99720,-0.27329,0.20158,0.18555,
1629344792953255168,1.19476,-0.43199,0.23600,-0.05004,-0.02103,0.02319,0.99826,-0.25182,0.18710,0.07768,
1629344793019926784,1.17885,-0.42485,0.23625,-0.03896,-0.01850,0.01565,0.99895,-0.24586,0.08552,-0.01167,
1629344793086599424,1.16418,-0.42499,0.23312,-0.02590,-0.02503,-0.01401,0.99925,-0.22608,-0.00146,-0.06127,
1629344793153271552,1.14855,-0.42744,0.22862,-0.01450,-0.02636,-0.01945,0.99936,-0.24068,-0.07634,-0.00128,
1629344793219943168,1.13017,-0.43153,0.22874,-0.00013,-0.02976,-0.00251,0.99955,-0.25361,-0.04097,0.05815,
1629344793286615552,1.11398,-0.44044,0.23704,0.01128,-0.02126,-0.01263,0.99963,-0.21930,-0.14594,0.09456,
1629344793353287424,1.10083,-0.44741,0.24055,0.01172,-0.01154,-0.01793,0.99970,-0.22253,-0.06267,0.03921,
1629344793419960064,1.08725,-0.44781,0.24005,0.01379,-0.01460,-0.01010,0.99975,-0.21689,0.03388,-0.02799,
1629344793486631424,1.07188,-0.44164,0.23557,0.01132,-0.02390,0.00624,0.99963,-0.23264,0.10666,-0.06467,
1629344793553304064,1.05378,-0.43181,0.22950,0.01155,-0.03365,0.01194,0.99930,-0.28459,0.15838,-0.09379,
1629344793619975424,1.03574,-0.42342,0.23460,0.00102,-0.04289,0.00944,0.99903,-0.25718,0.11269,0.18914,
1629344793686647808,1.01955,-0.41527,0.24346,0.00298,-0.02931,0.01487,0.99946,-0.23792,0.11527,0.12512,
1629344793753319424,1.00418,-0.40996,0.24498,0.00485,-0.01959,0.02044,0.99959,-0.26063,0.03027,-0.01960,
1629344793819991808,0.98631,-0.41432,0.23955,0.00478,-0.02574,-0.00057,0.99966,-0.25649,-0.11498,-0.07158,
1629344793886663680,0.96766,-0.42390,0.23202,0.00523,-0.03199,-0.01758,0.99932,-0.28449,-0.18180,-0.09159,
1629344793953336064,0.94625,-0.43667,0.22340,0.00821,-0.03289,-0.00942,0.99938,-0.34777,-0.17751,-0.04636,
1629344794020007680,0.92478,-0.44811,0.22894,0.01854,-0.03939,-0.01124,0.99899,-0.28684,-0.22567,0.16073,
1629344794086680064,0.90780,-0.46239,0.23895,0.01712,-0.01825,-0.02842,0.99928,-0.25723,-0.17100,0.07995,
1629344794153351424,0.89346,-0.46766,0.24066,0.01975,-0.01369,-0.02037,0.99950,-0.22321,-0.01986,-0.01312,
1629344794220024064,0.87974,-0.46171,0.23711,0.02361,-0.02162,0.01175,0.99942,-0.19427,0.07286,-0.04601,
1629344794286695424,0.86491,-0.45501,0.23382,0.02467,-0.02533,0.01556,0.99925,-0.21545,0.11877,-0.01697,
1629344794353368320,0.85094,-0.44608,0.23221,0.02310,-0.03201,0.00357,0.99921,-0.22137,0.06369,0.06983,
1629344794420039936,0.83678,-0.43611,0.24231,0.01776,-0.02459,0.00695,0.99952,-0.19450,0.17991,0.15326,
1629344794486712320,0.82660,-0.42379,0.24672,0.02375,-0.01020,0.01938,0.99948,-0.19296,0.11616,0.02810,
1629344794553384704,0.81646,-0.42070,0.24525,0.02298,-0.01059,0.01367,0.99959,-0.18081,-0.02217,-0.02615,
1629344794620056064,0.80496,-0.42603,0.24196,0.02208,-0.01787,-0.00984,0.99955,-0.17270,-0.08459,-0.08418,
1629344794686728704,0.79276,-0.43320,0.23713,0.02170,-0.01965,-0.01237,0.99949,-0.19671,-0.13992,-0.03371,
1629344794753400064,0.77864,-0.44180,0.23577,0.02315,-0.02507,-0.00278,0.99941,-0.22267,-0.06615,0.04573,
1629344794820072448,0.76444,-0.44980,0.24225,0.02959,-0.01989,-0.00865,0.99933,-0.19598,-0.14356,0.08400,
1629344794886743808,0.75299,-0.45650,0.24231,0.02598,-0.01356,-0.01517,0.99946,-0.18035,-0.05106,0.00951,
1629344794953416704,0.74540,-0.45603,0.24173,0.02976,-0.01376,-0.01184,0.99939,-0.15366,0.04091,-0.04323,
1629344795020088064,0.73571,-0.44974,0.23880,0.03084,-0.01911,-0.00169,0.99934,-0.13718,0.12177,-0.06211,
1629344795086760192,0.72651,-0.43694,0.23338,0.03703,-0.02515,0.00634,0.99898,-0.16167,0.23197,-0.11165,
1629344795153431552,0.71839,-0.42318,0.23152,0.04167,-0.03323,0.01338,0.99849,-0.14648,0.10088,0.06555,
1629344795220103936,0.70882,-0.40725,0.24199,0.05016,-0.02761,0.01850,0.99819,-0.10917,0.27451,0.17436,
1629344795286775296,0.70329,-0.39012,0.24800,0.06617,-0.01407,0.02363,0.99743,-0.11987,0.20016,0.06012,
1629344795353447680,0.69616,-0.38168,0.25057,0.07836,-0.01670,0.00817,0.99675,-0.10781,0.13946,0.01102,
1629344795420119040,0.68931,-0.37653,0.24981,0.09370,-0.02223,-0.00974,0.99530,-0.09578,0.07058,0.02455,
1629344795486791680,0.68541,-0.37137,0.25103,0.10516,-0.01603,-0.00306,0.99432,-0.09742,0.05791,0.06540,
1629344795553463040,0.67941,-0.37168,0.25019,0.11126,-0.01726,0.00700,0.99362,-0.11099,-0.03527,0.10299,
1629344795620135424,0.67297,-0.37585,0.25354,0.10937,-0.01343,-0.00557,0.99389,-0.11868,-0.04362,0.00537,
1629344795686806784,0.66880,-0.37478,0.25157,0.11194,-0.01218,-0.00682,0.99362,-0.09042,0.10014,0.01846,
1629344795753479168,0.66298,-0.36845,0.24889,0.11556,-0.01697,0.00168,0.99315,-0.08049,0.12867,-0.06496,
1629344795820151552,0.65816,-0.35872,0.24436,0.11612,-0.02160,0.01050,0.99295,-0.07645,0.22341,-0.04460,
1629344795886822912,0.65198,-0.34370,0.23724,0.11784,-0.03110,0.01736,0.99239,-0.13673,0.22474,-0.11063,
1629344795953495552,0.64413,-0.33154,0.24056,0.11111,-0.03418,0.01910,0.99304,-0.10881,0.21006,0.19137,
1629344796020166912,0.63937,-0.31804,0.24981,0.11600,-0.01606,0.02161,0.99288,-0.09391,0.17307,0.08305,
1629344796086839552,0.63133,-0.31167,0.25089,0.11560,-0.00927,0.02593,0.99291,-0.10784,0.10376,0.01997,
1629344796153510912,0.62584,-0.30743,0.24929,0.11515,-0.01274,0.00795,0.99323,-0.08737,0.03071,-0.05278,
1629344796220183296,0.62050,-0.30901,0.24463,0.11590,-0.02065,-0.01480,0.99294,-0.08947,-0.02379,-0.02666,
1629344796286854656,0.61546,-0.30893,0.24457,0.11392,-0.01489,-0.00545,0.99336,-0.10859,-0.02446,0.01034,
1629344796353527040,0.60918,-0.30943,0.24688,0.11830,-0.01796,-0.00088,0.99282,-0.11639,-0.04260,0.03494,
1629344796420198400,0.60245,-0.31211,0.24676,0.11641,-0.01438,-0.00139,0.99310,-0.10536,0.01982,-0.02636,
1629344796486871040,0.59700,-0.30740,0.24512,0.12028,-0.01561,0.00144,0.99262,-0.08692,0.08863,-0.01974,
1629344796553542400,0.59198,-0.30048,0.24213,0.12038,-0.01980,0.00965,0.99248,-0.07335,0.14390,-0.05262,
1629344796620215040,0.58676,-0.28778,0.23758,0.12163,-0.02531,0.01963,0.99206,-0.10529,0.19911,-0.08953,
1629344796686886656,0.57851,-0.27374,0.23018,0.12173,-0.03362,0.02131,0.99177,-0.13242,0.20275,0.00317,
1629344796753558784,0.57057,-0.26157,0.23604,0.11701,-0.03593,0.02213,0.99223,-0.11131,0.20160,0.13353,
1629344796820230144,0.56536,-0.24863,0.24243,0.12000,-0.01795,0.02604,0.99227,-0.11496,0.17213,0.01919,
1629344796886902528,0.55871,-0.24091,0.24520,0.11698,-0.01289,0.02676,0.99269,-0.10390,0.10750,0.02224,
1629344796953573888,0.55340,-0.23678,0.24388,0.11803,-0.01802,0.00205,0.99284,-0.08461,0.04651,-0.04183,
1629344797020246272,0.54752,-0.23524,0.24295,0.11676,-0.02077,-0.00985,0.99289,-0.08454,0.01359,0.03481,
1629344797086917888,0.54295,-0.23280,0.24510,0.11614,-0.01386,0.00303,0.99313,-0.11823,0.06094,-0.02425,
1629344797153590528,0.53580,-0.23216,0.24782,0.12010,-0.01612,0.00352,0.99262,-0.12259,-0.01228,0.01984,
1629344797220262656,0.52785,-0.23261,0.24644,0.11649,-0.01561,0.00311,0.99306,-0.12043,0.05845,-0.00342,
1629344797286934016,0.52013,-0.22414,0.24378,0.11841,-0.02010,0.01102,0.99270,-0.12046,0.14145,-0.06754,
1629344797353606400,0.51218,-0.21235,0.23784,0.11854,-0.02738,0.02351,0.99229,-0.12528,0.21434,-0.07148,
1629344797420277760,0.50253,-0.19461,0.22905,0.11801,-0.03620,0.02813,0.99195,-0.18721,0.28084,-0.14034,
1629344797486950144,0.49145,-0.17886,0.22375,0.11503,-0.04580,0.02378,0.99202,-0.20930,0.22957,0.06127,
1629344797553621760,0.47843,-0.16176,0.23274,0.10830,-0.03843,0.02728,0.99300,-0.17661,0.29172,0.19136,
1629344797620294144,0.46831,-0.14303,0.24498,0.11228,-0.01209,0.03154,0.99310,-0.17565,0.22121,0.12130,
1629344797686965504,0.45738,-0.13134,0.24630,0.11336,-0.00938,0.02296,0.99324,-0.17272,0.13702,-0.01501,
1629344797753638144,0.44795,-0.12614,0.24499,0.11481,-0.01412,-0.00717,0.99326,-0.16016,0.04967,-0.04544,
1629344797820309504,0.43645,-0.12295,0.24342,0.11408,-0.01215,-0.00989,0.99335,-0.16414,0.00995,0.02428,
1629344797886981888,0.42468,-0.12153,0.24293,0.11588,-0.01202,0.00042,0.99319,-0.18367,0.04542,0.02293,
1629344797953653248,0.41312,-0.12326,0.24498,0.11800,-0.01252,-0.00141,0.99293,-0.18516,-0.03626,-0.02424,
1629344798020325632,0.40203,-0.12265,0.24413,0.11784,-0.01028,-0.00090,0.99298,-0.15605,0.08148,0.00842,
1629344798086996992,0.39220,-0.11637,0.24151,0.12135,-0.01357,0.00286,0.99251,-0.15299,0.11591,-0.05755,
1629344798153669632,0.38276,-0.10638,0.23630,0.12083,-0.02025,0.01310,0.99238,-0.14578,0.19761,-0.08340,
1629344798220340992,0.37229,-0.09050,0.22855,0.12089,-0.02800,0.02670,0.99191,-0.18436,0.27173,-0.14219,
1629344798287013632,0.35910,-0.07565,0.22655,0.11559,-0.03677,0.02987,0.99217,-0.20726,0.16966,0.06274,
1629344798353684992,0.34736,-0.06105,0.23607,0.11495,-0.03100,0.02321,0.99262,-0.15985,0.23323,0.15573,
1629344798420357376,0.33791,-0.04797,0.24228,0.11683,-0.01437,0.02347,0.99277,-0.18033,0.17483,0.00433,
1629344798487029760,0.32685,-0.04118,0.24263,0.11630,-0.01249,0.01970,0.99294,-0.17041,0.07856,0.00067,
1629344798553701120,0.31580,-0.04121,0.23879,0.11765,-0.01780,-0.00280,0.99289,-0.18009,-0.01593,-0.07025,
1629344798620373504,0.30266,-0.04496,0.23543,0.11679,-0.02002,-0.00835,0.99292,-0.21143,-0.06177,-0.03383,
1629344798687044864,0.28736,-0.04779,0.23365,0.12013,-0.02538,-0.00316,0.99243,-0.20231,0.01044,0.03224,
1629344798753717504,0.27450,-0.05148,0.23670,0.12482,-0.02189,-0.00484,0.99193,-0.19364,-0.08593,0.02898,
1629344798820389120,0.26318,-0.05618,0.23744,0.12552,-0.01436,-0.01158,0.99192,-0.16396,-0.00270,0.05834,
1629344798887061504,0.25285,-0.05561,0.23848,0.12879,-0.01098,-0.01508,0.99150,-0.14716,0.01795,-0.02310,
1629344798953732864,0.24328,-0.05108,0.23590,0.13004,-0.01465,-0.00305,0.99140,-0.10398,0.11136,-0.02734,
1629344799020405504,0.23636,-0.04286,0.23175,0.13259,-0.01881,0.00745,0.99096,-0.10754,0.15591,-0.04669,
1629344799087076864,0.22775,-0.03341,0.22959,0.13237,-0.02361,0.00955,0.99087,-0.14849,0.10076,-0.01147,
1629344799153749504,0.21906,-0.02614,0.23577,0.12375,-0.02460,0.01039,0.99195,-0.11410,0.14162,0.07829,
1629344799220420864,0.21416,-0.01884,0.23767,0.12776,-0.01279,0.01457,0.99162,-0.13256,0.09689,0.00509,
1629344799287093504,0.20259,-0.01884,0.23663,0.12709,-0.01503,0.01077,0.99172,-0.17841,-0.00776,-0.04202,
1629344799353765120,0.19074,-0.02322,0.23179,0.12607,-0.02268,-0.00008,0.99176,-0.20141,-0.09823,-0.07179,
1629344799420437504,0.17514,-0.03156,0.22575,0.12531,-0.02993,-0.00879,0.99163,-0.26539,-0.13948,-0.10035,
1629344799487108864,0.15313,-0.04141,0.21719,0.12695,-0.03963,-0.00360,0.99111,-0.32559,-0.14641,-0.05560,
1629344799553781504,0.13343,-0.05073,0.21874,0.13748,-0.04479,-0.00856,0.98945,-0.26516,-0.12171,0.17107,
1629344799620452864,0.11582,-0.06230,0.22773,0.13477,-0.02890,-0.02717,0.99008,-0.24063,-0.15783,0.11834,
1629344799687125504,0.10301,-0.06965,0.23188,0.13816,-0.01652,-0.02620,0.98993,-0.18739,-0.06036,0.05435,
1629344799753797376,0.09172,-0.07325,0.23044,0.13868,-0.01533,0.00331,0.99021,-0.14584,-0.04865,-0.01135,
1629344799820470272,0.08280,-0.07607,0.22933,0.13672,-0.01511,0.01553,0.99037,-0.11997,-0.00728,0.03527,
1629344799887143168,0.07544,-0.07812,0.23166,0.14052,-0.00762,-0.00252,0.99005,-0.11966,-0.00624,0.02854,
1629344799953815296,0.06802,-0.07938,0.23183,0.13237,-0.01452,-0.00519,0.99108,-0.10379,-0.04782,0.09875,
1629344800020487936,0.06182,-0.07888,0.23385,0.13322,-0.00980,0.00055,0.99104,-0.09433,0.04936,-0.00714,
1629344800087159808,0.05297,-0.08003,0.23169,0.13392,-0.00670,0.00415,0.99096,-0.16790,-0.08791,-0.03815,
1629344800153832960,0.03993,-0.08891,0.22416,0.13149,-0.02185,-0.01159,0.99101,-0.20770,-0.15139,-0.13689,
1629344800220505088,0.02289,-0.10069,0.21451,0.13112,-0.03634,-0.02593,0.99036,-0.28173,-0.22315,-0.12662,
1629344800287177728,0.00001,-0.11311,0.20470,0.13383,-0.04134,-0.00695,0.99012,-0.38135,-0.20313,-0.17392,
1629344800353849856,-0.02591,-0.12439,0.19839,0.14476,-0.04909,0.00324,0.98824,-0.33658,-0.13653,0.11228,
1629344800420522752,-0.05048,-0.14038,0.21108,0.14964,-0.03395,-0.02662,0.98780,-0.35051,-0.29837,0.22859,
1629344800487194624,-0.06952,-0.15911,0.22352,0.14175,-0.00981,-0.04560,0.98880,-0.28427,-0.18259,0.08443,
1629344800553867520,-0.08644,-0.16366,0.22458,0.14246,-0.00777,-0.00708,0.98974,-0.23488,-0.07488,-0.06056,
1629344800620539648,-0.10357,-0.16566,0.22118,0.13400,-0.01341,0.03302,0.99034,-0.23157,-0.08360,-0.02637,
1629344800687212800,-0.11617,-0.17048,0.22506,0.13475,-0.00862,0.00424,0.99083,-0.21318,-0.00804,0.10669,
1629344800753884160,-0.13024,-0.17283,0.22845,0.13376,-0.01299,-0.02766,0.99054,-0.23507,-0.01961,0.00866,
1629344800820556544,-0.14490,-0.17059,0.23329,0.12912,-0.01056,-0.01144,0.99151,-0.19228,0.08361,0.04231,
1629344800887227904,-0.15312,-0.16439,0.23478,0.13166,-0.00166,0.00900,0.99125,-0.21931,-0.01098,-0.00448,
1629344800953900288,-0.17226,-0.17046,0.22948,0.12989,-0.01298,-0.00438,0.99143,-0.28963,-0.10526,-0.13717,
1629344801020571904,-0.19477,-0.18107,0.21737,0.12829,-0.03355,-0.02661,0.99081,-0.34001,-0.22299,-0.15538,
1629344801087244288,-0.22077,-0.19333,0.20720,0.12972,-0.03712,-0.01593,0.99073,-0.42568,-0.18619,-0.15151,
1629344801153916928,-0.25349,-0.20684,0.19554,0.13510,-0.04531,0.00974,0.98975,-0.47530,-0.20856,-0.07654,
1629344801220588544,-0.28363,-0.21962,0.20627,0.14437,-0.04356,-0.00972,0.98852,-0.39901,-0.18593,0.29985,
1629344801287260672,-0.30179,-0.23435,0.22621,0.14501,-0.01250,-0.01426,0.98925,-0.32503,-0.13159,0.14324,
1629344801353932032,-0.32022,-0.23823,0.23140,0.14666,-0.01441,-0.01790,0.98892,-0.24200,-0.03774,0.06748,
1629344801420604672,-0.33261,-0.23718,0.23401,0.15046,-0.01712,-0.02076,0.98825,-0.14782,0.05280,0.04720,
1629344801487276032,-0.33732,-0.23067,0.23045,0.15152,-0.01949,-0.01798,0.98810,-0.07434,0.07437,0.01124,
1629344801553948416,-0.33713,-0.22597,0.22379,0.14957,-0.02042,-0.01359,0.98845,-0.01616,0.05882,0.00928,
1629344801620620032,-0.33827,-0.22325,0.22154,0.14912,-0.02014,-0.01132,0.98855,0.00791,0.01991,0.01318,
1629344801687292672,-0.33755,-0.22360,0.22196,0.14895,-0.01932,-0.01162,0.98859,0.01378,-0.02268,0.01208,
1629344801753964032,-0.33609,-0.22543,0.22193,0.14938,-0.01816,-0.01308,0.98853,0.01073,-0.01024,0.00888,
1629344801820636160,-0.33573,-0.22607,0.22176,0.14993,-0.01768,-0.01376,0.98844,-0.00143,0.00991,0.00070,
1629344801887307520,-0.33590,-0.22542,0.22140,0.14966,-0.01804,-0.01301,0.98849,-0.00832,0.02697,-0.00558,
1629344801953980160,-0.33629,-0.22454,0.22107,0.14940,-0.01857,-0.01215,0.98853,-0.00600,0.01301,-0.00135,
1629344802020651520,-0.33620,-0.22476,0.22102,0.14941,-0.01851,-0.01231,0.98853,0.00376,-0.00139,0.00334,
1629344802087323904,-0.33573,-0.22541,0.22127,0.14953,-0.01809,-0.01296,0.98851,0.00435,-0.00151,0.00479,
1629344802153995264,-0.33558,-0.22559,0.22127,0.14962,-0.01790,-0.01323,0.98849,-0.00240,0.00981,-0.00007,
1629344802220667904,-0.33574,-0.22521,0.22098,0.14949,-0.01809,-0.01288,0.98851,-0.00335,0.01493,-0.00189,
1629344802287339264,-0.33586,-0.22493,0.22093,0.14942,-0.01830,-0.01259,0.98852,-0.00054,0.00779,0.00126,
1629344802354011648,-0.33577,-0.22506,0.22099,0.14945,-0.01817,-0.01275,0.98852,0.00186,0.00181,0.00316,
1629344802420683008,-0.33564,-0.22538,0.22106,0.14953,-0.01801,-0.01309,0.98851,-0.00006,0.00488,0.00237,
1629344802487355136,-0.33566,-0.22530,0.22092,0.14953,-0.01796,-0.01311,0.98851,-0.00103,0.01011,0.00093,
1629344802554027520,-0.33575,-0.22502,0.22086,0.14946,-0.01809,-0.01290,0.98852,-0.00074,0.01047,0.00130,
1629344802620698880,-0.33573,-0.22498,0.22088,0.14946,-0.01816,-0.01288,0.98852,-0.00094,0.00617,0.00245,
1629344802687371520,-0.33575,-0.22510,0.22078,0.14948,-0.01800,-0.01306,0.98852,0.00199,0.00468,0.00318,
1629344802754042880,-0.33571,-0.22518,0.22091,0.14949,-0.01800,-0.01314,0.98851,-0.00068,0.00701,0.00288,
1629344802820715520,-0.33578,-0.22505,0.22089,0.14947,-0.01802,-0.01307,0.98852,-0.00162,0.00913,0.00221,
1629344802887386880,-0.33581,-0.22487,0.22085,0.14945,-0.01807,-0.01298,0.98852,-0.00083,0.00836,0.00258,
1629344802954059008,-0.33584,-0.22483,0.22094,0.14943,-0.01811,-0.01305,0.98852,-0.00115,0.00565,0.00376,
1629344803020730368,-0.33587,-0.22490,0.22084,0.14946,-0.01799,-0.01314,0.98852,-0.00003,0.00630,0.00329,
1629344803087402752,-0.33581,-0.22495,0.22078,0.14945,-0.01796,-0.01316,0.98852,0.00059,0.00820,0.00310,
1629344803154074112,-0.33577,-0.22492,0.22084,0.14943,-0.01801,-0.01309,0.98852,-0.00067,0.00812,0.00366,
1629344803220746496,-0.33582,-0.22482,0.22080,0.14942,-0.01803,-0.01310,0.98852,-0.00152,0.00699,0.00343,
1629344803287417856,-0.33581,-0.22462,0.22094,0.14938,-0.01802,-0.01317,0.98853,-0.00144,0.00696,0.00423,
1629344803354090240,-0.33570,-0.22458,0.22131,0.14935,-0.01804,-0.01313,0.98853,-0.00185,0.00964,0.00416,
1629344803420761856,-0.33569,-0.22476,0.22099,0.14939,-0.01796,-0.01318,0.98853,-0.00103,0.00862,0.00371,
1629344803487434240,-0.33560,-0.22486,0.22089,0.14942,-0.01795,-0.01317,0.98852,0.00013,0.00836,0.00388,
1629344803554105600,-0.33566,-0.22488,0.22081,0.14942,-0.01789,-0.01321,0.98852,0.00056,0.00589,0.00482,
1629344803620777728,-0.33565,-0.22494,0.22083,0.14943,-0.01790,-0.01324,0.98852,-0.00061,0.00595,0.00403,
1629344803687449344,-0.33563,-0.22487,0.22074,0.14940,-0.01786,-0.01319,0.98853,0.00093,0.00746,0.00349,
1629344803754121472,-0.33564,-0.22485,0.22090,0.14940,-0.01793,-0.01319,0.98853,-0.00177,0.00727,0.00441,
1629344803820793856,-0.33564,-0.22485,0.22079,0.14941,-0.01789,-0.01320,0.98853,-0.00025,0.00699,0.00443,
1629344803887465216,-0.33564,-0.22490,0.22067,0.14942,-0.01783,-0.01326,0.98852,0.00033,0.00608,0.00421,
