1629344764017670400,0.00064,-0.00063,0.00051,0.99996,0.00537,-0.00691,-0.00054,-0.00157,0.00298,-0.00006,
1629344764084339968,0.00215,-0.00003,0.01586,0.99998,0.00377,-0.00466,-0.00060,0.00338,0.00487,0.02808,
1629344764151008512,0.00314,0.00076,0.02011,0.99999,0.00298,-0.00453,-0.00064,0.00664,0.01147,0.03528,
1629344764217678080,0.00377,0.00139,0.02207,0.99999,0.00243,-0.00473,-0.00027,0.01647,0.00151,0.02236,
1629344764284346112,0.00475,0.00085,0.02353,0.99998,0.00396,-0.00387,-0.00055,0.01777,-0.01488,0.03802,
1629344764351015680,0.00575,-0.00042,0.02601,0.99998,0.00591,-0.00369,-0.00111,0.01031,-0.02225,0.05568,
1629344764417683712,0.00694,-0.00184,0.02951,0.99996,0.00706,-0.00440,-0.00216,0.01299,-0.01267,0.06056,
1629344764484353280,0.00809,-0.00240,0.03351,0.99995,0.00745,-0.00549,-0.00254,0.01543,-0.00193,0.06758,
1629344764551021568,0.00927,-0.00251,0.03846,0.99996,0.00591,-0.00644,-0.00284,0.01428,-0.00299,0.06420,
1629344764617690368,0.01009,-0.00277,0.04184,0.99995,0.00677,-0.00720,-0.00296,0.01354,-0.00318,0.04051,
1629344764684358656,0.01012,-0.00286,0.04428,0.99994,0.00723,-0.00779,-0.00278,0.00547,0.01053,0.03750,
1629344764751028480,0.00961,-0.00296,0.04654,0.99992,0.00735,-0.00969,-0.00215,0.00369,0.00662,0.04235,
1629344764817697280,0.00875,-0.00298,0.04974,0.99991,0.00715,-0.01133,-0.00210,-0.00221,0.00413,0.04659,
1629344764884367104,0.00844,-0.00279,0.05297,0.99988,0.00744,-0.01333,-0.00198,0.00300,0.00138,0.04131,
1629344764951035904,0.00864,-0.00238,0.05546,0.99986,0.00806,-0.01468,-0.00200,0.00842,0.00435,0.03231,
1629344765017705728,0.00905,-0.00192,0.05757,0.99985,0.00763,-0.01546,-0.00211,0.01025,0.00765,0.03232,
1629344765084374272,0.00902,-0.00276,0.05936,0.99983,0.00741,-0.01660,-0.00177,0.01421,0.00981,0.03982,
1629344765151043840,0.00946,-0.00297,0.06245,0.99983,0.00778,-0.01653,-0.00150,0.01803,0.00270,0.04957,
1629344765217713664,0.01022,-0.00308,0.06594,0.99983,0.00855,-0.01628,-0.00075,0.02190,0.00430,0.05433,
1629344765284382208,0.01163,-0.00289,0.06929,0.99983,0.00797,-0.01654,-0.00059,0.01938,0.02098,0.05294,
1629344765351051520,0.01258,-0.00159,0.07273,0.99983,0.00620,-0.01737,0.00024,0.01133,0.01853,0.05193,
1629344765417720064,0.01399,0.00022,0.07587,0.99982,0.00555,-0.01837,0.00072,0.00560,0.00411,0.05274,
1629344765484389376,0.01476,0.00051,0.07883,0.99980,0.00635,-0.01888,0.00080,0.01101,-0.00413,0.03513,
1629344765551057920,0.01577,0.00024,0.08066,0.99978,0.00816,-0.01909,0.00045,0.00946,-0.00896,0.02774,
1629344765617726976,0.01626,-0.00057,0.08257,0.99976,0.01023,-0.01924,0.00030,0.00778,-0.00978,0.03674,
1629344765684395520,0.01650,-0.00139,0.08513,0.99973,0.01154,-0.02005,-0.00024,-0.00051,-0.00505,0.04317,
1629344765751065088,0.01622,-0.00216,0.08814,0.99970,0.01216,-0.02135,-0.00053,0.00499,-0.00570,0.04331,
1629344765817733376,0.01715,-0.00298,0.09122,0.99967,0.01467,-0.02105,-0.00020,0.01538,-0.00851,0.04754,
1629344765884402688,0.01795,-0.00405,0.09415,0.99964,0.01691,-0.02091,-0.00034,0.02370,-0.01009,0.03951,
1629344765951070976,0.01930,-0.00430,0.09687,0.99966,0.01644,-0.02043,-0.00055,0.02595,0.00757,0.03441,
1629344766017740544,0.02066,-0.00365,0.09897,0.99970,0.01524,-0.01941,-0.00067,0.02263,0.02172,0.02770,
1629344766084408832,0.02211,-0.00227,0.10093,0.99974,0.01424,-0.01755,-0.00035,0.02260,0.01734,0.03418,
1629344766151077888,0.02366,-0.00082,0.10290,0.99977,0.01347,-0.01645,-0.00014,0.01911,0.01452,0.03602,
1629344766217745920,0.02505,-0.00025,0.10510,0.99976,0.01426,-0.01651,-0.00048,0.00761,0.00317,0.05449,
1629344766284414976,0.02554,-0.00062,0.10816,0.99972,0.01620,-0.01718,-0.00047,-0.00295,-0.01625,0.05813,
1629344766351083264,0.02500,-0.00244,0.11205,0.99965,0.01976,-0.01753,-0.00068,-0.00591,-0.02182,0.05624,
1629344766417752320,0.02468,-0.00452,0.11614,0.99954,0.02421,-0.01834,-0.00111,-0.01195,-0.03233,0.06851,
1629344766484421376,0.02381,-0.00689,0.11938,0.99944,0.02747,-0.01905,-0.00236,-0.00743,-0.02439,0.02712,
1629344766551088896,0.02412,-0.00796,0.12131,0.99940,0.02935,-0.01796,-0.00280,-0.00421,-0.01168,0.02898,
1629344766617757696,0.02397,-0.00902,0.12281,0.99937,0.03091,-0.01713,-0.00288,-0.00679,0.00140,0.03680,
1629344766684425472,0.02298,-0.00915,0.12530,0.99936,0.03095,-0.01750,-0.00237,-0.01158,0.01234,0.05005,
1629344766751096576,0.02207,-0.00835,0.12815,0.99936,0.03019,-0.01880,-0.00248,-0.00067,0.01800,0.02667,
1629344766817766400,0.02197,-0.00719,0.12984,0.99942,0.02853,-0.01834,-0.00231,0.00551,0.01618,0.03047,
1629344766884437504,0.02194,-0.00648,0.13201,0.99943,0.02818,-0.01841,-0.00215,0.00540,-0.00428,0.04445,
1629344766951107584,0.02237,-0.00714,0.13503,0.99940,0.02929,-0.01848,-0.00249,0.01695,-0.02505,0.05495,
1629344767017778432,0.02348,-0.00866,0.13874,0.99936,0.03108,-0.01756,-0.00301,0.02398,-0.02400,0.05591,
1629344767084448256,0.02509,-0.01078,0.14290,0.99932,0.03262,-0.01682,-0.00401,0.03235,-0.02446,0.05950,
1629344767151119104,0.02831,-0.01242,0.14636,0.99933,0.03464,-0.01066,-0.00409,0.02744,-0.01405,0.05042,
1629344767217788928,0.03104,-0.01401,0.14867,0.99927,0.03715,-0.00713,-0.00483,0.02150,-0.02319,0.03644,
1629344767284459776,0.03221,-0.01588,0.15116,0.99921,0.03898,-0.00514,-0.00552,0.01504,-0.00706,0.02210,
1629344767351129600,0.03299,-0.01662,0.15240,0.99918,0.03985,-0.00385,-0.00530,0.00909,0.00104,0.01745,
1629344767417800448,0.03331,-0.01647,0.15342,0.99920,0.03958,-0.00283,-0.00527,-0.00216,0.01082,0.02807,
1629344767484470016,0.03325,-0.01551,0.15534,0.99925,0.03815,-0.00280,-0.00559,-0.01372,0.01341,0.04628,
1629344767551141120,0.03245,-0.01469,0.15838,0.99929,0.03716,-0.00342,-0.00548,-0.01241,0.00412,0.04701,
1629344767617810688,0.03155,-0.01437,0.16193,0.99931,0.03656,-0.00351,-0.00534,-0.00798,0.00136,0.04700,
1629344767684481536,0.03003,-0.01432,0.16510,0.99931,0.03657,-0.00471,-0.00493,-0.00683,-0.00131,0.04488,
1629344767751152640,0.02934,-0.01457,0.16812,0.99925,0.03774,-0.00678,-0.00482,-0.00671,-0.00839,0.04912,
1629344767817824512,0.02833,-0.01543,0.17107,0.99920,0.03880,-0.00864,-0.00429,0.00208,-0.01903,0.03480,
1629344767884496896,0.02785,-0.01679,0.17406,0.99913,0.04041,-0.00900,-0.00441,0.00469,-0.02136,0.04170,
1629344767951167744,0.02806,-0.01798,0.17710,0.99904,0.04230,-0.01074,-0.00472,0.01732,-0.01429,0.03728,
1629344768017839872,0.02783,-0.01891,0.17938,0.99897,0.04332,-0.01274,-0.00401,0.02279,-0.00531,0.03851,
1629344768084510976,0.02905,-0.01883,0.18177,0.99899,0.04276,-0.01292,-0.00451,0.02393,0.00798,0.03779,
1629344768151183104,0.03027,-0.01821,0.18395,0.99902,0.04208,-0.01326,-0.00410,0.02137,0.01093,0.03970,
1629344768217853952,0.03129,-0.01759,0.18635,0.99904,0.04147,-0.01358,-0.00347,0.01730,0.00878,0.03645,
1629344768284526080,0.03230,-0.01626,0.18834,0.99912,0.03980,-0.01275,-0.00364,0.01387,0.00920,0.02318,
1629344768351197184,0.03340,-0.01514,0.18983,0.99917,0.03862,-0.01229,-0.00385,0.01079,0.00849,0.03423,
1629344768417869312,0.03419,-0.01457,0.19201,0.99919,0.03793,-0.01273,-0.00398,0.00616,0.00227,0.05098,
1629344768484540416,0.03450,-0.01449,0.19558,0.99920,0.03770,-0.01290,-0.00348,0.00834,-0.00333,0.05104,
1629344768551212800,0.03522,-0.01476,0.19894,0.99919,0.03817,-0.01227,-0.00403,0.00921,-0.01040,0.05275,
1629344768617883904,0.03592,-0.01532,0.20204,0.99917,0.03845,-0.01278,-0.00423,0.01171,-0.00957,0.03931,
1629344768684556288,0.03659,-0.01607,0.20466,0.99915,0.03904,-0.01207,-0.00471,0.01037,-0.01169,0.01964,
1629344768751227648,0.03687,-0.01686,0.20530,0.99913,0.03986,-0.01124,-0.00497,0.00042,-0.01159,0.00297,
1629344768817900032,0.03632,-0.01776,0.20506,0.99910,0.04051,-0.01182,-0.00519,-0.00821,-0.00640,0.00525,
1629344768884571392,0.03549,-0.01804,0.20516,0.99908,0.04088,-0.01220,-0.00533,-0.01325,0.00181,0.00063,
1629344768951243776,0.03451,-0.01776,0.20501,0.99907,0.04087,-0.01241,-0.00532,-0.01621,0.00398,0.00382,
1629344769017915136,0.03226,-0.01843,0.20510,0.99908,0.04072,-0.01271,-0.00528,-0.01460,-0.00235,0.00170,
1629344769084587776,0.03106,-0.01851,0.20524,0.99907,0.04073,-0.01291,-0.00523,-0.00972,-0.00112,0.00081,
1629344769151260160,0.03035,-0.01836,0.20549,0.99909,0.04051,-0.01254,-0.00525,-0.00296,-0.00033,0.00032,
1629344769217932032,0.02979,-0.01824,0.20578,0.99911,0.04007,-0.01200,-0.00527,-0.00210,0.00391,0.00225,
1629344769284604416,0.02955,-0.01809,0.20553,0.99911,0.03993,-0.01217,-0.00522,0.00014,-0.00052,0.00179,
1629344769351276032,0.02948,-0.01817,0.20518,0.99910,0.04024,-0.01255,-0.00536,0.00301,0.00057,0.00179,
1629344769417948416,0.02950,-0.01810,0.20533,0.99910,0.04025,-0.01229,-0.00532,0.00558,0.00070,0.00132,
1629344769484620032,0.02953,-0.01810,0.20526,0.99911,0.04011,-0.01219,-0.00533,0.00425,0.00097,0.00140,
1629344769551292672,0.02966,-0.01797,0.20509,0.99911,0.04000,-0.01215,-0.00533,0.00333,0.00042,0.00149,
1629344769617964288,0.02960,-0.01799,0.20509,0.99911,0.04003,-0.01220,-0.00533,0.00350,-0.00011,0.00163,
1629344769684637184,0.02942,-0.01791,0.20515,0.99912,0.03970,-0.01216,-0.00532,0.00275,0.00022,0.00117,
1629344769751308544,0.02935,-0.01783,0.20558,0.99914,0.03937,-0.01173,-0.00532,0.00433,0.00148,0.00178,
1629344769817980928,0.02951,-0.01776,0.20533,0.99915,0.03914,-0.01162,-0.00530,0.00355,0.00012,0.00072,
1629344769884652288,0.02959,-0.01773,0.20512,0.99915,0.03920,-0.01190,-0.00536,0.00396,0.00010,0.00167,
1629344769951324928,0.02966,-0.01776,0.20519,0.99914,0.03934,-0.01192,-0.00535,0.00483,0.00091,0.00145,
1629344770017996288,0.02984,-0.01757,0.20509,0.99915,0.03913,-0.01165,-0.00538,0.00347,0.00197,0.00095,
1629344770084668928,0.02313,-0.02057,0.20013,0.99915,0.03844,-0.01227,-0.00809,-0.10387,-0.13273,0.05954,
1629344770151340544,0.02396,-0.01985,0.20519,0.99893,0.04160,-0.01452,-0.01370,-0.09380,-0.07924,0.02567,
1629344770218013184,0.02091,-0.01724,0.20676,0.99930,0.02927,-0.01655,-0.01622,-0.13370,-0.03883,0.02400,
1629344770284684544,0.01562,-0.01419,0.20792,0.99969,0.01287,-0.01275,-0.01732,-0.17620,-0.03631,0.00173,
1629344770351357184,0.00017,-0.02006,0.21078,0.99957,0.02087,-0.01464,-0.01420,-0.18492,0.04965,0.16047,
1629344770418028800,-0.01552,-0.02144,0.22230,0.99937,0.01903,-0.02932,-0.00672,-0.14036,-0.01087,0.14003,
1629344770484701696,-0.01708,-0.01861,0.22615,0.99925,0.02282,-0.02751,-0.01458,-0.03724,0.02111,-0.05050,
1629344770551374080,-0.01711,-0.01146,0.22388,0.99967,0.01599,-0.01422,-0.01396,0.01846,0.20705,-0.05864,
1629344770618045696,-0.01062,-0.00182,0.21862,0.99990,0.00764,0.00714,-0.00987,0.08075,0.22896,-0.06950,
1629344770684718592,-0.00193,0.01321,0.21535,0.99955,0.01911,0.02032,-0.01075,0.16147,0.25239,-0.09732,
1629344770751390720,0.00811,0.02429,0.22018,0.99871,0.03059,0.03218,-0.02478,0.14019,0.13993,0.20271,
1629344770818063616,0.01437,0.03675,0.23608,0.99940,0.02216,0.01065,-0.02446,0.10069,0.22006,0.21699,
1629344770884735744,0.01629,0.04742,0.24199,0.99951,0.02012,-0.00303,-0.02360,0.05922,0.10034,0.05849,
1629344770951409152,0.01867,0.04892,0.24149,0.99841,0.05127,-0.00413,-0.02318,0.02969,0.03211,-0.00640,
1629344771018081280,0.02149,0.04941,0.24120,0.99761,0.06630,-0.00331,-0.01901,0.01410,-0.02600,0.03208,
1629344771084754432,0.02328,0.04546,0.24425,0.99806,0.05923,-0.00589,-0.01813,0.01584,0.01464,0.17071,
1629344771151426816,0.02262,0.04407,0.25027,0.99882,0.04585,-0.00770,-0.01398,0.00787,-0.10771,0.11855,
1629344771218099968,0.01971,0.03898,0.24986,0.99851,0.04892,-0.01471,-0.01893,0.01352,-0.09056,-0.01133,
1629344771284772352,0.02293,0.03721,0.24816,0.99849,0.05016,-0.01409,-0.01727,0.00371,-0.00974,0.01483,
1629344771351446016,0.02399,0.03612,0.24799,0.99873,0.04548,-0.01294,-0.01759,-0.00605,-0.02374,-0.00842,
1629344771418118144,0.02238,0.03508,0.24805,0.99854,0.04817,-0.01636,-0.01805,-0.02433,-0.01714,0.01251,
1629344771484791552,0.02003,0.03257,0.25054,0.99823,0.05287,-0.01313,-0.02386,-0.01506,-0.09297,0.07105,
1629344771551463936,0.01882,0.03189,0.25167,0.99848,0.04914,-0.01393,-0.02078,0.02058,0.02447,-0.07914,
1629344771618137344,0.02159,0.02593,0.24974,0.99837,0.05229,-0.00748,-0.02154,0.03372,-0.11144,-0.02574,
1629344771684809984,0.02340,0.01849,0.24640,0.99786,0.06078,-0.00081,-0.02417,0.06315,-0.12222,-0.06982,
1629344771751482880,0.02882,0.01022,0.24146,0.99743,0.06736,0.00638,-0.02370,0.10708,-0.15542,-0.08470,
1629344771818155776,0.03669,0.00044,0.23826,0.99762,0.06334,0.01587,-0.02236,0.12172,-0.12676,0.07998,
1629344771884827648,0.04496,-0.01303,0.24760,0.99800,0.06111,0.00640,-0.01464,0.09524,-0.20506,0.15322,
1629344771951500288,0.04919,-0.02570,0.25132,0.99797,0.06049,-0.01026,-0.01678,0.08860,-0.15766,0.02542,
1629344772018172416,0.05356,-0.03150,0.25224,0.99842,0.05259,-0.01494,-0.01332,0.05198,-0.10973,0.02466,
1629344772084845568,0.05839,-0.03526,0.25125,0.99911,0.03662,-0.01495,-0.01431,0.02410,-0.08555,-0.00902,
1629344772151517696,0.05743,-0.04089,0.25191,0.99885,0.04018,-0.02263,-0.01344,-0.02009,-0.10204,0.06764,
1629344772218190592,0.05711,-0.04864,0.25678,0.99844,0.04667,-0.02228,-0.02121,-0.00031,-0.08840,0.02040,
1629344772284862464,0.05777,-0.05027,0.25204,0.99864,0.04571,-0.01763,-0.01793,0.04646,-0.06371,-0.12208,
1629344772351535616,0.06007,-0.05790,0.24560,0.99859,0.04769,-0.00799,-0.02170,0.06603,-0.16131,-0.07492,
1629344772418207744,0.06795,-0.06906,0.23939,0.99794,0.05992,0.00228,-0.02301,0.12231,-0.19085,-0.10406,
1629344772484880896,0.07819,-0.08366,0.23127,0.99769,0.06171,0.01335,-0.02507,0.18284,-0.23656,-0.13005,
1629344772551553280,0.09158,-0.09806,0.22936,0.99812,0.05281,0.02311,-0.02081,0.18283,-0.15492,0.08289,
1629344772618226176,0.10278,-0.11188,0.23918,0.99815,0.05756,0.00742,-0.01796,0.14709,-0.23135,0.14764,
1629344772684898304,0.10984,-0.12819,0.24422,0.99753,0.06681,-0.01278,-0.01748,0.13686,-0.17363,0.04899,
1629344772751571456,0.11559,-0.13857,0.24733,0.99835,0.05143,-0.02004,-0.01597,0.08159,-0.17367,0.00668,
1629344772818243840,0.11916,-0.14887,0.24566,0.99933,0.01803,-0.01712,-0.02687,0.04464,-0.17965,-0.01468,
1629344772884916992,0.11909,-0.16264,0.24891,0.99866,0.02574,-0.02697,-0.03580,0.00933,-0.24338,0.12410,
1629344772951589120,0.11993,-0.17919,0.25351,0.99759,0.04330,-0.02057,-0.05024,0.04449,-0.14357,-0.03147,
1629344773018262272,0.12572,-0.18862,0.24661,0.99753,0.04282,-0.01302,-0.05418,0.11185,-0.17853,-0.12189,
1629344773084934656,0.13304,-0.20055,0.24231,0.99698,0.04124,-0.00295,-0.06567,0.13937,-0.24119,-0.05482,
1629344773151608064,0.14289,-0.21618,0.23362,0.99598,0.05436,0.00906,-0.07057,0.19868,-0.24366,-0.17019,
1629344773218281216,0.15868,-0.23680,0.22281,0.99483,0.06057,0.02540,-0.07745,0.26895,-0.30892,-0.08399,
1629344773284953600,0.17312,-0.25178,0.22596,0.99546,0.05090,0.03244,-0.07358,0.25713,-0.23991,0.16060,
1629344773351626752,0.18852,-0.26517,0.23582,0.99573,0.04380,0.01830,-0.07921,0.24836,-0.21593,0.14438,
1629344773418299648,0.20084,-0.27465,0.24051,0.99570,0.04090,0.00836,-0.08265,0.26957,-0.15232,-0.02282,
1629344773484973056,0.21755,-0.27917,0.23528,0.99558,0.03148,0.01635,-0.08692,0.28021,-0.01141,-0.09150,
1629344773551645184,0.23645,-0.27700,0.22918,0.99569,0.00935,0.02162,-0.08972,0.32008,0.06218,-0.14905,
1629344773618318848,0.25562,-0.27625,0.22841,0.99473,0.00053,0.02408,-0.09970,0.26982,-0.04855,0.04869,
1629344773684991232,0.27603,-0.27095,0.23462,0.99404,-0.00312,0.02747,-0.10548,0.27816,0.13382,0.03835,
1629344773751663872,0.29030,-0.26583,0.23996,0.99443,-0.01159,0.01743,-0.10333,0.24177,0.07279,-0.00291,
1629344773818335488,0.30237,-0.26699,0.24596,0.99495,-0.00185,0.00707,-0.10008,0.20717,-0.01821,-0.02685,
1629344773885008128,0.31627,-0.27000,0.24573,0.99508,-0.00233,0.00852,-0.09865,0.18545,-0.07711,0.02362,
1629344773951679488,0.32955,-0.27464,0.24446,0.99494,-0.00554,0.01297,-0.09952,0.20438,-0.10030,-0.00074,
1629344774018352128,0.34231,-0.28233,0.25289,0.99568,-0.00409,0.01275,-0.09184,0.16860,-0.12523,0.11439,
1629344774085023744,0.34542,-0.29077,0.25859,0.99537,0.00304,-0.00541,-0.09594,0.14835,-0.13156,0.06120,
1629344774151696128,0.36052,-0.29167,0.25500,0.99521,0.00681,0.00098,-0.09752,0.19482,-0.02923,-0.00315,
1629344774218367744,0.37742,-0.29480,0.25297,0.99520,-0.00288,0.00758,-0.09750,0.21456,0.03685,-0.03234,
1629344774285040640,0.39131,-0.29481,0.25077,0.99514,-0.00576,0.00460,-0.09816,0.25562,0.06164,-0.03807,
1629344774351712256,0.40349,-0.28965,0.25082,0.99435,0.00227,0.01212,-0.10545,0.21581,-0.00619,0.13596,
1629344774418384896,0.42003,-0.28889,0.25918,0.99464,-0.00563,0.00383,-0.10317,0.23831,0.04819,0.03668,
1629344774485057280,0.43316,-0.29139,0.25809,0.99496,-0.00668,0.00132,-0.10007,0.22895,-0.05934,-0.01578,
1629344774551728896,0.44120,-0.29987,0.25400,0.99537,0.00936,0.00251,-0.09560,0.18441,-0.13410,-0.08238,
1629344774618401536,0.46068,-0.31427,0.24639,0.99506,0.03676,-0.00013,-0.09226,0.23811,-0.30769,-0.16979,
1629344774685073152,0.47504,-0.33041,0.24096,0.99516,0.02625,0.01227,-0.09390,0.20499,-0.26615,0.06620,
1629344774751746816,0.48989,-0.35018,0.25497,0.99534,0.02939,0.00240,-0.09180,0.16502,-0.29042,0.22035,
1629344774818419200,0.49625,-0.36431,0.26308,0.99516,0.02278,-0.01503,-0.09437,0.18196,-0.20121,0.03303,
1629344774885092608,0.51000,-0.37165,0.26087,0.99525,0.00308,-0.00814,-0.09694,0.18993,-0.08869,0.00827,
1629344774951765248,0.52615,-0.37498,0.26022,0.99526,-0.00641,-0.00272,-0.09702,0.20663,-0.00638,0.02557,
1629344775018439168,0.54244,-0.37744,0.25957,0.99533,0.00120,-0.00707,-0.09623,0.23486,-0.01330,0.03370,
1629344775085111552,0.55533,-0.37752,0.26172,0.99421,0.00453,0.00125,-0.10740,0.21292,0.01996,0.03873,
1629344775151785216,0.57004,-0.37780,0.26331,0.99475,0.00031,0.00069,-0.10233,0.20005,-0.02005,-0.02485,
1629344775218457856,0.58024,-0.38214,0.26177,0.99444,0.00233,0.00088,-0.10524,0.17181,-0.13523,-0.02741,
1629344775285131776,0.59053,-0.39012,0.25792,0.99424,0.01086,0.00868,-0.10628,0.17205,-0.17863,-0.08613,
1629344775351804416,0.60456,-0.40404,0.25225,0.99401,0.02322,0.01725,-0.10542,0.19831,-0.26452,-0.12267,
1629344775418478336,0.61885,-0.41683,0.25474,0.99455,0.02732,0.02601,-0.09720,0.19947,-0.17924,0.10908,
1629344775485150720,0.63096,-0.42791,0.26187,0.99492,0.02553,0.01006,-0.09683,0.16406,-0.17705,0.08472,
1629344775551824896,0.64166,-0.43732,0.26207,0.99499,0.02687,0.00045,-0.09628,0.17107,-0.12494,-0.01731,
1629344775618497792,0.65257,-0.44275,0.25996,0.99539,0.01159,0.00084,-0.09517,0.15164,-0.04873,-0.06040,
1629344775685171712,0.66297,-0.44441,0.25698,0.99536,-0.00517,0.00506,-0.09593,0.14531,-0.00242,-0.03929,
1629344775751844352,0.67118,-0.44684,0.25745,0.99526,0.00089,-0.00078,-0.09728,0.12257,-0.09528,0.03631,
1629344775818518528,0.67902,-0.44837,0.26323,0.99459,0.00315,0.00103,-0.10384,0.12783,0.05426,0.01765,
1629344775885192704,0.68753,-0.44933,0.26220,0.99494,0.00066,0.00021,-0.10051,0.11185,-0.03471,-0.02780,
1629344775951865600,0.69502,-0.45615,0.26045,0.99457,0.00522,0.00301,-0.10389,0.09894,-0.09086,-0.03693,
1629344776018540032,0.70089,-0.46301,0.25797,0.99450,0.01211,0.00682,-0.10380,0.09284,-0.12675,-0.04654,
1629344776085212928,0.70856,-0.47291,0.25418,0.99434,0.01787,0.01187,-0.10403,0.13664,-0.15426,-0.04504,
1629344776151886848,0.71801,-0.48171,0.26009,0.99496,0.01533,0.01592,-0.09776,0.10968,-0.13226,0.16292,
1629344776218560256,0.72438,-0.48957,0.26581,0.99488,0.01762,0.00310,-0.09951,0.10767,-0.10928,0.05415,
1629344776285234688,0.73251,-0.49306,0.26624,0.99497,0.02115,-0.00168,-0.09794,0.12830,-0.04231,0.01270,
1629344776351907840,0.74209,-0.49461,0.26459,0.99518,0.00475,0.00340,-0.09784,0.13003,0.01941,-0.04002,
1629344776418582272,0.75342,-0.49236,0.26119,0.99517,-0.00733,0.00795,-0.09755,0.15757,0.07364,-0.02472,
1629344776485255680,0.76325,-0.49151,0.26360,0.99488,-0.00227,0.00761,-0.10077,0.14444,-0.04747,0.07728,
1629344776551929856,0.77291,-0.49062,0.26679,0.99484,-0.00022,0.00452,-0.10134,0.15562,0.05111,-0.01281,
1629344776618603520,0.78260,-0.49111,0.26617,0.99480,-0.00358,0.00230,-0.10172,0.13067,-0.04310,0.02643,
1629344776685277952,0.78959,-0.49348,0.26546,0.99464,-0.00283,0.00324,-0.10331,0.12071,-0.06751,-0.04511,
1629344776751949568,0.79811,-0.49969,0.26305,0.99465,0.00327,0.00811,-0.10291,0.11077,-0.13866,-0.03811,
1629344776818622208,0.80521,-0.50639,0.25912,0.99461,0.01059,0.01118,-0.10253,0.11442,-0.12404,0.06620,
1629344776885293824,0.81379,-0.51233,0.26688,0.99529,0.01249,0.01356,-0.09519,0.11444,-0.11585,0.09063,
1629344776951965952,0.81975,-0.52036,0.27141,0.99502,0.01665,-0.00048,-0.09829,0.12065,-0.09366,-0.01617,
1629344777018637568,0.82953,-0.52121,0.27087,0.99514,0.01373,0.00030,-0.09751,0.14523,0.00818,-0.02211,
1629344777085310208,0.83949,-0.51949,0.26884,0.99522,-0.00419,0.00685,-0.09730,0.16101,0.06327,-0.08605,
1629344777151983104,0.85190,-0.51483,0.26596,0.99532,-0.00849,0.00955,-0.09575,0.19535,0.11443,-0.02842,
1629344777218654720,0.86448,-0.51088,0.26917,0.99504,-0.00072,0.01271,-0.09865,0.18536,0.06389,0.07925,
1629344777285326848,0.87586,-0.50633,0.27137,0.99517,-0.00791,0.00652,-0.09759,0.16686,0.03225,0.01732,
1629344777351998464,0.88596,-0.50757,0.27027,0.99476,-0.01060,0.00344,-0.10163,0.15734,-0.04153,0.00637,
1629344777418671104,0.89643,-0.51190,0.26821,0.99446,0.00032,0.00504,-0.10499,0.13104,-0.11307,-0.03601,
1629344777485342720,0.90649,-0.51979,0.26602,0.99413,0.00839,0.00678,-0.10766,0.14362,-0.16012,-0.02144,
1629344777552015360,0.91770,-0.52767,0.26399,0.99415,0.01191,0.01423,-0.10644,0.18390,-0.05907,0.07952,
1629344777618686720,0.93118,-0.53538,0.26738,0.99466,0.01116,0.00952,-0.10212,0.15530,-0.11926,0.03102,
1629344777685359360,0.94210,-0.54077,0.26696,0.99443,0.01520,0.00083,-0.10431,0.18489,-0.05616,0.00730,
1629344777752030976,0.95563,-0.53970,0.26394,0.99449,0.00781,0.00733,-0.10428,0.20963,0.04848,-0.07028,
1629344777818703872,0.97272,-0.53465,0.25764,0.99446,-0.00384,0.01383,-0.10410,0.24446,0.12361,-0.08097,
1629344777885375488,0.99110,-0.52823,0.25106,0.99425,-0.00318,0.01717,-0.10568,0.28472,0.10413,0.02004,
1629344777952048128,1.00897,-0.52188,0.25635,0.99318,-0.00707,0.02197,-0.11426,0.26601,0.15568,0.09701,
1629344778018719744,1.02250,-0.51200,0.26198,0.99357,-0.02330,0.00919,-0.11044,0.22697,0.11747,0.04156,
1629344778085392128,1.03704,-0.50803,0.26344,0.99365,-0.02102,0.00363,-0.11047,0.18329,0.03451,0.02156,
1629344778152063744,1.04819,-0.50723,0.26303,0.99406,0.00279,0.00687,-0.10861,0.15219,-0.00800,-0.03075,
1629344778218736896,1.05837,-0.50863,0.26147,0.99401,0.00993,0.00854,-0.10846,0.13773,-0.06021,0.01029,
1629344778285408512,1.06825,-0.51019,0.26662,0.99480,0.00510,0.01208,-0.10103,0.16142,0.04010,0.10937,
1629344778352081152,1.07722,-0.51150,0.26784,0.99476,0.00372,0.00604,-0.10195,0.15161,-0.03730,-0.01511,
1629344778418752768,1.08882,-0.51200,0.26605,0.99455,0.00368,0.00521,-0.10406,0.20413,0.06219,-0.04685,
1629344778485425152,1.10389,-0.50544,0.26250,0.99476,-0.00854,0.01461,-0.10079,0.24121,0.14909,-0.09166,
1629344778552098048,1.12159,-0.49674,0.25659,0.99468,-0.01641,0.02108,-0.09950,0.30730,0.16162,-0.10430,
1629344778618769920,1.14419,-0.48762,0.25167,0.99412,-0.00407,0.02886,-0.10425,0.30032,0.06337,0.05164,
1629344778685442560,1.16481,-0.47836,0.26149,0.99376,-0.01508,0.01914,-0.10883,0.28116,0.17230,0.13601,
1629344778752114176,1.18063,-0.47045,0.26575,0.99362,-0.02860,0.00500,-0.10897,0.24049,0.06771,0.01982,
1629344778818786304,1.19371,-0.46922,0.26537,0.99355,-0.01149,0.00024,-0.11282,0.18112,-0.01096,-0.03189,
1629344778885457664,1.20463,-0.47090,0.26357,0.99353,0.01850,0.00399,-0.11194,0.15618,-0.05279,-0.03379,
1629344778952130304,1.21542,-0.47304,0.26291,0.99349,0.01315,0.00600,-0.11303,0.17919,-0.04777,0.03089,
1629344779018801664,1.22529,-0.47617,0.26984,0.99465,0.00608,0.00957,-0.10268,0.12761,-0.09725,0.09809,
1629344779085474304,1.23442,-0.48119,0.27227,0.99442,0.00702,0.00026,-0.10528,0.13805,-0.08044,0.00108,
1629344779152145920,1.24554,-0.48225,0.27270,0.99456,0.00553,0.00076,-0.10402,0.17452,0.00612,-0.03553,
1629344779218818304,1.25787,-0.47928,0.27030,0.99462,-0.00386,0.00782,-0.10323,0.18860,0.07667,-0.05083,
1629344779285489920,1.27250,-0.47291,0.26613,0.99468,-0.00579,0.00845,-0.10248,0.23751,0.09883,-0.05787,
1629344779352162048,1.28702,-0.46885,0.26693,0.99364,-0.00128,0.01724,-0.11126,0.20693,0.02247,0.12447,
1629344779418833408,1.30105,-0.46520,0.27244,0.99384,-0.00835,0.00748,-0.11027,0.21921,0.08043,0.03733,
1629344779485506048,1.31490,-0.46415,0.27186,0.99387,-0.01254,0.00282,-0.10979,0.19325,-0.03555,0.00845,
1629344779552177408,1.32602,-0.46803,0.27098,0.99365,-0.00647,0.00497,-0.11219,0.16926,-0.10956,-0.04468,
1629344779618849792,1.33812,-0.47677,0.26796,0.99356,0.00526,0.01156,-0.11258,0.16790,-0.18687,-0.08026,
1629344779685521664,1.34992,-0.48771,0.26394,0.99367,0.01516,0.01749,-0.10990,0.18966,-0.12043,0.02355,
1629344779752194048,1.36058,-0.49750,0.26809,0.99448,0.01843,0.01286,-0.10253,0.12723,-0.18342,0.10272,
1629344779818866432,1.36966,-0.50780,0.27091,0.99419,0.02610,-0.00173,-0.10437,0.14476,-0.11925,0.03131,
1629344779885538048,1.38109,-0.51098,0.27285,0.99455,0.01651,0.00016,-0.10290,0.16185,-0.01979,-0.02481,
1629344779952210432,1.39382,-0.51040,0.26986,0.99453,-0.00853,0.01067,-0.10356,0.17444,0.04295,-0.04937,
1629344780018882048,1.40781,-0.50824,0.26700,0.99464,-0.00757,0.00953,-0.10265,0.19480,0.02367,0.07702,
1629344780085554432,1.42137,-0.50764,0.27369,0.99364,-0.00181,0.01110,-0.11205,0.19034,0.06993,0.11873,
1629344780152226048,1.43436,-0.50310,0.27756,0.99409,-0.00528,0.00436,-0.10831,0.18183,0.04863,0.04477,
1629344780218898688,1.44625,-0.50467,0.27872,0.99391,-0.00676,0.00151,-0.11002,0.16494,-0.03368,0.02271,
1629344780285570048,1.45699,-0.50832,0.27776,0.99387,-0.00166,0.00595,-0.11041,0.14323,-0.09406,-0.02103,
1629344780352242688,1.46795,-0.51750,0.27433,0.99375,0.00650,0.01034,-0.11097,0.14868,-0.16726,-0.06363,
1629344780418914048,1.47786,-0.52650,0.27358,0.99418,0.01499,0.01593,-0.10549,0.16337,-0.06411,0.07854,
1629344780485586688,1.48826,-0.53535,0.27984,0.99441,0.01840,0.00636,-0.10379,0.13664,-0.15597,0.07133,
1629344780552258304,1.49695,-0.54343,0.27914,0.99414,0.02254,-0.00314,-0.10570,0.17898,-0.07759,-0.03964,
1629344780618930688,1.51114,-0.54468,0.27754,0.99454,0.01069,0.00058,-0.10381,0.18822,0.02080,-0.06840,
1629344780685602304,1.52504,-0.54130,0.27302,0.99456,-0.00760,0.00774,-0.10357,0.21611,0.08245,-0.08350,
1629344780752274688,1.54062,-0.53805,0.27043,0.99470,-0.00393,0.00748,-0.10245,0.23915,0.02710,0.02648,
1629344780818946304,1.55606,-0.53508,0.27639,0.99391,-0.00403,0.01109,-0.10955,0.22749,0.08961,0.04523,
1629344780885618944,1.56957,-0.53203,0.27744,0.99421,-0.00898,0.00388,-0.10698,0.21320,-0.00722,-0.01091,
1629344780952290304,1.58174,-0.53518,0.27751,0.99374,-0.01061,0.00231,-0.11119,0.19220,-0.07832,-0.04611,
1629344781018962944,1.59312,-0.54327,0.27429,0.99364,0.00101,0.00748,-0.11239,0.16830,-0.17121,-0.07045,
1629344781085634304,1.60601,-0.55552,0.26967,0.99335,0.01142,0.01286,-0.11383,0.19836,-0.19763,-0.06991,
1629344781152306688,1.61923,-0.56545,0.27251,0.99440,0.01542,0.01783,-0.10305,0.16775,-0.13174,0.19057,
1629344781218979584,1.62997,-0.57539,0.27921,0.99450,0.01865,0.00417,-0.10293,0.15443,-0.13984,0.09958,
1629344781285650944,1.64263,-0.58238,0.28007,0.99446,0.02340,-0.00284,-0.10239,0.18997,-0.07033,0.02015,
1629344781352323584,1.65572,-0.58347,0.27752,0.99463,0.00543,0.00385,-0.10328,0.20112,0.03778,-0.04578,
1629344781418994944,1.67107,-0.57891,0.27060,0.99450,-0.01041,0.01215,-0.10347,0.23948,0.09510,-0.06386,
1629344781485667584,1.68747,-0.57535,0.26808,0.99376,-0.00640,0.01539,-0.11025,0.23489,-0.00253,0.02509,
1629344781552339200,1.70378,-0.57267,0.27067,0.99360,-0.00990,0.01299,-0.11174,0.22356,0.05944,-0.00092,
1629344781619011328,1.71644,-0.57070,0.26978,0.99357,-0.01876,0.00507,-0.11150,0.18175,-0.04804,-0.02888,
1629344781685682944,1.72698,-0.57281,0.26857,0.99345,-0.01480,0.00370,-0.11321,0.14766,-0.10698,-0.10110,
1629344781752355584,1.73662,-0.58054,0.26425,0.99348,0.00495,0.01059,-0.11342,0.12471,-0.18461,-0.10562,
1629344781819027200,1.74644,-0.59048,0.25999,0.99337,0.01345,0.01395,-0.11327,0.13482,-0.15886,0.01960,
1629344781885699584,1.75550,-0.59958,0.26636,0.99435,0.01434,0.01912,-0.10340,0.09758,-0.17405,0.13664,
1629344781952371200,1.76188,-0.61000,0.27445,0.99443,0.01940,0.00149,-0.10363,0.09369,-0.13110,0.07678,
1629344782019043584,1.76942,-0.61631,0.27678,0.99456,0.02136,-0.00287,-0.10194,0.08560,-0.06197,0.05234,
1629344782085714944,1.77497,-0.61739,0.27597,0.99479,-0.00311,0.00204,-0.10191,0.07339,0.02522,-0.02447,
1629344782152387584,1.78054,-0.61595,0.27387,0.99479,-0.01150,0.00428,-0.10119,0.07154,0.04119,0.02833,
1629344782219058944,1.78313,-0.61682,0.27852,0.99406,-0.00341,0.00329,-0.10877,0.04534,-0.01911,0.10213,
1629344782285731840,1.78703,-0.61467,0.27852,0.99432,-0.00129,-0.00238,-0.10635,0.06124,0.06829,-0.06534,
1629344782352403200,1.79274,-0.61793,0.27447,0.99428,-0.00053,0.00005,-0.10685,0.02673,-0.03698,-0.00700,
1629344782419075840,1.79512,-0.62240,0.27275,0.99416,0.00440,0.00270,-0.10783,0.01016,-0.06041,-0.04985,
1629344782485747968,1.79647,-0.62871,0.27045,0.99419,0.00960,0.00517,-0.10707,0.02088,-0.09972,-0.05458,
1629344782552419584,1.79909,-0.63547,0.26887,0.99428,0.01385,0.01183,-0.10526,0.05796,-0.05197,0.02833,
1629344782619091968,1.80124,-0.63932,0.27513,0.99478,0.01093,0.00603,-0.10126,0.02790,-0.09046,0.08375,
1629344782685763584,1.80356,-0.64567,0.27515,0.99459,0.01659,-0.00338,-0.10252,0.03883,-0.05371,-0.05913,
1629344782752435968,1.80526,-0.64622,0.27336,0.99500,0.00918,-0.00144,-0.09940,0.02550,0.03334,-0.06438,
1629344782819107840,1.80768,-0.64464,0.27245,0.99516,-0.00662,0.00314,-0.09802,0.02228,0.03991,-0.05817,
1629344782885780224,1.80804,-0.64350,0.27391,0.99540,-0.00361,0.00043,-0.09573,0.01342,0.04756,-0.01935,
1629344782952451584,1.80889,-0.64310,0.27841,0.99547,0.00078,0.00076,-0.09503,0.02048,0.02956,0.00667,
1629344783019123968,1.81020,-0.64201,0.27625,0.99558,-0.00614,-0.00158,-0.09368,0.02960,-0.00990,-0.08499,
1629344783085795584,1.81155,-0.64451,0.27390,0.99514,-0.00500,0.00054,-0.09832,0.01805,-0.02503,0.00121,
1629344783152467968,1.81243,-0.64582,0.27332,0.99520,-0.00440,0.00065,-0.09781,0.01927,-0.01889,-0.03772,
1629344783219139584,1.81334,-0.64841,0.27259,0.99518,-0.00292,0.00096,-0.09800,0.01750,-0.04573,-0.02689,
1629344783285811968,1.81497,-0.65107,0.27304,0.99530,0.00032,0.00534,-0.09666,0.03184,0.00635,0.07000,
1629344783352483584,1.81725,-0.65078,0.27797,0.99573,-0.00190,0.00054,-0.09230,0.04202,-0.00030,0.01156,
1629344783419155968,1.82127,-0.64950,0.27576,0.99621,0.00206,-0.00131,-0.08694,0.06514,0.07411,-0.01675,
1629344783485827328,1.82549,-0.64244,0.27359,0.99699,-0.00683,0.00426,-0.07713,0.08046,0.14990,-0.09441,
1629344783552499968,1.83167,-0.62996,0.26828,0.99772,-0.02020,0.01334,-0.06308,0.11195,0.21266,-0.07439,
1629344783619171328,1.84004,-0.61687,0.26412,0.99863,-0.01167,0.01878,-0.04738,0.14243,0.18768,0.00751,
1629344783685843968,1.84960,-0.60462,0.26670,0.99916,-0.00690,0.02095,-0.03440,0.13481,0.21987,0.09221,
1629344783752515584,1.85704,-0.59031,0.27146,0.99968,-0.01696,0.01022,-0.01570,0.11196,0.19096,0.08391,
1629344783819188224,1.86447,-0.58021,0.27292,0.99985,-0.01544,0.00757,-0.00010,0.09807,0.12433,0.01180,
1629344783885860864,1.87290,-0.57410,0.27116,0.99975,0.00045,0.01304,0.01792,0.07757,0.08775,-0.01903,
1629344783952532736,1.87873,-0.56948,0.27039,0.99933,0.00119,0.01155,0.03481,0.07694,0.04818,0.01424,
1629344784019205376,1.88510,-0.56567,0.27372,0.99840,-0.00453,0.01302,0.05482,0.06757,0.09989,0.10742,
1629344784085876992,1.88984,-0.55997,0.27681,0.99721,-0.00346,0.00220,0.07458,0.05535,0.08162,-0.00786,
1629344784152549632,1.89513,-0.55058,0.27396,0.99494,-0.00002,-0.00029,0.10043,0.05506,0.19769,-0.02409,
1629344784219220992,1.90068,-0.53583,0.26822,0.99217,-0.01298,0.00209,0.12417,0.06193,0.22245,-0.12224,
1629344784285894144,1.90521,-0.51827,0.26207,0.98907,-0.02082,0.00546,0.14587,0.07674,0.28387,-0.08634,
1629344784352565760,1.91326,-0.50158,0.25712,0.98587,-0.00868,0.01133,0.16693,0.11093,0.25211,-0.01065,
1629344784419238400,1.92354,-0.48627,0.25754,0.98375,-0.01430,0.01784,0.17806,0.10141,0.26762,0.02337,
1629344784485910272,1.92868,-0.47219,0.25665,0.97974,-0.01626,0.01380,0.19912,0.11094,0.22239,-0.07261,
1629344784552582656,1.93680,-0.46301,0.25502,0.97608,-0.01602,0.02062,0.21582,0.15193,0.12124,-0.08326,
1629344784619254272,1.94896,-0.46040,0.25106,0.97221,0.00291,0.03436,0.23157,0.19159,0.03079,-0.08964,
1629344784685927168,1.96222,-0.45908,0.24643,0.96744,0.00850,0.03996,0.24980,0.21678,0.03040,-0.06345,
1629344784752598528,1.97381,-0.45511,0.24996,0.95860,0.00634,0.04277,0.28144,0.15940,0.04467,0.11592,
1629344784819271168,1.98229,-0.45444,0.25400,0.95239,0.01833,0.02240,0.30350,0.13137,0.03159,-0.06154,
1629344784885942784,1.98350,-0.44697,0.24991,0.94166,0.01576,0.01459,0.33588,0.01505,0.13036,-0.13288,
1629344784952614912,1.98127,-0.43691,0.24385,0.93146,-0.00596,0.00458,0.36378,-0.04319,0.12926,-0.14839,
1629344785019286272,1.97695,-0.42812,0.24068,0.92083,-0.00687,-0.00211,0.38990,-0.08120,0.13670,-0.06971,
1629344785085958912,1.97550,-0.42434,0.24038,0.91200,0.01115,0.00018,0.41005,0.01130,0.04084,0.03849,
1629344785152631296,1.97190,-0.41530,0.23977,0.90370,0.00768,0.00370,0.42809,-0.10106,0.17812,-0.08045,
1629344785219302656,1.96442,-0.40672,0.23491,0.89103,-0.00187,0.00622,0.45391,-0.08002,0.13571,-0.08317,
1629344785285975552,1.95984,-0.40094,0.23224,0.87951,-0.00671,0.01080,0.47570,-0.01534,0.06810,-0.02427,
1629344785352646912,1.95836,-0.39524,0.23255,0.86874,-0.00050,0.02047,0.49485,0.00345,0.06871,-0.05371,
1629344785419319040,1.95928,-0.39130,0.23033,0.85544,-0.00227,0.02271,0.51739,0.02175,0.06184,-0.00881,
1629344785485990656,1.95647,-0.38812,0.23886,0.83859,-0.00063,0.02214,0.54432,-0.01855,0.05169,0.17666,
1629344785552663040,1.95234,-0.38552,0.24296,0.82603,0.00637,0.00883,0.56351,-0.05696,0.06450,-0.01065,
1629344785619334400,1.94105,-0.37979,0.23965,0.80588,0.00237,0.00525,0.59205,-0.17882,0.08481,-0.04175,
1629344785686007040,1.92853,-0.37085,0.23626,0.78719,-0.00595,-0.00076,0.61668,-0.21423,0.07743,-0.06067,
1629344785752678400,1.91603,-0.36434,0.23267,0.76817,-0.00750,-0.00246,0.64019,-0.22611,0.08626,-0.03364,
1629344785819350784,1.90990,-0.36183,0.23248,0.75467,0.00173,0.00571,0.65608,-0.03384,0.04128,0.09418,
1629344785886022400,1.89928,-0.35691,0.23568,0.74256,-0.00444,0.00710,0.66973,-0.26904,0.09706,-0.03299,
1629344785952694784,1.88700,-0.35081,0.23276,0.72061,-0.00848,0.01002,0.69322,-0.17465,0.08164,-0.05218,
1629344786019366144,1.87876,-0.34712,0.23158,0.70307,-0.01036,0.01438,0.71090,-0.09188,0.06308,0.00938,
1629344786086038784,1.87394,-0.34329,0.23182,0.68481,-0.01006,0.02123,0.72834,-0.06229,0.06735,-0.01753,
1629344786152710144,1.86935,-0.33966,0.23203,0.66435,-0.01121,0.01993,0.74707,-0.05098,0.06668,0.04498,
1629344786219382528,1.86791,-0.33565,0.24012,0.63980,-0.00745,0.01964,0.76825,-0.02007,0.05380,0.13479,
1629344786286053888,1.86574,-0.33239,0.24395,0.62087,0.00272,0.01243,0.78381,-0.08573,0.04092,0.00238,
1629344786352726528,1.85023,-0.33167,0.24062,0.59247,-0.00195,0.00739,0.80555,-0.17742,0.00390,-0.01646,
1629344786419397888,1.83752,-0.33192,0.23725,0.56767,-0.00648,0.00119,0.82323,-0.19965,-0.01844,-0.02893,
1629344786486070272,1.82535,-0.33198,0.23464,0.54393,-0.00263,0.00317,0.83912,-0.20166,-0.00720,-0.05253,
1629344786552742912,1.81637,-0.33167,0.23569,0.53078,-0.00146,0.01062,0.84744,-0.06127,0.04024,0.10977,
1629344786619414272,1.80616,-0.33230,0.24246,0.50945,-0.00654,0.01242,0.86038,-0.26118,-0.04058,0.03452,
1629344786686086656,1.79518,-0.33068,0.24143,0.48094,-0.01314,0.01274,0.87656,-0.15542,0.00166,0.07110,
1629344786752758272,1.78813,-0.32773,0.24106,0.45691,-0.01497,0.01521,0.88926,-0.08805,0.06066,0.02334,
1629344786819430656,1.77941,-0.32533,0.23769,0.43184,-0.01899,0.02150,0.90149,-0.06502,0.08582,-0.00443,
1629344786886102016,1.77535,-0.32123,0.23607,0.40341,-0.01679,0.02271,0.91459,-0.03906,0.06843,0.16136,
1629344786952774656,1.77506,-0.31271,0.24742,0.37361,-0.00568,0.03107,0.92705,0.00596,0.07390,0.17473,
1629344787019446016,1.77719,-0.31138,0.25075,0.34798,0.00979,0.02472,0.93712,-0.08359,-0.04948,-0.05597,
1629344787086118400,1.76724,-0.31870,0.24816,0.30955,0.00528,0.00927,0.95082,-0.07919,-0.13783,-0.03091,
1629344787152790016,1.76192,-0.32711,0.24522,0.28076,0.00527,-0.00295,0.95976,-0.04987,-0.16173,-0.01599,
1629344787219462400,1.76010,-0.33662,0.24601,0.25115,0.01875,0.00416,0.96776,-0.00213,-0.16492,0.02370,
1629344787286133760,1.76083,-0.34342,0.24879,0.24048,0.01833,0.01355,0.97039,0.00061,-0.10626,0.09982,
1629344787352806144,1.75486,-0.35585,0.24748,0.21058,0.01068,0.01420,0.97741,-0.10297,-0.20414,-0.06510,
1629344787419477760,1.74828,-0.36580,0.24299,0.17904,-0.00005,0.01000,0.98379,-0.06370,-0.12464,-0.04188,
1629344787486150144,1.74465,-0.37125,0.24104,0.15131,-0.00579,0.01341,0.98838,-0.03961,-0.02159,-0.02275,
1629344787552821760,1.74004,-0.37282,0.24068,0.12535,-0.00990,0.01729,0.99191,-0.04439,0.01940,-0.02623,
1629344787619494144,1.74005,-0.37244,0.24075,0.09395,-0.00997,0.01994,0.99533,-0.04091,0.00189,0.08235,
1629344787686165504,1.73592,-0.36759,0.24732,0.06342,-0.00436,0.02562,0.99765,-0.01522,0.04563,0.07231,
1629344787752837888,1.73634,-0.36928,0.24818,0.03560,0.00576,0.02231,0.99910,-0.01413,-0.09732,-0.05116,
1629344787819510272,1.73507,-0.38105,0.24745,-0.00244,0.00777,0.01161,0.99990,0.02770,-0.13188,-0.03021,
1629344787886181888,1.73925,-0.38325,0.24699,-0.01470,0.00996,0.00649,0.99982,0.06362,0.01496,0.04395,
1629344787952854272,1.74449,-0.37851,0.24974,-0.01825,0.01568,0.01303,0.99963,0.10032,0.01270,0.03502,
1629344788019525632,1.74916,-0.37628,0.25254,-0.01100,0.01404,0.01882,0.99966,0.07699,0.07773,0.07234,
1629344788086198016,1.75534,-0.37805,0.25244,-0.01839,0.00741,0.01591,0.99968,0.03476,-0.06310,-0.07801,
1629344788152869376,1.75495,-0.37506,0.25011,-0.02671,0.00145,0.01404,0.99954,-0.01005,0.04476,-0.00617,
1629344788219542016,1.75219,-0.36894,0.24800,-0.03201,-0.00534,0.02135,0.99925,-0.06500,0.09082,-0.07329,
1629344788286213376,1.74557,-0.36076,0.24388,-0.03540,-0.01361,0.02789,0.99889,-0.12598,0.14055,-0.06354,
1629344788352885760,1.73830,-0.35451,0.24045,-0.04082,-0.01759,0.02237,0.99876,-0.13416,0.09631,0.08956,
1629344788419557120,1.72857,-0.34739,0.24835,-0.05266,-0.01759,0.02093,0.99824,-0.12217,0.12084,0.12498,
1629344788486229760,1.72204,-0.34093,0.25277,-0.05504,-0.00914,0.02058,0.99823,-0.10316,0.06384,-0.00067,
1629344788552901120,1.71688,-0.33987,0.25399,-0.06366,-0.00575,0.01289,0.99787,-0.05642,0.00783,0.01259,
1629344788619573504,1.71267,-0.34013,0.25424,-0.06831,-0.00505,0.00128,0.99765,-0.03328,0.00255,0.01356,
1629344788686244864,1.71005,-0.33963,0.25591,-0.07320,-0.00213,0.00527,0.99730,-0.01147,-0.00224,0.03912,
1629344788752917504,1.70801,-0.33740,0.25842,-0.07055,-0.00182,0.01155,0.99744,-0.02939,0.07522,0.04938,
1629344788819588864,1.70499,-0.33613,0.25714,-0.07625,-0.00579,0.01194,0.99700,-0.05251,-0.03050,-0.08072,
1629344788886261248,1.69877,-0.33396,0.25410,-0.07907,-0.01352,0.00978,0.99673,-0.10050,0.10608,-0.03457,
1629344788952932864,1.69247,-0.32697,0.24993,-0.07917,-0.02160,0.01968,0.99643,-0.12953,0.14166,-0.07046,
1629344789019605248,1.68118,-0.31615,0.24313,-0.08012,-0.03171,0.02798,0.99589,-0.18261,0.17955,-0.08037,
1629344789086276864,1.66856,-0.30666,0.23816,-0.08145,-0.03662,0.01575,0.99588,-0.20321,0.14139,0.09930,
1629344789152949248,1.65519,-0.29666,0.24451,-0.09219,-0.03576,0.01606,0.99497,-0.20049,0.15888,0.13205,
1629344789219621888,1.64640,-0.28543,0.25273,-0.09200,-0.01686,0.02683,0.99525,-0.17719,0.12548,0.05718,
1629344789286293248,1.63412,-0.28310,0.25160,-0.09777,-0.01330,0.02481,0.99481,-0.14823,0.02079,0.01082,
1629344789352965632,1.62544,-0.28514,0.24854,-0.09966,-0.01545,-0.00510,0.99489,-0.11971,-0.03771,-0.06382,
1629344789419637248,1.61699,-0.28926,0.24538,-0.10182,-0.01656,-0.01675,0.99452,-0.11304,-0.08971,0.01058,
1629344789486309632,1.60911,-0.29229,0.24871,-0.09866,-0.01810,-0.00407,0.99495,-0.14874,-0.01176,0.07576,
1629344789552981248,1.60116,-0.29747,0.24965,-0.10161,-0.01802,-0.00115,0.99466,-0.11475,-0.09402,-0.03277,
1629344789619653376,1.58990,-0.29777,0.24921,-0.10269,-0.01825,0.00013,0.99455,-0.15441,0.02634,0.00500,
1629344789686324736,1.57924,-0.29372,0.24569,-0.10063,-0.02445,0.00708,0.99460,-0.17509,0.08996,-0.07107,
1629344789752997632,1.56435,-0.28668,0.23986,-0.10068,-0.03259,0.01883,0.99421,-0.23378,0.14898,-0.10332,
1629344789819669248,1.54588,-0.27621,0.23249,-0.10316,-0.03873,0.01937,0.99372,-0.25698,0.09353,0.03057,
1629344789886341888,1.52985,-0.27329,0.23851,-0.11250,-0.04182,0.01548,0.99265,-0.22456,0.04710,0.12823,
1629344789953013504,1.51584,-0.26698,0.24561,-0.11266,-0.02634,0.02186,0.99304,-0.20804,0.00418,0.03893,
1629344790019685632,1.50403,-0.27133,0.24357,-0.11574,-0.02574,0.01884,0.99277,-0.18286,-0.09295,-0.01826,
1629344790086357248,1.49260,-0.27862,0.23905,-0.11608,-0.02957,-0.00740,0.99277,-0.15721,-0.17505,-0.10825,
1629344790153029888,1.48159,-0.29062,0.23351,-0.11827,-0.03299,-0.01754,0.99228,-0.18814,-0.24347,-0.06463,
1629344790219701760,1.46659,-0.30362,0.23198,-0.11059,-0.04089,-0.00971,0.99298,-0.21914,-0.17795,0.01424,
1629344790286374400,1.45371,-0.31818,0.23708,-0.11076,-0.03265,-0.01562,0.99319,-0.16404,-0.26326,0.05448,
1629344790353046016,1.44216,-0.32838,0.23970,-0.11156,-0.02108,-0.02036,0.99333,-0.18636,-0.13114,0.03841,
1629344790419718144,1.43021,-0.33415,0.23903,-0.11107,-0.01975,-0.01324,0.99353,-0.18096,-0.05981,-0.05606,
1629344790486390784,1.41735,-0.33473,0.23606,-0.11172,-0.02753,0.00055,0.99336,-0.18796,0.01108,-0.04839,
1629344790553062400,1.40462,-0.33364,0.23198,-0.11322,-0.02976,0.00172,0.99312,-0.17803,0.01102,0.08038,
1629344790619735040,1.39104,-0.33385,0.23985,-0.12432,-0.03707,0.00384,0.99154,-0.16921,0.01031,0.11944,
1629344790686406912,1.38370,-0.32988,0.24739,-0.12194,-0.02317,0.01062,0.99221,-0.16669,0.00666,0.02702,
1629344790753079296,1.37252,-0.33237,0.24646,-0.12178,-0.02392,0.00782,0.99224,-0.15761,-0.09352,-0.02880,
1629344790819750912,1.36229,-0.34346,0.24167,-0.12348,-0.02897,-0.00431,0.99192,-0.12732,-0.19288,-0.05492,
1629344790886423040,1.35292,-0.35644,0.23701,-0.12425,-0.03063,-0.00907,0.99174,-0.17350,-0.22693,-0.07959,
1629344790953094400,1.34128,-0.37020,0.23531,-0.11971,-0.03999,-0.00313,0.99200,-0.18541,-0.12615,0.10401,
1629344791019767040,1.33039,-0.38659,0.24621,-0.11862,-0.03056,-0.01616,0.99234,-0.13838,-0.24848,0.14445,
1629344791086438400,1.32419,-0.39860,0.25134,-0.12246,-0.01705,-0.02229,0.99208,-0.15811,-0.13979,0.04107,
1629344791153110784,1.31438,-0.40274,0.25139,-0.11916,-0.01879,-0.00764,0.99267,-0.15611,-0.03601,-0.00457,
1629344791219782400,1.30280,-0.40360,0.24731,-0.11972,-0.02738,0.00697,0.99241,-0.16458,0.02827,-0.01223,
1629344791286455040,1.29007,-0.40337,0.24575,-0.11811,-0.02627,0.00218,0.99265,-0.18237,0.02914,0.05910,
1629344791353126400,1.27988,-0.40136,0.25147,-0.12959,-0.03116,0.00261,0.99107,-0.15334,0.04718,0.11353,
1629344791419798784,1.27271,-0.39565,0.25808,-0.12663,-0.01960,0.01251,0.99168,-0.14349,0.06082,0.06122,
1629344791486470144,1.26228,-0.39784,0.25589,-0.12805,-0.01830,0.01422,0.99150,-0.13381,-0.03224,0.01808,
1629344791553142528,1.25396,-0.40449,0.25307,-0.12957,-0.02028,-0.00086,0.99136,-0.10270,-0.09990,-0.03315,
1629344791619813888,1.24642,-0.41320,0.25050,-0.13176,-0.02132,-0.00899,0.99101,-0.11239,-0.14735,0.01128,
1629344791686486528,1.23725,-0.42257,0.24759,-0.13068,-0.02573,-0.00372,0.99108,-0.16927,-0.07991,0.01132,
1629344791753157888,1.22734,-0.43006,0.25157,-0.12484,-0.02688,-0.00430,0.99180,-0.12409,-0.14772,0.07241,
1629344791819830784,1.21814,-0.43838,0.25376,-0.12857,-0.01872,-0.00917,0.99148,-0.16167,-0.06072,0.02273,
1629344791886502912,1.20774,-0.43847,0.25182,-0.12593,-0.02016,-0.00617,0.99181,-0.19097,0.03347,-0.05259,
1629344791953174528,1.19271,-0.43465,0.24466,-0.12351,-0.03052,0.00544,0.99186,-0.23385,0.16611,-0.09879,
1629344792019846912,1.17442,-0.41925,0.23405,-0.10886,-0.04178,0.01252,0.99310,-0.32678,0.29638,-0.18045,
1629344792086518528,1.15307,-0.40253,0.22741,-0.09440,-0.05315,0.00808,0.99408,-0.29265,0.14014,0.02146,
1629344792153191168,1.13370,-0.38858,0.23393,-0.08584,-0.04618,0.01546,0.99512,-0.27650,0.25084,0.18634,
1629344792219862528,1.11896,-0.36916,0.24340,-0.06418,-0.02307,0.02574,0.99734,-0.25928,0.21028,0.07719,
1629344792286535168,1.10349,-0.36712,0.24122,-0.05709,-0.02303,0.00787,0.99807,-0.22820,-0.05356,-0.07718,
1629344792353206528,1.08929,-0.37540,0.23569,-0.05810,-0.02909,-0.01959,0.99769,-0.20936,-0.11066,-0.06676,
1629344792419879168,1.07482,-0.38473,0.23228,-0.05864,-0.02480,-0.01012,0.99792,-0.24133,-0.16712,-0.04922,
1629344792486550528,1.06046,-0.39129,0.23410,-0.04756,-0.03230,-0.00168,0.99834,-0.20265,-0.10603,0.14482,
1629344792553223168,1.05173,-0.40378,0.24039,-0.05088,-0.01783,-0.01473,0.99844,-0.17235,-0.17913,0.05035,
1629344792619894528,1.03948,-0.41074,0.24197,-0.05375,-0.01414,-0.01482,0.99834,-0.18334,-0.02630,0.02352,
1629344792686567168,1.02538,-0.40870,0.23840,-0.05238,-0.02294,0.00105,0.99836,-0.19358,0.05185,-0.04591,
1629344792753238528,1.01111,-0.40415,0.23392,-0.05438,-0.03064,0.01023,0.99800,-0.22694,0.13898,-0.04676,
1629344792819911168,0.99356,-0.39612,0.22910,-0.05478,-0.03648,0.01058,0.99778,-0.27172,0.11668,-0.03344,
1629344792886582784,0.97554,-0.38620,0.23779,-0.05888,-0.03840,0.01123,0.99746,-0.23736,0.20023,0.18374,
1629344792953255168,0.96268,-0.37139,0.24619,-0.04561,-0.02097,0.02335,0.99847,-0.21555,0.18337,0.07356,
1629344793019926784,0.94853,-0.36412,0.24619,-0.03455,-0.01850,0.01581,0.99911,-0.21092,0.08230,-0.01664,
1629344793086599424,0.93477,-0.36423,0.24264,-0.02161,-0.02526,-0.01380,0.99935,-0.19373,-0.00384,-0.06668,
1629344793153271552,0.92062,-0.36654,0.23831,-0.01035,-0.02664,-0.01915,0.99941,-0.20954,-0.07690,-0.00503,
1629344793219943168,0.90401,-0.37032,0.23843,0.00396,-0.03000,-0.00214,0.99954,-0.22193,-0.03978,0.05591,
1629344793286615552,0.89025,-0.37833,0.24542,0.01527,-0.02138,-0.01224,0.99958,-0.18664,-0.14114,0.08757,
1629344793353287424,0.87855,-0.38471,0.24854,0.01566,-0.01171,-0.01752,0.99966,-0.19049,-0.05608,0.03181,
1629344793419960064,0.86647,-0.38343,0.24777,0.01775,-0.01478,-0.00961,0.99969,-0.18544,0.04366,-0.03531,
1629344793486631424,0.85330,-0.37774,0.24318,0.01530,-0.02401,0.00663,0.99957,-0.20027,0.11265,-0.07113,
1629344793553304064,0.83731,-0.36914,0.23802,0.01546,-0.03374,0.01208,0.99924,-0.25234,0.15831,-0.09596,
1629344793619975424,0.82014,-0.36086,0.24231,0.00483,-0.04301,0.00968,0.99902,-0.22858,0.11257,0.18420,
1629344793686647808,0.80687,-0.35380,0.25041,0.00687,-0.02928,0.01499,0.99944,-0.20562,0.11152,0.11803,
1629344793753319424,0.79280,-0.34874,0.25176,0.00880,-0.01962,0.02042,0.99956,-0.23028,0.02526,-0.02675,
1629344793819991808,0.77618,-0.35274,0.24630,0.00867,-0.02587,-0.00052,0.99963,-0.22840,-0.11885,-0.07799,
1629344793886663680,0.75891,-0.36204,0.23871,0.00908,-0.03220,-0.01735,0.99929,-0.25761,-0.18281,-0.09594,
1629344793953336064,0.73918,-0.37313,0.23074,0.01194,-0.03306,-0.00899,0.99934,-0.31976,-0.17139,-0.04857,
1629344794020007680,0.71858,-0.38359,0.23475,0.02210,-0.03947,-0.01061,0.99892,-0.25955,-0.21664,0.15469,
1629344794086680064,0.70401,-0.39648,0.24435,0.02071,-0.01830,-0.02768,0.99923,-0.22772,-0.15815,0.07155,
1629344794153351424,0.69058,-0.40090,0.24577,0.02327,-0.01375,-0.01953,0.99944,-0.19428,-0.00610,-0.02145,
1629344794220024064,0.67850,-0.39438,0.24235,0.02713,-0.02153,0.01250,0.99932,-0.16491,0.08544,-0.05267,
1629344794286695424,0.66570,-0.38764,0.23921,0.02826,-0.02519,0.01616,0.99915,-0.18508,0.12803,-0.02204,
1629344794353368320,0.65306,-0.37939,0.23799,0.02673,-0.03198,0.00405,0.99912,-0.19224,0.06725,0.06735,
1629344794420039936,0.64066,-0.37012,0.24721,0.02140,-0.02447,0.00733,0.99944,-0.16406,0.17937,0.14646,
1629344794486712320,0.63173,-0.35856,0.25126,0.02743,-0.01009,0.01962,0.99938,-0.16445,0.11230,0.02150,
1629344794553384704,0.62220,-0.35590,0.24928,0.02659,-0.01065,0.01389,0.99949,-0.15643,-0.02702,-0.03323,
1629344794620056064,0.61179,-0.36162,0.24593,0.02565,-0.01806,-0.00956,0.99946,-0.14992,-0.08969,-0.08926,
1629344794686728704,0.60056,-0.36850,0.24129,0.02519,-0.01980,-0.01200,0.99941,-0.17533,-0.14210,-0.03646,
1629344794753400064,0.58755,-0.37601,0.23999,0.02653,-0.02517,-0.00226,0.99933,-0.20052,-0.06257,0.04500,
1629344794820072448,0.57518,-0.38278,0.24558,0.03291,-0.01993,-0.00804,0.99923,-0.17286,-0.13645,0.07876,
1629344794886743808,0.56463,-0.38959,0.24565,0.02947,-0.01372,-0.01458,0.99937,-0.15847,-0.04548,0.00613,
1629344794953416704,0.55718,-0.38856,0.24521,0.03322,-0.01398,-0.01126,0.99929,-0.13416,0.04712,-0.04574,
1629344795020088064,0.54851,-0.38234,0.24234,0.03431,-0.01934,-0.00111,0.99922,-0.11780,0.12661,-0.06417,
1629344795086760192,0.54058,-0.37054,0.23707,0.04057,-0.02538,0.00684,0.99883,-0.14179,0.23338,-0.11316,
1629344795153431552,0.53328,-0.35783,0.23573,0.04519,-0.03344,0.01377,0.99832,-0.12787,0.09855,0.06547,
1629344795220103936,0.52581,-0.34330,0.24543,0.05376,-0.02761,0.01875,0.99800,-0.08580,0.26714,0.17044,
1629344795286775296,0.52154,-0.32697,0.25101,0.06980,-0.01407,0.02385,0.99718,-0.09660,0.19182,0.05489,
1629344795353447680,0.51577,-0.31874,0.25331,0.08203,-0.01683,0.00844,0.99645,-0.08483,0.13236,0.00470,
1629344795420119040,0.51005,-0.31320,0.25272,0.09737,-0.02247,-0.00931,0.99495,-0.07331,0.06627,0.01896,
1629344795486791680,0.50631,-0.30838,0.25388,0.10882,-0.01645,-0.00261,0.99392,-0.07842,0.05387,0.05975,
1629344795553463040,0.50069,-0.30850,0.25356,0.11490,-0.01779,0.00747,0.99319,-0.09533,-0.03758,0.09989,
1629344795620135424,0.49438,-0.31227,0.25711,0.11297,-0.01398,-0.00511,0.99349,-0.10464,-0.04374,0.00168,
1629344795686806784,0.49013,-0.31136,0.25543,0.11551,-0.01274,-0.00642,0.99320,-0.07774,0.09955,0.01500,
1629344795753479168,0.48521,-0.30527,0.25223,0.11921,-0.01758,0.00213,0.99271,-0.06849,0.12706,-0.06850,
1629344795820151552,0.48188,-0.29601,0.24732,0.11961,-0.02228,0.01099,0.99251,-0.06356,0.22008,-0.04815,
1629344795886822912,0.47442,-0.28246,0.24071,0.12158,-0.03177,0.01759,0.99192,-0.12784,0.21684,-0.11228,
1629344795953495552,0.46726,-0.27092,0.24444,0.11479,-0.03486,0.01933,0.99259,-0.10105,0.20099,0.19073,
1629344796020166912,0.46340,-0.25871,0.25269,0.11973,-0.01674,0.02162,0.99243,-0.08413,0.16030,0.07868,
1629344796086839552,0.45621,-0.25254,0.25379,0.11930,-0.00984,0.02598,0.99247,-0.09912,0.09218,0.01647,
1629344796153510912,0.45157,-0.24929,0.25194,0.11883,-0.01332,0.00793,0.99279,-0.07828,0.01795,-0.05683,
1629344796220183296,0.44634,-0.25110,0.24721,0.11954,-0.02130,-0.01467,0.99249,-0.08118,-0.03481,-0.02964,
1629344796286854656,0.44148,-0.25119,0.24722,0.11755,-0.01549,-0.00527,0.99293,-0.10138,-0.03373,0.00757,
1629344796353527040,0.43538,-0.25149,0.24967,0.12199,-0.01853,-0.00060,0.99236,-0.10965,-0.04924,0.03318,
1629344796420198400,0.42932,-0.25405,0.24940,0.12011,-0.01490,-0.00106,0.99265,-0.09706,0.01508,-0.02781,
1629344796486871040,0.42432,-0.24941,0.24782,0.12401,-0.01612,0.00183,0.99215,-0.07864,0.08463,-0.02126,
1629344796553542400,0.41996,-0.24298,0.24495,0.12415,-0.02028,0.01007,0.99200,-0.06467,0.13925,-0.05324,
1629344796620215040,0.41506,-0.23104,0.24072,0.12545,-0.02575,0.02007,0.99156,-0.09684,0.19349,-0.08950,
1629344796686886656,0.40705,-0.21750,0.23300,0.12561,-0.03400,0.02160,0.99126,-0.12379,0.19417,0.00290,
1629344796753558784,0.39972,-0.20676,0.23818,0.12095,-0.03616,0.02226,0.99175,-0.10126,0.18846,0.13052,
1629344796820230144,0.39478,-0.19494,0.24433,0.12397,-0.01812,0.02606,0.99178,-0.10468,0.15713,0.01587,
1629344796886902528,0.38868,-0.18786,0.24655,0.12093,-0.01302,0.02674,0.99222,-0.09429,0.09265,0.01728,
1629344796953573888,0.38419,-0.18444,0.24505,0.12195,-0.01820,0.00204,0.99237,-0.07481,0.03151,-0.04583,
1629344797020246272,0.37924,-0.18383,0.24434,0.12075,-0.02094,-0.00980,0.99241,-0.07437,-0.00032,0.03259,
1629344797086917888,0.37509,-0.18147,0.24657,0.12014,-0.01399,0.00312,0.99265,-0.10801,0.05034,-0.02617,
1629344797153590528,0.36863,-0.18095,0.24924,0.12414,-0.01627,0.00366,0.99212,-0.11289,-0.02146,0.01764,
1629344797220262656,0.36123,-0.18138,0.24773,0.12056,-0.01577,0.00332,0.99258,-0.10984,0.05152,-0.00529,
1629344797286934016,0.35426,-0.17349,0.24516,0.12253,-0.02023,0.01126,0.99219,-0.10911,0.13392,-0.06903,
1629344797353606400,0.34734,-0.16251,0.23934,0.12267,-0.02744,0.02376,0.99178,-0.11254,0.20583,-0.07228,
1629344797420277760,0.33883,-0.14642,0.23095,0.12219,-0.03621,0.02831,0.99144,-0.17296,0.26947,-0.13972,
1629344797486950144,0.32809,-0.13127,0.22601,0.11921,-0.04583,0.02387,0.99152,-0.19490,0.21456,0.06317,
1629344797553621760,0.31640,-0.11600,0.23434,0.11263,-0.03829,0.02725,0.99252,-0.15958,0.27294,0.18870,
1629344797620294144,0.30774,-0.09923,0.24569,0.11670,-0.01177,0.03128,0.99261,-0.15550,0.19917,0.11511,
1629344797686965504,0.29808,-0.08904,0.24639,0.11785,-0.00906,0.02262,0.99273,-0.15198,0.11410,-0.02155,
1629344797753638144,0.28946,-0.08458,0.24464,0.11922,-0.01398,-0.00742,0.99274,-0.14020,0.02790,-0.05217,
1629344797820309504,0.27923,-0.08207,0.24300,0.11850,-0.01197,-0.01006,0.99283,-0.14342,-0.00927,0.01904,
1629344797886981888,0.26836,-0.08038,0.24277,0.12025,-0.01183,0.00040,0.99267,-0.16227,0.03110,0.01993,
1629344797953653248,0.25757,-0.08155,0.24491,0.12239,-0.01241,-0.00131,0.99240,-0.16514,-0.04602,-0.02629,
1629344798020325632,0.24760,-0.08091,0.24394,0.12227,-0.01016,-0.00072,0.99244,-0.13504,0.07400,0.00640,
1629344798086996992,0.23864,-0.07465,0.24150,0.12579,-0.01351,0.00313,0.99196,-0.13278,0.10991,-0.05884,
1629344798153669632,0.23010,-0.06519,0.23655,0.12531,-0.02020,0.01341,0.99182,-0.12587,0.19115,-0.08358,
1629344798220340992,0.21999,-0.05004,0.22922,0.12543,-0.02798,0.02697,0.99134,-0.16569,0.26297,-0.14168,
1629344798287013632,0.20774,-0.03621,0.22718,0.12015,-0.03677,0.03008,0.99162,-0.19051,0.15693,0.06383,
1629344798353684992,0.19712,-0.02272,0.23589,0.11956,-0.03094,0.02327,0.99207,-0.14112,0.21778,0.15306,
1629344798420357376,0.18887,-0.01092,0.24151,0.12144,-0.01427,0.02348,0.99222,-0.16117,0.15761,-0.00019,
1629344798487029760,0.17855,-0.00502,0.24184,0.12091,-0.01248,0.01972,0.99239,-0.15251,0.06129,-0.00425,
1629344798553701120,0.16827,-0.00558,0.23803,0.12224,-0.01800,-0.00268,0.99233,-0.16310,-0.03113,-0.07465,
1629344798620373504,0.15594,-0.00891,0.23507,0.12139,-0.02035,-0.00808,0.99236,-0.19478,-0.07176,-0.03554,
1629344798687044864,0.14169,-0.01119,0.23364,0.12473,-0.02583,-0.00275,0.99185,-0.18429,0.00499,0.03247,
1629344798753717504,0.12957,-0.01427,0.23688,0.12941,-0.02244,-0.00437,0.99133,-0.17741,-0.08746,0.02942,
1629344798820389120,0.11891,-0.01859,0.23745,0.13012,-0.01493,-0.01110,0.99132,-0.14793,-0.00238,0.05772,
1629344798887061504,0.10935,-0.01798,0.23866,0.13342,-0.01159,-0.01453,0.99089,-0.13211,0.01902,-0.02325,
1629344798953732864,0.10083,-0.01358,0.23618,0.13473,-0.01516,-0.00241,0.99076,-0.08823,0.11203,-0.02709,
1629344799020405504,0.09458,-0.00568,0.23278,0.13736,-0.01935,0.00812,0.99030,-0.09271,0.15508,-0.04478,
1629344799087076864,0.08690,0.00297,0.23042,0.13717,-0.02414,0.01013,0.99020,-0.13451,0.09736,-0.01003,
1629344799153749504,0.07875,0.00935,0.23605,0.12862,-0.02516,0.01085,0.99131,-0.10141,0.13465,0.07618,
1629344799220420864,0.07414,0.01660,0.23797,0.13262,-0.01342,0.01503,0.99096,-0.12223,0.09140,0.00352,
1629344799287093504,0.06503,0.01769,0.23687,0.13177,-0.01566,0.01150,0.99109,-0.16522,-0.00843,-0.04314,
1629344799353765120,0.05270,0.01304,0.23207,0.13066,-0.02346,0.00065,0.99115,-0.19077,-0.10010,-0.07309,
1629344799420437504,0.03816,0.00495,0.22631,0.12982,-0.03069,-0.00802,0.99103,-0.25421,-0.13947,-0.10149,
1629344799487108864,0.01817,-0.00362,0.21741,0.13132,-0.04030,-0.00289,0.99052,-0.30983,-0.14131,-0.05585,
1629344799553781504,-0.00056,-0.01198,0.21882,0.14190,-0.04520,-0.00758,0.98882,-0.24727,-0.11324,0.16962,
1629344799620452864,-0.01671,-0.02241,0.22744,0.13921,-0.02937,-0.02653,0.98947,-0.22120,-0.14880,0.11440,
1629344799687125504,-0.02881,-0.02890,0.23124,0.14257,-0.01710,-0.02562,0.98930,-0.16821,-0.04969,0.04866,
1629344799753797376,-0.03873,-0.03210,0.22961,0.14313,-0.01565,0.00376,0.98957,-0.12539,-0.03921,-0.01740,
1629344799820470272,-0.04647,-0.03425,0.22816,0.14123,-0.01535,0.01626,0.98972,-0.09960,0.00357,0.02924,
1629344799887143168,-0.05286,-0.03624,0.23071,0.14486,-0.00799,-0.00204,0.98942,-0.10064,0.00209,0.02314,
1629344799953815296,-0.06002,-0.03741,0.23116,0.13683,-0.01499,-0.00471,0.99047,-0.08859,-0.04222,0.09434,
1629344800020487936,-0.06613,-0.03659,0.23347,0.13774,-0.01040,0.00101,0.99041,-0.08156,0.05355,-0.00987,
1629344800087159808,-0.07468,-0.03765,0.23109,0.13850,-0.00736,0.00460,0.99032,-0.15879,-0.08388,-0.04075,
1629344800153832960,-0.08715,-0.04619,0.22389,0.13605,-0.02255,-0.01102,0.99038,-0.19896,-0.14630,-0.13746,
1629344800220505088,-0.10310,-0.05755,0.21463,0.13561,-0.03702,-0.02523,0.98975,-0.27161,-0.21570,-0.12531,
1629344800287177728,-0.12439,-0.06907,0.20537,0.13827,-0.04187,-0.00616,0.98949,-0.36701,-0.19165,-0.17054,
1629344800353849856,-0.14890,-0.07922,0.19942,0.14924,-0.04953,0.00411,0.98755,-0.31901,-0.12256,0.11649,
1629344800420522752,-0.17204,-0.09392,0.21114,0.15411,-0.03438,-0.02583,0.98712,-0.33156,-0.28205,0.22702,
1629344800487194624,-0.18941,-0.11177,0.22243,0.14622,-0.01019,-0.04493,0.98818,-0.26120,-0.16712,0.07839,
1629344800553867520,-0.20443,-0.11524,0.22247,0.14696,-0.00789,-0.00639,0.98909,-0.20866,-0.05919,-0.06920,
1629344800620539648,-0.21927,-0.11687,0.21821,0.13854,-0.01322,0.03365,0.98970,-0.20265,-0.07067,-0.03617,
1629344800687212800,-0.23003,-0.12089,0.22148,0.13933,-0.00854,0.00482,0.99020,-0.18319,0.00445,0.09658,
1629344800753884160,-0.24221,-0.12278,0.22424,0.13834,-0.01305,-0.02710,0.98993,-0.20487,-0.00844,-0.00147,
1629344800820556544,-0.25452,-0.12007,0.22822,0.13374,-0.01048,-0.01090,0.99090,-0.15964,0.09316,0.03131,
1629344800887227904,-0.26114,-0.11428,0.22917,0.13629,-0.00153,0.00940,0.99062,-0.18895,-0.00432,-0.01461,
1629344800953900288,-0.27808,-0.11950,0.22347,0.13452,-0.01290,-0.00389,0.99082,-0.25917,-0.09699,-0.14627,
1629344801020571904,-0.29897,-0.13091,0.21228,0.13266,-0.03356,-0.02613,0.99025,-0.31117,-0.21626,-0.15999,
1629344801087244288,-0.32191,-0.14216,0.20314,0.13404,-0.03698,-0.01538,0.99017,-0.39249,-0.17620,-0.15238,
1629344801153916928,-0.35123,-0.15423,0.19244,0.13939,-0.04494,0.01042,0.98916,-0.43742,-0.19529,-0.07380,
1629344801220588544,-0.37842,-0.16584,0.20137,0.14866,-0.04317,-0.00902,0.98790,-0.35826,-0.17183,0.29596,
1629344801287260672,-0.39361,-0.17957,0.21974,0.14931,-0.01206,-0.01366,0.98862,-0.28204,-0.11751,0.13409,
1629344801353932032,-0.40899,-0.18366,0.22171,0.15097,-0.01403,-0.01740,0.98829,-0.19764,-0.02719,0.05174,
1629344801420604672,-0.41928,-0.18208,0.22318,0.15479,-0.01684,-0.02027,0.98760,-0.10453,0.06173,0.03089,
1629344801487276032,-0.42383,-0.17712,0.21912,0.15583,-0.01938,-0.01776,0.98743,-0.03775,0.07578,-0.00334,
1629344801553948416,-0.42858,-0.17396,0.21467,0.15385,-0.02090,-0.01374,0.98778,0.00053,0.05365,0.00365,
1629344801620620032,-0.43076,-0.17165,0.21398,0.15338,-0.02077,-0.01147,0.98788,0.01780,0.01361,0.01069,
1629344801687292672,-0.43048,-0.17203,0.21421,0.15323,-0.02004,-0.01175,0.98792,0.01884,-0.02905,0.01004,
1629344801753964032,-0.43010,-0.17353,0.21461,0.15365,-0.01905,-0.01319,0.98785,0.01141,-0.01518,0.00807,
1629344801820636160,-0.42979,-0.17402,0.21470,0.15421,-0.01863,-0.01386,0.98776,-0.00276,0.00570,0.00038,
1629344801887307520,-0.43010,-0.17331,0.21441,0.15395,-0.01902,-0.01308,0.98781,-0.01119,0.02316,-0.00572,
1629344801953980160,-0.43052,-0.17249,0.21410,0.15369,-0.01956,-0.01219,0.98785,-0.01020,0.00945,-0.00147,
1629344802020651520,-0.43049,-0.17267,0.21408,0.15370,-0.01952,-0.01232,0.98785,-0.00180,-0.00438,0.00338,
1629344802087323904,-0.43007,-0.17328,0.21440,0.15383,-0.01911,-0.01294,0.98783,-0.00212,-0.00401,0.00487,
1629344802153995264,-0.42994,-0.17338,0.21443,0.15393,-0.01892,-0.01319,0.98781,-0.00944,0.00759,0.00003,
1629344802220667904,-0.43011,-0.17304,0.21416,0.15381,-0.01910,-0.01282,0.98783,-0.01107,0.01282,-0.00176,
1629344802287339264,-0.43019,-0.17277,0.21408,0.15374,-0.01929,-0.01252,0.98784,-0.00865,0.00584,0.00131,
1629344802354011648,-0.43009,-0.17291,0.21417,0.15377,-0.01916,-0.01265,0.98784,-0.00667,0.00016,0.00325,
1629344802420683008,-0.42994,-0.17321,0.21424,0.15385,-0.01898,-0.01298,0.98783,-0.00887,0.00342,0.00243,
1629344802487355136,-0.42994,-0.17316,0.21410,0.15387,-0.01891,-0.01299,0.98782,-0.01006,0.00871,0.00102,
1629344802554027520,-0.43000,-0.17291,0.21402,0.15380,-0.01902,-0.01278,0.98784,-0.00994,0.00905,0.00138,
1629344802620698880,-0.42992,-0.17289,0.21401,0.15381,-0.01906,-0.01275,0.98783,-0.01013,0.00487,0.00245,
1629344802687371520,-0.42994,-0.17302,0.21392,0.15382,-0.01890,-0.01291,0.98783,-0.00770,0.00355,0.00332,
1629344802754042880,-0.42989,-0.17310,0.21402,0.15384,-0.01886,-0.01299,0.98783,-0.01012,0.00600,0.00288,
1629344802820715520,-0.42994,-0.17299,0.21398,0.15382,-0.01887,-0.01292,0.98783,-0.01115,0.00808,0.00215,
1629344802887386880,-0.42990,-0.17285,0.21391,0.15381,-0.01890,-0.01282,0.98784,-0.01039,0.00726,0.00259,
1629344802954059008,-0.42989,-0.17285,0.21394,0.15380,-0.01890,-0.01288,0.98784,-0.01066,0.00476,0.00365,
1629344803020730368,-0.42995,-0.17291,0.21388,0.15382,-0.01878,-0.01297,0.98783,-0.00969,0.00530,0.00322,
1629344803087402752,-0.42990,-0.17295,0.21384,0.15382,-0.01874,-0.01298,0.98784,-0.00928,0.00734,0.00313,
1629344803154074112,-0.42985,-0.17294,0.21386,0.15381,-0.01876,-0.01292,0.98784,-0.01036,0.00726,0.00354,
1629344803220746496,-0.42988,-0.17290,0.21378,0.15381,-0.01875,-0.01292,0.98784,-0.01102,0.00623,0.00339,
1629344803287417856,-0.42979,-0.17271,0.21402,0.15376,-0.01875,-0.01296,0.98784,-0.01093,0.00616,0.00448,
1629344803354090240,-0.42960,-0.17281,0.21454,0.15376,-0.01879,-0.01290,0.98784,-0.01145,0.00869,0.00410,
1629344803420761856,-0.42958,-0.17281,0.21448,0.15376,-0.01875,-0.01291,0.98785,-0.01132,0.00862,0.00384,
1629344803487434240,-0.42956,-0.17276,0.21442,0.15375,-0.01874,-0.01289,0.98785,-0.01039,0.00842,0.00400,
1629344803554105600,-0.42960,-0.17278,0.21434,0.15376,-0.01866,-0.01292,0.98785,-0.00991,0.00624,0.00486,
1629344803620777728,-0.42956,-0.17283,0.21436,0.15377,-0.01866,-0.01294,0.98785,-0.01099,0.00634,0.00414,
1629344803687449344,-0.42954,-0.17278,0.21428,0.15374,-0.01862,-0.01289,0.98785,-0.00963,0.00778,0.00380,
