1629344764017670400,0.00064,-0.00063,0.00051,0.99996,0.00537,-0.00691,-0.00054,-0.00157,0.00298,-0.00006,
1629344764084339968,0.00216,-0.00003,0.01584,0.99998,0.00377,-0.00467,-0.00060,0.00337,0.00487,0.02799,
1629344764151008512,0.00315,0.00077,0.02009,0.99998,0.00302,-0.00456,-0.00064,0.00663,0.01147,0.03517,
1629344764217678080,0.00377,0.00139,0.02203,0.99999,0.00247,-0.00477,-0.00027,0.01643,0.00151,0.02220,
1629344764284346112,0.00474,0.00085,0.02346,0.99998,0.00400,-0.00389,-0.00055,0.01767,-0.01490,0.03769,
1629344764351015680,0.00575,-0.00041,0.02594,0.99997,0.00596,-0.00369,-0.00111,0.01022,-0.02226,0.05540,
1629344764417683712,0.00694,-0.00183,0.02943,0.99996,0.00706,-0.00435,-0.00216,0.01289,-0.01270,0.06030,
1629344764484353280,0.00810,-0.00238,0.03342,0.99995,0.00744,-0.00543,-0.00254,0.01530,-0.00194,0.06723,
1629344764551021568,0.00927,-0.00249,0.03835,0.99996,0.00588,-0.00636,-0.00285,0.01413,-0.00301,0.06383,
1629344764617690368,0.01010,-0.00274,0.04172,0.99995,0.00672,-0.00708,-0.00296,0.01340,-0.00320,0.04021,
1629344764684358656,0.01014,-0.00283,0.04416,0.99994,0.00716,-0.00763,-0.00279,0.00535,0.01052,0.03723,
1629344764751028480,0.00962,-0.00293,0.04646,0.99993,0.00727,-0.00952,-0.00215,0.00358,0.00663,0.04207,
1629344764817697280,0.00876,-0.00295,0.04963,0.99991,0.00707,-0.01116,-0.00211,-0.00234,0.00411,0.04632,
1629344764884367104,0.00845,-0.00276,0.05285,0.99988,0.00735,-0.01315,-0.00199,0.00285,0.00138,0.04101,
1629344764951035904,0.00864,-0.00235,0.05533,0.99986,0.00798,-0.01458,-0.00200,0.00824,0.00431,0.03201,
1629344765017705728,0.00903,-0.00189,0.05741,0.99985,0.00757,-0.01543,-0.00211,0.01002,0.00758,0.03192,
1629344765084374272,0.00898,-0.00274,0.05923,0.99983,0.00736,-0.01675,-0.00177,0.01392,0.00969,0.03931,
1629344765151043840,0.00942,-0.00294,0.06223,0.99983,0.00772,-0.01659,-0.00150,0.01762,0.00261,0.04873,
1629344765217713664,0.01017,-0.00304,0.06563,0.99983,0.00848,-0.01626,-0.00075,0.02136,0.00425,0.05325,
1629344765284382208,0.01158,-0.00286,0.06893,0.99984,0.00786,-0.01636,-0.00059,0.01879,0.02084,0.05182,
1629344765351051520,0.01256,-0.00156,0.07231,0.99984,0.00607,-0.01704,0.00023,0.01076,0.01837,0.05084,
1629344765417720064,0.01398,0.00024,0.07545,0.99982,0.00551,-0.01796,0.00072,0.00505,0.00395,0.05178,
1629344765484389376,0.01476,0.00053,0.07839,0.99981,0.00632,-0.01840,0.00080,0.01043,-0.00432,0.03419,
1629344765551057920,0.01578,0.00026,0.08023,0.99979,0.00813,-0.01855,0.00045,0.00890,-0.00916,0.02693,
1629344765617726976,0.01628,-0.00055,0.08213,0.99977,0.01022,-0.01867,0.00029,0.00721,-0.00996,0.03592,
1629344765684395520,0.01652,-0.00137,0.08467,0.99974,0.01155,-0.01945,-0.00025,-0.00109,-0.00526,0.04241,
1629344765751065088,0.01626,-0.00217,0.08766,0.99971,0.01245,-0.02073,-0.00054,0.00437,-0.00589,0.04250,
1629344765817733376,0.01722,-0.00302,0.09083,0.99968,0.01510,-0.02034,-0.00022,0.01480,-0.00854,0.04655,
1629344765884402688,0.01802,-0.00411,0.09364,0.99965,0.01746,-0.02010,-0.00037,0.02292,-0.01018,0.03827,
1629344765951070976,0.01935,-0.00437,0.09627,0.99966,0.01704,-0.01957,-0.00058,0.02500,0.00739,0.03304,
1629344766017740544,0.02073,-0.00371,0.09833,0.99971,0.01569,-0.01836,-0.00069,0.02163,0.02147,0.02643,
1629344766084408832,0.02233,-0.00229,0.10010,0.99976,0.01467,-0.01640,-0.00039,0.02152,0.01713,0.03258,
1629344766151077888,0.02369,-0.00095,0.10214,0.99979,0.01397,-0.01529,-0.00015,0.01796,0.01404,0.03470,
1629344766217745920,0.02503,-0.00042,0.10432,0.99977,0.01487,-0.01543,-0.00049,0.00641,0.00264,0.05321,
1629344766284414976,0.02550,-0.00080,0.10739,0.99973,0.01687,-0.01625,-0.00048,-0.00407,-0.01671,0.05703,
1629344766351083264,0.02496,-0.00260,0.11128,0.99965,0.02041,-0.01675,-0.00069,-0.00696,-0.02217,0.05529,
1629344766417752320,0.02461,-0.00464,0.11538,0.99954,0.02479,-0.01769,-0.00113,-0.01291,-0.03263,0.06775,
1629344766484421376,0.02376,-0.00691,0.11866,0.99945,0.02762,-0.01844,-0.00238,-0.00830,-0.02464,0.02663,
1629344766551088896,0.02408,-0.00801,0.12085,0.99940,0.02966,-0.01750,-0.00282,-0.00468,-0.01185,0.02876,
1629344766617757696,0.02382,-0.00910,0.12231,0.99936,0.03135,-0.01680,-0.00291,-0.00732,0.00124,0.03654,
1629344766684425472,0.02281,-0.00929,0.12473,0.99935,0.03145,-0.01724,-0.00239,-0.01209,0.01200,0.04966,
1629344766751096576,0.02191,-0.00841,0.12733,0.99937,0.02975,-0.01895,-0.00245,-0.00095,0.01733,0.02581,
1629344766817766400,0.02177,-0.00704,0.12928,0.99943,0.02811,-0.01853,-0.00231,0.00497,0.01586,0.03006,
1629344766884437504,0.02172,-0.00631,0.13142,0.99944,0.02777,-0.01862,-0.00215,0.00475,-0.00451,0.04395,
1629344766951107584,0.02208,-0.00698,0.13439,0.99940,0.02890,-0.01867,-0.00250,0.01605,-0.02520,0.05432,
1629344767017778432,0.02326,-0.00846,0.13798,0.99937,0.03058,-0.01751,-0.00302,0.02285,-0.02422,0.05484,
1629344767084448256,0.02660,-0.01087,0.14204,0.99939,0.03313,-0.01002,-0.00430,0.03092,-0.02533,0.05746,
1629344767151119104,0.02905,-0.01246,0.14532,0.99936,0.03487,-0.00653,-0.00428,0.02628,-0.01542,0.04813,
1629344767217788928,0.03141,-0.01387,0.14782,0.99930,0.03676,-0.00459,-0.00490,0.02029,-0.02430,0.03515,
1629344767284459776,0.03265,-0.01524,0.15000,0.99928,0.03747,-0.00357,-0.00558,0.01380,-0.00796,0.02098,
1629344767351129600,0.03311,-0.01634,0.15159,0.99923,0.03887,-0.00213,-0.00533,0.00777,-0.00010,0.01650,
1629344767417800448,0.03333,-0.01602,0.15261,0.99926,0.03816,-0.00190,-0.00527,-0.00298,0.00960,0.02719,
1629344767484470016,0.03289,-0.01507,0.15462,0.99931,0.03667,-0.00301,-0.00553,-0.01463,0.01214,0.04562,
1629344767551141120,0.03182,-0.01427,0.15779,0.99934,0.03565,-0.00421,-0.00540,-0.01349,0.00273,0.04661,
1629344767617810688,0.03088,-0.01396,0.16127,0.99936,0.03505,-0.00429,-0.00526,-0.00929,0.00006,0.04640,
1629344767684481536,0.02950,-0.01406,0.16437,0.99934,0.03559,-0.00500,-0.00488,-0.00804,-0.00272,0.04426,
1629344767751152640,0.02881,-0.01425,0.16736,0.99930,0.03653,-0.00692,-0.00477,-0.00786,-0.00982,0.04858,
1629344767817824512,0.02794,-0.01527,0.17028,0.99923,0.03810,-0.00836,-0.00427,0.00101,-0.02034,0.03437,
1629344767884496896,0.02755,-0.01642,0.17342,0.99913,0.04006,-0.01038,-0.00432,0.00531,-0.02249,0.04422,
1629344767951167744,0.02733,-0.01770,0.17598,0.99903,0.04192,-0.01258,-0.00464,0.01638,-0.01523,0.03885,
1629344768017839872,0.02767,-0.01848,0.17865,0.99899,0.04273,-0.01304,-0.00400,0.02186,-0.00598,0.04035,
1629344768084510976,0.02876,-0.01856,0.18104,0.99903,0.04189,-0.01267,-0.00449,0.02254,0.00686,0.03951,
1629344768151183104,0.02990,-0.01793,0.18312,0.99906,0.04107,-0.01293,-0.00406,0.01986,0.00966,0.04133,
1629344768217853952,0.03102,-0.01726,0.18550,0.99909,0.04038,-0.01300,-0.00345,0.01584,0.00774,0.03802,
1629344768284526080,0.03193,-0.01602,0.18764,0.99917,0.03874,-0.01230,-0.00361,0.01253,0.00802,0.02493,
1629344768351197184,0.03298,-0.01489,0.18921,0.99922,0.03744,-0.01193,-0.00381,0.00952,0.00729,0.03590,
1629344768417869312,0.03373,-0.01425,0.19131,0.99924,0.03666,-0.01250,-0.00393,0.00469,0.00109,0.05255,
1629344768484540416,0.03414,-0.01413,0.19483,0.99925,0.03647,-0.01248,-0.00344,0.00690,-0.00426,0.05236,
1629344768551212800,0.03485,-0.01437,0.19817,0.99924,0.03683,-0.01188,-0.00400,0.00758,-0.01137,0.05403,
1629344768617883904,0.03548,-0.01497,0.20124,0.99923,0.03715,-0.01228,-0.00419,0.00988,-0.01064,0.04056,
1629344768684556288,0.03645,-0.01548,0.20386,0.99922,0.03759,-0.01128,-0.00471,0.00886,-0.01246,0.02109,
1629344768751227648,0.03608,-0.01688,0.20471,0.99920,0.03818,-0.01049,-0.00485,-0.00092,-0.01272,0.00455,
1629344768817900032,0.03553,-0.01800,0.20458,0.99916,0.03915,-0.01092,-0.00506,-0.00932,-0.00735,0.00690,
1629344768884571392,0.03490,-0.01819,0.20470,0.99915,0.03942,-0.01094,-0.00523,-0.01425,0.00097,0.00228,
1629344768951243776,0.03367,-0.01829,0.20455,0.99914,0.03969,-0.01120,-0.00518,-0.01725,0.00284,0.00545,
1629344769017915136,0.03207,-0.01830,0.20447,0.99913,0.03975,-0.01167,-0.00526,-0.01560,-0.00329,0.00331,
1629344769084587776,0.03094,-0.01836,0.20462,0.99912,0.03981,-0.01181,-0.00522,-0.01076,-0.00181,0.00233,
1629344769151260160,0.03027,-0.01815,0.20486,0.99914,0.03954,-0.01144,-0.00525,-0.00406,-0.00091,0.00175,
1629344769217932032,0.02974,-0.01802,0.20509,0.99916,0.03915,-0.01095,-0.00527,-0.00330,0.00315,0.00355,
1629344769284604416,0.02960,-0.01780,0.20488,0.99917,0.03886,-0.01084,-0.00523,-0.00113,-0.00106,0.00307,
1629344769351276032,0.02957,-0.01791,0.20455,0.99915,0.03926,-0.01107,-0.00538,0.00173,0.00011,0.00299,
1629344769417948416,0.02963,-0.01777,0.20466,0.99917,0.03901,-0.01073,-0.00534,0.00416,0.00027,0.00243,
1629344769484620032,0.02973,-0.01772,0.20460,0.99918,0.03885,-0.01049,-0.00536,0.00286,0.00062,0.00255,
1629344769551292672,0.02990,-0.01759,0.20443,0.99918,0.03868,-0.01033,-0.00535,0.00191,0.00005,0.00258,
1629344769617964288,0.02981,-0.01770,0.20443,0.99917,0.03894,-0.01045,-0.00536,0.00205,-0.00040,0.00272,
1629344769684637184,0.02964,-0.01767,0.20447,0.99918,0.03876,-0.01041,-0.00535,0.00134,-0.00000,0.00229,
1629344769751308544,0.02960,-0.01756,0.20486,0.99920,0.03843,-0.01001,-0.00535,0.00274,0.00119,0.00277,
1629344769817980928,0.02978,-0.01749,0.20464,0.99921,0.03814,-0.00980,-0.00534,0.00210,-0.00001,0.00176,
1629344769884652288,0.02989,-0.01746,0.20443,0.99920,0.03825,-0.01001,-0.00540,0.00235,-0.00003,0.00267,
1629344769951324928,0.02998,-0.01748,0.20448,0.99920,0.03841,-0.00999,-0.00540,0.00302,0.00069,0.00239,
1629344770017996288,0.03016,-0.01727,0.20439,0.99921,0.03812,-0.00970,-0.00543,0.00176,0.00178,0.00185,
1629344770084668928,0.02268,-0.02055,0.19957,0.99920,0.03747,-0.01135,-0.00807,-0.10856,-0.13695,0.06596,
1629344770151340544,0.02067,-0.02167,0.20393,0.99905,0.03919,-0.01372,-0.01324,-0.11109,-0.09840,0.02927,
1629344770218013184,0.01918,-0.01825,0.20701,0.99936,0.02838,-0.01473,-0.01605,-0.13356,-0.03834,0.02810,
1629344770284684544,0.01416,-0.01499,0.20835,0.99974,0.01167,-0.00996,-0.01710,-0.17703,-0.03602,0.00682,
1629344770351357184,-0.00181,-0.02191,0.21148,0.99959,0.02105,-0.01386,-0.01395,-0.18515,0.04545,0.16626,
1629344770418028800,-0.01663,-0.02225,0.22319,0.99949,0.01738,-0.02605,-0.00652,-0.14115,-0.01100,0.14411,
1629344770484701696,-0.01859,-0.01894,0.22688,0.99939,0.01931,-0.02533,-0.01433,-0.03729,0.01919,-0.04988,
1629344770551374080,-0.01963,-0.01165,0.22433,0.99974,0.01158,-0.01375,-0.01367,0.01782,0.20310,-0.06011,
1629344770618045696,-0.01468,-0.00415,0.21836,0.99992,0.00611,0.00480,-0.00948,0.07895,0.22326,-0.07027,
1629344770684718592,-0.00679,0.01033,0.21498,0.99964,0.01695,0.01800,-0.01023,0.15728,0.24449,-0.09843,
1629344770751390720,0.00320,0.02139,0.21962,0.99885,0.02811,0.03029,-0.02429,0.13417,0.13338,0.20173,
1629344770818063616,0.00963,0.03378,0.23496,0.99945,0.02092,0.00934,-0.02392,0.09483,0.21459,0.21358,
1629344770884735744,0.01253,0.04452,0.24053,0.99952,0.02037,-0.00220,-0.02306,0.05602,0.09684,0.05379,
1629344770951409152,0.01506,0.04613,0.23990,0.99840,0.05166,-0.00366,-0.02268,0.02705,0.02911,-0.01101,
1629344771018081280,0.01799,0.04716,0.23950,0.99763,0.06623,-0.00327,-0.01851,0.01169,-0.02725,0.02808,
1629344771084754432,0.01993,0.04347,0.24286,0.99810,0.05873,-0.00602,-0.01764,0.01364,0.01426,0.16827,
1629344771151426816,0.01977,0.04042,0.24879,0.99881,0.04608,-0.00816,-0.01358,0.00588,-0.11150,0.11730,
1629344771218099968,0.02005,0.03677,0.24772,0.99842,0.05103,-0.01462,-0.01819,0.02032,-0.09123,-0.01608,
1629344771284772352,0.02106,0.03497,0.24673,0.99843,0.05121,-0.01501,-0.01682,0.00402,-0.01038,0.01182,
1629344771351446016,0.02130,0.03361,0.24530,0.99873,0.04543,-0.01381,-0.01704,-0.00783,-0.02365,-0.01342,
1629344771418118144,0.01975,0.03265,0.24497,0.99855,0.04812,-0.01682,-0.01751,-0.02618,-0.01636,0.00756,
1629344771484791552,0.01736,0.03046,0.24699,0.99824,0.05271,-0.01400,-0.02326,-0.01684,-0.09186,0.06517,
1629344771551463936,0.01584,0.02957,0.24707,0.99848,0.04916,-0.01495,-0.02016,0.01734,0.02693,-0.08542,
1629344771618137344,0.01892,0.02400,0.24457,0.99837,0.05248,-0.00842,-0.02093,0.03130,-0.10868,-0.03297,
1629344771684809984,0.02114,0.01665,0.24135,0.99783,0.06140,-0.00158,-0.02358,0.06131,-0.11948,-0.07631,
1629344771751482880,0.02672,0.00841,0.23690,0.99739,0.06810,0.00584,-0.02311,0.10500,-0.15269,-0.08845,
1629344771818155776,0.03484,-0.00150,0.23360,0.99761,0.06379,0.01512,-0.02178,0.12038,-0.12452,0.07343,
1629344771884827648,0.04324,-0.01449,0.24340,0.99801,0.06118,0.00585,-0.01410,0.09264,-0.20192,0.15162,
1629344771951500288,0.04797,-0.02694,0.24790,0.99800,0.06002,-0.01081,-0.01634,0.08729,-0.15383,0.02379,
1629344772018172416,0.05310,-0.03120,0.24970,0.99843,0.05218,-0.01542,-0.01307,0.05210,-0.10175,0.02342,
1629344772084845568,0.05758,-0.03465,0.24922,0.99915,0.03564,-0.01533,-0.01408,0.02396,-0.07881,-0.01022,
1629344772151517696,0.05799,-0.04054,0.25047,0.99890,0.03852,-0.02321,-0.01320,-0.01883,-0.09747,0.06756,
1629344772218190592,0.05673,-0.04844,0.25571,0.99852,0.04467,-0.02290,-0.02085,0.00036,-0.08337,0.01902,
1629344772284862464,0.05884,-0.05048,0.25099,0.99878,0.04242,-0.01835,-0.01754,0.05073,-0.06104,-0.12286,
1629344772351535616,0.06324,-0.06119,0.24426,0.99869,0.04581,-0.00903,-0.02099,0.07054,-0.16593,-0.07419,
1629344772418207744,0.07020,-0.07267,0.23893,0.99809,0.05763,0.00127,-0.02240,0.12591,-0.19485,-0.10298,
1629344772484880896,0.08017,-0.08744,0.23160,0.99786,0.05936,0.01178,-0.02467,0.18710,-0.23863,-0.13037,
1629344772551553280,0.09314,-0.10161,0.22978,0.99830,0.05020,0.02127,-0.02056,0.18536,-0.15530,0.08119,
1629344772618226176,0.10533,-0.11633,0.23973,0.99833,0.05468,0.00616,-0.01769,0.15153,-0.23381,0.14629,
1629344772684898304,0.11103,-0.13292,0.24518,0.99769,0.06422,-0.01429,-0.01718,0.13952,-0.17726,0.04824,
1629344772751571456,0.11754,-0.14356,0.24751,0.99846,0.04911,-0.02054,-0.01572,0.08569,-0.17794,0.00517,
1629344772818243840,0.12181,-0.15459,0.24586,0.99937,0.01649,-0.01674,-0.02673,0.04945,-0.18469,-0.01387,
1629344772884916992,0.12216,-0.16919,0.24944,0.99870,0.02448,-0.02693,-0.03569,0.01605,-0.25365,0.11978,
1629344772951589120,0.12412,-0.18625,0.25375,0.99764,0.04206,-0.02115,-0.04995,0.05124,-0.15007,-0.03283,
1629344773018262272,0.13014,-0.19630,0.24714,0.99759,0.04134,-0.01438,-0.05390,0.11703,-0.18699,-0.11984,
1629344773084934656,0.13689,-0.20915,0.24226,0.99707,0.03953,-0.00492,-0.06530,0.14189,-0.25060,-0.05597,
1629344773151608064,0.14676,-0.22562,0.23273,0.99610,0.05287,0.00706,-0.07023,0.20091,-0.25411,-0.17366,
1629344773218281216,0.16254,-0.24698,0.22083,0.99502,0.05894,0.02271,-0.07710,0.26994,-0.31955,-0.08996,
1629344773284953600,0.17804,-0.26299,0.22401,0.99556,0.05050,0.03063,-0.07325,0.26009,-0.25145,0.15498,
1629344773351626752,0.19526,-0.27715,0.23287,0.99561,0.04645,0.01972,-0.07888,0.25868,-0.22801,0.13930,
1629344773418299648,0.20883,-0.28673,0.23627,0.99552,0.04498,0.01135,-0.08236,0.28285,-0.16073,-0.02950,
1629344773484973056,0.22644,-0.29115,0.22983,0.99536,0.03650,0.02037,-0.08661,0.29494,-0.01634,-0.09812,
1629344773551645184,0.24675,-0.28886,0.22348,0.99555,0.01453,0.02649,-0.08929,0.33650,0.06040,-0.15469,
1629344773618318848,0.26730,-0.28861,0.22213,0.99460,0.00635,0.02970,-0.09920,0.29048,-0.05215,0.04192,
1629344773684991232,0.28894,-0.28330,0.22716,0.99391,0.00373,0.03311,-0.10502,0.29988,0.13180,0.03154,
1629344773751663872,0.30360,-0.27777,0.23114,0.99443,-0.00510,0.02230,-0.10287,0.26105,0.07407,-0.01480,
1629344773818335488,0.31604,-0.27829,0.23553,0.99491,0.00600,0.01399,-0.09966,0.22472,-0.01208,-0.04257,
1629344773885008128,0.33070,-0.28161,0.23430,0.99502,0.00662,0.01605,-0.09818,0.20305,-0.07249,0.00632,
1629344773951679488,0.34352,-0.28687,0.23240,0.99491,0.00253,0.01900,-0.09895,0.21761,-0.09791,-0.01748,
1629344774018352128,0.35853,-0.29538,0.24023,0.99562,0.00406,0.01978,-0.09123,0.18538,-0.12614,0.09947,
1629344774085023744,0.36249,-0.30209,0.24583,0.99540,0.00836,0.00116,-0.09547,0.16289,-0.12799,0.04860,
1629344774151696128,0.37647,-0.30520,0.24433,0.99526,0.00953,0.00467,-0.09669,0.19985,-0.03194,-0.01065,
1629344774218367744,0.39305,-0.30561,0.23991,0.99522,0.00223,0.01296,-0.09681,0.21892,0.04404,-0.04701,
1629344774285040640,0.40939,-0.30511,0.23711,0.99517,0.00002,0.01074,-0.09758,0.26345,0.06951,-0.05362,
1629344774351712256,0.42486,-0.30316,0.23813,0.99436,0.00643,0.01734,-0.10448,0.22969,-0.00919,0.12589,
1629344774418384896,0.44198,-0.30260,0.24393,0.99471,0.00012,0.00924,-0.10235,0.24944,0.04809,0.02101,
1629344774485057280,0.45981,-0.30485,0.24348,0.99504,-0.00142,0.00735,-0.09920,0.24809,-0.05926,-0.02866,
1629344774551728896,0.46846,-0.31328,0.24121,0.99542,0.01171,0.00754,-0.09453,0.20220,-0.13443,-0.08732,
1629344774618401536,0.48912,-0.32751,0.23365,0.99502,0.03935,0.00519,-0.09145,0.25512,-0.30763,-0.17598,
1629344774685073152,0.50276,-0.34396,0.22782,0.99514,0.02840,0.01627,-0.09287,0.21914,-0.26883,0.06057,
1629344774751746816,0.51888,-0.36457,0.24039,0.99536,0.03126,0.00600,-0.09078,0.18021,-0.29392,0.21721,
1629344774818419200,0.52701,-0.38032,0.24907,0.99529,0.02369,-0.01180,-0.09325,0.19645,-0.20731,0.03214,
1629344774885092608,0.54101,-0.38838,0.24852,0.99538,0.00294,-0.00555,-0.09577,0.20235,-0.09526,0.01023,
1629344774951765248,0.55722,-0.39168,0.24689,0.99538,-0.00611,0.00017,-0.09578,0.21945,-0.01158,0.02517,
1629344775018439168,0.57258,-0.39386,0.24577,0.99545,0.00170,-0.00398,-0.09522,0.24681,-0.01685,0.02973,
1629344775085111552,0.58738,-0.39370,0.24758,0.99430,0.00480,0.00394,-0.10646,0.22523,0.01788,0.03514,
1629344775151785216,0.60356,-0.39435,0.24851,0.99484,0.00092,0.00363,-0.10139,0.21420,-0.02033,-0.02964,
1629344775218457856,0.61521,-0.39834,0.24679,0.99454,0.00269,0.00348,-0.10423,0.18620,-0.13461,-0.03363,
1629344775285131776,0.62700,-0.40725,0.24244,0.99432,0.01140,0.01107,-0.10525,0.18706,-0.18003,-0.09371,
1629344775351804416,0.64085,-0.42143,0.23536,0.99405,0.02376,0.01924,-0.10455,0.21151,-0.26838,-0.13169,
1629344775418478336,0.65591,-0.43545,0.23788,0.99458,0.02764,0.02786,-0.09628,0.21213,-0.18502,0.10131,
1629344775485150720,0.66675,-0.44683,0.24492,0.99498,0.02570,0.01182,-0.09596,0.17260,-0.18411,0.07896,
1629344775551824896,0.67784,-0.45724,0.24466,0.99506,0.02744,0.00232,-0.09538,0.17832,-0.13305,-0.02289,
1629344775618497792,0.68850,-0.46336,0.24320,0.99548,0.01166,0.00265,-0.09422,0.15691,-0.05776,-0.06358,
1629344775685171712,0.69942,-0.46525,0.24030,0.99544,-0.00515,0.00706,-0.09494,0.15125,-0.01003,-0.04259,
1629344775751844352,0.70806,-0.46760,0.24043,0.99535,0.00098,0.00147,-0.09629,0.12839,-0.10123,0.03310,
1629344775818518528,0.71768,-0.46911,0.24606,0.99468,0.00357,0.00373,-0.10284,0.13724,0.05078,0.01429,
1629344775885192704,0.72615,-0.47042,0.24503,0.99504,0.00100,0.00299,-0.09947,0.11937,-0.03807,-0.03041,
1629344775951865600,0.73284,-0.47631,0.24319,0.99465,0.00596,0.00587,-0.10293,0.10446,-0.09117,-0.03981,
1629344776018540032,0.74007,-0.48304,0.24055,0.99456,0.01286,0.00979,-0.10295,0.10078,-0.12558,-0.04966,
1629344776085212928,0.74849,-0.49524,0.23638,0.99440,0.01842,0.01469,-0.10300,0.14373,-0.15785,-0.04861,
1629344776151886848,0.75807,-0.50392,0.24183,0.99501,0.01600,0.01876,-0.09665,0.11609,-0.13579,0.15973,
1629344776218560256,0.76525,-0.51279,0.24815,0.99496,0.01822,0.00613,-0.09839,0.11581,-0.11488,0.05192,
1629344776285234688,0.77415,-0.51585,0.24948,0.99506,0.02160,0.00137,-0.09691,0.13609,-0.04643,0.01091,
1629344776351907840,0.78451,-0.51762,0.24803,0.99528,0.00523,0.00661,-0.09669,0.13659,0.01582,-0.04232,
1629344776418582272,0.79398,-0.51497,0.24481,0.99527,-0.00679,0.01101,-0.09626,0.16079,0.07127,-0.02815,
1629344776485255680,0.80402,-0.51376,0.24702,0.99497,-0.00180,0.01072,-0.09955,0.14897,-0.04883,0.07363,
1629344776551929856,0.81541,-0.51316,0.24940,0.99495,0.00038,0.00813,-0.10003,0.16300,0.05203,-0.01745,
1629344776618603520,0.82618,-0.51324,0.24952,0.99492,-0.00325,0.00612,-0.10044,0.14144,-0.04131,0.02346,
1629344776685277952,0.83390,-0.51554,0.24886,0.99475,-0.00256,0.00708,-0.10205,0.13177,-0.06581,-0.04789,
1629344776751949568,0.84281,-0.52221,0.24623,0.99474,0.00353,0.01188,-0.10166,0.12201,-0.13826,-0.04113,
1629344776818622208,0.85014,-0.52970,0.24130,0.99469,0.01099,0.01472,-0.10123,0.12529,-0.12542,0.06200,
1629344776885293824,0.85733,-0.53710,0.25055,0.99539,0.01249,0.01636,-0.09367,0.12091,-0.12021,0.08940,
1629344776951965952,0.86166,-0.54538,0.25563,0.99516,0.01660,0.00246,-0.09683,0.12218,-0.09820,-0.01521,
1629344777018637568,0.87139,-0.54636,0.25450,0.99527,0.01397,0.00319,-0.09610,0.14557,0.00432,-0.02204,
1629344777085310208,0.88267,-0.54383,0.25155,0.99534,-0.00353,0.01022,-0.09586,0.16308,0.06176,-0.08804,
1629344777151983104,0.89599,-0.53863,0.24878,0.99542,-0.00787,0.01299,-0.09436,0.20095,0.11490,-0.03240,
1629344777218654720,0.90985,-0.53480,0.25038,0.99512,-0.00047,0.01589,-0.09734,0.19396,0.06735,0.07310,
1629344777285326848,0.92159,-0.53012,0.25191,0.99528,-0.00776,0.00962,-0.09625,0.17643,0.03614,0.01070,
1629344777351998464,0.93189,-0.53130,0.25018,0.99489,-0.01034,0.00643,-0.10025,0.16657,-0.03782,-0.00074,
1629344777418671104,0.94263,-0.53629,0.24819,0.99459,0.00038,0.00795,-0.10359,0.14021,-0.11129,-0.04209,
1629344777485342720,0.95244,-0.54510,0.24517,0.99426,0.00844,0.00949,-0.10622,0.15147,-0.15997,-0.02828,
1629344777552015360,0.96398,-0.55307,0.24316,0.99426,0.01187,0.01693,-0.10499,0.19176,-0.05838,0.07404,
1629344777618686720,0.97615,-0.55975,0.24735,0.99476,0.01140,0.01259,-0.10085,0.16050,-0.12028,0.02874,
1629344777685359360,0.98679,-0.56606,0.24667,0.99455,0.01548,0.00384,-0.10303,0.18945,-0.05875,0.00611,
1629344777752030976,1.00051,-0.56544,0.24326,0.99460,0.00810,0.01019,-0.10293,0.21315,0.04615,-0.07273,
1629344777818703872,1.01689,-0.56061,0.23721,0.99458,-0.00361,0.01668,-0.10260,0.24798,0.12358,-0.08577,
1629344777885375488,1.03644,-0.55401,0.23106,0.99435,-0.00290,0.02019,-0.10414,0.29126,0.10265,0.01615,
1629344777952048128,1.05486,-0.54594,0.23569,0.99329,-0.00655,0.02525,-0.11268,0.27318,0.16078,0.09414,
1629344778018719744,1.07005,-0.53564,0.24078,0.99372,-0.02255,0.01266,-0.10882,0.23705,0.12334,0.03787,
1629344778085392128,1.08500,-0.53136,0.24205,0.99382,-0.02031,0.00715,-0.10890,0.19391,0.04063,0.01831,
1629344778152063744,1.09723,-0.53039,0.24148,0.99419,0.00370,0.01056,-0.10707,0.16387,-0.00270,-0.03292,
1629344778218736896,1.10806,-0.53172,0.23985,0.99413,0.01082,0.01216,-0.10694,0.15034,-0.05563,0.00799,
1629344778285408512,1.11861,-0.53328,0.24482,0.99490,0.00605,0.01563,-0.09951,0.17333,0.04392,0.10796,
1629344778352081152,1.12805,-0.53445,0.24645,0.99489,0.00449,0.00954,-0.10043,0.16237,-0.03397,-0.01521,
1629344778418752768,1.13944,-0.53577,0.24539,0.99470,0.00385,0.00861,-0.10240,0.21213,0.06432,-0.04672,
1629344778485425152,1.15476,-0.53015,0.24140,0.99489,-0.00791,0.01765,-0.09914,0.24686,0.15251,-0.09276,
1629344778552098048,1.17225,-0.52125,0.23474,0.99480,-0.01545,0.02411,-0.09777,0.31173,0.16611,-0.10805,
1629344778618769920,1.19407,-0.51112,0.22871,0.99420,-0.00319,0.03214,-0.10258,0.30620,0.07353,0.04592,
1629344778685442560,1.21795,-0.50044,0.23826,0.99389,-0.01460,0.02231,-0.10711,0.29083,0.18460,0.13235,
1629344778752114176,1.23355,-0.49230,0.24227,0.99380,-0.02779,0.00853,-0.10728,0.25083,0.07870,0.01666,
1629344778818786304,1.24707,-0.49138,0.24181,0.99374,-0.01054,0.00372,-0.11118,0.19063,-0.00262,-0.03422,
1629344778885457664,1.25858,-0.49337,0.23832,0.99365,0.01966,0.00754,-0.11049,0.16699,-0.04557,-0.03876,
1629344778952130304,1.27004,-0.49568,0.23967,0.99363,0.01387,0.00959,-0.11143,0.19084,-0.04202,0.02947,
1629344779018801664,1.27988,-0.49940,0.24587,0.99478,0.00651,0.01265,-0.10109,0.13832,-0.09529,0.09362,
1629344779085474304,1.28922,-0.50484,0.24853,0.99459,0.00747,0.00327,-0.10353,0.14771,-0.08066,-0.00101,
1629344779152145920,1.30063,-0.50644,0.24902,0.99475,0.00572,0.00359,-0.10208,0.18219,0.00440,-0.03652,
1629344779218818304,1.31318,-0.50329,0.24637,0.99480,-0.00372,0.01050,-0.10126,0.19512,0.07585,-0.05154,
1629344779285489920,1.32787,-0.49735,0.24230,0.99486,-0.00526,0.01138,-0.10051,0.24354,0.09802,-0.06022,
1629344779352162048,1.34289,-0.49334,0.24279,0.99380,-0.00063,0.02021,-0.10937,0.21308,0.02172,0.12410,
1629344779418833408,1.35818,-0.48955,0.24840,0.99403,-0.00751,0.01087,-0.10829,0.22707,0.08089,0.03483,
1629344779485506048,1.37272,-0.48773,0.24899,0.99409,-0.01246,0.00571,-0.10770,0.20024,-0.03181,0.01336,
1629344779552177408,1.38455,-0.49157,0.24842,0.99387,-0.00627,0.00801,-0.11008,0.17766,-0.10604,-0.04135,
1629344779618849792,1.39679,-0.50086,0.24361,0.99375,0.00592,0.01460,-0.11055,0.17683,-0.18565,-0.08123,
1629344779685521664,1.40958,-0.51217,0.23913,0.99384,0.01596,0.02056,-0.10777,0.19975,-0.11765,0.02543,
1629344779752194048,1.42094,-0.52256,0.24313,0.99462,0.01989,0.01622,-0.10038,0.13826,-0.18638,0.09989,
1629344779818866432,1.43092,-0.53297,0.24648,0.99438,0.02761,0.00174,-0.10217,0.15465,-0.12405,0.03112,
1629344779885538048,1.44301,-0.53633,0.24857,0.99475,0.01762,0.00381,-0.10071,0.17061,-0.02884,-0.02821,
1629344779952210432,1.45521,-0.53559,0.24542,0.99471,-0.00832,0.01358,-0.10147,0.18112,0.03971,-0.05217,
1629344780018882048,1.46905,-0.53337,0.24155,0.99482,-0.00707,0.01223,-0.10062,0.20014,0.02112,0.07695,
1629344780085554432,1.48404,-0.53249,0.24866,0.99383,-0.00144,0.01403,-0.11002,0.19808,0.06849,0.11485,
1629344780152226048,1.49753,-0.52812,0.25264,0.99430,-0.00479,0.00728,-0.10629,0.18994,0.04615,0.04220,
1629344780218898688,1.50923,-0.52959,0.25380,0.99412,-0.00621,0.00447,-0.10799,0.17179,-0.03489,0.02066,
1629344780285570048,1.52012,-0.53346,0.25270,0.99407,-0.00105,0.00895,-0.10835,0.14899,-0.09757,-0.02454,
1629344780352242688,1.53053,-0.54268,0.24897,0.99394,0.00695,0.01324,-0.10893,0.15406,-0.16846,-0.06901,
1629344780418914048,1.54093,-0.55213,0.24779,0.99434,0.01562,0.01885,-0.10336,0.17003,-0.06761,0.07215,
1629344780485586688,1.55114,-0.56106,0.25410,0.99458,0.01904,0.00909,-0.10186,0.14209,-0.15906,0.06851,
1629344780552258304,1.56111,-0.56909,0.25345,0.99434,0.02324,-0.00008,-0.10368,0.18557,-0.07944,-0.03902,
1629344780618930688,1.57493,-0.57041,0.25170,0.99474,0.01124,0.00358,-0.10176,0.19362,0.01850,-0.07048,
1629344780685602304,1.58882,-0.56731,0.24715,0.99476,-0.00675,0.01093,-0.10140,0.22106,0.08063,-0.08362,
1629344780752274688,1.60483,-0.56364,0.24452,0.99489,-0.00300,0.01080,-0.10032,0.24618,0.02429,0.02248,
1629344780818946304,1.62078,-0.56051,0.25034,0.99411,-0.00325,0.01422,-0.10736,0.23563,0.09028,0.04185,
1629344780885618944,1.63517,-0.55730,0.25167,0.99443,-0.00824,0.00716,-0.10485,0.22280,-0.00670,-0.01098,
1629344780952290304,1.64759,-0.56023,0.25142,0.99398,-0.01037,0.00551,-0.10893,0.20169,-0.07593,-0.04478,
1629344781018962944,1.65988,-0.56797,0.24815,0.99384,0.00192,0.01103,-0.11025,0.17927,-0.17105,-0.07338,
1629344781085634304,1.67310,-0.58082,0.24349,0.99354,0.01243,0.01635,-0.11158,0.20807,-0.19888,-0.06888,
1629344781152306688,1.68667,-0.59093,0.24476,0.99453,0.01672,0.02120,-0.10086,0.17885,-0.13808,0.18182,
1629344781218979584,1.69798,-0.60129,0.25141,0.99469,0.01962,0.00738,-0.10076,0.16471,-0.14432,0.09731,
1629344781285650944,1.71107,-0.60871,0.25245,0.99467,0.02427,0.00039,-0.10018,0.19742,-0.07477,0.01906,
1629344781352323584,1.72484,-0.60984,0.25012,0.99485,0.00582,0.00697,-0.10096,0.20950,0.03478,-0.04681,
1629344781418994944,1.74043,-0.60544,0.24316,0.99471,-0.01008,0.01496,-0.10110,0.24730,0.09275,-0.06453,
1629344781485667584,1.75660,-0.60210,0.24007,0.99397,-0.00604,0.01817,-0.10797,0.24309,-0.00359,0.02113,
1629344781552339200,1.77317,-0.59918,0.24245,0.99382,-0.00966,0.01566,-0.10944,0.23121,0.06079,-0.00358,
1629344781619011328,1.78514,-0.59722,0.24153,0.99381,-0.01862,0.00776,-0.10928,0.18872,-0.04718,-0.03111,
1629344781685682944,1.79631,-0.59958,0.24045,0.99368,-0.01434,0.00660,-0.11109,0.15440,-0.10754,-0.10418,
1629344781752355584,1.80689,-0.60715,0.23640,0.99368,0.00505,0.01345,-0.11137,0.13313,-0.18362,-0.10726,
1629344781819027200,1.81652,-0.61717,0.23180,0.99358,0.01339,0.01634,-0.11116,0.14331,-0.15797,0.01303,
1629344781885699584,1.82531,-0.62612,0.23820,0.99453,0.01397,0.02106,-0.10136,0.10355,-0.17539,0.13540,
1629344781952371200,1.83158,-0.63675,0.24630,0.99465,0.01866,0.00314,-0.10157,0.09908,-0.13413,0.07444,
1629344782019043584,1.83784,-0.64331,0.24991,0.99482,0.01997,-0.00153,-0.09969,0.08502,-0.06574,0.05450,
1629344782085714944,1.84410,-0.64426,0.24910,0.99501,-0.00436,0.00368,-0.09960,0.07492,0.02236,-0.02308,
1629344782152387584,1.85003,-0.64283,0.24743,0.99500,-0.01291,0.00586,-0.09889,0.07455,0.03909,0.03056,
1629344782219058944,1.85500,-0.64384,0.25172,0.99430,-0.00481,0.00477,-0.10636,0.05249,-0.01897,0.10342,
1629344782285731840,1.85920,-0.64176,0.25117,0.99458,-0.00326,-0.00098,-0.10389,0.06805,0.06576,-0.06857,
1629344782352403200,1.86311,-0.64480,0.24794,0.99451,-0.00220,0.00144,-0.10456,0.02802,-0.03519,-0.00627,
1629344782419075840,1.86672,-0.65050,0.24497,0.99441,0.00227,0.00406,-0.10547,0.01519,-0.06092,-0.04875,
1629344782485747968,1.86784,-0.65658,0.24290,0.99444,0.00743,0.00656,-0.10480,0.02582,-0.09796,-0.05241,
1629344782552419584,1.87080,-0.66331,0.24130,0.99453,0.01159,0.01325,-0.10294,0.06326,-0.04714,0.03275,
1629344782619091968,1.87365,-0.66776,0.24769,0.99503,0.00834,0.00714,-0.09897,0.03539,-0.08674,0.08723,
1629344782685763584,1.87651,-0.67338,0.24909,0.99487,0.01441,-0.00178,-0.10008,0.04520,-0.04897,-0.05058,
1629344782752435968,1.87854,-0.67365,0.24711,0.99527,0.00698,0.00035,-0.09688,0.03045,0.03797,-0.06073,
1629344782819107840,1.88039,-0.67244,0.24608,0.99537,-0.00887,0.00479,-0.09554,0.02609,0.04317,-0.05612,
1629344782885780224,1.88020,-0.67101,0.24766,0.99562,-0.00538,0.00228,-0.09333,0.01578,0.04895,-0.01841,
1629344782952451584,1.88086,-0.67057,0.25243,0.99568,-0.00111,0.00253,-0.09278,0.02094,0.02143,0.01522,
1629344783019123968,1.88176,-0.66876,0.25036,0.99577,-0.00790,0.00007,-0.09151,0.02990,-0.01862,-0.07585,
1629344783085795584,1.88332,-0.67150,0.24774,0.99534,-0.00645,0.00239,-0.09619,0.01964,-0.03303,0.00765,
1629344783152467968,1.88421,-0.67275,0.24711,0.99539,-0.00593,0.00250,-0.09568,0.02144,-0.02460,-0.03718,
1629344783219139584,1.88517,-0.67553,0.24648,0.99538,-0.00440,0.00288,-0.09588,0.02004,-0.05258,-0.02462,
1629344783285811968,1.88673,-0.67821,0.24671,0.99550,-0.00094,0.00736,-0.09448,0.03322,0.00051,0.07250,
1629344783352483584,1.88847,-0.67720,0.25050,0.99593,-0.00225,0.00247,-0.09008,0.04924,0.02481,-0.00073,
1629344783419155968,1.89232,-0.67630,0.24817,0.99642,0.00211,0.00134,-0.08448,0.07001,0.09235,-0.02748,
1629344783485827328,1.89666,-0.66921,0.24568,0.99716,-0.00621,0.00750,-0.07465,0.08379,0.16119,-0.10420,
1629344783552499968,1.90274,-0.65652,0.24030,0.99785,-0.01925,0.01675,-0.06035,0.11194,0.22010,-0.08304,
1629344783619171328,1.91098,-0.64324,0.23545,0.99871,-0.01027,0.02212,-0.04449,0.14018,0.19222,0.00310,
1629344783685843968,1.92087,-0.63098,0.23758,0.99920,-0.00618,0.02375,-0.03147,0.13481,0.22264,0.08395,
1629344783752515584,1.92941,-0.61645,0.24253,0.99970,-0.01705,0.01239,-0.01270,0.11495,0.19488,0.08002,
1629344783819188224,1.93680,-0.60495,0.24439,0.99983,-0.01575,0.00928,0.00292,0.09936,0.13226,0.01141,
1629344783885860864,1.94513,-0.59787,0.24239,0.99967,-0.00010,0.01471,0.02108,0.07943,0.09570,-0.01855,
1629344783952532736,1.94999,-0.59256,0.24156,0.99919,0.00048,0.01325,0.03802,0.07740,0.05563,0.01508,
1629344784019205376,1.95535,-0.58821,0.24459,0.99819,-0.00500,0.01453,0.05817,0.06525,0.10438,0.10610,
1629344784085876992,1.95888,-0.58203,0.24721,0.99695,-0.00343,0.00387,0.07786,0.04981,0.08834,-0.00934,
1629344784152549632,1.96385,-0.57290,0.24437,0.99460,0.00014,0.00170,0.10379,0.04755,0.20097,-0.02357,
1629344784219220992,1.96834,-0.55805,0.23837,0.99176,-0.01224,0.00465,0.12743,0.05209,0.22587,-0.12464,
1629344784285894144,1.97153,-0.54021,0.23188,0.98856,-0.01991,0.00812,0.14927,0.06532,0.28483,-0.08928,
1629344784352565760,1.97839,-0.52328,0.22764,0.98529,-0.00785,0.01379,0.17016,0.09840,0.24672,-0.01354,
1629344784419238400,1.98945,-0.50755,0.22960,0.98313,-0.01494,0.02030,0.18115,0.09761,0.25893,0.03603,
1629344784485910272,1.99513,-0.49279,0.22907,0.97909,-0.01787,0.01504,0.20207,0.11109,0.21901,-0.06277,
1629344784552582656,2.00312,-0.48345,0.22724,0.97539,-0.01768,0.02100,0.21875,0.15165,0.12174,-0.07692,
1629344784619254272,2.01530,-0.48037,0.22284,0.97152,0.00090,0.03418,0.23446,0.19241,0.03603,-0.08464,
1629344784685927168,2.02866,-0.47851,0.21832,0.96671,0.00619,0.03962,0.25270,0.21853,0.03905,-0.05946,
1629344784752598528,2.03984,-0.47390,0.22235,0.95779,0.00430,0.04218,0.28434,0.16022,0.05446,0.11905,
1629344784819271168,2.04788,-0.47303,0.22651,0.95150,0.01668,0.02212,0.30641,0.13010,0.04208,-0.05825,
1629344784885942784,2.04761,-0.46622,0.22253,0.94063,0.01495,0.01467,0.33880,0.00929,0.13379,-0.12978,
1629344784952614912,2.04401,-0.45651,0.21668,0.93033,-0.00626,0.00494,0.36663,-0.05461,0.13205,-0.14214,
1629344785019286272,2.03847,-0.44843,0.21355,0.91963,-0.00637,-0.00150,0.39273,-0.09380,0.13458,-0.06094,
1629344785085958912,2.03598,-0.44500,0.21366,0.91077,0.01170,0.00089,0.41274,-0.00160,0.03754,0.04682,
1629344785152631296,2.03185,-0.43561,0.21334,0.90235,0.00804,0.00443,0.43090,-0.11391,0.17600,-0.07342,
1629344785219302656,2.02481,-0.42691,0.20867,0.88961,-0.00179,0.00705,0.45667,-0.08704,0.13339,-0.07710,
1629344785285975552,2.02047,-0.42094,0.20617,0.87803,-0.00667,0.01174,0.47842,-0.01867,0.06687,-0.01877,
1629344785352646912,2.01861,-0.41462,0.20617,0.86717,-0.00070,0.02146,0.49755,-0.00058,0.07126,-0.05214,
1629344785419319040,2.01916,-0.41012,0.20425,0.85376,-0.00260,0.02363,0.52013,0.01935,0.06642,-0.00541,
1629344785485990656,2.01589,-0.40635,0.21234,0.83680,-0.00089,0.02290,0.54702,-0.01921,0.05641,0.17656,
1629344785552663040,2.01126,-0.40454,0.21702,0.82421,0.00641,0.00968,0.56616,-0.06137,0.06577,-0.00855,
1629344785619334400,1.99815,-0.40090,0.21381,0.80395,0.00292,0.00607,0.59466,-0.18611,0.07736,-0.03950,
1629344785686007040,1.98421,-0.39454,0.21080,0.78517,-0.00495,-0.00005,0.61926,-0.22293,0.06278,-0.05840,
1629344785752678400,1.97085,-0.38951,0.20719,0.76605,-0.00631,-0.00171,0.64275,-0.23454,0.06825,-0.03180,
1629344785819350784,1.96503,-0.38799,0.20721,0.75262,0.00288,0.00650,0.65842,-0.03885,0.02307,0.09220,
1629344785886022400,1.95289,-0.38373,0.21003,0.74028,-0.00339,0.00774,0.67225,-0.27537,0.07719,-0.03315,
1629344785952694784,1.94081,-0.37684,0.20714,0.71825,-0.00788,0.01061,0.69566,-0.17734,0.06794,-0.05198,
1629344786019366144,1.93255,-0.37255,0.20611,0.70062,-0.00995,0.01498,0.71331,-0.09320,0.05378,0.00970,
1629344786086038784,1.92695,-0.36782,0.20599,0.68224,-0.01001,0.02169,0.73073,-0.06525,0.06250,-0.01744,
1629344786152710144,1.92246,-0.36385,0.20610,0.66171,-0.01124,0.02039,0.74939,-0.05291,0.06354,0.04792,
1629344786219382528,1.92067,-0.36114,0.21440,0.63707,-0.00725,0.02020,0.77050,-0.02163,0.04741,0.13236,
1629344786286053888,1.91835,-0.35923,0.21800,0.61805,0.00309,0.01299,0.78602,-0.08766,0.03019,0.00097,
1629344786352726528,1.90285,-0.36059,0.21446,0.58958,-0.00145,0.00796,0.80767,-0.17667,-0.01218,-0.01745,
1629344786419397888,1.89135,-0.36224,0.21124,0.56476,-0.00587,0.00187,0.82524,-0.19544,-0.03604,-0.02920,
1629344786486070272,1.87899,-0.36410,0.20812,0.54099,-0.00195,0.00387,0.84102,-0.19756,-0.02703,-0.05454,
1629344786552742912,1.87040,-0.36484,0.20925,0.52793,-0.00095,0.01128,0.84921,-0.05756,0.02056,0.10874,
1629344786619414272,1.86005,-0.36674,0.21623,0.50636,-0.00603,0.01302,0.86220,-0.25546,-0.06072,0.03141,
1629344786686086656,1.84803,-0.36461,0.21516,0.47779,-0.01292,0.01323,0.87828,-0.15219,-0.01194,0.07056,
1629344786752758272,1.84046,-0.36098,0.21512,0.45372,-0.01497,0.01573,0.89088,-0.08662,0.05217,0.02274,
1629344786819430656,1.83109,-0.35814,0.21170,0.42856,-0.01916,0.02196,0.90304,-0.06527,0.08068,-0.00430,
1629344786886102016,1.82714,-0.35299,0.21075,0.40008,-0.01691,0.02325,0.91603,-0.03740,0.06854,0.16088,
1629344786952774656,1.82748,-0.34584,0.22272,0.37031,-0.00556,0.03146,0.92836,0.01049,0.06988,0.17824,
1629344787019446016,1.83072,-0.34495,0.22689,0.34469,0.00989,0.02509,0.93833,-0.07608,-0.05667,-0.04941,
1629344787086118400,1.82101,-0.35468,0.22584,0.30615,0.00567,0.00949,0.95192,-0.06866,-0.14959,-0.02333,
1629344787152790016,1.81658,-0.36394,0.22326,0.27745,0.00585,-0.00269,0.96072,-0.03668,-0.17530,-0.00737,
1629344787219462400,1.81633,-0.37354,0.22492,0.24790,0.01938,0.00461,0.96858,0.01384,-0.17607,0.03196,
1629344787286133760,1.81920,-0.37942,0.22711,0.23734,0.01877,0.01414,0.97114,0.01820,-0.11650,0.10377,
1629344787352806144,1.81343,-0.39111,0.22669,0.20736,0.01095,0.01471,0.97809,-0.08640,-0.21027,-0.05986,
1629344787419477760,1.80736,-0.39923,0.22199,0.17598,-0.00009,0.01058,0.98434,-0.04955,-0.12580,-0.03613,
1629344787486150144,1.80419,-0.40308,0.21971,0.14834,-0.00596,0.01409,0.98882,-0.02782,-0.01810,-0.01848,
1629344787552821760,1.79771,-0.40571,0.21719,0.12225,-0.01030,0.01779,0.99229,-0.03906,0.02165,-0.02619,
1629344787619494144,1.79776,-0.40393,0.21710,0.09085,-0.01046,0.02057,0.99560,-0.03770,0.00592,0.08217,
1629344787686165504,1.79556,-0.39885,0.22410,0.06043,-0.00447,0.02627,0.99782,-0.00792,0.05102,0.07041,
1629344787752837888,1.79713,-0.40150,0.22573,0.03253,0.00576,0.02283,0.99919,-0.00283,-0.09570,-0.04824,
1629344787819510272,1.79753,-0.41451,0.22563,-0.00548,0.00801,0.01209,0.99988,0.04047,-0.13413,-0.03135,
1629344787886181888,1.80216,-0.41686,0.22538,-0.01758,0.01022,0.00705,0.99977,0.07509,0.01258,0.04316,
1629344787952854272,1.80745,-0.41213,0.22829,-0.02112,0.01584,0.01357,0.99956,0.11030,0.01206,0.03471,
1629344788019525632,1.81189,-0.41029,0.23056,-0.01384,0.01401,0.01932,0.99962,0.08470,0.07483,0.07065,
1629344788086198016,1.81818,-0.41212,0.23087,-0.02135,0.00737,0.01637,0.99961,0.04210,-0.06275,-0.07904,
1629344788152869376,1.81764,-0.40917,0.22845,-0.02961,0.00137,0.01447,0.99946,-0.00497,0.04518,-0.00624,
1629344788219542016,1.81456,-0.40305,0.22615,-0.03492,-0.00550,0.02184,0.99914,-0.06245,0.09071,-0.07563,
1629344788286213376,1.80760,-0.39485,0.22179,-0.03830,-0.01383,0.02830,0.99877,-0.12500,0.14099,-0.06637,
1629344788352885760,1.80010,-0.38857,0.21812,-0.04378,-0.01784,0.02279,0.99862,-0.13328,0.09409,0.08639,
1629344788419557120,1.79043,-0.38116,0.22658,-0.05552,-0.01782,0.02107,0.99808,-0.12263,0.13577,0.12543,
1629344788486229760,1.78383,-0.37509,0.23121,-0.05792,-0.00940,0.02060,0.99806,-0.10249,0.07359,0.00296,
1629344788552901120,1.77890,-0.37438,0.23262,-0.06653,-0.00596,0.01276,0.99768,-0.05499,0.01494,0.01529,
1629344788619573504,1.77471,-0.37500,0.23277,-0.07113,-0.00508,0.00112,0.99745,-0.03363,0.00948,0.01486,
1629344788686244864,1.77192,-0.37487,0.23430,-0.07601,-0.00212,0.00510,0.99709,-0.01172,0.00198,0.03873,
1629344788752917504,1.76969,-0.37309,0.23670,-0.07330,-0.00190,0.01135,0.99724,-0.03053,0.07469,0.04863,
1629344788819588864,1.76669,-0.37184,0.23532,-0.07910,-0.00580,0.01168,0.99678,-0.05243,-0.03016,-0.08236,
1629344788886261248,1.76022,-0.36920,0.23205,-0.08189,-0.01359,0.00956,0.99650,-0.10130,0.10615,-0.03472,
1629344788952932864,1.75391,-0.36214,0.22778,-0.08201,-0.02172,0.01944,0.99620,-0.13075,0.14143,-0.07190,
1629344789019605248,1.74238,-0.35148,0.22065,-0.08298,-0.03184,0.02765,0.99566,-0.18453,0.17887,-0.08260,
1629344789086276864,1.72945,-0.34183,0.21518,-0.08435,-0.03659,0.01531,0.99565,-0.20511,0.14155,0.09765,
1629344789152949248,1.71612,-0.33192,0.22196,-0.09505,-0.03581,0.01582,0.99470,-0.20133,0.15721,0.13543,
1629344789219621888,1.70712,-0.32114,0.23015,-0.09489,-0.01698,0.02664,0.99499,-0.17853,0.12125,0.05531,
1629344789286293248,1.69504,-0.31912,0.22920,-0.10068,-0.01343,0.02451,0.99453,-0.14791,0.01750,0.01048,
1629344789352965632,1.68612,-0.32153,0.22633,-0.10254,-0.01554,-0.00544,0.99459,-0.11972,-0.04050,-0.06398,
1629344789419637248,1.67774,-0.32581,0.22311,-0.10470,-0.01656,-0.01683,0.99422,-0.11283,-0.09220,0.01011,
1629344789486309632,1.66963,-0.32907,0.22627,-0.10145,-0.01825,-0.00416,0.99466,-0.14965,-0.01433,0.07406,
1629344789552981248,1.66129,-0.33419,0.22729,-0.10450,-0.01814,-0.00132,0.99436,-0.11821,-0.09272,-0.03462,
1629344789619653376,1.65018,-0.33457,0.22686,-0.10553,-0.01836,-0.00000,0.99425,-0.15743,0.02689,0.00395,
1629344789686324736,1.63937,-0.33046,0.22327,-0.10349,-0.02463,0.00696,0.99430,-0.17837,0.09026,-0.07184,
1629344789752997632,1.62434,-0.32327,0.21726,-0.10354,-0.03279,0.01871,0.99391,-0.23776,0.14896,-0.10556,
1629344789819669248,1.60579,-0.31288,0.20954,-0.10606,-0.03889,0.01916,0.99341,-0.25984,0.09355,0.02681,
1629344789886341888,1.58970,-0.30998,0.21563,-0.11531,-0.04183,0.01522,0.99233,-0.22725,0.05081,0.12583,
1629344789953013504,1.57502,-0.30388,0.22297,-0.11547,-0.02646,0.02164,0.99272,-0.21190,0.00593,0.03756,
1629344790019685632,1.56314,-0.30840,0.22149,-0.11856,-0.02586,0.01842,0.99244,-0.18459,-0.09232,-0.01719,
1629344790086357248,1.55167,-0.31609,0.21641,-0.11891,-0.02961,-0.00783,0.99243,-0.15800,-0.17587,-0.10920,
1629344790153029888,1.54040,-0.32835,0.20973,-0.12113,-0.03288,-0.01775,0.99193,-0.18847,-0.24486,-0.06818,
1629344790219701760,1.52500,-0.34126,0.20775,-0.11337,-0.04086,-0.00999,0.99266,-0.22067,-0.17970,0.01057,
1629344790286374400,1.51160,-0.35630,0.21363,-0.11361,-0.03247,-0.01586,0.99287,-0.16663,-0.26427,0.05100,
1629344790353046016,1.49974,-0.36673,0.21626,-0.11434,-0.02099,-0.02048,0.99301,-0.18913,-0.13307,0.03818,
1629344790419718144,1.48738,-0.37244,0.21577,-0.11385,-0.01985,-0.01321,0.99321,-0.18518,-0.06031,-0.05576,
1629344790486390784,1.47413,-0.37328,0.21301,-0.11452,-0.02762,0.00049,0.99304,-0.19273,0.00998,-0.04884,
1629344790553062400,1.46119,-0.37214,0.20874,-0.11607,-0.02983,0.00167,0.99279,-0.18281,0.00899,0.07692,
1629344790619735040,1.44744,-0.37243,0.21711,-0.12711,-0.03705,0.00374,0.99119,-0.17332,0.01197,0.12219,
1629344790686406912,1.43950,-0.36890,0.22424,-0.12471,-0.02322,0.01051,0.99187,-0.17220,0.00544,0.02498,
1629344790753079296,1.42778,-0.37176,0.22364,-0.12458,-0.02403,0.00759,0.99189,-0.16247,-0.09498,-0.02975,
1629344790819750912,1.41802,-0.38278,0.21836,-0.12631,-0.02892,-0.00449,0.99156,-0.12974,-0.19394,-0.05697,
1629344790886423040,1.40852,-0.39584,0.21362,-0.12708,-0.03053,-0.00914,0.99138,-0.17570,-0.22796,-0.08210,
1629344790953094400,1.39682,-0.40975,0.21156,-0.12246,-0.03989,-0.00332,0.99167,-0.18770,-0.12870,0.09837,
1629344791019767040,1.38517,-0.42656,0.22280,-0.12148,-0.03031,-0.01637,0.99200,-0.14133,-0.25022,0.14441,
1629344791086438400,1.37924,-0.43904,0.22778,-0.12527,-0.01692,-0.02245,0.99172,-0.16151,-0.14158,0.03937,
1629344791153110784,1.36840,-0.44289,0.22751,-0.12197,-0.01879,-0.00767,0.99233,-0.16193,-0.03720,-0.00672,
1629344791219782400,1.35588,-0.44349,0.22318,-0.12262,-0.02731,0.00679,0.99205,-0.17211,0.02810,-0.01325,
1629344791286455040,1.34301,-0.44364,0.22194,-0.12099,-0.02617,0.00197,0.99231,-0.18832,0.02822,0.06031,
1629344791353126400,1.33182,-0.44115,0.22760,-0.13247,-0.03109,0.00240,0.99070,-0.16008,0.04789,0.11537,
1629344791419798784,1.32213,-0.43640,0.23163,-0.12965,-0.01972,0.01243,0.99129,-0.15745,0.06088,0.05493,
1629344791486470144,1.31235,-0.43779,0.23174,-0.13098,-0.01809,0.01390,0.99112,-0.14207,-0.03121,0.01818,
1629344791553142528,1.30384,-0.44414,0.22856,-0.13259,-0.02006,-0.00127,0.99097,-0.11005,-0.09925,-0.03336,
1629344791619813888,1.29583,-0.45304,0.22562,-0.13478,-0.02116,-0.00925,0.99061,-0.12010,-0.14524,0.01057,
1629344791686486528,1.28698,-0.46207,0.22319,-0.13377,-0.02557,-0.00401,0.99067,-0.17424,-0.07902,0.01268,
1629344791753157888,1.27716,-0.46960,0.22670,-0.12805,-0.02647,-0.00476,0.99140,-0.12855,-0.14924,0.07152,
1629344791819830784,1.26796,-0.47823,0.22900,-0.13168,-0.01853,-0.00955,0.99107,-0.16844,-0.06234,0.02388,
1629344791886502912,1.25722,-0.48041,0.22655,-0.12909,-0.02003,-0.00678,0.99141,-0.19672,0.02693,-0.05197,
1629344791953174528,1.24309,-0.47494,0.21907,-0.12671,-0.03010,0.00491,0.99147,-0.23868,0.16459,-0.10002,
1629344792019846912,1.22537,-0.45888,0.20812,-0.11187,-0.04140,0.01212,0.99279,-0.33035,0.29789,-0.18527,
1629344792086518528,1.20345,-0.44253,0.20113,-0.09766,-0.05281,0.00778,0.99379,-0.29463,0.14083,0.01544,
1629344792153191168,1.18498,-0.42735,0.20869,-0.08890,-0.04561,0.01505,0.99488,-0.27861,0.25133,0.18515,
1629344792219862528,1.16931,-0.40814,0.21807,-0.06723,-0.02279,0.02552,0.99715,-0.26476,0.21341,0.07660,
1629344792286535168,1.15342,-0.40602,0.21593,-0.06023,-0.02275,0.00743,0.99790,-0.23177,-0.04949,-0.07563,
1629344792353206528,1.13916,-0.41413,0.20982,-0.06122,-0.02860,-0.01992,0.99752,-0.21152,-0.10720,-0.06667,
1629344792419879168,1.12475,-0.42320,0.20585,-0.06177,-0.02422,-0.01022,0.99774,-0.23950,-0.17170,-0.05149,
1629344792486550528,1.10987,-0.43026,0.20697,-0.05063,-0.03180,-0.00194,0.99821,-0.20086,-0.11234,0.14537,
1629344792553223168,1.10094,-0.44295,0.21380,-0.05402,-0.01736,-0.01494,0.99828,-0.17208,-0.18341,0.04776,
1629344792619894528,1.08858,-0.45011,0.21558,-0.05684,-0.01367,-0.01495,0.99818,-0.18415,-0.03040,0.02195,
1629344792686567168,1.07424,-0.44802,0.21180,-0.05550,-0.02257,0.00096,0.99820,-0.19453,0.04831,-0.04709,
1629344792753238528,1.05940,-0.44323,0.20736,-0.05749,-0.03026,0.01009,0.99784,-0.22934,0.13699,-0.04813,
1629344792819911168,1.04166,-0.43527,0.20238,-0.05792,-0.03612,0.01041,0.99761,-0.27354,0.10840,-0.03317,
1629344792886582784,1.02348,-0.42555,0.21133,-0.06197,-0.03791,0.01120,0.99730,-0.23954,0.19428,0.18538,
1629344792953255168,1.00985,-0.41067,0.21980,-0.04874,-0.02062,0.02343,0.99832,-0.21971,0.17841,0.07422,
1629344793019926784,0.99525,-0.40332,0.21998,-0.03776,-0.01808,0.01577,0.99900,-0.21406,0.07742,-0.01128,
1629344793086599424,0.98132,-0.40298,0.21635,-0.02478,-0.02469,-0.01374,0.99929,-0.19627,-0.00496,-0.06371,
1629344793153271552,0.96681,-0.40510,0.21184,-0.01358,-0.02598,-0.01882,0.99939,-0.21178,-0.07642,-0.00422,
1629344793219943168,0.94970,-0.40876,0.21186,0.00084,-0.02955,-0.00171,0.99956,-0.22563,-0.04070,0.05881,
1629344793286615552,0.93565,-0.41679,0.21941,0.01207,-0.02085,-0.01181,0.99964,-0.19045,-0.13990,0.09108,
1629344793353287424,0.92369,-0.42297,0.22250,0.01248,-0.01123,-0.01699,0.99971,-0.19456,-0.05381,0.03420,
1629344793419960064,0.91175,-0.42218,0.22185,0.01456,-0.01442,-0.00898,0.99975,-0.18866,0.04503,-0.03288,
1629344793486631424,0.89823,-0.41643,0.21743,0.01209,-0.02369,0.00713,0.99962,-0.20420,0.11435,-0.06888,
1629344793553304064,0.88201,-0.40763,0.21219,0.01226,-0.03343,0.01246,0.99929,-0.25578,0.15814,-0.09231,
1629344793619975424,0.86499,-0.39924,0.21603,0.00160,-0.04257,0.01007,0.99904,-0.23014,0.11597,0.18422,
1629344793686647808,0.85127,-0.39191,0.22447,0.00369,-0.02896,0.01548,0.99945,-0.20848,0.11482,0.11842,
1629344793753319424,0.83682,-0.38681,0.22585,0.00562,-0.01941,0.02081,0.99958,-0.23319,0.02748,-0.02726,
1629344793819991808,0.82007,-0.39097,0.22028,0.00549,-0.02563,-0.00032,0.99966,-0.23010,-0.11692,-0.07842,
1629344793886663680,0.80277,-0.40045,0.21237,0.00590,-0.03189,-0.01711,0.99933,-0.25893,-0.18116,-0.09729,
1629344793953336064,0.78307,-0.41169,0.20406,0.00879,-0.03282,-0.00873,0.99938,-0.32058,-0.16875,-0.05405,
1629344794020007680,0.76233,-0.42243,0.20856,0.01889,-0.03906,-0.01052,0.99900,-0.25971,-0.21559,0.15635,
1629344794086680064,0.74759,-0.43547,0.21800,0.01751,-0.01797,-0.02748,0.99931,-0.22956,-0.15697,0.06863,
1629344794153351424,0.73416,-0.44000,0.21936,0.02008,-0.01351,-0.01915,0.99952,-0.19640,-0.00474,-0.02369,
1629344794220024064,0.72174,-0.43348,0.21616,0.02389,-0.02143,0.01282,0.99940,-0.16810,0.08628,-0.05279,
1629344794286695424,0.70907,-0.42672,0.21287,0.02501,-0.02504,0.01624,0.99924,-0.18777,0.12959,-0.02282,
1629344794353368320,0.69645,-0.41837,0.21138,0.02341,-0.03188,0.00414,0.99921,-0.19384,0.06879,0.06724,
1629344794420039936,0.68384,-0.40919,0.22096,0.01814,-0.02427,0.00748,0.99951,-0.16700,0.18087,0.14466,
1629344794486712320,0.67452,-0.39767,0.22530,0.02410,-0.01000,0.01968,0.99947,-0.16770,0.11299,0.02323,
1629344794553384704,0.66478,-0.39511,0.22359,0.02330,-0.01062,0.01375,0.99958,-0.15872,-0.02664,-0.03153,
1629344794620056064,0.65403,-0.40084,0.22024,0.02233,-0.01786,-0.00964,0.99954,-0.15166,-0.08963,-0.08775,
1629344794686728704,0.64277,-0.40797,0.21546,0.02187,-0.01960,-0.01203,0.99950,-0.17707,-0.14293,-0.03730,
1629344794753400064,0.62986,-0.41571,0.21386,0.02327,-0.02505,-0.00239,0.99941,-0.20132,-0.06315,0.04616,
1629344794820072448,0.61726,-0.42259,0.21985,0.02957,-0.01974,-0.00822,0.99933,-0.17428,-0.13838,0.07697,
1629344794886743808,0.60644,-0.42934,0.21997,0.02614,-0.01355,-0.01471,0.99946,-0.16037,-0.04550,0.00673,
1629344794953416704,0.59881,-0.42837,0.21943,0.02990,-0.01396,-0.01137,0.99939,-0.13681,0.04629,-0.04538,
1629344795020088064,0.58996,-0.42211,0.21654,0.03099,-0.01932,-0.00126,0.99933,-0.12100,0.12637,-0.06463,
1629344795086760192,0.58204,-0.41022,0.21107,0.03727,-0.02540,0.00664,0.99896,-0.14541,0.23296,-0.11472,
1629344795153431552,0.57441,-0.39726,0.20950,0.04179,-0.03357,0.01355,0.99847,-0.13090,0.10079,0.06306,
1629344795220103936,0.56656,-0.38238,0.21938,0.05045,-0.02760,0.01858,0.99817,-0.09130,0.26675,0.16925,
1629344795286775296,0.56168,-0.36608,0.22528,0.06641,-0.01427,0.02365,0.99741,-0.10318,0.19135,0.05520,
1629344795353447680,0.55548,-0.35771,0.22783,0.07861,-0.01696,0.00816,0.99673,-0.09095,0.13272,0.00523,
1629344795420119040,0.54921,-0.35209,0.22706,0.09388,-0.02244,-0.00953,0.99528,-0.07944,0.06666,0.01922,
1629344795486791680,0.54548,-0.34690,0.22827,0.10527,-0.01628,-0.00271,0.99431,-0.08312,0.05577,0.05995,
1629344795553463040,0.54010,-0.34675,0.22763,0.11129,-0.01761,0.00725,0.99361,-0.09758,-0.03573,0.10040,
1629344795620135424,0.53386,-0.35036,0.23106,0.10936,-0.01379,-0.00525,0.99389,-0.10662,-0.04167,0.00100,
1629344795686806784,0.53012,-0.34923,0.22898,0.11196,-0.01260,-0.00643,0.99361,-0.07934,0.10090,0.01521,
1629344795753479168,0.52489,-0.34325,0.22620,0.11556,-0.01741,0.00205,0.99315,-0.07015,0.12797,-0.06806,
1629344795820151552,0.52067,-0.33409,0.22154,0.11615,-0.02204,0.01080,0.99293,-0.06703,0.22074,-0.04780,
1629344795886822912,0.51473,-0.32013,0.21472,0.11790,-0.03163,0.01751,0.99237,-0.12803,0.21682,-0.11036,
1629344795953495552,0.50766,-0.30881,0.21781,0.11117,-0.03456,0.01925,0.99301,-0.10027,0.20244,0.18684,
1629344796020166912,0.50329,-0.29652,0.22649,0.11608,-0.01636,0.02163,0.99287,-0.08425,0.16172,0.07754,
1629344796086839552,0.49564,-0.29047,0.22771,0.11566,-0.00965,0.02592,0.99290,-0.09938,0.09270,0.01578,
1629344796153510912,0.49072,-0.28706,0.22602,0.11520,-0.01321,0.00771,0.99322,-0.07901,0.01883,-0.05710,
1629344796220183296,0.48594,-0.28889,0.22151,0.11589,-0.02097,-0.01481,0.99293,-0.08043,-0.03376,-0.02829,
1629344796286854656,0.48120,-0.28914,0.22155,0.11391,-0.01517,-0.00538,0.99336,-0.10077,-0.03361,0.00735,
1629344796353527040,0.47513,-0.28942,0.22393,0.11828,-0.01819,-0.00078,0.99281,-0.10799,-0.04913,0.03257,
1629344796420198400,0.46890,-0.29193,0.22378,0.11642,-0.01463,-0.00122,0.99309,-0.09664,0.01568,-0.02677,
1629344796486871040,0.46389,-0.28741,0.22237,0.12032,-0.01587,0.00167,0.99261,-0.07850,0.08449,-0.02145,
1629344796553542400,0.45943,-0.28089,0.21935,0.12044,-0.02006,0.00991,0.99247,-0.06510,0.13970,-0.05320,
1629344796620215040,0.45446,-0.26883,0.21492,0.12173,-0.02558,0.01988,0.99203,-0.09765,0.19363,-0.09031,
1629344796686886656,0.44623,-0.25505,0.20690,0.12187,-0.03383,0.02138,0.99174,-0.12467,0.19467,0.00018,
1629344796753558784,0.43878,-0.24409,0.21219,0.11725,-0.03595,0.02201,0.99221,-0.10156,0.19037,0.13087,
1629344796820230144,0.43400,-0.23218,0.21836,0.12023,-0.01807,0.02597,0.99224,-0.10566,0.15831,0.01702,
1629344796886902528,0.42764,-0.22519,0.22083,0.11722,-0.01307,0.02657,0.99266,-0.09555,0.09384,0.01749,
1629344796953573888,0.42286,-0.22176,0.21955,0.11826,-0.01817,0.00181,0.99282,-0.07602,0.03275,-0.04492,
1629344797020246272,0.41788,-0.22108,0.21867,0.11704,-0.02082,-0.00990,0.99286,-0.07488,0.00104,0.03412,
1629344797086917888,0.41343,-0.21880,0.22108,0.11644,-0.01409,0.00308,0.99309,-0.10974,0.05238,-0.02452,
1629344797153590528,0.40685,-0.21817,0.22378,0.12039,-0.01624,0.00356,0.99259,-0.11438,-0.02039,0.01634,
1629344797220262656,0.39929,-0.21852,0.22224,0.11682,-0.01574,0.00324,0.99302,-0.11190,0.05351,-0.00480,
1629344797286934016,0.39220,-0.21064,0.21966,0.11879,-0.02026,0.01116,0.99265,-0.11150,0.13542,-0.06951,
1629344797353606400,0.38516,-0.19959,0.21368,0.11893,-0.02752,0.02363,0.99224,-0.11560,0.20743,-0.07321,
1629344797420277760,0.37642,-0.18329,0.20496,0.11844,-0.03635,0.02808,0.99190,-0.17665,0.27123,-0.14144,
1629344797486950144,0.36553,-0.16811,0.19967,0.11540,-0.04592,0.02364,0.99198,-0.19679,0.21494,0.06337,
1629344797553621760,0.35369,-0.15281,0.20831,0.10887,-0.03840,0.02712,0.99294,-0.16316,0.27401,0.18800,
1629344797620294144,0.34447,-0.13568,0.21990,0.11285,-0.01195,0.03125,0.99305,-0.16024,0.20188,0.11396,
1629344797686965504,0.33440,-0.12525,0.22097,0.11392,-0.00933,0.02251,0.99319,-0.15628,0.11648,-0.01906,
1629344797753638144,0.32570,-0.12101,0.21980,0.11533,-0.01409,-0.00762,0.99320,-0.14398,0.02987,-0.04843,
1629344797820309504,0.31514,-0.11837,0.21823,0.11459,-0.01200,-0.01015,0.99329,-0.14776,-0.00736,0.02150,
1629344797886981888,0.30393,-0.11673,0.21814,0.11639,-0.01198,0.00030,0.99313,-0.16734,0.03164,0.02291,
1629344797953653248,0.29275,-0.11765,0.22030,0.11843,-0.01253,-0.00143,0.99288,-0.17028,-0.04452,-0.02450,
1629344798020325632,0.28253,-0.11698,0.21965,0.11833,-0.01030,-0.00082,0.99292,-0.14127,0.07557,0.00914,
1629344798086996992,0.27346,-0.11087,0.21736,0.12184,-0.01369,0.00302,0.99245,-0.13861,0.11096,-0.05610,
1629344798153669632,0.26472,-0.10147,0.21219,0.12138,-0.02042,0.01328,0.99231,-0.13215,0.19197,-0.08248,
1629344798220340992,0.25501,-0.08630,0.20415,0.12146,-0.02816,0.02681,0.99183,-0.17076,0.26345,-0.14336,
1629344798287013632,0.24253,-0.07271,0.20163,0.11614,-0.03687,0.02981,0.99210,-0.19349,0.15615,0.05982,
1629344798353684992,0.23177,-0.05887,0.21060,0.11559,-0.03096,0.02311,0.99254,-0.14388,0.21986,0.15211,
1629344798420357376,0.22357,-0.04687,0.21682,0.11750,-0.01441,0.02346,0.99269,-0.16373,0.16002,0.00122,
1629344798487029760,0.21323,-0.04061,0.21706,0.11698,-0.01246,0.01958,0.99286,-0.15372,0.06425,-0.00228,
1629344798553701120,0.20307,-0.04107,0.21269,0.11822,-0.01786,-0.00289,0.99282,-0.16373,-0.02927,-0.07416,
1629344798620373504,0.19091,-0.04449,0.20947,0.11732,-0.02007,-0.00827,0.99286,-0.19505,-0.07123,-0.03608,
1629344798687044864,0.17686,-0.04694,0.20776,0.12067,-0.02557,-0.00291,0.99236,-0.18511,0.00512,0.03178,
1629344798753717504,0.16446,-0.05003,0.21066,0.12526,-0.02209,-0.00452,0.99187,-0.17795,-0.08736,0.02830,
1629344798820389120,0.15365,-0.05454,0.21118,0.12606,-0.01458,-0.01121,0.99185,-0.14971,-0.00191,0.05646,
1629344798887061504,0.14409,-0.05419,0.21252,0.12927,-0.01131,-0.01470,0.99144,-0.13364,0.01843,-0.02434,
1629344798953732864,0.13535,-0.04964,0.21004,0.13059,-0.01492,-0.00250,0.99132,-0.09077,0.11193,-0.02840,
1629344799020405504,0.12850,-0.04143,0.20670,0.13319,-0.01920,0.00792,0.99087,-0.09600,0.15522,-0.04490,
1629344799087076864,0.12075,-0.03297,0.20454,0.13296,-0.02408,0.00993,0.99078,-0.13750,0.09503,-0.00986,
1629344799153749504,0.11236,-0.02663,0.21003,0.12444,-0.02500,0.01063,0.99186,-0.10389,0.13407,0.07489,
1629344799220420864,0.10718,-0.01942,0.21177,0.12846,-0.01323,0.01484,0.99152,-0.12367,0.08953,0.00057,
1629344799287093504,0.09645,-0.01902,0.21052,0.12769,-0.01553,0.01102,0.99163,-0.16899,-0.01293,-0.04704,
1629344799353765120,0.08485,-0.02259,0.20618,0.12646,-0.02329,0.00008,0.99170,-0.19227,-0.10001,-0.07490,
1629344799420437504,0.07023,-0.03040,0.20023,0.12557,-0.03048,-0.00847,0.99158,-0.25518,-0.13717,-0.10300,
1629344799487108864,0.05054,-0.03965,0.19080,0.12720,-0.04011,-0.00323,0.99106,-0.31073,-0.14136,-0.05619,
1629344799553781504,0.03230,-0.04850,0.19283,0.13774,-0.04506,-0.00803,0.98941,-0.24816,-0.11548,0.16745,
1629344799620452864,0.01555,-0.06041,0.20076,0.13487,-0.02976,-0.02660,0.99006,-0.22986,-0.16770,0.09905,
1629344799687125504,0.00321,-0.06775,0.20445,0.13834,-0.01744,-0.02505,0.98991,-0.17646,-0.06408,0.03667,
1629344799753797376,-0.00650,-0.07035,0.20303,0.13897,-0.01606,0.00465,0.99016,-0.13214,-0.04673,-0.02367,
1629344799820470272,-0.01389,-0.07210,0.20172,0.13714,-0.01585,0.01686,0.99028,-0.10508,-0.00048,0.02464,
1629344799887143168,-0.02028,-0.07374,0.20470,0.14099,-0.00836,-0.00140,0.98997,-0.10493,0.00123,0.01957,
1629344799953815296,-0.02804,-0.07504,0.20578,0.13289,-0.01542,-0.00395,0.99100,-0.09301,-0.03945,0.09351,
1629344800020487936,-0.03422,-0.07415,0.20806,0.13387,-0.01068,0.00184,0.99094,-0.08646,0.05570,-0.00978,
1629344800087159808,-0.04259,-0.07505,0.20567,0.13459,-0.00764,0.00535,0.99086,-0.16130,-0.08077,-0.04139,
1629344800153832960,-0.05529,-0.08358,0.19856,0.13207,-0.02276,-0.01045,0.99092,-0.20123,-0.14376,-0.13852,
1629344800220505088,-0.07124,-0.09482,0.18922,0.13164,-0.03709,-0.02469,0.99030,-0.27310,-0.21320,-0.12709,
1629344800287177728,-0.09259,-0.10632,0.17934,0.13432,-0.04192,-0.00551,0.99004,-0.36875,-0.19022,-0.17503,
1629344800353849856,-0.11717,-0.11675,0.17296,0.14531,-0.04957,0.00454,0.98813,-0.32051,-0.12040,0.11069,
1629344800420522752,-0.14024,-0.13141,0.18520,0.15009,-0.03425,-0.02537,0.98775,-0.33221,-0.27766,0.22638,
1629344800487194624,-0.15751,-0.14905,0.19683,0.14227,-0.00999,-0.04418,0.98879,-0.26291,-0.16135,0.07782,
1629344800553867520,-0.17239,-0.15263,0.19703,0.14301,-0.00787,-0.00550,0.98967,-0.21029,-0.05482,-0.06747,
1629344800620539648,-0.18742,-0.15430,0.19311,0.13456,-0.01335,0.03425,0.99022,-0.20437,-0.06596,-0.03267,
1629344800687212800,-0.19807,-0.15835,0.19661,0.13543,-0.00847,0.00518,0.99074,-0.18487,0.00927,0.09926,
1629344800753884160,-0.21048,-0.16028,0.19957,0.13436,-0.01294,-0.02658,0.99049,-0.20625,-0.00425,0.00316,
1629344800820556544,-0.22295,-0.15770,0.20351,0.12979,-0.01036,-0.01028,0.99143,-0.16239,0.09729,0.03385,
1629344800887227904,-0.23022,-0.15163,0.20411,0.13231,-0.00157,0.00991,0.99116,-0.19251,-0.00078,-0.01351,
1629344800953900288,-0.24736,-0.15691,0.19789,0.13054,-0.01297,-0.00352,0.99135,-0.26175,-0.09435,-0.14709,
1629344801020571904,-0.26874,-0.16753,0.18595,0.12883,-0.03351,-0.02581,0.99076,-0.31324,-0.21323,-0.16278,
1629344801087244288,-0.29188,-0.17882,0.17614,0.13023,-0.03685,-0.01490,0.99069,-0.39530,-0.17423,-0.15808,
1629344801153916928,-0.32151,-0.19103,0.16457,0.13558,-0.04500,0.01073,0.98969,-0.43972,-0.19423,-0.08079,
1629344801220588544,-0.34866,-0.20319,0.17427,0.14480,-0.04302,-0.00892,0.98848,-0.36005,-0.16995,0.29555,
1629344801287260672,-0.36429,-0.21627,0.19312,0.14545,-0.01203,-0.01321,0.98920,-0.28588,-0.11313,0.13058,
1629344801353932032,-0.38038,-0.21985,0.19569,0.14711,-0.01405,-0.01704,0.98887,-0.20353,-0.02202,0.05075,
1629344801420604672,-0.39045,-0.21856,0.19621,0.15092,-0.01700,-0.01995,0.98820,-0.11055,0.06623,0.02871,
1629344801487276032,-0.39471,-0.21424,0.19266,0.15191,-0.01948,-0.01753,0.98805,-0.04243,0.07870,-0.00321,
1629344801553948416,-0.39974,-0.21065,0.18945,0.14996,-0.02088,-0.01347,0.98838,-0.00322,0.05744,0.00503,
1629344801620620032,-0.40164,-0.20852,0.18910,0.14951,-0.02068,-0.01121,0.98848,0.01578,0.01675,0.01190,
1629344801687292672,-0.40109,-0.20906,0.18925,0.14933,-0.01993,-0.01152,0.98852,0.01808,-0.02624,0.01107,
1629344801753964032,-0.40103,-0.21027,0.18928,0.14978,-0.01900,-0.01297,0.98845,0.00901,-0.01171,0.00892,
1629344801820636160,-0.40053,-0.21082,0.18933,0.15032,-0.01852,-0.01364,0.98837,-0.00409,0.00873,0.00100,
1629344801887307520,-0.40080,-0.21012,0.18906,0.15005,-0.01890,-0.01288,0.98841,-0.01189,0.02579,-0.00489,
1629344801953980160,-0.40117,-0.20930,0.18878,0.14979,-0.01942,-0.01202,0.98845,-0.00998,0.01169,-0.00042,
1629344802020651520,-0.40114,-0.20948,0.18869,0.14980,-0.01934,-0.01218,0.98845,-0.00104,-0.00235,0.00432,
1629344802087323904,-0.40075,-0.21006,0.18898,0.14993,-0.01892,-0.01281,0.98843,-0.00104,-0.00209,0.00588,
1629344802153995264,-0.40071,-0.21018,0.18894,0.15002,-0.01871,-0.01308,0.98842,-0.00826,0.00946,0.00081,
1629344802220667904,-0.40087,-0.20982,0.18867,0.14989,-0.01889,-0.01273,0.98844,-0.00953,0.01447,-0.00078,
1629344802287339264,-0.40094,-0.20960,0.18864,0.14983,-0.01908,-0.01242,0.98845,-0.00654,0.00738,0.00235,
1629344802354011648,-0.40083,-0.20975,0.18867,0.14986,-0.01893,-0.01258,0.98845,-0.00426,0.00147,0.00427,
1629344802420683008,-0.40072,-0.21005,0.18875,0.14994,-0.01875,-0.01291,0.98843,-0.00624,0.00470,0.00348,
1629344802487355136,-0.40075,-0.20994,0.18862,0.14994,-0.01869,-0.01293,0.98843,-0.00747,0.01005,0.00205,
1629344802554027520,-0.40086,-0.20962,0.18852,0.14986,-0.01880,-0.01273,0.98845,-0.00722,0.01041,0.00238,
1629344802620698880,-0.40092,-0.20956,0.18847,0.14986,-0.01883,-0.01272,0.98845,-0.00708,0.00594,0.00344,
1629344802687371520,-0.40087,-0.20964,0.18836,0.14986,-0.01867,-0.01289,0.98845,-0.00464,0.00480,0.00429,
1629344802754042880,-0.40088,-0.20966,0.18846,0.14986,-0.01863,-0.01297,0.98845,-0.00699,0.00710,0.00386,
1629344802820715520,-0.40093,-0.20954,0.18840,0.14985,-0.01864,-0.01291,0.98845,-0.00791,0.00906,0.00312,
1629344802887386880,-0.40100,-0.20926,0.18829,0.14979,-0.01866,-0.01283,0.98846,-0.00709,0.00836,0.00346,
1629344802954059008,-0.40105,-0.20910,0.18830,0.14974,-0.01865,-0.01291,0.98847,-0.00717,0.00583,0.00456,
1629344803020730368,-0.40098,-0.20930,0.18825,0.14979,-0.01854,-0.01300,0.98846,-0.00600,0.00621,0.00420,
1629344803087402752,-0.40079,-0.20976,0.18828,0.14988,-0.01852,-0.01300,0.98845,-0.00553,0.00774,0.00424,
1629344803154074112,-0.40069,-0.20987,0.18838,0.14988,-0.01857,-0.01291,0.98844,-0.00655,0.00785,0.00467,
1629344803220746496,-0.40079,-0.20956,0.18836,0.14983,-0.01858,-0.01291,0.98845,-0.00760,0.00752,0.00452,
1629344803287417856,-0.40090,-0.20903,0.18830,0.14971,-0.01854,-0.01298,0.98847,-0.00776,0.00845,0.00516,
1629344803354090240,-0.40076,-0.20963,0.18799,0.14986,-0.01842,-0.01307,0.98845,-0.00662,0.00838,0.00491,
1629344803420761856,-0.40074,-0.20932,0.18806,0.14975,-0.01839,-0.01305,0.98847,-0.00654,0.00870,0.00452,
1629344803487434240,-0.40087,-0.20898,0.18783,0.14968,-0.01831,-0.01303,0.98848,-0.00549,0.00871,0.00437,
1629344803554105600,-0.40092,-0.20888,0.18777,0.14964,-0.01824,-0.01306,0.98849,-0.00491,0.00636,0.00508,
1629344803620777728,-0.40052,-0.21014,0.18820,0.14994,-0.01838,-0.01304,0.98844,-0.00609,0.00602,0.00498,
1629344803687449344,-0.40048,-0.21009,0.18813,0.14991,-0.01834,-0.01299,0.98844,-0.00488,0.00744,0.00455,
1629344803754121472,-0.40051,-0.21007,0.18822,0.14992,-0.01838,-0.01300,0.98844,-0.00697,0.00712,0.00525,
1629344803820793856,-0.40050,-0.21009,0.18812,0.14993,-0.01833,-0.01301,0.98844,-0.00566,0.00688,0.00534,
1629344803887465216,-0.40050,-0.21014,0.18802,0.14993,-0.01828,-0.01307,0.98844,-0.00514,0.00613,0.00522,
1629344803954137856,-0.40049,-0.21011,0.18812,0.14993,-0.01832,-0.01302,0.98844,-0.00629,0.00709,0.00606,
