1629344764017670400,0.00064,-0.00063,0.00051,0.99996,0.00537,-0.00691,-0.00054,-0.00157,0.00298,-0.00006,
1629344764084339968,0.00215,-0.00003,0.01585,0.99998,0.00377,-0.00467,-0.00060,0.00337,0.00487,0.02802,
1629344764151008512,0.00315,0.00077,0.02010,0.99998,0.00302,-0.00456,-0.00064,0.00664,0.01148,0.03522,
1629344764217678080,0.00377,0.00139,0.02204,0.99999,0.00247,-0.00476,-0.00027,0.01645,0.00151,0.02227,
1629344764284346112,0.00474,0.00085,0.02349,0.99998,0.00400,-0.00389,-0.00055,0.01771,-0.01490,0.03783,
1629344764351015680,0.00575,-0.00041,0.02597,0.99998,0.00591,-0.00369,-0.00111,0.01025,-0.02225,0.05551,
1629344764417683712,0.00694,-0.00184,0.02946,0.99996,0.00707,-0.00439,-0.00216,0.01292,-0.01269,0.06040,
1629344764484353280,0.00809,-0.00239,0.03346,0.99995,0.00745,-0.00548,-0.00254,0.01534,-0.00194,0.06737,
1629344764551021568,0.00927,-0.00250,0.03839,0.99996,0.00591,-0.00642,-0.00284,0.01418,-0.00301,0.06398,
1629344764617690368,0.01009,-0.00276,0.04177,0.99995,0.00676,-0.00717,-0.00296,0.01345,-0.00319,0.04033,
1629344764684358656,0.01013,-0.00285,0.04421,0.99994,0.00722,-0.00775,-0.00279,0.00539,0.01051,0.03734,
1629344764751028480,0.00966,-0.00293,0.04648,0.99993,0.00729,-0.00926,-0.00216,0.00366,0.00664,0.04216,
1629344764817697280,0.00879,-0.00296,0.04967,0.99991,0.00709,-0.01090,-0.00211,-0.00226,0.00412,0.04642,
1629344764884367104,0.00848,-0.00278,0.05289,0.99989,0.00738,-0.01289,-0.00199,0.00294,0.00137,0.04112,
1629344764951035904,0.00868,-0.00236,0.05537,0.99986,0.00799,-0.01424,-0.00200,0.00834,0.00432,0.03211,
1629344765017705728,0.00908,-0.00190,0.05747,0.99986,0.00756,-0.01502,-0.00211,0.01014,0.00761,0.03206,
1629344765084374272,0.00903,-0.00275,0.05928,0.99984,0.00736,-0.01638,-0.00178,0.01405,0.00975,0.03948,
1629344765151043840,0.00947,-0.00295,0.06231,0.99984,0.00772,-0.01625,-0.00150,0.01781,0.00266,0.04905,
1629344765217713664,0.01023,-0.00305,0.06575,0.99984,0.00849,-0.01596,-0.00076,0.02161,0.00428,0.05365,
1629344765284382208,0.01164,-0.00287,0.06907,0.99984,0.00788,-0.01613,-0.00059,0.01905,0.02091,0.05224,
1629344765351051520,0.01261,-0.00157,0.07247,0.99984,0.00610,-0.01687,0.00023,0.01102,0.01844,0.05125,
1629344765417720064,0.01403,0.00023,0.07561,0.99983,0.00554,-0.01783,0.00072,0.00530,0.00402,0.05214,
1629344765484389376,0.01480,0.00053,0.07855,0.99981,0.00624,-0.01831,0.00080,0.01068,-0.00423,0.03455,
1629344765551057920,0.01582,0.00029,0.08039,0.99980,0.00795,-0.01849,0.00045,0.00914,-0.00907,0.02724,
1629344765617726976,0.01631,-0.00051,0.08230,0.99978,0.00992,-0.01866,0.00029,0.00746,-0.00986,0.03625,
1629344765684395520,0.01654,-0.00130,0.08485,0.99975,0.01111,-0.01950,-0.00025,-0.00084,-0.00514,0.04272,
1629344765751065088,0.01627,-0.00206,0.08784,0.99971,0.01174,-0.02081,-0.00054,0.00464,-0.00576,0.04282,
1629344765817733376,0.01723,-0.00290,0.09098,0.99969,0.01434,-0.02046,-0.00021,0.01506,-0.00847,0.04695,
1629344765884402688,0.01802,-0.00398,0.09384,0.99966,0.01665,-0.02028,-0.00035,0.02326,-0.01010,0.03877,
1629344765951070976,0.01936,-0.00423,0.09651,0.99967,0.01621,-0.01977,-0.00057,0.02540,0.00750,0.03356,
1629344766017740544,0.02074,-0.00356,0.09858,0.99972,0.01485,-0.01858,-0.00068,0.02205,0.02161,0.02688,
1629344766084408832,0.02236,-0.00212,0.10038,0.99977,0.01382,-0.01665,-0.00038,0.02199,0.01732,0.03308,
1629344766151077888,0.02373,-0.00076,0.10243,0.99979,0.01311,-0.01555,-0.00015,0.01846,0.01429,0.03520,
1629344766217745920,0.02508,-0.00022,0.10462,0.99978,0.01399,-0.01570,-0.00048,0.00692,0.00293,0.05371,
1629344766284414976,0.02555,-0.00059,0.10769,0.99974,0.01599,-0.01649,-0.00047,-0.00359,-0.01645,0.05750,
1629344766351083264,0.02501,-0.00240,0.11158,0.99966,0.01956,-0.01695,-0.00069,-0.00651,-0.02196,0.05571,
1629344766417752320,0.02465,-0.00447,0.11569,0.99955,0.02398,-0.01789,-0.00112,-0.01254,-0.03253,0.06817,
1629344766484421376,0.02380,-0.00674,0.11896,0.99946,0.02683,-0.01862,-0.00236,-0.00793,-0.02451,0.02688,
1629344766551088896,0.02410,-0.00786,0.12104,0.99942,0.02891,-0.01759,-0.00281,-0.00453,-0.01180,0.02884,
1629344766617757696,0.02386,-0.00897,0.12251,0.99938,0.03067,-0.01680,-0.00290,-0.00716,0.00128,0.03659,
1629344766684425472,0.02285,-0.00916,0.12494,0.99937,0.03084,-0.01716,-0.00238,-0.01202,0.01214,0.04985,
1629344766751096576,0.02195,-0.00833,0.12780,0.99937,0.03014,-0.01843,-0.00250,-0.00109,0.01788,0.02657,
1629344766817766400,0.02190,-0.00711,0.12948,0.99943,0.02849,-0.01799,-0.00233,0.00510,0.01603,0.03027,
1629344766884437504,0.02188,-0.00639,0.13164,0.99944,0.02814,-0.01808,-0.00217,0.00497,-0.00442,0.04418,
1629344766951107584,0.02225,-0.00707,0.13460,0.99940,0.02924,-0.01813,-0.00252,0.01631,-0.02524,0.05450,
1629344767017778432,0.02343,-0.00854,0.13825,0.99937,0.03091,-0.01700,-0.00304,0.02327,-0.02415,0.05525,
1629344767084448256,0.02499,-0.01065,0.14234,0.99933,0.03245,-0.01619,-0.00405,0.03142,-0.02458,0.05864,
1629344767151119104,0.02830,-0.01231,0.14585,0.99934,0.03462,-0.00986,-0.00414,0.02659,-0.01417,0.04945,
1629344767217788928,0.03078,-0.01376,0.14817,0.99929,0.03669,-0.00696,-0.00485,0.02052,-0.02321,0.03565,
1629344767284459776,0.03204,-0.01562,0.15063,0.99923,0.03855,-0.00467,-0.00555,0.01415,-0.00709,0.02140,
1629344767351129600,0.03288,-0.01641,0.15185,0.99920,0.03960,-0.00317,-0.00535,0.00830,0.00099,0.01685,
1629344767417800448,0.03300,-0.01609,0.15293,0.99923,0.03876,-0.00282,-0.00528,-0.00290,0.01071,0.02756,
1629344767484470016,0.03277,-0.01514,0.15491,0.99928,0.03732,-0.00327,-0.00557,-0.01442,0.01321,0.04580,
1629344767551141120,0.03183,-0.01432,0.15795,0.99932,0.03626,-0.00426,-0.00545,-0.01315,0.00386,0.04655,
1629344767617810688,0.03092,-0.01402,0.16146,0.99934,0.03566,-0.00428,-0.00531,-0.00879,0.00108,0.04647,
1629344767684481536,0.02953,-0.01406,0.16457,0.99933,0.03597,-0.00510,-0.00492,-0.00755,-0.00165,0.04440,
1629344767751152640,0.02890,-0.01439,0.16754,0.99927,0.03735,-0.00689,-0.00482,-0.00736,-0.00879,0.04865,
1629344767817824512,0.02796,-0.01531,0.17044,0.99921,0.03858,-0.00853,-0.00431,0.00145,-0.01937,0.03425,
1629344767884496896,0.02751,-0.01669,0.17339,0.99914,0.04026,-0.00875,-0.00443,0.00400,-0.02174,0.04108,
1629344767951167744,0.02772,-0.01793,0.17644,0.99903,0.04234,-0.01073,-0.00474,0.01646,-0.01456,0.03668,
1629344768017839872,0.02758,-0.01886,0.17860,0.99897,0.04340,-0.01237,-0.00405,0.02180,-0.00548,0.03766,
1629344768084510976,0.02886,-0.01880,0.18090,0.99899,0.04290,-0.01235,-0.00456,0.02291,0.00775,0.03691,
1629344768151183104,0.03001,-0.01823,0.18315,0.99902,0.04223,-0.01267,-0.00413,0.02032,0.01058,0.03894,
1629344768217853952,0.03110,-0.01760,0.18554,0.99905,0.04156,-0.01280,-0.00351,0.01629,0.00843,0.03574,
1629344768284526080,0.03210,-0.01632,0.18753,0.99912,0.03998,-0.01211,-0.00367,0.01307,0.00872,0.02263,
1629344768351197184,0.03321,-0.01528,0.18904,0.99917,0.03889,-0.01174,-0.00387,0.01004,0.00794,0.03375,
1629344768417869312,0.03396,-0.01474,0.19120,0.99918,0.03828,-0.01222,-0.00399,0.00536,0.00165,0.05048,
1629344768484540416,0.03428,-0.01468,0.19478,0.99919,0.03816,-0.01247,-0.00349,0.00754,-0.00383,0.05046,
1629344768551212800,0.03501,-0.01498,0.19813,0.99917,0.03869,-0.01180,-0.00405,0.00837,-0.01099,0.05221,
1629344768617883904,0.03562,-0.01560,0.20120,0.99915,0.03903,-0.01239,-0.00425,0.01082,-0.01016,0.03878,
1629344768684556288,0.03653,-0.01617,0.20382,0.99914,0.03962,-0.01153,-0.00475,0.00972,-0.01202,0.01923,
1629344768751227648,0.03615,-0.01772,0.20467,0.99911,0.04052,-0.01068,-0.00490,-0.00018,-0.01223,0.00276,
1629344768817900032,0.03563,-0.01867,0.20448,0.99907,0.04127,-0.01122,-0.00512,-0.00866,-0.00701,0.00515,
1629344768884571392,0.03489,-0.01895,0.20460,0.99905,0.04173,-0.01150,-0.00527,-0.01357,0.00130,0.00061,
1629344768951243776,0.03366,-0.01893,0.20442,0.99904,0.04179,-0.01179,-0.00522,-0.01664,0.00320,0.00381,
1629344769017915136,0.03210,-0.01881,0.20433,0.99905,0.04155,-0.01214,-0.00530,-0.01499,-0.00284,0.00166,
1629344769084587776,0.03093,-0.01887,0.20448,0.99905,0.04154,-0.01234,-0.00526,-0.01012,-0.00157,0.00078,
1629344769151260160,0.03023,-0.01872,0.20474,0.99906,0.04136,-0.01201,-0.00528,-0.00336,-0.00076,0.00028,
1629344769217932032,0.02964,-0.01864,0.20504,0.99908,0.04096,-0.01151,-0.00530,-0.00255,0.00330,0.00221,
1629344769284604416,0.02944,-0.01848,0.20479,0.99908,0.04085,-0.01165,-0.00525,-0.00031,-0.00098,0.00173,
1629344769351276032,0.02939,-0.01856,0.20444,0.99907,0.04119,-0.01197,-0.00539,0.00257,0.00015,0.00171,
1629344769417948416,0.02943,-0.01850,0.20460,0.99907,0.04121,-0.01169,-0.00536,0.00511,0.00028,0.00125,
1629344769484620032,0.02947,-0.01851,0.20454,0.99907,0.04109,-0.01156,-0.00537,0.00383,0.00058,0.00137,
1629344769551292672,0.02961,-0.01839,0.20436,0.99908,0.04101,-0.01151,-0.00536,0.00290,-0.00001,0.00146,
1629344769617964288,0.02955,-0.01843,0.20437,0.99908,0.04106,-0.01156,-0.00537,0.00308,-0.00051,0.00160,
1629344769684637184,0.02937,-0.01836,0.20443,0.99909,0.04076,-0.01152,-0.00536,0.00238,-0.00015,0.00120,
1629344769751308544,0.02930,-0.01828,0.20487,0.99911,0.04045,-0.01108,-0.00536,0.00387,0.00107,0.00176,
1629344769817980928,0.02945,-0.01823,0.20463,0.99912,0.04024,-0.01097,-0.00534,0.00316,-0.00028,0.00075,
1629344769884652288,0.02956,-0.01820,0.20441,0.99911,0.04033,-0.01123,-0.00540,0.00354,-0.00028,0.00168,
1629344769951324928,0.02964,-0.01823,0.20448,0.99910,0.04048,-0.01123,-0.00539,0.00435,0.00049,0.00143,
1629344770017996288,0.02980,-0.01806,0.20438,0.99911,0.04027,-0.01096,-0.00542,0.00303,0.00154,0.00096,
1629344770084668928,0.02308,-0.02151,0.19980,0.99905,0.04115,-0.01180,-0.00817,-0.10109,-0.13246,0.06190,
1629344770151340544,0.02190,-0.02274,0.20446,0.99878,0.04530,-0.01424,-0.01356,-0.09615,-0.08468,0.02705,
1629344770218013184,0.01916,-0.02014,0.20626,0.99914,0.03438,-0.01663,-0.01621,-0.13146,-0.03930,0.02594,
1629344770284684544,0.01244,-0.01818,0.20766,0.99952,0.02011,-0.01609,-0.01725,-0.17309,-0.03728,0.00324,
1629344770351357184,-0.00300,-0.02454,0.21009,0.99929,0.02954,-0.01890,-0.01406,-0.18308,0.04580,0.16274,
1629344770418028800,-0.01728,-0.02674,0.22183,0.99909,0.02904,-0.03066,-0.00660,-0.13738,-0.01387,0.14208,
1629344770484701696,-0.01876,-0.02411,0.22590,0.99899,0.03222,-0.02789,-0.01449,-0.03471,0.02023,-0.04858,
1629344770551374080,-0.01853,-0.01652,0.22427,0.99954,0.02324,-0.01367,-0.01380,0.02065,0.20511,-0.05450,
1629344770618045696,-0.01137,-0.00498,0.21875,0.99986,0.00986,0.00905,-0.00966,0.08198,0.22523,-0.06891,
1629344770684718592,-0.00357,0.00947,0.21588,0.99950,0.02130,0.02073,-0.01041,0.16170,0.24778,-0.09567,
1629344770751390720,0.00666,0.02009,0.22078,0.99866,0.03278,0.03179,-0.02435,0.14137,0.13357,0.20325,
1629344770818063616,0.01295,0.03218,0.23654,0.99936,0.02440,0.01047,-0.02398,0.10144,0.21396,0.21665,
1629344770884735744,0.01486,0.04234,0.24248,0.99948,0.02240,-0.00314,-0.02308,0.05997,0.09464,0.05731,
1629344770951409152,0.01713,0.04347,0.24214,0.99831,0.05334,-0.00406,-0.02260,0.03018,0.02677,-0.00774,
1629344771018081280,0.01972,0.04392,0.24209,0.99750,0.06819,-0.00307,-0.01838,0.01415,-0.02989,0.03089,
1629344771084754432,0.02133,0.04030,0.24508,0.99798,0.06083,-0.00537,-0.01753,0.01525,0.01200,0.17008,
1629344771151426816,0.02060,0.03887,0.25035,0.99875,0.04755,-0.00745,-0.01345,0.00654,-0.10941,0.11622,
1629344771218099968,0.01802,0.03370,0.25004,0.99843,0.05087,-0.01427,-0.01839,0.01338,-0.09142,-0.01330,
1629344771284772352,0.02162,0.03238,0.24808,0.99842,0.05182,-0.01360,-0.01672,0.00400,-0.00985,0.01344,
1629344771351446016,0.02268,0.03137,0.24803,0.99867,0.04710,-0.01228,-0.01706,-0.00574,-0.02343,-0.00907,
1629344771418118144,0.02104,0.03034,0.24815,0.99848,0.04983,-0.01567,-0.01752,-0.02406,-0.01686,0.01213,
1629344771484791552,0.01896,0.02776,0.25072,0.99815,0.05465,-0.01251,-0.02335,-0.01379,-0.09318,0.07058,
1629344771551463936,0.01791,0.02703,0.25176,0.99841,0.05094,-0.01332,-0.02025,0.02174,0.02455,-0.07940,
1629344771618137344,0.02030,0.02129,0.24984,0.99831,0.05385,-0.00666,-0.02101,0.03401,-0.11089,-0.02596,
1629344771684809984,0.02214,0.01391,0.24650,0.99778,0.06227,0.00004,-0.02364,0.06332,-0.12130,-0.07007,
1629344771751482880,0.02753,0.00578,0.24148,0.99734,0.06876,0.00725,-0.02318,0.10707,-0.15383,-0.08520,
1629344771818155776,0.03516,-0.00372,0.23816,0.99755,0.06440,0.01661,-0.02181,0.12094,-0.12466,0.07962,
1629344771884827648,0.04314,-0.01676,0.24721,0.99798,0.06165,0.00670,-0.01408,0.09385,-0.20214,0.15173,
1629344771951500288,0.04738,-0.02919,0.25079,0.99795,0.06119,-0.00978,-0.01623,0.08704,-0.15424,0.02421,
1629344772018172416,0.05171,-0.03477,0.25169,0.99839,0.05338,-0.01451,-0.01278,0.05032,-0.10623,0.02358,
1629344772084845568,0.05645,-0.03854,0.25087,0.99909,0.03754,-0.01449,-0.01377,0.02248,-0.08243,-0.00950,
1629344772151517696,0.05552,-0.04404,0.25154,0.99882,0.04116,-0.02217,-0.01291,-0.02124,-0.09947,0.06769,
1629344772218190592,0.05524,-0.05176,0.25661,0.99841,0.04759,-0.02179,-0.02070,-0.00112,-0.08547,0.01960,
1629344772284862464,0.05585,-0.05334,0.25184,0.99861,0.04664,-0.01716,-0.01742,0.04531,-0.06134,-0.12210,
1629344772351535616,0.05828,-0.06109,0.24559,0.99856,0.04861,-0.00758,-0.02118,0.06543,-0.15930,-0.07504,
1629344772418207744,0.06594,-0.07191,0.23924,0.99789,0.06079,0.00271,-0.02248,0.12123,-0.18827,-0.10457,
1629344772484880896,0.07598,-0.08621,0.23109,0.99766,0.06236,0.01367,-0.02455,0.18137,-0.23315,-0.13104,
1629344772551553280,0.08937,-0.10050,0.22926,0.99809,0.05344,0.02340,-0.02026,0.18155,-0.15160,0.08228,
1629344772618226176,0.10040,-0.11408,0.23908,0.99813,0.05811,0.00761,-0.01746,0.14524,-0.22861,0.14677,
1629344772684898304,0.10738,-0.12998,0.24406,0.99752,0.06714,-0.01271,-0.01697,0.13486,-0.16992,0.04805,
1629344772751571456,0.11296,-0.14015,0.24704,0.99833,0.05198,-0.01985,-0.01550,0.07937,-0.16987,0.00543,
1629344772818243840,0.11645,-0.15049,0.24529,0.99933,0.01883,-0.01684,-0.02638,0.04234,-0.17626,-0.01543,
1629344772884916992,0.11637,-0.16428,0.24866,0.99866,0.02678,-0.02658,-0.03532,0.00786,-0.24147,0.12254,
1629344772951589120,0.11718,-0.18071,0.25313,0.99757,0.04440,-0.02016,-0.04974,0.04273,-0.14023,-0.03238,
1629344773018262272,0.12288,-0.19000,0.24612,0.99751,0.04397,-0.01264,-0.05367,0.10989,-0.17527,-0.12244,
1629344773084934656,0.12997,-0.20192,0.24165,0.99697,0.04247,-0.00276,-0.06514,0.13719,-0.23840,-0.05638,
1629344773151608064,0.13956,-0.21731,0.23278,0.99596,0.05554,0.00923,-0.07001,0.19612,-0.24049,-0.17188,
1629344773218281216,0.15496,-0.23752,0.22177,0.99483,0.06134,0.02545,-0.07688,0.26537,-0.30413,-0.08357,
1629344773284953600,0.16936,-0.25237,0.22468,0.99543,0.05239,0.03240,-0.07296,0.25403,-0.23637,0.15754,
1629344773351626752,0.18450,-0.26573,0.23467,0.99575,0.04475,0.01746,-0.07864,0.24474,-0.21211,0.14291,
1629344773418299648,0.19655,-0.27519,0.23941,0.99574,0.04156,0.00672,-0.08206,0.26560,-0.14931,-0.02424,
1629344773484973056,0.21297,-0.27975,0.23437,0.99566,0.03176,0.01423,-0.08633,0.27588,-0.00939,-0.09212,
1629344773551645184,0.23172,-0.27762,0.22848,0.99578,0.00963,0.01954,-0.08918,0.31604,0.06320,-0.14923,
1629344773618318848,0.25075,-0.27692,0.22789,0.99482,0.00083,0.02192,-0.09921,0.26470,-0.04852,0.04850,
1629344773684991232,0.27061,-0.27173,0.23403,0.99418,-0.00307,0.02426,-0.10494,0.27118,0.13182,0.03819,
1629344773751663872,0.28423,-0.26646,0.23967,0.99453,-0.01232,0.01364,-0.10283,0.23392,0.07069,-0.00415,
1629344773818335488,0.29641,-0.26778,0.24505,0.99502,-0.00068,0.00418,-0.09960,0.20150,-0.02011,-0.02947,
1629344773885008128,0.31010,-0.27066,0.24483,0.99515,-0.00141,0.00575,-0.09815,0.17963,-0.07882,0.02162,
1629344773951679488,0.32337,-0.27523,0.24368,0.99502,-0.00469,0.01066,-0.09902,0.19928,-0.10070,-0.00116,
1629344774018352128,0.33602,-0.28281,0.25202,0.99576,-0.00309,0.01067,-0.09135,0.16364,-0.12561,0.11300,
1629344774085023744,0.33952,-0.29140,0.25764,0.99540,0.00422,-0.00695,-0.09544,0.14569,-0.13185,0.05910,
1629344774151696128,0.35456,-0.29231,0.25390,0.99525,0.00821,-0.00001,-0.09703,0.19227,-0.02913,-0.00445,
1629344774218367744,0.37143,-0.29537,0.25216,0.99526,-0.00198,0.00640,-0.09698,0.21189,0.03664,-0.03246,
1629344774285040640,0.38561,-0.29454,0.24957,0.99519,-0.00383,0.00400,-0.09785,0.25372,0.06364,-0.04029,
1629344774351712256,0.39950,-0.29234,0.25104,0.99442,0.00394,0.01094,-0.10481,0.21666,-0.01282,0.13610,
1629344774418384896,0.41212,-0.29013,0.25586,0.99470,-0.00264,0.00221,-0.10275,0.23084,0.04555,0.02839,
1629344774485057280,0.42868,-0.29223,0.25518,0.99501,-0.00295,0.00052,-0.09975,0.22663,-0.06079,-0.02435,
1629344774551728896,0.43485,-0.30020,0.25351,0.99543,0.01033,0.00094,-0.09496,0.18229,-0.13443,-0.08314,
1629344774618401536,0.45400,-0.31450,0.24475,0.99503,0.03834,-0.00098,-0.09184,0.23214,-0.30781,-0.17332,
1629344774685073152,0.46671,-0.33066,0.23919,0.99522,0.02706,0.01027,-0.09329,0.19520,-0.26626,0.06314,
1629344774751746816,0.48182,-0.34976,0.25161,0.99538,0.03042,0.00032,-0.09107,0.15433,-0.28790,0.21743,
1629344774818419200,0.48922,-0.36445,0.25934,0.99517,0.02375,-0.01705,-0.09369,0.17489,-0.19847,0.02969,
1629344774885092608,0.50404,-0.37203,0.25824,0.99530,0.00356,-0.01012,-0.09627,0.18382,-0.08713,0.00840,
1629344774951765248,0.51941,-0.37541,0.25827,0.99532,-0.00594,-0.00483,-0.09631,0.20053,-0.00357,0.02757,
1629344775018439168,0.53513,-0.37757,0.25725,0.99538,0.00225,-0.00852,-0.09561,0.22955,-0.01187,0.03461,
1629344775085111552,0.54898,-0.37774,0.25957,0.99427,0.00563,-0.00023,-0.10674,0.20893,0.02195,0.03895,
1629344775151785216,0.56352,-0.37783,0.26088,0.99481,0.00139,-0.00090,-0.10169,0.19673,-0.01753,-0.02535,
1629344775218457856,0.57393,-0.38239,0.25945,0.99451,0.00340,-0.00071,-0.10457,0.16931,-0.13357,-0.02825,
1629344775285131776,0.58415,-0.39038,0.25565,0.99431,0.01195,0.00708,-0.10557,0.16981,-0.17703,-0.08693,
1629344775351804416,0.59805,-0.40400,0.24983,0.99407,0.02436,0.01580,-0.10479,0.19664,-0.26239,-0.12339,
1629344775418478336,0.61233,-0.41683,0.25232,0.99462,0.02835,0.02450,-0.09654,0.19688,-0.17751,0.10935,
1629344775485150720,0.62303,-0.42775,0.25996,0.99498,0.02616,0.00844,-0.09622,0.15904,-0.17571,0.08534,
1629344775551824896,0.63418,-0.43749,0.25985,0.99502,0.02804,-0.00081,-0.09568,0.16761,-0.12377,-0.01703,
1629344775618497792,0.64504,-0.44286,0.25755,0.99543,0.01274,-0.00046,-0.09459,0.14832,-0.04742,-0.06039,
1629344775685171712,0.65557,-0.44437,0.25455,0.99543,-0.00391,0.00388,-0.09535,0.14265,-0.00087,-0.03932,
1629344775751844352,0.66367,-0.44668,0.25505,0.99531,0.00219,-0.00183,-0.09669,0.11983,-0.09383,0.03611,
1629344775818518528,0.67155,-0.44839,0.26072,0.99465,0.00452,-0.00012,-0.10324,0.12537,0.05521,0.01707,
1629344775885192704,0.67996,-0.44934,0.25967,0.99499,0.00202,-0.00100,-0.09991,0.10964,-0.03381,-0.02856,
1629344775951865600,0.68751,-0.45618,0.25791,0.99463,0.00667,0.00184,-0.10329,0.09713,-0.09010,-0.03786,
1629344776018540032,0.69342,-0.46312,0.25553,0.99456,0.01349,0.00566,-0.10317,0.09137,-0.12623,-0.04715,
1629344776085212928,0.70111,-0.47298,0.25178,0.99440,0.01925,0.01072,-0.10339,0.13530,-0.15361,-0.04531,
1629344776151886848,0.71057,-0.48182,0.25773,0.99502,0.01672,0.01484,-0.09710,0.10798,-0.13230,0.16274,
1629344776218560256,0.71682,-0.48965,0.26337,0.99492,0.01903,0.00204,-0.09886,0.10598,-0.10887,0.05399,
1629344776285234688,0.72492,-0.49319,0.26376,0.99500,0.02259,-0.00273,-0.09730,0.12672,-0.04198,0.01262,
1629344776351907840,0.73439,-0.49466,0.26202,0.99524,0.00622,0.00237,-0.09721,0.12841,0.02009,-0.04013,
1629344776418582272,0.74570,-0.49240,0.25860,0.99525,-0.00577,0.00699,-0.09690,0.15600,0.07425,-0.02464,
1629344776485255680,0.75553,-0.49158,0.26105,0.99495,-0.00074,0.00667,-0.10012,0.14289,-0.04721,0.07706,
1629344776551929856,0.76519,-0.49079,0.26418,0.99491,0.00136,0.00360,-0.10068,0.15428,0.05122,-0.01302,
1629344776618603520,0.77484,-0.49134,0.26348,0.99488,-0.00199,0.00134,-0.10107,0.12944,-0.04325,0.02560,
1629344776685277952,0.78181,-0.49374,0.26278,0.99471,-0.00124,0.00231,-0.10265,0.11976,-0.06757,-0.04599,
1629344776751949568,0.79028,-0.49992,0.26039,0.99472,0.00484,0.00720,-0.10225,0.10986,-0.13868,-0.03907,
1629344776818622208,0.79733,-0.50657,0.25648,0.99467,0.01216,0.01030,-0.10185,0.11325,-0.12423,0.06541,
1629344776885293824,0.80608,-0.51247,0.26453,0.99534,0.01401,0.01280,-0.09452,0.11402,-0.11591,0.09118,
1629344776951965952,0.81201,-0.52071,0.26889,0.99506,0.01821,-0.00130,-0.09762,0.12010,-0.09378,-0.01611,
1629344777018637568,0.82175,-0.52177,0.26817,0.99518,0.01530,-0.00056,-0.09683,0.14450,0.00773,-0.02221,
1629344777085310208,0.83163,-0.51996,0.26609,0.99530,-0.00258,0.00606,-0.09662,0.16042,0.06353,-0.08599,
1629344777151983104,0.84460,-0.51572,0.26368,0.99543,-0.00705,0.00863,-0.09489,0.19394,0.11337,-0.02805,
1629344777218654720,0.85636,-0.51138,0.26689,0.99513,0.00048,0.01175,-0.09788,0.18446,0.06535,0.07928,
1629344777285326848,0.86893,-0.50778,0.26829,0.99527,-0.00691,0.00527,-0.09673,0.16713,0.03329,0.01578,
1629344777351998464,0.87963,-0.50905,0.26736,0.99485,-0.00967,0.00218,-0.10083,0.15860,-0.04030,0.00411,
1629344777418671104,0.89027,-0.51351,0.26531,0.99455,0.00124,0.00376,-0.10416,0.13265,-0.11146,-0.03841,
1629344777485342720,0.90011,-0.52166,0.26272,0.99422,0.00935,0.00547,-0.10679,0.14441,-0.15833,-0.02417,
1629344777552015360,0.91132,-0.52949,0.26051,0.99423,0.01303,0.01295,-0.10571,0.18248,-0.05628,0.07702,
1629344777618686720,0.92302,-0.53573,0.26522,0.99470,0.01287,0.00894,-0.10157,0.15319,-0.11773,0.03082,
1629344777685359360,0.93429,-0.54129,0.26350,0.99446,0.01692,0.00002,-0.10373,0.18197,-0.05545,0.00704,
1629344777752030976,0.94761,-0.54066,0.26060,0.99455,0.00934,0.00646,-0.10365,0.20665,0.04834,-0.07003,
1629344777818703872,0.96328,-0.53578,0.25603,0.99455,-0.00250,0.01306,-0.10336,0.24090,0.12242,-0.07925,
1629344777885375488,0.98154,-0.52927,0.24971,0.99434,-0.00179,0.01651,-0.10494,0.28126,0.10287,0.02210,
1629344777952048128,1.00013,-0.52226,0.25490,0.99329,-0.00569,0.02134,-0.11356,0.26402,0.15625,0.09828,
1629344778018719744,1.01460,-0.51205,0.26054,0.99368,-0.02173,0.00869,-0.10975,0.22687,0.11782,0.04195,
1629344778085392128,1.02894,-0.50798,0.26187,0.99376,-0.01949,0.00305,-0.10982,0.18267,0.03509,0.02135,
1629344778152063744,1.03935,-0.50775,0.26127,0.99413,0.00457,0.00640,-0.10794,0.15061,-0.00955,-0.03110,
1629344778218736896,1.04922,-0.50953,0.25968,0.99407,0.01180,0.00812,-0.10777,0.13585,-0.06285,0.00968,
1629344778285408512,1.06010,-0.51047,0.26495,0.99487,0.00704,0.01181,-0.10026,0.16082,0.03824,0.10874,
1629344778352081152,1.06935,-0.51157,0.26613,0.99483,0.00558,0.00580,-0.10120,0.15213,-0.03784,-0.01581,
1629344778418752768,1.08108,-0.51206,0.26435,0.99462,0.00556,0.00501,-0.10329,0.20492,0.06183,-0.04711,
1629344778485425152,1.09655,-0.50619,0.26061,0.99488,-0.00673,0.01402,-0.09984,0.24107,0.14818,-0.09111,
1629344778552098048,1.11405,-0.49722,0.25483,0.99481,-0.01474,0.02045,-0.09861,0.30691,0.16204,-0.10344,
1629344778618769920,1.13693,-0.48816,0.25019,0.99424,-0.00246,0.02846,-0.10330,0.30023,0.06359,0.05043,
1629344778685442560,1.15751,-0.47856,0.26040,0.99391,-0.01317,0.01854,-0.10780,0.27761,0.18328,0.14448,
1629344778752114176,1.17375,-0.47031,0.26487,0.99380,-0.02634,0.00447,-0.10795,0.23888,0.07678,0.02554,
1629344778818786304,1.18694,-0.46922,0.26469,0.99369,-0.00904,-0.00024,-0.11180,0.18087,-0.00478,-0.02810,
1629344778885457664,1.19791,-0.47110,0.26296,0.99360,0.02109,0.00355,-0.11091,0.15661,-0.04912,-0.03111,
1629344778952130304,1.20869,-0.47346,0.26240,0.99356,0.01583,0.00558,-0.11205,0.17995,-0.04654,0.03278,
1629344779018801664,1.21857,-0.47673,0.26931,0.99473,0.00876,0.00910,-0.10175,0.12851,-0.09794,0.09910,
1629344779085474304,1.22724,-0.48229,0.27191,0.99450,0.00987,-0.00014,-0.10429,0.13897,-0.08304,0.00122,
1629344779152145920,1.23844,-0.48305,0.27133,0.99465,0.00827,-0.00002,-0.10294,0.17491,0.00408,-0.03670,
1629344779218818304,1.25048,-0.47982,0.26862,0.99474,-0.00117,0.00696,-0.10214,0.18818,0.07534,-0.05190,
1629344779285489920,1.26465,-0.47399,0.26521,0.99480,-0.00315,0.00782,-0.10145,0.23666,0.09693,-0.05720,
1629344779352162048,1.27941,-0.47029,0.26627,0.99377,0.00143,0.01672,-0.11017,0.20681,0.01858,0.12458,
1629344779418833408,1.29436,-0.46658,0.27173,0.99397,-0.00516,0.00747,-0.10930,0.22114,0.07685,0.03780,
1629344779485506048,1.30803,-0.46504,0.27208,0.99402,-0.01015,0.00226,-0.10870,0.19517,-0.03701,0.00982,
1629344779552177408,1.31897,-0.46906,0.27115,0.99380,-0.00408,0.00437,-0.11106,0.17085,-0.11091,-0.04417,
1629344779618849792,1.33034,-0.47813,0.26655,0.99367,0.00794,0.01095,-0.11150,0.16836,-0.18752,-0.08307,
1629344779685521664,1.34237,-0.48906,0.26236,0.99376,0.01781,0.01691,-0.10880,0.19025,-0.12167,0.02095,
1629344779752194048,1.35344,-0.49873,0.26640,0.99453,0.02167,0.01270,-0.10136,0.12758,-0.18583,0.10094,
1629344779818866432,1.36337,-0.50873,0.26958,0.99422,0.02967,-0.00151,-0.10317,0.14594,-0.12180,0.03116,
1629344779885538048,1.37510,-0.51176,0.27161,0.99461,0.01993,0.00037,-0.10171,0.16288,-0.02151,-0.02384,
1629344779952210432,1.38672,-0.51067,0.26855,0.99465,-0.00589,0.01033,-0.10261,0.17382,0.04491,-0.04874,
1629344780018882048,1.40037,-0.50840,0.26551,0.99476,-0.00490,0.00910,-0.10173,0.19341,0.02463,0.07717,
1629344780085554432,1.41480,-0.50761,0.27240,0.99375,0.00104,0.01089,-0.11112,0.19018,0.07029,0.11825,
1629344780152226048,1.42774,-0.50322,0.27623,0.99421,-0.00239,0.00413,-0.10737,0.18203,0.04836,0.04450,
1629344780218898688,1.43973,-0.50463,0.27751,0.99402,-0.00388,0.00130,-0.10910,0.16553,-0.03371,0.02207,
1629344780285570048,1.45053,-0.50833,0.27653,0.99397,0.00121,0.00573,-0.10946,0.14405,-0.09438,-0.02198,
1629344780352242688,1.46099,-0.51745,0.27310,0.99384,0.00932,0.01004,-0.11002,0.14894,-0.16777,-0.06435,
1629344780418914048,1.47100,-0.52648,0.27246,0.99424,0.01774,0.01560,-0.10450,0.16351,-0.06540,0.07862,
1629344780485586688,1.48102,-0.53545,0.27846,0.99445,0.02119,0.00593,-0.10285,0.13581,-0.15763,0.07046,
1629344780552258304,1.48967,-0.54358,0.27773,0.99416,0.02538,-0.00349,-0.10480,0.17798,-0.07889,-0.03964,
1629344780618930688,1.50387,-0.54461,0.27614,0.99459,0.01360,0.00024,-0.10295,0.18717,0.02026,-0.06794,
1629344780685602304,1.51786,-0.54104,0.27157,0.99467,-0.00468,0.00746,-0.10270,0.21510,0.08256,-0.08339,
1629344780752274688,1.53358,-0.53758,0.26903,0.99480,-0.00101,0.00728,-0.10157,0.23886,0.02714,0.02639,
1629344780818946304,1.54900,-0.53463,0.27494,0.99402,-0.00106,0.01095,-0.10867,0.22718,0.08947,0.04536,
1629344780885618944,1.56255,-0.53155,0.27606,0.99433,-0.00602,0.00378,-0.10610,0.21313,-0.00711,-0.01112,
1629344780952290304,1.57460,-0.53471,0.27610,0.99386,-0.00762,0.00222,-0.11032,0.19198,-0.07818,-0.04667,
1629344781018962944,1.58583,-0.54278,0.27280,0.99373,0.00393,0.00738,-0.11147,0.16825,-0.17100,-0.07139,
1629344781085634304,1.59885,-0.55505,0.26812,0.99342,0.01441,0.01288,-0.11291,0.19870,-0.19787,-0.07158,
1629344781152306688,1.61209,-0.56514,0.27076,0.99445,0.01843,0.01774,-0.10207,0.16749,-0.13366,0.18890,
1629344781218979584,1.62232,-0.57536,0.27730,0.99455,0.02151,0.00400,-0.10197,0.15292,-0.14167,0.09735,
1629344781285650944,1.63503,-0.58224,0.27837,0.99449,0.02614,-0.00304,-0.10144,0.18873,-0.07128,0.01949,
1629344781352323584,1.64839,-0.58301,0.27575,0.99471,0.00810,0.00361,-0.10230,0.20074,0.03821,-0.04617,
1629344781418994944,1.66375,-0.57842,0.26917,0.99463,-0.00784,0.01185,-0.10249,0.23944,0.09519,-0.06297,
1629344781485667584,1.68018,-0.57490,0.26650,0.99389,-0.00393,0.01504,-0.10924,0.23534,-0.00319,0.02458,
1629344781552339200,1.69681,-0.57236,0.26921,0.99374,-0.00743,0.01269,-0.11074,0.22478,0.05815,-0.00118,
1629344781619011328,1.70968,-0.57035,0.26830,0.99373,-0.01630,0.00477,-0.11052,0.18376,-0.04875,-0.03008,
1629344781685682944,1.72056,-0.57263,0.26691,0.99360,-0.01230,0.00345,-0.11223,0.15011,-0.10782,-0.10314,
1629344781752355584,1.73023,-0.58030,0.26271,0.99358,0.00745,0.01040,-0.11242,0.12699,-0.18537,-0.10756,
1629344781819027200,1.74013,-0.59002,0.25855,0.99345,0.01596,0.01388,-0.11225,0.13687,-0.15967,0.01865,
1629344781885699584,1.74964,-0.59882,0.26428,0.99442,0.01692,0.01927,-0.10232,0.10185,-0.17554,0.13544,
1629344781952371200,1.75495,-0.60924,0.27271,0.99449,0.02141,0.00128,-0.10260,0.09501,-0.13092,0.07797,
1629344782019043584,1.76167,-0.61585,0.27584,0.99464,0.02345,-0.00335,-0.10070,0.08118,-0.06401,0.05513,
1629344782085714944,1.76781,-0.61694,0.27441,0.99492,-0.00084,0.00171,-0.10068,0.07145,0.02415,-0.02498,
1629344782152387584,1.77378,-0.61525,0.27251,0.99494,-0.00931,0.00400,-0.09996,0.07117,0.04123,0.02850,
1629344782219058944,1.77657,-0.61610,0.27705,0.99419,-0.00126,0.00301,-0.10755,0.04502,-0.01894,0.10247,
1629344782285731840,1.78054,-0.61391,0.27685,0.99445,0.00100,-0.00257,-0.10520,0.06106,0.06886,-0.06501,
1629344782352403200,1.78660,-0.61713,0.27278,0.99439,0.00178,-0.00008,-0.10571,0.02774,-0.03709,-0.00716,
1629344782419075840,1.78894,-0.62153,0.27118,0.99427,0.00668,0.00258,-0.10666,0.01102,-0.06016,-0.04950,
1629344782485747968,1.79024,-0.62779,0.26897,0.99429,0.01187,0.00508,-0.10589,0.02171,-0.09924,-0.05421,
1629344782552419584,1.79273,-0.63451,0.26735,0.99437,0.01614,0.01175,-0.10404,0.05811,-0.05148,0.02916,
1629344782619091968,1.79420,-0.63842,0.27333,0.99488,0.01326,0.00584,-0.10005,0.02636,-0.09066,0.08295,
1629344782685763584,1.79651,-0.64476,0.27317,0.99467,0.01895,-0.00357,-0.10131,0.03706,-0.05351,-0.05876,
1629344782752435968,1.79823,-0.64537,0.27233,0.99512,0.01176,-0.00142,-0.09799,0.02263,0.03338,-0.06193,
1629344782819107840,1.80006,-0.64393,0.27069,0.99530,-0.00439,0.00291,-0.09666,0.01931,0.03933,-0.05661,
1629344782885780224,1.80069,-0.64249,0.27211,0.99553,-0.00106,0.00054,-0.09442,0.01178,0.04716,-0.01882,
1629344782952451584,1.80108,-0.64229,0.27737,0.99559,0.00349,0.00110,-0.09373,0.01642,0.01782,0.01676,
1629344783019123968,1.80238,-0.64110,0.27543,0.99572,-0.00317,-0.00128,-0.09239,0.02615,-0.02098,-0.07346,
1629344783085795584,1.80391,-0.64350,0.27273,0.99528,-0.00209,0.00069,-0.09704,0.01602,-0.03292,0.00878,
1629344783152467968,1.80478,-0.64468,0.27207,0.99533,-0.00144,0.00080,-0.09654,0.01765,-0.02392,-0.03275,
1629344783219139584,1.80562,-0.64723,0.27136,0.99531,0.00014,0.00113,-0.09670,0.01573,-0.05069,-0.02143,
1629344783285811968,1.80723,-0.64977,0.27176,0.99542,0.00342,0.00555,-0.09532,0.03024,0.00261,0.07473,
1629344783352483584,1.80962,-0.64941,0.27639,0.99585,0.00127,0.00066,-0.09097,0.04150,-0.00056,0.01238,
1629344783419155968,1.81335,-0.64817,0.27432,0.99631,0.00531,-0.00111,-0.08561,0.06417,0.07396,-0.01512,
1629344783485827328,1.81780,-0.64111,0.27205,0.99711,-0.00327,0.00452,-0.07576,0.08015,0.15023,-0.09380,
1629344783552499968,1.82392,-0.62879,0.26644,0.99787,-0.01603,0.01387,-0.06163,0.10974,0.21143,-0.07432,
1629344783619171328,1.83209,-0.61583,0.26208,0.99874,-0.00738,0.01915,-0.04580,0.13940,0.18559,0.00825,
1629344783685843968,1.84187,-0.60394,0.26447,0.99924,-0.00287,0.02100,-0.03274,0.13291,0.21620,0.09196,
1629344783752515584,1.84948,-0.58958,0.26881,0.99977,-0.01357,0.00942,-0.01400,0.11061,0.18953,0.08245,
1629344783819188224,1.85609,-0.57884,0.27037,0.99990,-0.01229,0.00625,0.00167,0.09343,0.12641,0.01081,
1629344783885860864,1.86363,-0.57218,0.26903,0.99973,0.00326,0.01131,0.01981,0.07129,0.09215,-0.01850,
1629344783952532736,1.86936,-0.56693,0.26845,0.99927,0.00341,0.00964,0.03668,0.07213,0.05307,0.01498,
1629344784019205376,1.87464,-0.56311,0.27185,0.99832,-0.00198,0.01135,0.05677,0.05944,0.10200,0.10789,
1629344784085876992,1.87844,-0.55790,0.27490,0.99707,-0.00056,0.00090,0.07650,0.04533,0.08308,-0.00756,
1629344784152549632,1.88348,-0.54823,0.27218,0.99474,0.00233,-0.00189,0.10241,0.04478,0.20046,-0.02240,
1629344784219220992,1.88957,-0.53292,0.26655,0.99195,-0.01150,0.00011,0.12614,0.05455,0.22800,-0.11998,
1629344784285894144,1.89382,-0.51535,0.25991,0.98881,-0.01930,0.00359,0.14788,0.06862,0.28825,-0.08621,
1629344784352565760,1.90174,-0.49825,0.25499,0.98556,-0.00762,0.00910,0.16893,0.10198,0.25319,-0.01135,
1629344784419238400,1.91311,-0.48372,0.25613,0.98345,-0.01395,0.01681,0.17987,0.10108,0.25926,0.03457,
1629344784485910272,1.91813,-0.46894,0.25540,0.97940,-0.01646,0.01180,0.20089,0.11073,0.22069,-0.06385,
1629344784552582656,1.92591,-0.45930,0.25242,0.97575,-0.01619,0.01785,0.21757,0.14871,0.12497,-0.08168,
1629344784619254272,1.93910,-0.45632,0.24806,0.97187,0.00233,0.03169,0.23336,0.19160,0.03753,-0.08795,
1629344784685927168,1.95384,-0.45566,0.24283,0.96707,0.00786,0.03769,0.25157,0.21949,0.03668,-0.06398,
1629344784752598528,1.96718,-0.45049,0.24582,0.95821,0.00514,0.04029,0.28318,0.16449,0.05684,0.11293,
1629344784819271168,1.97712,-0.44877,0.24845,0.95192,0.01683,0.02003,0.30523,0.14030,0.04738,-0.06893,
1629344784885942784,1.97667,-0.44134,0.24478,0.94109,0.01510,0.01236,0.33760,0.01717,0.14338,-0.13740,
1629344784952614912,1.97422,-0.43065,0.23796,0.93081,-0.00640,0.00250,0.36543,-0.04263,0.14290,-0.15389,
1629344785019286272,1.96881,-0.42202,0.23609,0.92012,-0.00684,-0.00397,0.39155,-0.08346,0.14822,-0.06806,
1629344785085958912,1.96663,-0.41819,0.23700,0.91124,0.01134,-0.00149,0.41172,0.00738,0.05168,0.04239,
1629344785152631296,1.96313,-0.40769,0.23726,0.90289,0.00765,0.00194,0.42980,-0.10546,0.19273,-0.07549,
1629344785219302656,1.95569,-0.40001,0.23234,0.89019,-0.00150,0.00483,0.45557,-0.08395,0.14507,-0.07999,
1629344785285975552,1.95104,-0.39415,0.22920,0.87864,-0.00617,0.00960,0.47736,-0.01951,0.07632,-0.02242,
1629344785352646912,1.94940,-0.38832,0.22998,0.86782,0.00009,0.01941,0.49650,-0.00120,0.07644,-0.05163,
1629344785419319040,1.95019,-0.38408,0.22740,0.85444,-0.00170,0.02167,0.51909,0.01714,0.06999,-0.00687,
1629344785485990656,1.94758,-0.38070,0.23566,0.83753,-0.00006,0.02121,0.54598,-0.02236,0.05888,0.17681,
1629344785552663040,1.94363,-0.37821,0.23974,0.82493,0.00704,0.00811,0.56514,-0.06106,0.07060,-0.01034,
1629344785619334400,1.93207,-0.37263,0.23694,0.80470,0.00309,0.00449,0.59366,-0.18393,0.08924,-0.04067,
1629344785686007040,1.91914,-0.36331,0.23332,0.78596,-0.00525,-0.00155,0.61825,-0.22059,0.08193,-0.06069,
1629344785752678400,1.90619,-0.35678,0.22971,0.76687,-0.00675,-0.00322,0.64176,-0.23354,0.08976,-0.03375,
1629344785819350784,1.89993,-0.35433,0.22977,0.75333,0.00251,0.00501,0.65762,-0.04147,0.04419,0.09388,
1629344785886022400,1.88900,-0.34930,0.23287,0.74117,-0.00368,0.00639,0.67128,-0.27743,0.09897,-0.03312,
1629344785952694784,1.87670,-0.34331,0.22989,0.71917,-0.00774,0.00938,0.69473,-0.18195,0.08293,-0.05247,
1629344786019366144,1.86843,-0.33966,0.22855,0.70155,-0.00961,0.01382,0.71242,-0.09870,0.06384,0.00848,
1629344786086038784,1.86364,-0.33596,0.22872,0.68324,-0.00934,0.02073,0.72984,-0.06853,0.06733,-0.01835,
1629344786152710144,1.85883,-0.33253,0.22869,0.66272,-0.01048,0.01944,0.74854,-0.05753,0.06547,0.04466,
1629344786219382528,1.85709,-0.32858,0.23691,0.63810,-0.00672,0.01920,0.76968,-0.02679,0.05230,0.13287,
1629344786286053888,1.85399,-0.32483,0.24059,0.61910,0.00339,0.01194,0.78521,-0.09463,0.03996,0.00066,
1629344786352726528,1.83823,-0.32427,0.23733,0.59064,-0.00129,0.00692,0.80691,-0.18543,0.00187,-0.01757,
1629344786419397888,1.82600,-0.32494,0.23420,0.56581,-0.00579,0.00077,0.82452,-0.20630,-0.02154,-0.02941,
1629344786486070272,1.81379,-0.32510,0.23158,0.54202,-0.00195,0.00284,0.84036,-0.20769,-0.01050,-0.05316,
1629344786552742912,1.80493,-0.32448,0.23231,0.52878,-0.00090,0.01037,0.84870,-0.06741,0.03758,0.10900,
1629344786619414272,1.79444,-0.32529,0.23911,0.50737,-0.00598,0.01215,0.86162,-0.26695,-0.04438,0.03284,
1629344786686086656,1.78359,-0.32373,0.23817,0.47881,-0.01257,0.01250,0.87774,-0.16000,-0.00172,0.07047,
1629344786752758272,1.77658,-0.32084,0.23780,0.45474,-0.01442,0.01501,0.89038,-0.09234,0.05747,0.02233,
1629344786819430656,1.76774,-0.31873,0.23446,0.42962,-0.01845,0.02129,0.90257,-0.06925,0.08193,-0.00506,
1629344786886102016,1.76398,-0.31441,0.23309,0.40115,-0.01620,0.02258,0.91559,-0.04137,0.06530,0.16048,
1629344786952774656,1.76324,-0.30655,0.24423,0.37131,-0.00509,0.03085,0.92798,0.00270,0.06905,0.17410,
1629344787019446016,1.76512,-0.30536,0.24755,0.34562,0.01029,0.02453,0.93800,-0.08682,-0.05506,-0.05597,
1629344787086118400,1.75456,-0.31303,0.24503,0.30708,0.00578,0.00906,0.95162,-0.08228,-0.14325,-0.03082,
1629344787152790016,1.74903,-0.32167,0.24197,0.27827,0.00580,-0.00314,0.96048,-0.05302,-0.16748,-0.01606,
1629344787219462400,1.74708,-0.33127,0.24286,0.24863,0.01926,0.00406,0.96840,-0.00505,-0.17002,0.02359,
1629344787286133760,1.74732,-0.33865,0.24589,0.23794,0.01877,0.01339,0.97101,-0.00428,-0.11395,0.10004,
1629344787352806144,1.74163,-0.35129,0.24460,0.20798,0.01111,0.01411,0.97797,-0.10531,-0.21109,-0.06485,
1629344787419477760,1.73490,-0.36144,0.24029,0.17648,0.00023,0.00998,0.98425,-0.06621,-0.13180,-0.03984,
1629344787486150144,1.73124,-0.36718,0.23851,0.14873,-0.00551,0.01343,0.98877,-0.04215,-0.02833,-0.02082,
1629344787552821760,1.72663,-0.36898,0.23828,0.12273,-0.00963,0.01733,0.99224,-0.04662,0.01294,-0.02445,
1629344787619494144,1.72668,-0.36882,0.23838,0.09129,-0.00969,0.02010,0.99557,-0.04269,-0.00474,0.08288,
1629344787686165504,1.72255,-0.36429,0.24493,0.06077,-0.00401,0.02578,0.99781,-0.01695,0.03951,0.07133,
1629344787752837888,1.72291,-0.36617,0.24577,0.03291,0.00609,0.02251,0.99919,-0.01460,-0.10323,-0.05085,
1629344787819510272,1.72165,-0.37810,0.24499,-0.00517,0.00817,0.01187,0.99988,0.02505,-0.14011,-0.03475,
1629344787886181888,1.72585,-0.38025,0.24448,-0.01738,0.01038,0.00686,0.99977,0.06125,0.00830,0.03997,
1629344787952854272,1.73104,-0.37547,0.24719,-0.02094,0.01608,0.01346,0.99956,0.09880,0.00788,0.03153,
1629344788019525632,1.73608,-0.37271,0.24941,-0.01367,0.01440,0.01935,0.99962,0.07682,0.07441,0.06789,
1629344788086198016,1.74190,-0.37469,0.24997,-0.02109,0.00778,0.01641,0.99961,0.03476,-0.06557,-0.08013,
1629344788152869376,1.74153,-0.37145,0.24778,-0.02938,0.00183,0.01458,0.99946,-0.00999,0.04350,-0.00728,
1629344788219542016,1.73897,-0.36536,0.24567,-0.03471,-0.00496,0.02198,0.99914,-0.06476,0.08846,-0.07569,
1629344788286213376,1.73245,-0.35724,0.24158,-0.03811,-0.01324,0.02848,0.99878,-0.12529,0.13847,-0.06540,
1629344788352885760,1.72523,-0.35102,0.23813,-0.04355,-0.01722,0.02297,0.99864,-0.13254,0.09438,0.08787,
1629344788419557120,1.71552,-0.34370,0.24633,-0.05534,-0.01727,0.02125,0.99809,-0.12170,0.13331,0.12638,
1629344788486229760,1.70911,-0.33749,0.25092,-0.05770,-0.00877,0.02080,0.99808,-0.10148,0.07219,0.00167,
1629344788552901120,1.70402,-0.33659,0.25226,-0.06631,-0.00532,0.01302,0.99770,-0.05409,0.01361,0.01450,
1629344788619573504,1.69995,-0.33711,0.25236,-0.07093,-0.00440,0.00132,0.99747,-0.03216,0.00825,0.01392,
1629344788686244864,1.69734,-0.33686,0.25384,-0.07581,-0.00148,0.00525,0.99711,-0.00964,0.00071,0.03844,
1629344788752917504,1.69545,-0.33464,0.25630,-0.07316,-0.00123,0.01151,0.99725,-0.02766,0.07621,0.04832,
1629344788819588864,1.69244,-0.33348,0.25483,-0.07889,-0.00517,0.01185,0.99680,-0.04981,-0.03066,-0.08251,
1629344788886261248,1.68624,-0.33114,0.25159,-0.08173,-0.01292,0.00967,0.99652,-0.09822,0.10521,-0.03602,
1629344788952932864,1.68011,-0.32429,0.24776,-0.08186,-0.02108,0.01954,0.99623,-0.12709,0.13960,-0.07126,
1629344789019605248,1.66888,-0.31415,0.24114,-0.08279,-0.03121,0.02779,0.99569,-0.18015,0.17571,-0.08056,
1629344789086276864,1.65605,-0.30416,0.23617,-0.08416,-0.03609,0.01551,0.99568,-0.20068,0.13832,0.09952,
1629344789152949248,1.64255,-0.29472,0.24255,-0.09489,-0.03524,0.01589,0.99474,-0.19768,0.15442,0.13304,
1629344789219621888,1.63393,-0.28379,0.25075,-0.09472,-0.01636,0.02672,0.99501,-0.17370,0.12008,0.05662,
1629344789286293248,1.62138,-0.28188,0.24989,-0.10049,-0.01282,0.02470,0.99455,-0.14462,0.01591,0.01089,
1629344789352965632,1.61278,-0.28396,0.24675,-0.10236,-0.01491,-0.00522,0.99462,-0.11612,-0.04183,-0.06391,
1629344789419637248,1.60456,-0.28816,0.24356,-0.10452,-0.01602,-0.01682,0.99425,-0.10905,-0.09348,0.01034,
1629344789486309632,1.59675,-0.29138,0.24693,-0.10135,-0.01764,-0.00416,0.99469,-0.14514,-0.01583,0.07571,
1629344789552981248,1.58896,-0.29654,0.24786,-0.10433,-0.01757,-0.00124,0.99439,-0.11117,-0.09664,-0.03331,
1629344789619653376,1.57782,-0.29688,0.24732,-0.10540,-0.01783,0.00007,0.99427,-0.15129,0.02356,0.00446,
1629344789686324736,1.56730,-0.29288,0.24389,-0.10335,-0.02406,0.00701,0.99433,-0.17219,0.08695,-0.07120,
1629344789752997632,1.55269,-0.28596,0.23816,-0.10340,-0.03223,0.01874,0.99394,-0.23087,0.14551,-0.10350,
1629344789819669248,1.53859,-0.27855,0.23018,-0.10550,-0.03823,0.01924,0.99350,-0.24614,0.08695,0.03083,
1629344789886341888,1.51818,-0.27257,0.23547,-0.11537,-0.04143,0.01536,0.99234,-0.22022,0.04532,0.12540,
1629344789953013504,1.50474,-0.26582,0.24289,-0.11559,-0.02596,0.02180,0.99272,-0.20270,0.00299,0.03723,
1629344790019685632,1.49249,-0.27086,0.24167,-0.11857,-0.02546,0.01878,0.99244,-0.17839,-0.09500,-0.01819,
1629344790086357248,1.48085,-0.27815,0.23733,-0.11892,-0.02917,-0.00745,0.99245,-0.15244,-0.17707,-0.10828,
1629344790153029888,1.46964,-0.28985,0.23196,-0.12108,-0.03256,-0.01749,0.99195,-0.18360,-0.24422,-0.06430,
1629344790219701760,1.45454,-0.30302,0.23055,-0.11339,-0.04048,-0.00967,0.99268,-0.21511,-0.17941,0.01533,
1629344790286374400,1.44212,-0.31754,0.23548,-0.11358,-0.03222,-0.01557,0.99288,-0.15942,-0.26373,0.05348,
1629344790353046016,1.43076,-0.32807,0.23821,-0.11433,-0.02065,-0.02028,0.99302,-0.18223,-0.13257,0.03862,
1629344790419718144,1.41864,-0.33419,0.23730,-0.11383,-0.01939,-0.01309,0.99322,-0.17837,-0.06126,-0.05650,
1629344790486390784,1.40576,-0.33524,0.23480,-0.11447,-0.02720,0.00068,0.99305,-0.18628,0.00855,-0.04712,
1629344790553062400,1.39322,-0.33410,0.23079,-0.11600,-0.02941,0.00186,0.99281,-0.17579,0.00893,0.08040,
1629344790619735040,1.37959,-0.33444,0.23876,-0.12709,-0.03676,0.00400,0.99120,-0.16743,0.00909,0.12060,
1629344790686406912,1.37254,-0.33050,0.24625,-0.12468,-0.02292,0.01084,0.99187,-0.16447,0.00511,0.02685,
1629344790753079296,1.36154,-0.33316,0.24540,-0.12453,-0.02365,0.00796,0.99190,-0.15460,-0.09476,-0.02857,
1629344790819750912,1.35131,-0.34423,0.24052,-0.12623,-0.02869,-0.00415,0.99158,-0.12430,-0.19381,-0.05504,
1629344790886423040,1.34223,-0.35718,0.23586,-0.12702,-0.03035,-0.00887,0.99140,-0.17016,-0.22763,-0.07978,
1629344790953094400,1.33092,-0.37083,0.23393,-0.12249,-0.03973,-0.00294,0.99167,-0.18236,-0.12650,0.10298,
1629344791019767040,1.31973,-0.38651,0.24515,-0.12149,-0.03033,-0.01589,0.99200,-0.13479,-0.24668,0.14540,
1629344791086438400,1.31321,-0.39825,0.25009,-0.12520,-0.01689,-0.02185,0.99175,-0.15661,-0.13794,0.04149,
1629344791153110784,1.30254,-0.40360,0.25029,-0.12215,-0.01859,-0.00747,0.99231,-0.15510,-0.03689,-0.00375,
1629344791219782400,1.29218,-0.40394,0.24622,-0.12267,-0.02713,0.00708,0.99205,-0.16344,0.02780,-0.01042,
1629344791286455040,1.28004,-0.40328,0.24474,-0.12101,-0.02601,0.00252,0.99231,-0.18072,0.02963,0.06060,
1629344791353126400,1.26981,-0.40197,0.24905,-0.13264,-0.03102,0.00283,0.99067,-0.15192,0.04667,0.11255,
1629344791419798784,1.26229,-0.39591,0.25553,-0.12974,-0.01950,0.01279,0.99127,-0.14260,0.06079,0.05896,
1629344791486470144,1.25276,-0.39783,0.25499,-0.13110,-0.01792,0.01442,0.99110,-0.12933,-0.03240,0.01920,
1629344791553142528,1.24459,-0.40457,0.25147,-0.13266,-0.01999,-0.00063,0.99096,-0.09869,-0.09991,-0.03343,
1629344791619813888,1.23683,-0.41338,0.24865,-0.13485,-0.02115,-0.00870,0.99060,-0.11031,-0.14533,0.01078,
1629344791686486528,1.22759,-0.42211,0.24657,-0.13387,-0.02554,-0.00340,0.99066,-0.16729,-0.07891,0.01284,
1629344791753157888,1.21847,-0.42958,0.25073,-0.12808,-0.02651,-0.00417,0.99140,-0.12113,-0.14750,0.07363,
1629344791819830784,1.20954,-0.43811,0.25202,-0.13166,-0.01838,-0.00904,0.99108,-0.15809,-0.06143,0.02263,
1629344791886502912,1.19858,-0.43889,0.24988,-0.12897,-0.01986,-0.00603,0.99143,-0.18934,0.03011,-0.05382,
1629344791953174528,1.18408,-0.43491,0.24276,-0.12660,-0.03015,0.00562,0.99148,-0.23194,0.16328,-0.09997,
1629344792019846912,1.16560,-0.41947,0.23212,-0.11192,-0.04152,0.01272,0.99277,-0.32578,0.29526,-0.18470,
1629344792086518528,1.14428,-0.40288,0.22547,-0.09750,-0.05288,0.00828,0.99379,-0.29046,0.13901,0.01777,
1629344792153191168,1.12518,-0.38913,0.23185,-0.08892,-0.04585,0.01570,0.99486,-0.27427,0.24959,0.18307,
1629344792219862528,1.11040,-0.36979,0.24111,-0.06719,-0.02290,0.02625,0.99713,-0.25812,0.21329,0.07491,
1629344792286535168,1.09511,-0.36766,0.23885,-0.06011,-0.02282,0.00833,0.99790,-0.22527,-0.05066,-0.07844,
1629344792353206528,1.08115,-0.37578,0.23318,-0.06109,-0.02877,-0.01914,0.99753,-0.20596,-0.10785,-0.06782,
1629344792419879168,1.06675,-0.38513,0.22996,-0.06170,-0.02445,-0.00956,0.99775,-0.23433,-0.17279,-0.04961,
1629344792486550528,1.05276,-0.39185,0.23158,-0.05062,-0.03200,-0.00114,0.99820,-0.19585,-0.11048,0.14510,
1629344792553223168,1.04399,-0.40420,0.23804,-0.05395,-0.01753,-0.01409,0.99829,-0.16679,-0.18148,0.04994,
1629344792619894528,1.03189,-0.41122,0.23977,-0.05681,-0.01385,-0.01415,0.99819,-0.17928,-0.02783,0.02325,
1629344792686567168,1.01775,-0.40908,0.23603,-0.05546,-0.02273,0.00171,0.99820,-0.19058,0.05103,-0.04644,
1629344792753238528,1.00314,-0.40445,0.23153,-0.05748,-0.03049,0.01084,0.99782,-0.22571,0.13863,-0.04736,
1629344792819911168,0.98557,-0.39659,0.22690,-0.05791,-0.03628,0.01118,0.99760,-0.27053,0.11000,-0.03169,
1629344792886582784,0.96771,-0.38704,0.23555,-0.06201,-0.03813,0.01185,0.99728,-0.23632,0.19497,0.18458,
1629344792953255168,0.95479,-0.37238,0.24390,-0.04874,-0.02079,0.02406,0.99831,-0.21477,0.17897,0.07365,
1629344793019926784,0.94070,-0.36513,0.24394,-0.03774,-0.01820,0.01648,0.99899,-0.20874,0.07744,-0.01211,
1629344793086599424,0.92699,-0.36521,0.24048,-0.02479,-0.02486,-0.01308,0.99930,-0.19101,-0.00668,-0.06323,
1629344793153271552,0.91288,-0.36756,0.23623,-0.01358,-0.02622,-0.01832,0.99940,-0.20635,-0.07833,-0.00242,
1629344793219943168,0.89644,-0.37146,0.23669,0.00076,-0.02974,-0.00118,0.99956,-0.21990,-0.04197,0.06080,
1629344793286615552,0.88274,-0.37947,0.24376,0.01204,-0.02108,-0.01125,0.99964,-0.18430,-0.14139,0.09131,
1629344793353287424,0.87110,-0.38578,0.24681,0.01243,-0.01143,-0.01647,0.99972,-0.18886,-0.05536,0.03423,
1629344793419960064,0.85931,-0.38506,0.24610,0.01451,-0.01461,-0.00852,0.99975,-0.18400,0.04402,-0.03287,
1629344793486631424,0.84625,-0.37933,0.24151,0.01205,-0.02389,0.00766,0.99961,-0.19937,0.11356,-0.06934,
1629344793553304064,0.83020,-0.37079,0.23639,0.01219,-0.03366,0.01304,0.99927,-0.25202,0.15842,-0.09393,
1629344793619975424,0.81310,-0.36263,0.24050,0.00153,-0.04290,0.01058,0.99902,-0.22783,0.11412,0.18481,
1629344793686647808,0.79972,-0.35554,0.24873,0.00358,-0.02922,0.01592,0.99944,-0.20533,0.11315,0.11854,
1629344793753319424,0.78557,-0.35047,0.25016,0.00553,-0.01961,0.02133,0.99957,-0.22985,0.02633,-0.02634,
1629344793819991808,0.76897,-0.35459,0.24479,0.00540,-0.02584,0.00029,0.99965,-0.22735,-0.11793,-0.07707,
1629344793886663680,0.75187,-0.36403,0.23727,0.00578,-0.03215,-0.01657,0.99933,-0.25631,-0.18207,-0.09499,
1629344793953336064,0.73229,-0.37519,0.22951,0.00865,-0.03304,-0.00820,0.99938,-0.31843,-0.17027,-0.04791,
1629344794020007680,0.71172,-0.38577,0.23366,0.01877,-0.03939,-0.00990,0.99900,-0.25812,-0.21505,0.15672,
1629344794086680064,0.69744,-0.39877,0.24293,0.01738,-0.01818,-0.02690,0.99932,-0.22639,-0.15655,0.07096,
1629344794153351424,0.68418,-0.40324,0.24414,0.01996,-0.01369,-0.01871,0.99953,-0.19378,-0.00433,-0.02279,
1629344794220024064,0.67190,-0.39675,0.24091,0.02380,-0.02162,0.01329,0.99939,-0.16586,0.08710,-0.05293,
1629344794286695424,0.65937,-0.39009,0.23757,0.02493,-0.02527,0.01684,0.99923,-0.18565,0.12952,-0.02297,
1629344794353368320,0.64684,-0.38201,0.23629,0.02336,-0.03205,0.00470,0.99920,-0.19217,0.06821,0.06692,
1629344794420039936,0.63440,-0.37287,0.24547,0.01806,-0.02452,0.00799,0.99950,-0.16518,0.18028,0.14483,
1629344794486712320,0.62541,-0.36148,0.24975,0.02405,-0.01021,0.02025,0.99945,-0.16538,0.11226,0.02149,
1629344794553384704,0.61598,-0.35892,0.24802,0.02322,-0.01077,0.01445,0.99957,-0.15636,-0.02719,-0.03258,
1629344794620056064,0.60558,-0.36462,0.24457,0.02225,-0.01801,-0.00900,0.99955,-0.14936,-0.08975,-0.08869,
1629344794686728704,0.59437,-0.37168,0.23999,0.02176,-0.01977,-0.01148,0.99950,-0.17469,-0.14264,-0.03633,
1629344794753400064,0.58164,-0.37928,0.23857,0.02309,-0.02520,-0.00181,0.99941,-0.19985,-0.06296,0.04554,
1629344794820072448,0.56935,-0.38603,0.24413,0.02944,-0.01991,-0.00759,0.99934,-0.17193,-0.13671,0.07787,
1629344794886743808,0.55879,-0.39289,0.24414,0.02599,-0.01368,-0.01413,0.99947,-0.15833,-0.04544,0.00573,
1629344794953416704,0.55124,-0.39191,0.24368,0.02974,-0.01405,-0.01085,0.99940,-0.13517,0.04682,-0.04628,
1629344795020088064,0.54256,-0.38580,0.24085,0.03083,-0.01943,-0.00074,0.99934,-0.11944,0.12625,-0.06471,
1629344795086760192,0.53457,-0.37414,0.23566,0.03708,-0.02551,0.00715,0.99896,-0.14431,0.23236,-0.11368,
1629344795153431552,0.52697,-0.36134,0.23435,0.04166,-0.03366,0.01405,0.99847,-0.13013,0.09849,0.06521,
1629344795220103936,0.51946,-0.34657,0.24403,0.05023,-0.02777,0.01910,0.99817,-0.08923,0.26725,0.16983,
1629344795286775296,0.51507,-0.33036,0.24982,0.06626,-0.01429,0.02419,0.99741,-0.09963,0.19119,0.05503,
1629344795353447680,0.50914,-0.32217,0.25223,0.07847,-0.01694,0.00875,0.99673,-0.08724,0.13166,0.00495,
1629344795420119040,0.50326,-0.31675,0.25158,0.09376,-0.02247,-0.00904,0.99530,-0.07523,0.06517,0.01920,
1629344795486791680,0.49947,-0.31197,0.25278,0.10516,-0.01639,-0.00232,0.99432,-0.07990,0.05284,0.05990,
1629344795553463040,0.49393,-0.31198,0.25235,0.11117,-0.01774,0.00774,0.99361,-0.09554,-0.03834,0.10011,
1629344795620135424,0.48779,-0.31571,0.25557,0.10926,-0.01392,-0.00475,0.99390,-0.10491,-0.04423,0.00107,
1629344795686806784,0.48398,-0.31454,0.25340,0.11183,-0.01271,-0.00597,0.99363,-0.07840,0.09977,0.01403,
1629344795753479168,0.47878,-0.30869,0.25064,0.11545,-0.01753,0.00249,0.99316,-0.06962,0.12675,-0.06897,
1629344795820151552,0.47460,-0.29977,0.24613,0.11601,-0.02216,0.01123,0.99294,-0.06660,0.21922,-0.04811,
1629344795886822912,0.46858,-0.28599,0.23956,0.11776,-0.03172,0.01794,0.99237,-0.12821,0.21567,-0.11116,
1629344795953495552,0.46143,-0.27493,0.24267,0.11103,-0.03473,0.01966,0.99301,-0.10105,0.19983,0.18849,
1629344796020166912,0.45729,-0.26292,0.25125,0.11595,-0.01649,0.02204,0.99287,-0.08379,0.15896,0.07786,
1629344796086839552,0.44966,-0.25684,0.25214,0.11552,-0.00973,0.02637,0.99291,-0.09922,0.09059,0.01517,
1629344796153510912,0.44485,-0.25351,0.25034,0.11504,-0.01324,0.00828,0.99324,-0.07860,0.01695,-0.05783,
1629344796220183296,0.44015,-0.25542,0.24577,0.11573,-0.02102,-0.01434,0.99295,-0.07989,-0.03560,-0.02959,
1629344796286854656,0.43537,-0.25556,0.24582,0.11374,-0.01523,-0.00491,0.99338,-0.10010,-0.03450,0.00739,
1629344796353527040,0.42932,-0.25584,0.24828,0.11813,-0.01829,-0.00028,0.99283,-0.10805,-0.04998,0.03288,
1629344796420198400,0.42337,-0.25839,0.24803,0.11625,-0.01467,-0.00072,0.99311,-0.09591,0.01475,-0.02774,
1629344796486871040,0.41835,-0.25382,0.24654,0.12015,-0.01591,0.00216,0.99263,-0.07822,0.08422,-0.02141,
1629344796553542400,0.41392,-0.24741,0.24360,0.12027,-0.02010,0.01038,0.99248,-0.06481,0.13907,-0.05339,
1629344796620215040,0.40892,-0.23556,0.23940,0.12155,-0.02562,0.02035,0.99205,-0.09762,0.19283,-0.08963,
1629344796686886656,0.40075,-0.22194,0.23192,0.12168,-0.03392,0.02187,0.99175,-0.12491,0.19335,0.00281,
1629344796753558784,0.39344,-0.21136,0.23709,0.11704,-0.03605,0.02251,0.99222,-0.10188,0.18778,0.13063,
1629344796820230144,0.38875,-0.19965,0.24319,0.12004,-0.01810,0.02641,0.99225,-0.10524,0.15592,0.01581,
1629344796886902528,0.38265,-0.19280,0.24574,0.11702,-0.01304,0.02709,0.99267,-0.09445,0.09148,0.01790,
1629344796953573888,0.37791,-0.18950,0.24411,0.11806,-0.01816,0.00236,0.99284,-0.07496,0.03047,-0.04585,
1629344797020246272,0.37296,-0.18895,0.24323,0.11685,-0.02085,-0.00946,0.99289,-0.07432,-0.00109,0.03243,
1629344797086917888,0.36880,-0.18677,0.24566,0.11624,-0.01399,0.00348,0.99312,-0.10842,0.04947,-0.02563,
1629344797153590528,0.36234,-0.18612,0.24825,0.12022,-0.01621,0.00403,0.99261,-0.11280,-0.02203,0.01718,
1629344797220262656,0.35498,-0.18655,0.24671,0.11664,-0.01568,0.00370,0.99304,-0.11014,0.05140,-0.00527,
1629344797286934016,0.34797,-0.17874,0.24417,0.11860,-0.02018,0.01161,0.99267,-0.11009,0.13360,-0.06918,
1629344797353606400,0.34100,-0.16788,0.23837,0.11874,-0.02744,0.02407,0.99225,-0.11417,0.20541,-0.07238,
1629344797420277760,0.33230,-0.15189,0.22997,0.11825,-0.03624,0.02856,0.99191,-0.17533,0.26852,-0.13981,
1629344797486950144,0.32152,-0.13709,0.22514,0.11523,-0.04585,0.02406,0.99199,-0.19640,0.21257,0.06413,
1629344797553621760,0.30957,-0.12166,0.23340,0.10862,-0.03832,0.02748,0.99296,-0.16215,0.27160,0.18814,
1629344797620294144,0.30060,-0.10482,0.24471,0.11264,-0.01183,0.03163,0.99306,-0.15792,0.19814,0.11398,
1629344797686965504,0.29070,-0.09449,0.24541,0.11372,-0.00914,0.02301,0.99320,-0.15402,0.11330,-0.02204,
1629344797753638144,0.28238,-0.09043,0.24368,0.11515,-0.01387,-0.00709,0.99323,-0.14071,0.02677,-0.05227,
1629344797820309504,0.27221,-0.08801,0.24213,0.11441,-0.01183,-0.00966,0.99332,-0.14353,-0.01023,0.01908,
1629344797886981888,0.26142,-0.08647,0.24189,0.11616,-0.01175,0.00079,0.99316,-0.16251,0.02976,0.02007,
1629344797953653248,0.25069,-0.08768,0.24415,0.11829,-0.01231,-0.00091,0.99290,-0.16485,-0.04686,-0.02605,
1629344798020325632,0.24074,-0.08708,0.24318,0.11817,-0.01005,-0.00031,0.99294,-0.13570,0.07359,0.00660,
1629344798086996992,0.23182,-0.08095,0.24077,0.12168,-0.01342,0.00351,0.99247,-0.13360,0.10930,-0.05854,
1629344798153669632,0.22318,-0.07156,0.23586,0.12118,-0.02016,0.01376,0.99233,-0.12757,0.19056,-0.08344,
1629344798220340992,0.21311,-0.05654,0.22851,0.12129,-0.02800,0.02726,0.99185,-0.16794,0.26168,-0.14166,
1629344798287013632,0.20081,-0.04289,0.22657,0.11598,-0.03678,0.03029,0.99211,-0.19170,0.15514,0.06408,
1629344798353684992,0.19020,-0.02958,0.23531,0.11540,-0.03085,0.02352,0.99256,-0.14205,0.21625,0.15336,
1629344798420357376,0.18187,-0.01788,0.24090,0.11729,-0.01422,0.02381,0.99271,-0.16181,0.15569,-0.00006,
1629344798487029760,0.17161,-0.01216,0.24116,0.11675,-0.01241,0.02001,0.99288,-0.15239,0.05939,-0.00428,
1629344798553701120,0.16137,-0.01280,0.23732,0.11806,-0.01783,-0.00242,0.99284,-0.16223,-0.03301,-0.07440,
1629344798620373504,0.14911,-0.01622,0.23434,0.11720,-0.02015,-0.00781,0.99287,-0.19349,-0.07374,-0.03569,
1629344798687044864,0.13491,-0.01860,0.23291,0.12054,-0.02566,-0.00251,0.99237,-0.18341,0.00327,0.03247,
1629344798753717504,0.12284,-0.02172,0.23615,0.12520,-0.02224,-0.00411,0.99187,-0.17577,-0.08877,0.02948,
1629344798820389120,0.11228,-0.02609,0.23674,0.12592,-0.01470,-0.01081,0.99187,-0.14702,-0.00309,0.05761,
1629344798887061504,0.10279,-0.02554,0.23798,0.12921,-0.01136,-0.01421,0.99145,-0.13142,0.01846,-0.02338,
1629344798953732864,0.09427,-0.02119,0.23554,0.13051,-0.01497,-0.00210,0.99133,-0.08843,0.11177,-0.02723,
1629344799020405504,0.08799,-0.01335,0.23218,0.13314,-0.01921,0.00840,0.99088,-0.09343,0.15472,-0.04456,
1629344799087076864,0.08024,-0.00478,0.22986,0.13292,-0.02404,0.01039,0.99078,-0.13493,0.09615,-0.00964,
1629344799153749504,0.07201,0.00143,0.23547,0.12438,-0.02503,0.01109,0.99186,-0.10235,0.13385,0.07585,
1629344799220420864,0.06738,0.00861,0.23744,0.12836,-0.01331,0.01531,0.99152,-0.12293,0.09014,0.00357,
1629344799287093504,0.05827,0.00959,0.23641,0.12751,-0.01555,0.01175,0.99165,-0.16497,-0.01015,-0.04297,
1629344799353765120,0.04627,0.00467,0.23170,0.12642,-0.02327,0.00084,0.99170,-0.18926,-0.10213,-0.07276,
1629344799420437504,0.03162,-0.00367,0.22562,0.12560,-0.03051,-0.00790,0.99158,-0.25309,-0.14222,-0.10137,
1629344799487108864,0.01182,-0.01232,0.21673,0.12709,-0.04013,-0.00277,0.99108,-0.30808,-0.14388,-0.05483,
1629344799553781504,-0.00676,-0.02072,0.21810,0.13768,-0.04497,-0.00748,0.98943,-0.24543,-0.11476,0.16992,
1629344799620452864,-0.02278,-0.03124,0.22676,0.13498,-0.02908,-0.02637,0.99007,-0.21912,-0.15004,0.11485,
1629344799687125504,-0.03472,-0.03775,0.23051,0.13836,-0.01682,-0.02534,0.98991,-0.16687,-0.05030,0.04814,
1629344799753797376,-0.04460,-0.04103,0.22906,0.13889,-0.01550,0.00403,0.99018,-0.12434,-0.03966,-0.01695,
1629344799820470272,-0.05229,-0.04335,0.22776,0.13699,-0.01523,0.01645,0.99032,-0.09898,0.00272,0.03021,
1629344799887143168,-0.05854,-0.04517,0.23041,0.14062,-0.00779,-0.00178,0.99003,-0.09995,0.00194,0.02366,
1629344799953815296,-0.06558,-0.04638,0.23089,0.13257,-0.01475,-0.00449,0.99105,-0.08717,-0.04218,0.09474,
1629344800020487936,-0.07164,-0.04557,0.23316,0.13348,-0.01017,0.00126,0.99100,-0.08105,0.05311,-0.00960,
1629344800087159808,-0.07989,-0.04661,0.23100,0.13422,-0.00715,0.00481,0.99091,-0.15638,-0.08466,-0.03974,
1629344800153832960,-0.09244,-0.05532,0.22387,0.13175,-0.02231,-0.01088,0.99097,-0.19695,-0.14784,-0.13660,
1629344800220505088,-0.10830,-0.06676,0.21459,0.13130,-0.03672,-0.02513,0.99034,-0.26920,-0.21763,-0.12463,
1629344800287177728,-0.12936,-0.07844,0.20528,0.13396,-0.04164,-0.00604,0.99009,-0.36467,-0.19463,-0.17026,
1629344800353849856,-0.15368,-0.08879,0.19931,0.14493,-0.04935,0.00415,0.98820,-0.31667,-0.12490,0.11644,
1629344800420522752,-0.17664,-0.10369,0.21097,0.14979,-0.03405,-0.02573,0.98780,-0.32791,-0.28411,0.22708,
1629344800487194624,-0.19381,-0.12163,0.22221,0.14191,-0.00979,-0.04468,0.98882,-0.25873,-0.16848,0.07787,
1629344800553867520,-0.20879,-0.12523,0.22214,0.14263,-0.00766,-0.00608,0.98973,-0.20723,-0.06045,-0.06951,
1629344800620539648,-0.22347,-0.12694,0.21791,0.13420,-0.01315,0.03388,0.99029,-0.20099,-0.07182,-0.03598,
1629344800687212800,-0.23421,-0.13100,0.22120,0.13500,-0.00834,0.00501,0.99080,-0.18228,0.00347,0.09657,
1629344800753884160,-0.24630,-0.13296,0.22395,0.13399,-0.01272,-0.02688,0.99054,-0.20375,-0.00980,-0.00113,
1629344800820556544,-0.25855,-0.13036,0.22792,0.12939,-0.01019,-0.01065,0.99148,-0.15946,0.09195,0.03116,
1629344800887227904,-0.26520,-0.12468,0.22888,0.13192,-0.00135,0.00966,0.99121,-0.18816,-0.00622,-0.01468,
1629344800953900288,-0.28203,-0.13004,0.22321,0.13014,-0.01269,-0.00371,0.99141,-0.25758,-0.09958,-0.14628,
1629344801020571904,-0.30272,-0.14158,0.21209,0.12828,-0.03324,-0.02602,0.99084,-0.30841,-0.21910,-0.15971,
1629344801087244288,-0.32549,-0.15300,0.20298,0.12965,-0.03669,-0.01523,0.99076,-0.39015,-0.17977,-0.15230,
1629344801153916928,-0.35463,-0.16529,0.19234,0.13499,-0.04478,0.01051,0.98978,-0.43457,-0.19924,-0.07342,
1629344801220588544,-0.38167,-0.17708,0.20130,0.14426,-0.04289,-0.00896,0.98857,-0.35540,-0.17449,0.29684,
1629344801287260672,-0.39666,-0.19092,0.21964,0.14490,-0.01178,-0.01341,0.98929,-0.27994,-0.11949,0.13333,
1629344801353932032,-0.41196,-0.19515,0.22160,0.14655,-0.01374,-0.01718,0.98896,-0.19656,-0.02869,0.05110,
1629344801420604672,-0.42223,-0.19364,0.22305,0.15037,-0.01654,-0.02005,0.98829,-0.10433,0.06096,0.03030,
1629344801487276032,-0.42681,-0.18867,0.21900,0.15139,-0.01910,-0.01755,0.98813,-0.03780,0.07563,-0.00381,
1629344801553948416,-0.43168,-0.18557,0.21465,0.14940,-0.02065,-0.01355,0.98847,0.00024,0.05368,0.00347,
1629344801620620032,-0.43390,-0.18330,0.21399,0.14893,-0.02053,-0.01128,0.98857,0.01775,0.01369,0.01053,
1629344801687292672,-0.43361,-0.18364,0.21424,0.14877,-0.01980,-0.01156,0.98861,0.01910,-0.02888,0.00995,
1629344801753964032,-0.43322,-0.18510,0.21464,0.14918,-0.01880,-0.01299,0.98855,0.01150,-0.01497,0.00794,
1629344801820636160,-0.43289,-0.18555,0.21474,0.14975,-0.01838,-0.01365,0.98846,-0.00289,0.00580,0.00024,
1629344801887307520,-0.43321,-0.18482,0.21446,0.14947,-0.01878,-0.01288,0.98850,-0.01150,0.02319,-0.00586,
1629344801953980160,-0.43364,-0.18400,0.21415,0.14921,-0.01932,-0.01199,0.98854,-0.01040,0.00945,-0.00161,
1629344802020651520,-0.43361,-0.18417,0.21414,0.14921,-0.01927,-0.01212,0.98854,-0.00189,-0.00428,0.00324,
1629344802087323904,-0.43318,-0.18476,0.21444,0.14934,-0.01886,-0.01274,0.98852,-0.00223,-0.00391,0.00470,
1629344802153995264,-0.43305,-0.18485,0.21447,0.14944,-0.01866,-0.01299,0.98851,-0.00966,0.00763,-0.00015,
1629344802220667904,-0.43322,-0.18449,0.21421,0.14930,-0.01885,-0.01262,0.98853,-0.01134,0.01282,-0.00194,
1629344802287339264,-0.43330,-0.18421,0.21413,0.14923,-0.01904,-0.01231,0.98854,-0.00887,0.00586,0.00112,
1629344802354011648,-0.43320,-0.18434,0.21422,0.14926,-0.01891,-0.01245,0.98854,-0.00684,0.00021,0.00304,
1629344802420683008,-0.43305,-0.18463,0.21428,0.14934,-0.01873,-0.01278,0.98853,-0.00907,0.00346,0.00221,
1629344802487355136,-0.43304,-0.18457,0.21415,0.14935,-0.01865,-0.01279,0.98853,-0.01032,0.00873,0.00080,
1629344802554027520,-0.43310,-0.18431,0.21407,0.14928,-0.01877,-0.01257,0.98854,-0.01020,0.00905,0.00114,
1629344802620698880,-0.43303,-0.18429,0.21406,0.14928,-0.01881,-0.01254,0.98854,-0.01035,0.00487,0.00221,
1629344802687371520,-0.43304,-0.18441,0.21397,0.14929,-0.01864,-0.01271,0.98854,-0.00791,0.00358,0.00307,
1629344802754042880,-0.43299,-0.18447,0.21407,0.14930,-0.01861,-0.01278,0.98853,-0.01036,0.00601,0.00262,
1629344802820715520,-0.43303,-0.18436,0.21403,0.14929,-0.01861,-0.01271,0.98854,-0.01141,0.00807,0.00188,
1629344802887386880,-0.43300,-0.18422,0.21396,0.14927,-0.01864,-0.01261,0.98854,-0.01064,0.00723,0.00232,
1629344802954059008,-0.43299,-0.18422,0.21399,0.14926,-0.01864,-0.01268,0.98854,-0.01089,0.00474,0.00336,
1629344803020730368,-0.43304,-0.18426,0.21393,0.14928,-0.01852,-0.01276,0.98854,-0.00991,0.00531,0.00294,
1629344803087402752,-0.43298,-0.18430,0.21389,0.14927,-0.01848,-0.01277,0.98854,-0.00953,0.00732,0.00282,
1629344803154074112,-0.43294,-0.18428,0.21391,0.14926,-0.01851,-0.01271,0.98854,-0.01062,0.00724,0.00323,
1629344803220746496,-0.43297,-0.18422,0.21383,0.14925,-0.01850,-0.01271,0.98854,-0.01126,0.00620,0.00307,
1629344803287417856,-0.43287,-0.18402,0.21407,0.14920,-0.01849,-0.01275,0.98855,-0.01118,0.00614,0.00415,
1629344803354090240,-0.43268,-0.18411,0.21459,0.14920,-0.01853,-0.01269,0.98855,-0.01173,0.00867,0.00376,
1629344803420761856,-0.43266,-0.18410,0.21453,0.14919,-0.01850,-0.01270,0.98855,-0.01160,0.00859,0.00349,
1629344803487434240,-0.43264,-0.18404,0.21448,0.14918,-0.01848,-0.01268,0.98856,-0.01068,0.00840,0.00365,
1629344803554105600,-0.43267,-0.18405,0.21439,0.14918,-0.01840,-0.01271,0.98856,-0.01017,0.00623,0.00449,
1629344803620777728,-0.43264,-0.18410,0.21442,0.14919,-0.01841,-0.01273,0.98856,-0.01124,0.00632,0.00378,
1629344803687449344,-0.43262,-0.18404,0.21434,0.14916,-0.01836,-0.01268,0.98856,-0.00993,0.00777,0.00343,
1629344803754121472,-0.43260,-0.18403,0.21443,0.14917,-0.01840,-0.01269,0.98856,-0.01207,0.00750,0.00396,
1629344803820793856,-0.43259,-0.18404,0.21434,0.14917,-0.01835,-0.01270,0.98856,-0.01077,0.00734,0.00411,
1629344803887465216,-0.43258,-0.18409,0.21422,0.14918,-0.01828,-0.01275,0.98856,-0.01010,0.00658,0.00396,
1629344803954137856,-0.43250,-0.18408,0.21433,0.14918,-0.01834,-0.01270,0.98856,-0.01151,0.00757,0.00475,
1629344804020809216,-0.43252,-0.18403,0.21430,0.14915,-0.01831,-0.01269,0.98856,-0.01056,0.00796,0.00473,
1629344804087481600,-0.43253,-0.18398,0.21429,0.14915,-0.01830,-0.01271,0.98856,-0.00983,0.00745,0.00516,
1629344804154152960,-0.43250,-0.18401,0.21430,0.14916,-0.01831,-0.01272,0.98856,-0.01067,0.00759,0.00446,
1629344804220825088,-0.43246,-0.18404,0.21424,0.14919,-0.01829,-0.01273,0.98856,-0.01071,0.00696,0.00421,
1629344804287496448,-0.43247,-0.18401,0.21421,0.14917,-0.01827,-0.01274,0.98856,-0.00980,0.00777,0.00475,
1629344804354168832,-0.43250,-0.18398,0.21420,0.14917,-0.01824,-0.01276,0.98856,-0.00992,0.00769,0.00513,
1629344804420840192,-0.43252,-0.18399,0.21413,0.14916,-0.01820,-0.01275,0.98856,-0.00892,0.00663,0.00527,
1629344804487512576,-0.43251,-0.18397,0.21411,0.14916,-0.01818,-0.01275,0.98856,-0.00829,0.00730,0.00518,
1629344804554184192,-0.43252,-0.18399,0.21409,0.14916,-0.01818,-0.01278,0.98856,-0.00851,0.00603,0.00536,
1629344804620856576,-0.43250,-0.18395,0.21413,0.14914,-0.01818,-0.01275,0.98857,-0.00885,0.00683,0.00514,
1629344804687527680,-0.43249,-0.18394,0.21417,0.14914,-0.01821,-0.01273,0.98857,-0.01019,0.00736,0.00519,
1629344804754200320,-0.43248,-0.18394,0.21407,0.14916,-0.01817,-0.01278,0.98856,-0.00829,0.00655,0.00567,
1629344804820871680,-0.43247,-0.18395,0.21413,0.14916,-0.01819,-0.01277,0.98856,-0.00923,0.00608,0.00566,
1629344804887543808,-0.43243,-0.18393,0.21412,0.14916,-0.01816,-0.01275,0.98856,-0.00838,0.00785,0.00562,
1629344804954215168,-0.43240,-0.18403,0.21405,0.14919,-0.01816,-0.01278,0.98856,-0.00797,0.00569,0.00642,
1629344805020887552,-0.43244,-0.18403,0.21406,0.14918,-0.01813,-0.01280,0.98856,-0.00869,0.00488,0.00617,
1629344805087559168,-0.43246,-0.18392,0.21408,0.14916,-0.01813,-0.01277,0.98856,-0.00882,0.00700,0.00567,
1629344805154231808,-0.43245,-0.18390,0.21398,0.14916,-0.01808,-0.01278,0.98857,-0.00686,0.00695,0.00595,
1629344805220904192,-0.43248,-0.18392,0.21404,0.14916,-0.01812,-0.01280,0.98856,-0.00953,0.00552,0.00605,
1629344805287575552,-0.43244,-0.18398,0.21390,0.14919,-0.01806,-0.01279,0.98856,-0.00664,0.00579,0.00662,
1629344805354247936,-0.43236,-0.18400,0.21386,0.14917,-0.01802,-0.01279,0.98856,-0.00543,0.00589,0.00692,
