1629344764017670400,0.00064,-0.00063,0.00051,0.99996,0.00537,-0.00691,-0.00054,-0.00157,0.00298,-0.00006,
1629344764084339968,0.00216,-0.00003,0.01584,0.99998,0.00377,-0.00467,-0.00060,0.00337,0.00487,0.02799,
1629344764151008512,0.00314,0.00076,0.02008,0.99999,0.00298,-0.00454,-0.00064,0.00661,0.01146,0.03516,
1629344764217678080,0.00377,0.00139,0.02203,0.99999,0.00239,-0.00469,-0.00027,0.01642,0.00150,0.02220,
1629344764284346112,0.00475,0.00086,0.02346,0.99999,0.00388,-0.00379,-0.00055,0.01768,-0.01489,0.03769,
1629344764351015680,0.00576,-0.00040,0.02594,0.99998,0.00583,-0.00359,-0.00111,0.01023,-0.02224,0.05539,
1629344764417683712,0.00695,-0.00183,0.02943,0.99996,0.00698,-0.00428,-0.00216,0.01290,-0.01268,0.06029,
1629344764484353280,0.00810,-0.00238,0.03342,0.99996,0.00737,-0.00536,-0.00254,0.01532,-0.00192,0.06723,
1629344764551021568,0.00928,-0.00248,0.03835,0.99996,0.00582,-0.00630,-0.00285,0.01414,-0.00299,0.06383,
1629344764617690368,0.01011,-0.00273,0.04172,0.99995,0.00664,-0.00699,-0.00296,0.01341,-0.00319,0.04020,
1629344764684358656,0.01015,-0.00283,0.04416,0.99994,0.00709,-0.00756,-0.00279,0.00535,0.01052,0.03722,
1629344764751028480,0.00965,-0.00292,0.04645,0.99993,0.00718,-0.00926,-0.00216,0.00360,0.00665,0.04206,
1629344764817697280,0.00879,-0.00294,0.04963,0.99991,0.00698,-0.01089,-0.00211,-0.00232,0.00412,0.04631,
1629344764884367104,0.00848,-0.00275,0.05284,0.99989,0.00727,-0.01288,-0.00199,0.00287,0.00139,0.04099,
1629344764951035904,0.00867,-0.00234,0.05532,0.99986,0.00790,-0.01432,-0.00200,0.00826,0.00431,0.03200,
1629344765017705728,0.00907,-0.00188,0.05740,0.99986,0.00747,-0.01509,-0.00211,0.01004,0.00759,0.03190,
1629344765084374272,0.00902,-0.00273,0.05922,0.99984,0.00726,-0.01642,-0.00178,0.01395,0.00973,0.03928,
1629344765151043840,0.00946,-0.00293,0.06222,0.99984,0.00762,-0.01627,-0.00150,0.01765,0.00264,0.04871,
1629344765217713664,0.01021,-0.00302,0.06563,0.99984,0.00839,-0.01594,-0.00076,0.02140,0.00427,0.05322,
1629344765284382208,0.01162,-0.00285,0.06893,0.99984,0.00778,-0.01605,-0.00059,0.01882,0.02086,0.05179,
1629344765351051520,0.01262,-0.00153,0.07230,0.99984,0.00593,-0.01666,0.00023,0.01081,0.01840,0.05081,
1629344765417720064,0.01404,0.00026,0.07544,0.99983,0.00538,-0.01761,0.00071,0.00509,0.00397,0.05177,
1629344765484389376,0.01482,0.00055,0.07838,0.99982,0.00619,-0.01806,0.00079,0.01046,-0.00430,0.03417,
1629344765551057920,0.01583,0.00029,0.08022,0.99980,0.00801,-0.01823,0.00044,0.00892,-0.00915,0.02692,
1629344765617726976,0.01633,-0.00053,0.08212,0.99978,0.01011,-0.01836,0.00029,0.00723,-0.00995,0.03591,
1629344765684395520,0.01657,-0.00135,0.08466,0.99975,0.01144,-0.01916,-0.00026,-0.00107,-0.00524,0.04240,
1629344765751065088,0.01634,-0.00205,0.08766,0.99972,0.01207,-0.02046,-0.00056,0.00448,-0.00573,0.04249,
1629344765817733376,0.01729,-0.00292,0.09084,0.99969,0.01473,-0.02008,-0.00023,0.01487,-0.00844,0.04655,
1629344765884402688,0.01806,-0.00404,0.09363,0.99966,0.01710,-0.01984,-0.00037,0.02294,-0.01016,0.03826,
1629344765951070976,0.01937,-0.00433,0.09627,0.99967,0.01669,-0.01931,-0.00057,0.02500,0.00737,0.03302,
1629344766017740544,0.02073,-0.00369,0.09833,0.99972,0.01535,-0.01810,-0.00068,0.02161,0.02143,0.02640,
1629344766084408832,0.02234,-0.00226,0.10010,0.99977,0.01433,-0.01615,-0.00038,0.02152,0.01710,0.03256,
1629344766151077888,0.02371,-0.00091,0.10213,0.99979,0.01364,-0.01504,-0.00015,0.01797,0.01403,0.03469,
1629344766217745920,0.02506,-0.00038,0.10432,0.99978,0.01455,-0.01521,-0.00048,0.00644,0.00264,0.05322,
1629344766284414976,0.02552,-0.00076,0.10739,0.99973,0.01656,-0.01603,-0.00047,-0.00404,-0.01671,0.05706,
1629344766351083264,0.02494,-0.00260,0.11129,0.99966,0.02013,-0.01653,-0.00068,-0.00696,-0.02222,0.05532,
1629344766417752320,0.02457,-0.00482,0.11540,0.99954,0.02460,-0.01759,-0.00108,-0.01296,-0.03292,0.06780,
1629344766484421376,0.02370,-0.00714,0.11868,0.99945,0.02747,-0.01839,-0.00232,-0.00828,-0.02495,0.02670,
1629344766551088896,0.02401,-0.00820,0.12092,0.99941,0.02932,-0.01763,-0.00274,-0.00450,-0.01206,0.02889,
1629344766617757696,0.02377,-0.00921,0.12240,0.99938,0.03069,-0.01715,-0.00281,-0.00712,0.00109,0.03669,
1629344766684425472,0.02267,-0.00941,0.12486,0.99937,0.03076,-0.01760,-0.00229,-0.01212,0.01193,0.04995,
1629344766751096576,0.02171,-0.00852,0.12747,0.99939,0.02904,-0.01930,-0.00235,-0.00107,0.01727,0.02608,
1629344766817766400,0.02155,-0.00715,0.12943,0.99944,0.02740,-0.01886,-0.00220,0.00484,0.01582,0.03034,
1629344766884437504,0.02151,-0.00641,0.13157,0.99945,0.02707,-0.01893,-0.00205,0.00462,-0.00452,0.04423,
1629344766951107584,0.02197,-0.00709,0.13442,0.99942,0.02823,-0.01901,-0.00240,0.01607,-0.02529,0.05453,
1629344767017778432,0.02307,-0.00862,0.13804,0.99938,0.03006,-0.01799,-0.00291,0.02275,-0.02418,0.05508,
1629344767084448256,0.02622,-0.01102,0.14214,0.99941,0.03235,-0.01094,-0.00414,0.03075,-0.02529,0.05771,
1629344767151119104,0.02897,-0.01269,0.14535,0.99938,0.03438,-0.00643,-0.00416,0.02628,-0.01530,0.04822,
1629344767217788928,0.03161,-0.01427,0.14769,0.99930,0.03678,-0.00401,-0.00482,0.02055,-0.02441,0.03506,
1629344767284459776,0.03279,-0.01568,0.15005,0.99925,0.03816,-0.00264,-0.00555,0.01395,-0.00774,0.02104,
1629344767351129600,0.03318,-0.01659,0.15168,0.99922,0.03907,-0.00155,-0.00529,0.00787,0.00022,0.01663,
1629344767417800448,0.03347,-0.01640,0.15278,0.99923,0.03885,-0.00089,-0.00525,-0.00299,0.01004,0.02751,
1629344767484470016,0.03321,-0.01550,0.15476,0.99928,0.03746,-0.00144,-0.00554,-0.01451,0.01243,0.04597,
1629344767551141120,0.03231,-0.01473,0.15780,0.99931,0.03659,-0.00232,-0.00543,-0.01322,0.00311,0.04678,
1629344767617810688,0.03139,-0.01441,0.16133,0.99933,0.03605,-0.00256,-0.00528,-0.00890,0.00046,0.04656,
1629344767684481536,0.02987,-0.01436,0.16451,0.99933,0.03609,-0.00377,-0.00487,-0.00769,-0.00221,0.04444,
1629344767751152640,0.02917,-0.01462,0.16752,0.99928,0.03730,-0.00588,-0.00477,-0.00755,-0.00933,0.04877,
1629344767817824512,0.02822,-0.01545,0.17061,0.99923,0.03837,-0.00740,-0.00425,0.00120,-0.01965,0.03453,
1629344767884496896,0.02779,-0.01681,0.17358,0.99916,0.04000,-0.00765,-0.00438,0.00380,-0.02208,0.04120,
1629344767951167744,0.02819,-0.01788,0.17654,0.99906,0.04196,-0.00963,-0.00472,0.01635,-0.01438,0.03640,
1629344768017839872,0.02811,-0.01883,0.17866,0.99901,0.04296,-0.01090,-0.00404,0.02162,-0.00548,0.03717,
1629344768084510976,0.02947,-0.01871,0.18103,0.99904,0.04236,-0.01062,-0.00456,0.02273,0.00794,0.03651,
1629344768151183104,0.03070,-0.01814,0.18329,0.99906,0.04166,-0.01080,-0.00414,0.02023,0.01070,0.03855,
1629344768217853952,0.03175,-0.01753,0.18551,0.99908,0.04116,-0.01121,-0.00351,0.01614,0.00853,0.03532,
1629344768284526080,0.03263,-0.01622,0.18771,0.99916,0.03948,-0.01046,-0.00368,0.01281,0.00894,0.02238,
1629344768351197184,0.03366,-0.01514,0.18940,0.99921,0.03819,-0.01006,-0.00388,0.00988,0.00831,0.03365,
1629344768417869312,0.03452,-0.01449,0.19150,0.99924,0.03745,-0.01043,-0.00401,0.00525,0.00200,0.05038,
1629344768484540416,0.03479,-0.01445,0.19493,0.99924,0.03730,-0.01088,-0.00350,0.00734,-0.00361,0.05023,
1629344768551212800,0.03548,-0.01471,0.19830,0.99922,0.03779,-0.01033,-0.00405,0.00815,-0.01059,0.05209,
1629344768617883904,0.03611,-0.01532,0.20140,0.99920,0.03813,-0.01096,-0.00425,0.01067,-0.00989,0.03865,
1629344768684556288,0.03668,-0.01618,0.20392,0.99918,0.03885,-0.01063,-0.00470,0.00938,-0.01201,0.01909,
1629344768751227648,0.03691,-0.01700,0.20463,0.99915,0.03980,-0.01001,-0.00496,-0.00031,-0.01182,0.00272,
1629344768817900032,0.03642,-0.01797,0.20445,0.99911,0.04055,-0.01058,-0.00518,-0.00870,-0.00659,0.00514,
1629344768884571392,0.03560,-0.01829,0.20460,0.99908,0.04107,-0.01103,-0.00533,-0.01357,0.00169,0.00062,
1629344768951243776,0.03468,-0.01797,0.20461,0.99908,0.04103,-0.01102,-0.00533,-0.01645,0.00404,0.00397,
1629344769017915136,0.03249,-0.01864,0.20489,0.99909,0.04086,-0.01104,-0.00529,-0.01465,-0.00240,0.00194,
1629344769084587776,0.03138,-0.01869,0.20505,0.99909,0.04085,-0.01107,-0.00525,-0.00977,-0.00106,0.00103,
1629344769151260160,0.03069,-0.01859,0.20518,0.99910,0.04071,-0.01082,-0.00527,-0.00298,-0.00043,0.00041,
1629344769217932032,0.03006,-0.01855,0.20536,0.99912,0.04038,-0.01052,-0.00528,-0.00232,0.00379,0.00228,
1629344769284604416,0.02988,-0.01832,0.20524,0.99912,0.04021,-0.01054,-0.00524,-0.00007,-0.00029,0.00185,
1629344769351276032,0.02990,-0.01830,0.20504,0.99911,0.04036,-0.01058,-0.00539,0.00296,0.00069,0.00185,
1629344769417948416,0.02991,-0.01833,0.20506,0.99911,0.04043,-0.01045,-0.00534,0.00551,0.00065,0.00127,
1629344769484620032,0.02993,-0.01831,0.20499,0.99912,0.04032,-0.01039,-0.00536,0.00407,0.00133,0.00146,
1629344769551292672,0.03010,-0.01814,0.20498,0.99913,0.04014,-0.01014,-0.00536,0.00335,0.00055,0.00156,
1629344769617964288,0.03007,-0.01815,0.20498,0.99913,0.04013,-0.01012,-0.00537,0.00354,0.00008,0.00171,
1629344769684637184,0.02986,-0.01816,0.20491,0.99914,0.03992,-0.01030,-0.00534,0.00289,0.00027,0.00125,
1629344769751308544,0.02972,-0.01814,0.20521,0.99915,0.03971,-0.01015,-0.00533,0.00417,0.00169,0.00177,
1629344769817980928,0.02988,-0.01802,0.20511,0.99916,0.03947,-0.00996,-0.00532,0.00348,0.00056,0.00084,
1629344769884652288,0.02998,-0.01802,0.20491,0.99915,0.03954,-0.01021,-0.00537,0.00406,0.00017,0.00170,
1629344769951324928,0.03008,-0.01799,0.20497,0.99915,0.03965,-0.01018,-0.00538,0.00465,0.00135,0.00150,
1629344770017996288,0.03026,-0.01784,0.20488,0.99916,0.03945,-0.00992,-0.00540,0.00360,0.00196,0.00096,
1629344770084668928,0.02349,-0.02149,0.20038,0.99908,0.04051,-0.01178,-0.00808,-0.09703,-0.12890,0.06402,
1629344770151340544,0.02377,-0.02189,0.20477,0.99879,0.04496,-0.01477,-0.01359,-0.09299,-0.08113,0.02865,
1629344770218013184,0.02051,-0.01959,0.20700,0.99914,0.03439,-0.01670,-0.01621,-0.12902,-0.03639,0.02703,
1629344770284684544,0.01321,-0.01809,0.20868,0.99948,0.02136,-0.01687,-0.01725,-0.17006,-0.03487,0.00478,
1629344770351357184,-0.00211,-0.02504,0.21093,0.99915,0.03276,-0.02090,-0.01407,-0.18038,0.04636,0.16466,
1629344770418028800,-0.01565,-0.02643,0.22272,0.99905,0.03045,-0.03049,-0.00668,-0.13581,-0.01205,0.14320,
1629344770484701696,-0.01768,-0.02346,0.22636,0.99898,0.03196,-0.02837,-0.01451,-0.03507,0.02047,-0.04889,
1629344770551374080,-0.01682,-0.01554,0.22436,0.99954,0.02268,-0.01437,-0.01385,0.02199,0.20556,-0.05573,
1629344770618045696,-0.00991,-0.00451,0.21976,0.99987,0.01008,0.00844,-0.00970,0.08260,0.22527,-0.06731,
1629344770684718592,-0.00235,0.01003,0.21659,0.99954,0.02123,0.01903,-0.01045,0.16252,0.24713,-0.09472,
1629344770751390720,0.00771,0.02077,0.22142,0.99872,0.03258,0.03016,-0.02440,0.14099,0.13351,0.20404,
1629344770818063616,0.01333,0.03288,0.23680,0.99940,0.02362,0.00839,-0.02409,0.09883,0.21320,0.21616,
1629344770884735744,0.01500,0.04288,0.24258,0.99949,0.02134,-0.00520,-0.02321,0.05744,0.09267,0.05666,
1629344770951409152,0.01707,0.04374,0.24216,0.99835,0.05251,-0.00574,-0.02267,0.02764,0.02440,-0.00854,
1629344771018081280,0.01950,0.04421,0.24211,0.99754,0.06750,-0.00435,-0.01845,0.01157,-0.03138,0.03011,
1629344771084754432,0.02115,0.04066,0.24519,0.99800,0.06035,-0.00638,-0.01760,0.01279,0.01123,0.16943,
1629344771151426816,0.02007,0.03905,0.25022,0.99876,0.04707,-0.00864,-0.01351,0.00359,-0.10996,0.11539,
1629344771218099968,0.01739,0.03373,0.24993,0.99843,0.05053,-0.01554,-0.01843,0.01067,-0.09234,-0.01409,
1629344771284772352,0.02088,0.03240,0.24829,0.99842,0.05167,-0.01461,-0.01677,0.00152,-0.01048,0.01306,
1629344771351446016,0.02205,0.03145,0.24822,0.99865,0.04720,-0.01314,-0.01712,-0.00767,-0.02369,-0.00937,
1629344771418118144,0.02055,0.03049,0.24834,0.99846,0.05004,-0.01643,-0.01758,-0.02542,-0.01688,0.01176,
1629344771484791552,0.01845,0.02798,0.25106,0.99813,0.05489,-0.01317,-0.02341,-0.01502,-0.09294,0.07084,
1629344771551463936,0.01727,0.02727,0.25210,0.99839,0.05113,-0.01399,-0.02031,0.02060,0.02431,-0.07942,
1629344771618137344,0.01987,0.02141,0.24999,0.99827,0.05436,-0.00727,-0.02108,0.03314,-0.11097,-0.02631,
1629344771684809984,0.02175,0.01413,0.24661,0.99774,0.06286,-0.00051,-0.02371,0.06263,-0.12093,-0.07054,
1629344771751482880,0.02715,0.00619,0.24152,0.99729,0.06943,0.00680,-0.02326,0.10630,-0.15279,-0.08581,
1629344771818155776,0.03479,-0.00291,0.23808,0.99751,0.06500,0.01628,-0.02190,0.11946,-0.12249,0.07939,
1629344771884827648,0.04232,-0.01562,0.24705,0.99797,0.06185,0.00624,-0.01418,0.09170,-0.19937,0.15037,
1629344771951500288,0.04659,-0.02794,0.25055,0.99793,0.06142,-0.01017,-0.01632,0.08514,-0.15154,0.02313,
1629344772018172416,0.05087,-0.03342,0.25147,0.99838,0.05334,-0.01510,-0.01287,0.04846,-0.10383,0.02252,
1629344772084845568,0.05567,-0.03720,0.25065,0.99909,0.03744,-0.01520,-0.01387,0.02080,-0.08047,-0.01029,
1629344772151517696,0.05441,-0.04221,0.25087,0.99882,0.04073,-0.02298,-0.01299,-0.02360,-0.09680,0.06623,
1629344772218190592,0.05423,-0.05002,0.25587,0.99841,0.04725,-0.02258,-0.02078,-0.00294,-0.08341,0.01759,
1629344772284862464,0.05480,-0.05173,0.25158,0.99860,0.04661,-0.01785,-0.01750,0.04368,-0.05998,-0.12253,
1629344772351535616,0.05744,-0.05944,0.24534,0.99855,0.04872,-0.00817,-0.02127,0.06420,-0.15776,-0.07534,
1629344772418207744,0.06490,-0.06990,0.23891,0.99789,0.06089,0.00213,-0.02257,0.11959,-0.18610,-0.10500,
1629344772484880896,0.07481,-0.08378,0.23063,0.99766,0.06247,0.01320,-0.02465,0.17922,-0.23007,-0.13171,
1629344772551553280,0.08816,-0.09793,0.22880,0.99809,0.05360,0.02292,-0.02034,0.17914,-0.14841,0.08168,
1629344772618226176,0.09907,-0.11136,0.23852,0.99813,0.05813,0.00702,-0.01755,0.14244,-0.22598,0.14557,
1629344772684898304,0.10606,-0.12712,0.24339,0.99751,0.06714,-0.01328,-0.01705,0.13248,-0.16731,0.04664,
1629344772751571456,0.11155,-0.13712,0.24653,0.99834,0.05151,-0.02073,-0.01558,0.07706,-0.16719,0.00405,
1629344772818243840,0.11500,-0.14749,0.24474,0.99932,0.01844,-0.01763,-0.02648,0.04011,-0.17402,-0.01657,
1629344772884916992,0.11489,-0.16131,0.24791,0.99865,0.02648,-0.02731,-0.03541,0.00559,-0.23948,0.12112,
1629344772951589120,0.11555,-0.17769,0.25243,0.99757,0.04401,-0.02089,-0.04982,0.04055,-0.13853,-0.03348,
1629344773018262272,0.12114,-0.18688,0.24535,0.99751,0.04357,-0.01330,-0.05377,0.10769,-0.17359,-0.12345,
1629344773084934656,0.12799,-0.19867,0.24086,0.99698,0.04202,-0.00337,-0.06524,0.13439,-0.23655,-0.05728,
1629344773151608064,0.13730,-0.21376,0.23196,0.99599,0.05497,0.00864,-0.07012,0.19283,-0.23807,-0.17276,
1629344773218281216,0.15223,-0.23354,0.22088,0.99487,0.06055,0.02510,-0.07702,0.26087,-0.30080,-0.08522,
1629344773284953600,0.16642,-0.24824,0.22396,0.99551,0.05109,0.03181,-0.07311,0.24904,-0.23251,0.15720,
1629344773351626752,0.18137,-0.26152,0.23384,0.99580,0.04382,0.01643,-0.07872,0.23956,-0.20927,0.14180,
1629344773418299648,0.19327,-0.27096,0.23848,0.99577,0.04088,0.00559,-0.08211,0.26097,-0.14730,-0.02548,
1629344773484973056,0.20957,-0.27552,0.23341,0.99569,0.03121,0.01301,-0.08639,0.27154,-0.00796,-0.09355,
1629344773551645184,0.22817,-0.27344,0.22758,0.99580,0.00902,0.01826,-0.08927,0.31184,0.06406,-0.15027,
1629344773618318848,0.24711,-0.27285,0.22699,0.99485,0.00015,0.02049,-0.09931,0.26024,-0.04797,0.04764,
1629344773684991232,0.26647,-0.26775,0.23333,0.99421,-0.00426,0.02196,-0.10506,0.26544,0.13164,0.03640,
1629344773751663872,0.27958,-0.26252,0.23909,0.99452,-0.01402,0.01131,-0.10295,0.22713,0.06984,-0.00479,
1629344773818335488,0.29140,-0.26375,0.24484,0.99501,-0.00352,0.00102,-0.09968,0.19420,-0.02138,-0.02881,
1629344773885008128,0.30498,-0.26663,0.24446,0.99515,-0.00365,0.00337,-0.09829,0.17268,-0.07922,0.02205,
1629344773951679488,0.31794,-0.27123,0.24329,0.99501,-0.00660,0.00878,-0.09919,0.19244,-0.10127,-0.00093,
1629344774018352128,0.33079,-0.27863,0.25153,0.99575,-0.00463,0.00951,-0.09153,0.15797,-0.12492,0.11345,
1629344774085023744,0.33386,-0.28766,0.25748,0.99538,0.00243,-0.00860,-0.09555,0.13941,-0.13290,0.06059,
1629344774151696128,0.34959,-0.28827,0.25324,0.99523,0.00755,-0.00078,-0.09723,0.18855,-0.02913,-0.00459,
1629344774218367744,0.36627,-0.29128,0.25131,0.99524,-0.00225,0.00595,-0.09721,0.20837,0.03699,-0.03306,
1629344774285040640,0.38016,-0.29125,0.24922,0.99518,-0.00519,0.00307,-0.09787,0.24999,0.06177,-0.03850,
1629344774351712256,0.39250,-0.28629,0.24949,0.99439,0.00293,0.01087,-0.10515,0.21064,-0.00630,0.13644,
1629344774418384896,0.40823,-0.28540,0.25745,0.99468,-0.00490,0.00249,-0.10289,0.23208,0.04802,0.03563,
1629344774485057280,0.42141,-0.28781,0.25661,0.99499,-0.00610,-0.00015,-0.09981,0.22321,-0.05900,-0.01691,
1629344774551728896,0.43018,-0.29634,0.25268,0.99540,0.01001,0.00120,-0.09529,0.18054,-0.13343,-0.08326,
1629344774618401536,0.44934,-0.31025,0.24465,0.99505,0.03766,-0.00114,-0.09197,0.23432,-0.30567,-0.17195,
1629344774685073152,0.46002,-0.32550,0.24029,0.99523,0.02582,0.01031,-0.09356,0.19387,-0.26395,0.06726,
1629344774751746816,0.47689,-0.34520,0.25262,0.99538,0.02920,0.00063,-0.09141,0.15501,-0.28609,0.22012,
1629344774818419200,0.48372,-0.35934,0.26051,0.99517,0.02288,-0.01675,-0.09401,0.17448,-0.19695,0.03184,
1629344774885092608,0.49718,-0.36674,0.25854,0.99527,0.00309,-0.00998,-0.09661,0.18259,-0.08498,0.00759,
1629344774951765248,0.51266,-0.37035,0.25853,0.99528,-0.00670,-0.00479,-0.09669,0.19877,-0.00348,0.02553,
1629344775018439168,0.52916,-0.37275,0.25742,0.99535,0.00129,-0.00900,-0.09589,0.22897,-0.01009,0.03239,
1629344775085111552,0.54180,-0.37302,0.25960,0.99424,0.00467,-0.00074,-0.10704,0.20734,0.02225,0.03729,
1629344775151785216,0.55627,-0.37297,0.26101,0.99478,0.00047,-0.00132,-0.10201,0.19495,-0.01673,-0.02683,
1629344775218457856,0.56691,-0.37750,0.25867,0.99448,0.00283,-0.00113,-0.10490,0.16766,-0.13304,-0.03067,
1629344775285131776,0.57720,-0.38540,0.25470,0.99429,0.01138,0.00666,-0.10592,0.16845,-0.17633,-0.08926,
1629344775351804416,0.59158,-0.39899,0.24907,0.99406,0.02380,0.01542,-0.10512,0.19493,-0.26194,-0.12469,
1629344775418478336,0.60551,-0.41155,0.25201,0.99462,0.02761,0.02418,-0.09688,0.19529,-0.17619,0.10707,
1629344775485150720,0.61619,-0.42190,0.25925,0.99496,0.02578,0.00823,-0.09659,0.15717,-0.17334,0.08365,
1629344775551824896,0.62746,-0.43147,0.25816,0.99498,0.02819,-0.00101,-0.09603,0.16605,-0.12173,-0.02145,
1629344775618497792,0.63796,-0.43691,0.25607,0.99540,0.01271,-0.00078,-0.09493,0.14591,-0.04638,-0.06325,
1629344775685171712,0.64815,-0.43889,0.25348,0.99540,-0.00435,0.00344,-0.09569,0.13990,-0.00089,-0.04166,
1629344775751844352,0.65621,-0.44135,0.25413,0.99528,0.00160,-0.00243,-0.09701,0.11701,-0.09370,0.03451,
1629344775818518528,0.66395,-0.44324,0.25980,0.99461,0.00386,-0.00065,-0.10358,0.12187,0.05445,0.01712,
1629344775885192704,0.67221,-0.44407,0.25893,0.99496,0.00123,-0.00148,-0.10024,0.10596,-0.03430,-0.02833,
1629344775951865600,0.67994,-0.45097,0.25746,0.99460,0.00575,0.00140,-0.10361,0.09425,-0.09039,-0.03674,
1629344776018540032,0.68596,-0.45769,0.25505,0.99453,0.01264,0.00530,-0.10352,0.08912,-0.12604,-0.04597,
1629344776085212928,0.69361,-0.46752,0.25133,0.99438,0.01841,0.01038,-0.10372,0.13336,-0.15357,-0.04566,
1629344776151886848,0.70281,-0.47622,0.25750,0.99501,0.01577,0.01463,-0.09748,0.10579,-0.13052,0.16496,
1629344776218560256,0.70911,-0.48399,0.26324,0.99490,0.01816,0.00188,-0.09922,0.10415,-0.10782,0.05511,
1629344776285234688,0.71679,-0.48773,0.26351,0.99498,0.02178,-0.00300,-0.09762,0.12404,-0.04171,0.01316,
1629344776351907840,0.72612,-0.48938,0.26167,0.99522,0.00548,0.00207,-0.09751,0.12581,0.01975,-0.04007,
1629344776418582272,0.73785,-0.48722,0.25817,0.99522,-0.00647,0.00679,-0.09719,0.15418,0.07412,-0.02497,
1629344776485255680,0.74756,-0.48671,0.26010,0.99493,-0.00123,0.00643,-0.10034,0.14098,-0.04801,0.07574,
1629344776551929856,0.75686,-0.48606,0.26320,0.99489,0.00083,0.00340,-0.10088,0.15234,0.05100,-0.01371,
1629344776618603520,0.76667,-0.48620,0.26339,0.99485,-0.00278,0.00125,-0.10131,0.12818,-0.04315,0.02578,
1629344776685277952,0.77367,-0.48863,0.26266,0.99469,-0.00200,0.00220,-0.10290,0.11870,-0.06765,-0.04589,
1629344776751949568,0.78219,-0.49478,0.26020,0.99470,0.00410,0.00712,-0.10250,0.10879,-0.13866,-0.03870,
1629344776818622208,0.78926,-0.50138,0.25610,0.99465,0.01146,0.01024,-0.10213,0.11201,-0.12399,0.06549,
1629344776885293824,0.79772,-0.50751,0.26449,0.99532,0.01334,0.01227,-0.09491,0.10894,-0.12592,0.10068,
1629344776951965952,0.80333,-0.51599,0.26874,0.99503,0.01779,-0.00171,-0.09799,0.11524,-0.10202,-0.00859,
1629344777018637568,0.81313,-0.51684,0.26800,0.99515,0.01521,-0.00084,-0.09723,0.14026,0.00221,-0.01613,
1629344777085310208,0.82394,-0.51464,0.26657,0.99526,-0.00255,0.00614,-0.09702,0.15971,0.06096,-0.08159,
1629344777151983104,0.83551,-0.51016,0.26406,0.99538,-0.00687,0.00879,-0.09538,0.19282,0.11331,-0.02485,
1629344777218654720,0.84833,-0.50601,0.26709,0.99509,0.00134,0.01222,-0.09826,0.18393,0.06299,0.08059,
1629344777285326848,0.85976,-0.50167,0.26902,0.99523,-0.00573,0.00601,-0.09722,0.16554,0.03242,0.01714,
1629344777351998464,0.86976,-0.50301,0.26801,0.99482,-0.00849,0.00291,-0.10124,0.15637,-0.04109,0.00579,
1629344777418671104,0.88014,-0.50729,0.26593,0.99450,0.00244,0.00455,-0.10460,0.13001,-0.11232,-0.03717,
1629344777485342720,0.89008,-0.51510,0.26357,0.99415,0.01064,0.00627,-0.10725,0.14207,-0.15983,-0.02251,
1629344777552015360,0.90103,-0.52290,0.26156,0.99417,0.01407,0.01365,-0.10603,0.18183,-0.05941,0.07784,
1629344777618686720,0.91416,-0.53045,0.26470,0.99469,0.01328,0.00898,-0.10165,0.15281,-0.11761,0.02947,
1629344777685359360,0.92501,-0.53578,0.26428,0.99444,0.01735,0.00029,-0.10384,0.18244,-0.05435,0.00593,
1629344777752030976,0.93867,-0.53485,0.26140,0.99453,0.00997,0.00679,-0.10379,0.20828,0.05018,-0.07147,
1629344777818703872,0.95541,-0.52986,0.25553,0.99453,-0.00169,0.01338,-0.10356,0.24320,0.12493,-0.08180,
1629344777885375488,0.97381,-0.52334,0.24910,0.99432,-0.00117,0.01672,-0.10513,0.28368,0.10513,0.01966,
1629344777952048128,0.99172,-0.51709,0.25439,0.99327,-0.00491,0.02155,-0.11373,0.26503,0.15517,0.09456,
1629344778018719744,1.00553,-0.50718,0.26022,0.99367,-0.02117,0.00880,-0.11000,0.22659,0.11676,0.04084,
1629344778085392128,1.01983,-0.50320,0.26184,0.99374,-0.01913,0.00319,-0.11005,0.18260,0.03385,0.02124,
1629344778152063744,1.03107,-0.50169,0.26119,0.99409,0.00465,0.00645,-0.10831,0.15160,-0.00760,-0.03182,
1629344778218736896,1.04115,-0.50310,0.25947,0.99403,0.01190,0.00812,-0.10813,0.13704,-0.05991,0.00869,
1629344778285408512,1.05106,-0.50445,0.26457,0.99482,0.00693,0.01158,-0.10076,0.15794,0.04218,0.10188,
1629344778352081152,1.06013,-0.50577,0.26581,0.99479,0.00538,0.00561,-0.10164,0.14941,-0.03572,-0.02091,
1629344778418752768,1.07187,-0.50619,0.26418,0.99458,0.00529,0.00481,-0.10378,0.20266,0.06316,-0.05053,
1629344778485425152,1.08724,-0.50054,0.26075,0.99483,-0.00704,0.01409,-0.10037,0.23988,0.14934,-0.09424,
1629344778552098048,1.10488,-0.49198,0.25466,0.99476,-0.01495,0.02058,-0.09907,0.30592,0.16157,-0.10604,
1629344778618769920,1.12760,-0.48293,0.24998,0.99419,-0.00276,0.02836,-0.10376,0.29971,0.06309,0.04950,
1629344778685442560,1.14771,-0.47350,0.26019,0.99385,-0.01342,0.01858,-0.10832,0.27762,0.18280,0.14380,
1629344778752114176,1.16372,-0.46530,0.26470,0.99373,-0.02670,0.00442,-0.10848,0.23820,0.07604,0.02558,
1629344778818786304,1.17695,-0.46415,0.26438,0.99362,-0.00933,-0.00026,-0.11236,0.18007,-0.00545,-0.02822,
1629344778885457664,1.18791,-0.46585,0.26273,0.99354,0.02080,0.00351,-0.11149,0.15572,-0.04950,-0.03168,
1629344778952130304,1.19875,-0.46800,0.26213,0.99350,0.01562,0.00549,-0.11263,0.17892,-0.04723,0.03162,
1629344779018801664,1.20858,-0.47122,0.26924,0.99468,0.00849,0.00912,-0.10229,0.12730,-0.09733,0.10008,
1629344779085474304,1.21726,-0.47676,0.27189,0.99444,0.00960,-0.00011,-0.10483,0.13781,-0.08295,0.00143,
1629344779152145920,1.22843,-0.47753,0.27125,0.99460,0.00806,-0.00002,-0.10348,0.17425,0.00413,-0.03725,
1629344779218818304,1.24041,-0.47438,0.26844,0.99469,-0.00136,0.00697,-0.10268,0.18752,0.07514,-0.05290,
1629344779285489920,1.25454,-0.46861,0.26502,0.99475,-0.00339,0.00782,-0.10199,0.23591,0.09667,-0.05770,
1629344779352162048,1.26921,-0.46489,0.26605,0.99371,0.00121,0.01673,-0.11068,0.20629,0.01837,0.12283,
1629344779418833408,1.28412,-0.46124,0.27154,0.99390,-0.00538,0.00746,-0.10986,0.22065,0.07645,0.03796,
1629344779485506048,1.29780,-0.45980,0.27188,0.99396,-0.01035,0.00228,-0.10925,0.19481,-0.03762,0.00954,
1629344779552177408,1.30872,-0.46378,0.27096,0.99373,-0.00433,0.00438,-0.11162,0.17044,-0.11133,-0.04447,
1629344779618849792,1.32013,-0.47283,0.26633,0.99361,0.00773,0.01095,-0.11207,0.16793,-0.18748,-0.08353,
1629344779685521664,1.33210,-0.48362,0.26208,0.99370,0.01759,0.01690,-0.10940,0.19004,-0.12234,0.01871,
1629344779752194048,1.34329,-0.49333,0.26617,0.99448,0.02141,0.01271,-0.10191,0.12704,-0.18560,0.10092,
1629344779818866432,1.35306,-0.50328,0.26938,0.99417,0.02933,-0.00160,-0.10374,0.14516,-0.12123,0.03097,
1629344779885538048,1.36479,-0.50634,0.27136,0.99456,0.01971,0.00026,-0.10229,0.16250,-0.02096,-0.02401,
1629344779952210432,1.37649,-0.50542,0.26832,0.99459,-0.00614,0.01022,-0.10317,0.17381,0.04453,-0.04903,
1629344780018882048,1.38994,-0.50341,0.26516,0.99470,-0.00526,0.00897,-0.10228,0.19330,0.02398,0.07523,
1629344780085554432,1.40446,-0.50287,0.27185,0.99369,0.00080,0.01074,-0.11163,0.19037,0.06895,0.11804,
1629344780152226048,1.41765,-0.49822,0.27598,0.99415,-0.00264,0.00408,-0.10791,0.18270,0.04827,0.04458,
1629344780218898688,1.42961,-0.49981,0.27723,0.99396,-0.00413,0.00126,-0.10962,0.16608,-0.03444,0.02206,
1629344780285570048,1.44040,-0.50351,0.27622,0.99392,0.00095,0.00567,-0.10999,0.14452,-0.09471,-0.02228,
1629344780352242688,1.45078,-0.51267,0.27270,0.99378,0.00906,0.00995,-0.11056,0.14883,-0.16834,-0.06462,
1629344780418914048,1.46074,-0.52162,0.27207,0.99419,0.01753,0.01555,-0.10508,0.16325,-0.06528,0.07852,
1629344780485586688,1.47100,-0.53048,0.27829,0.99440,0.02101,0.00602,-0.10341,0.13670,-0.15773,0.07029,
1629344780552258304,1.47967,-0.53849,0.27755,0.99410,0.02517,-0.00351,-0.10541,0.17881,-0.07897,-0.04076,
1629344780618930688,1.49377,-0.53954,0.27592,0.99453,0.01337,0.00017,-0.10356,0.18770,0.02048,-0.06832,
1629344780685602304,1.50759,-0.53616,0.27138,0.99461,-0.00492,0.00742,-0.10331,0.21552,0.08196,-0.08429,
1629344780752274688,1.52253,-0.53192,0.26796,0.99472,-0.00158,0.00690,-0.10241,0.23941,0.03063,0.02352,
1629344780818946304,1.53875,-0.53005,0.27454,0.99395,-0.00120,0.01095,-0.10927,0.22727,0.08758,0.04444,
1629344780885618944,1.55309,-0.52663,0.27701,0.99427,-0.00553,0.00435,-0.10664,0.21398,-0.01044,-0.01145,
1629344780952290304,1.56439,-0.52958,0.27645,0.99380,-0.00686,0.00271,-0.11089,0.19108,-0.08141,-0.05009,
1629344781018962944,1.57541,-0.53826,0.27283,0.99366,0.00501,0.00781,-0.11208,0.16550,-0.17662,-0.07904,
1629344781085634304,1.58861,-0.55046,0.26815,0.99333,0.01529,0.01323,-0.11354,0.19654,-0.20270,-0.07763,
1629344781152306688,1.60151,-0.56074,0.26981,0.99438,0.01856,0.01764,-0.10275,0.16491,-0.13739,0.18406,
1629344781218979584,1.61299,-0.57054,0.27644,0.99448,0.02148,0.00404,-0.10267,0.15248,-0.14385,0.09399,
1629344781285650944,1.62479,-0.57777,0.27814,0.99443,0.02588,-0.00334,-0.10208,0.18674,-0.07265,0.01902,
1629344781352323584,1.63983,-0.57832,0.27521,0.99466,0.00805,0.00373,-0.10284,0.20239,0.03757,-0.04672,
1629344781418994944,1.65494,-0.57399,0.26896,0.99457,-0.00794,0.01196,-0.10303,0.24068,0.09405,-0.06469,
1629344781485667584,1.67171,-0.57093,0.26652,0.99382,-0.00358,0.01531,-0.10985,0.23646,-0.00693,0.02357,
1629344781552339200,1.68833,-0.56684,0.26815,0.99365,-0.00703,0.01232,-0.11158,0.23321,0.10177,-0.00305,
1629344781619011328,1.70216,-0.56471,0.26776,0.99366,-0.01537,0.00457,-0.11125,0.19095,-0.01905,-0.03081,
1629344781685682944,1.71342,-0.56745,0.26672,0.99354,-0.01104,0.00337,-0.11293,0.15579,-0.09049,-0.10265,
1629344781752355584,1.72283,-0.57558,0.26265,0.99349,0.00887,0.01021,-0.11309,0.13023,-0.17653,-0.10694,
1629344781819027200,1.73246,-0.58569,0.25829,0.99336,0.01734,0.01351,-0.11291,0.13752,-0.15790,0.02001,
1629344781885699584,1.74188,-0.59466,0.26395,0.99434,0.01831,0.01881,-0.10296,0.10210,-0.17731,0.13430,
1629344781952371200,1.74696,-0.60550,0.27248,0.99439,0.02276,0.00072,-0.10329,0.09370,-0.13504,0.07866,
1629344782019043584,1.75399,-0.61215,0.27596,0.99454,0.02460,-0.00396,-0.10136,0.08097,-0.06842,0.05711,
1629344782085714944,1.75982,-0.61348,0.27476,0.99485,0.00016,0.00097,-0.10134,0.06999,0.01904,-0.02321,
1629344782152387584,1.76562,-0.61217,0.27316,0.99488,-0.00866,0.00312,-0.10060,0.06941,0.03551,0.03033,
1629344782219058944,1.76799,-0.61358,0.27751,0.99413,-0.00060,0.00197,-0.10816,0.04249,-0.02682,0.10229,
1629344782285731840,1.77207,-0.61188,0.27719,0.99438,0.00165,-0.00369,-0.10578,0.05957,0.06162,-0.06486,
1629344782352403200,1.77772,-0.61436,0.27309,0.99433,0.00249,-0.00122,-0.10630,0.02446,-0.04081,-0.00691,
1629344782419075840,1.78021,-0.61876,0.27142,0.99420,0.00734,0.00143,-0.10728,0.00841,-0.06384,-0.05018,
1629344782485747968,1.78148,-0.62500,0.26909,0.99423,0.01247,0.00387,-0.10650,0.01889,-0.10302,-0.05505,
1629344782552419584,1.78415,-0.63171,0.26737,0.99431,0.01675,0.01051,-0.10467,0.05603,-0.05416,0.02770,
1629344782619091968,1.78648,-0.63576,0.27397,0.99479,0.01394,0.00498,-0.10084,0.02581,-0.09587,0.07775,
1629344782685763584,1.78864,-0.64181,0.27312,0.99456,0.01966,-0.00447,-0.10217,0.03667,-0.05832,-0.06547,
1629344782752435968,1.79090,-0.64237,0.27168,0.99501,0.01253,-0.00239,-0.09895,0.02219,0.02755,-0.06440,
1629344782819107840,1.79287,-0.64090,0.26979,0.99522,-0.00375,0.00179,-0.09762,0.01984,0.03411,-0.06154,
1629344782885780224,1.79328,-0.63918,0.27130,0.99543,-0.00064,-0.00081,-0.09545,0.01151,0.04286,-0.02215,
1629344782952451584,1.79374,-0.63858,0.27566,0.99549,0.00366,-0.00052,-0.09475,0.01788,0.02474,0.00421,
1629344783019123968,1.79510,-0.63728,0.27384,0.99562,-0.00349,-0.00309,-0.09339,0.02830,-0.01393,-0.08660,
1629344783085795584,1.79650,-0.63979,0.27134,0.99518,-0.00276,-0.00136,-0.09805,0.01664,-0.02966,-0.00016,
1629344783152467968,1.79737,-0.64096,0.27085,0.99522,-0.00251,-0.00159,-0.09758,0.01795,-0.02289,-0.03864,
1629344783219139584,1.79831,-0.64357,0.27028,0.99521,-0.00142,-0.00160,-0.09774,0.01648,-0.05000,-0.02719,
1629344783285811968,1.79994,-0.64615,0.27083,0.99534,0.00162,0.00254,-0.09641,0.03037,0.00205,0.06981,
1629344783352483584,1.80227,-0.64588,0.27576,0.99575,-0.00083,-0.00246,-0.09203,0.04094,-0.00459,0.01194,
1629344783419155968,1.80603,-0.64450,0.27365,0.99622,0.00294,-0.00459,-0.08670,0.06331,0.06966,-0.01591,
1629344783485827328,1.81067,-0.63768,0.27177,0.99702,-0.00587,0.00085,-0.07690,0.07960,0.14543,-0.09424,
1629344783552499968,1.81684,-0.62553,0.26600,0.99779,-0.01877,0.01002,-0.06287,0.10961,0.20718,-0.07586,
1629344783619171328,1.82507,-0.61253,0.26164,0.99872,-0.01036,0.01547,-0.04707,0.13915,0.18515,0.00502,
1629344783685843968,1.83451,-0.60041,0.26411,0.99925,-0.00568,0.01741,-0.03398,0.13100,0.21682,0.09132,
1629344783752515584,1.84272,-0.58633,0.26811,0.99973,-0.01619,0.00638,-0.01533,0.11088,0.18745,0.08042,
1629344783819188224,1.84912,-0.57496,0.26975,0.99988,-0.01514,0.00296,0.00034,0.09360,0.12610,0.00985,
1629344783885860864,1.85658,-0.56802,0.26819,0.99980,0.00019,0.00772,0.01846,0.07168,0.09273,-0.02023,
1629344783952532736,1.86246,-0.56251,0.26802,0.99936,0.00021,0.00620,0.03532,0.07376,0.05457,0.01445,
1629344784019205376,1.86763,-0.55851,0.27132,0.99842,-0.00496,0.00809,0.05537,0.06005,0.10539,0.10713,
1629344784085876992,1.87220,-0.55219,0.27442,0.99716,-0.00433,-0.00283,0.07508,0.04993,0.08824,-0.00796,
1629344784152549632,1.87720,-0.54247,0.27187,0.99488,-0.00103,-0.00530,0.10094,0.04954,0.20518,-0.02322,
1629344784219220992,1.88240,-0.52753,0.26627,0.99210,-0.01409,-0.00277,0.12464,0.05725,0.23031,-0.12137,
1629344784285894144,1.88705,-0.50945,0.26020,0.98899,-0.02214,0.00079,0.14632,0.07275,0.29298,-0.08557,
1629344784352565760,1.89498,-0.49256,0.25566,0.98581,-0.00959,0.00761,0.16742,0.10666,0.25871,-0.00888,
1629344784419238400,1.90505,-0.47741,0.25662,0.98371,-0.01483,0.01499,0.17850,0.09770,0.27124,0.02515,
1629344784485910272,1.91017,-0.46255,0.25564,0.97968,-0.01721,0.01062,0.19955,0.10862,0.22986,-0.07171,
1629344784552582656,1.91744,-0.45323,0.25239,0.97605,-0.01659,0.01705,0.21623,0.14538,0.12995,-0.08851,
1629344784619254272,1.92946,-0.45142,0.24910,0.97220,0.00231,0.03146,0.23203,0.18681,0.03637,-0.08944,
1629344784685927168,1.94302,-0.45037,0.24465,0.96742,0.00801,0.03745,0.25026,0.21347,0.03413,-0.06323,
1629344784752598528,1.95638,-0.44583,0.24706,0.95859,0.00523,0.04037,0.28186,0.16030,0.05136,0.11292,
1629344784819271168,1.96673,-0.44350,0.24877,0.95234,0.01643,0.01975,0.30394,0.13887,0.04355,-0.07127,
1629344784885942784,1.96595,-0.43612,0.24572,0.94156,0.01463,0.01201,0.33631,0.01569,0.14062,-0.13836,
1629344784952614912,1.96343,-0.42535,0.23933,0.93130,-0.00700,0.00214,0.36418,-0.04341,0.14041,-0.15426,
1629344785019286272,1.95795,-0.41680,0.23775,0.92065,-0.00773,-0.00438,0.39029,-0.08400,0.14625,-0.07142,
1629344785085958912,1.95569,-0.41311,0.23854,0.91178,0.01049,-0.00193,0.41053,0.00711,0.04939,0.03943,
1629344785152631296,1.95224,-0.40270,0.23863,0.90350,0.00680,0.00148,0.42854,-0.10451,0.19031,-0.07776,
1629344785219302656,1.94473,-0.39502,0.23370,0.89082,-0.00237,0.00438,0.45432,-0.08357,0.14359,-0.08163,
1629344785285975552,1.94022,-0.38865,0.23176,0.87929,-0.00724,0.00901,0.47615,-0.01892,0.07649,-0.02106,
1629344785352646912,1.93863,-0.38321,0.23238,0.86853,-0.00088,0.01885,0.49528,0.00011,0.07550,-0.05080,
1629344785419319040,1.93889,-0.37908,0.23063,0.85520,-0.00259,0.02106,0.51787,0.01649,0.06836,-0.00595,
1629344785485990656,1.93613,-0.37564,0.23872,0.83832,-0.00104,0.02067,0.54479,-0.02422,0.05875,0.17826,
1629344785552663040,1.93216,-0.37310,0.24283,0.82573,0.00607,0.00754,0.56398,-0.06025,0.07033,-0.01001,
1629344785619334400,1.92057,-0.36798,0.24031,0.80557,0.00216,0.00388,0.59248,-0.18389,0.08889,-0.04064,
1629344785686007040,1.90777,-0.35946,0.23693,0.78688,-0.00619,-0.00212,0.61707,-0.22049,0.08071,-0.06044,
1629344785752678400,1.89473,-0.35341,0.23309,0.76784,-0.00773,-0.00378,0.64058,-0.23354,0.08857,-0.03395,
1629344785819350784,1.88831,-0.35109,0.23327,0.75429,0.00155,0.00447,0.65652,-0.04129,0.04294,0.09559,
1629344785886022400,1.87717,-0.34589,0.23619,0.74222,-0.00466,0.00589,0.67012,-0.27747,0.09966,-0.03314,
1629344785952694784,1.86474,-0.34004,0.23318,0.72024,-0.00870,0.00892,0.69362,-0.18264,0.08359,-0.05246,
1629344786019366144,1.85641,-0.33642,0.23175,0.70265,-0.01060,0.01337,0.71133,-0.09933,0.06477,0.00889,
1629344786086038784,1.85166,-0.33286,0.23164,0.68438,-0.01027,0.02038,0.72876,-0.06846,0.06836,-0.01900,
1629344786152710144,1.84683,-0.32955,0.23160,0.66390,-0.01138,0.01914,0.74749,-0.05690,0.06695,0.04255,
1629344786219382528,1.84459,-0.32583,0.24001,0.63936,-0.00784,0.01928,0.76863,-0.03901,0.05074,0.13303,
1629344786286053888,1.84216,-0.32263,0.24394,0.62041,0.00235,0.01223,0.78418,-0.10124,0.03912,0.00073,
1629344786352726528,1.82657,-0.32224,0.24062,0.59198,-0.00224,0.00733,0.80591,-0.19013,0.00229,-0.01798,
1629344786419397888,1.81382,-0.32220,0.23758,0.56715,-0.00677,0.00128,0.82359,-0.20948,-0.01808,-0.02945,
1629344786486070272,1.80149,-0.32315,0.23473,0.54335,-0.00284,0.00328,0.83949,-0.20984,-0.00832,-0.05339,
1629344786552742912,1.79216,-0.32283,0.23525,0.53005,-0.00167,0.01080,0.84789,-0.06826,0.04066,0.10790,
1629344786619414272,1.78194,-0.32375,0.24209,0.50882,-0.00673,0.01262,0.86075,-0.26731,-0.04047,0.03382,
1629344786686086656,1.77108,-0.32248,0.24118,0.48027,-0.01324,0.01299,0.87693,-0.15987,0.00157,0.07031,
1629344786752758272,1.76371,-0.31997,0.24099,0.45618,-0.01499,0.01542,0.88963,-0.09211,0.06009,0.02340,
1629344786819430656,1.75540,-0.31794,0.23756,0.43112,-0.01899,0.02177,0.90183,-0.06711,0.08511,-0.00473,
1629344786886102016,1.75159,-0.31354,0.23612,0.40270,-0.01677,0.02304,0.91489,-0.03974,0.06907,0.16222,
1629344786952774656,1.75092,-0.30573,0.24730,0.37285,-0.00566,0.03138,0.92734,0.00490,0.07347,0.17468,
1629344787019446016,1.75298,-0.30473,0.25071,0.34725,0.00989,0.02504,0.93739,-0.08418,-0.05031,-0.05610,
1629344787086118400,1.74287,-0.31255,0.24813,0.30878,0.00544,0.00955,0.95107,-0.07981,-0.13958,-0.03073,
1629344787152790016,1.73748,-0.32127,0.24528,0.27997,0.00545,-0.00271,0.95999,-0.05012,-0.16339,-0.01576,
1629344787219462400,1.73571,-0.33098,0.24617,0.25039,0.01892,0.00439,0.96795,-0.00388,-0.16725,0.02489,
1629344787286133760,1.73572,-0.33837,0.24902,0.23964,0.01851,0.01371,0.97059,-0.00194,-0.10836,0.10148,
1629344787352806144,1.73008,-0.35121,0.24765,0.20978,0.01091,0.01439,0.97758,-0.10390,-0.20660,-0.06400,
1629344787419477760,1.72343,-0.36179,0.24320,0.17820,0.00021,0.01018,0.98394,-0.06415,-0.12765,-0.04108,
1629344787486150144,1.71981,-0.36764,0.24127,0.15044,-0.00553,0.01355,0.98851,-0.03962,-0.02445,-0.02210,
1629344787552821760,1.71521,-0.36945,0.24090,0.12447,-0.00965,0.01744,0.99202,-0.04405,0.01687,-0.02576,
1629344787619494144,1.71537,-0.36925,0.24102,0.09307,-0.00970,0.02008,0.99541,-0.03981,0.00002,0.08274,
1629344787686165504,1.71139,-0.36460,0.24760,0.06251,-0.00414,0.02576,0.99770,-0.01342,0.04369,0.07355,
1629344787752837888,1.71190,-0.36645,0.24851,0.03471,0.00601,0.02246,0.99913,-0.01222,-0.09905,-0.05088,
1629344787819510272,1.71081,-0.37845,0.24780,-0.00335,0.00805,0.01174,0.99989,0.03012,-0.13403,-0.02972,
1629344787886181888,1.71496,-0.38073,0.24738,-0.01565,0.01022,0.00659,0.99980,0.06555,0.01353,0.04452,
1629344787952854272,1.72015,-0.37600,0.25015,-0.01919,0.01590,0.01313,0.99960,0.10189,0.01163,0.03568,
1629344788019525632,1.72520,-0.37322,0.25249,-0.01196,0.01427,0.01908,0.99964,0.07965,0.07614,0.07136,
1629344788086198016,1.73099,-0.37541,0.25286,-0.01933,0.00760,0.01612,0.99965,0.03644,-0.06570,-0.07751,
1629344788152869376,1.73061,-0.37224,0.25050,-0.02765,0.00161,0.01427,0.99951,-0.00875,0.04364,-0.00614,
1629344788219542016,1.72782,-0.36592,0.24829,-0.03296,-0.00520,0.02158,0.99921,-0.06401,0.09078,-0.07333,
1629344788286213376,1.72154,-0.35796,0.24417,-0.03636,-0.01347,0.02811,0.99885,-0.12447,0.14040,-0.06352,
1629344788352885760,1.71430,-0.35170,0.24067,-0.04177,-0.01747,0.02259,0.99872,-0.13272,0.09691,0.08968,
1629344788419557120,1.70471,-0.34463,0.24868,-0.05363,-0.01749,0.02116,0.99818,-0.12054,0.12060,0.12579,
1629344788486229760,1.69825,-0.33824,0.25313,-0.05599,-0.00901,0.02080,0.99817,-0.10175,0.06400,-0.00045,
1629344788552901120,1.69316,-0.33723,0.25432,-0.06461,-0.00561,0.01312,0.99781,-0.05490,0.00816,0.01306,
1629344788619573504,1.68896,-0.33755,0.25450,-0.06927,-0.00491,0.00148,0.99758,-0.03188,0.00294,0.01375,
1629344788686244864,1.68636,-0.33710,0.25607,-0.07415,-0.00200,0.00543,0.99723,-0.01022,-0.00188,0.03939,
1629344788752917504,1.68439,-0.33470,0.25859,-0.07153,-0.00171,0.01173,0.99737,-0.02878,0.07701,0.04963,
1629344788819588864,1.68160,-0.33419,0.25706,-0.07718,-0.00563,0.01222,0.99693,-0.04823,-0.04429,-0.08575,
1629344788886261248,1.67542,-0.33184,0.25390,-0.08009,-0.01342,0.01012,0.99665,-0.09751,0.09657,-0.03936,
1629344788952932864,1.66912,-0.32499,0.24957,-0.08018,-0.02154,0.02005,0.99635,-0.12720,0.13417,-0.07451,
1629344789019605248,1.65794,-0.31452,0.24296,-0.08113,-0.03173,0.02828,0.99580,-0.18183,0.17304,-0.08369,
1629344789086276864,1.64518,-0.30443,0.23808,-0.08250,-0.03669,0.01610,0.99579,-0.20324,0.13804,0.09647,
1629344789152949248,1.63184,-0.29457,0.24449,-0.09322,-0.03579,0.01641,0.99487,-0.20053,0.15751,0.12967,
1629344789219621888,1.62300,-0.28374,0.25250,-0.09302,-0.01686,0.02718,0.99515,-0.17717,0.12440,0.05567,
1629344789286293248,1.61056,-0.28154,0.25169,-0.09876,-0.01327,0.02521,0.99470,-0.14813,0.02067,0.01027,
1629344789352965632,1.60193,-0.28332,0.24850,-0.10066,-0.01538,-0.00469,0.99479,-0.11957,-0.03668,-0.06435,
1629344789419637248,1.59360,-0.28736,0.24521,-0.10280,-0.01652,-0.01643,0.99443,-0.11266,-0.08793,0.00962,
1629344789486309632,1.58564,-0.29034,0.24853,-0.09967,-0.01807,-0.00378,0.99485,-0.14888,-0.00975,0.07519,
1629344789552981248,1.57770,-0.29548,0.24948,-0.10262,-0.01802,-0.00085,0.99456,-0.11443,-0.09229,-0.03310,
1629344789619653376,1.56643,-0.29579,0.24895,-0.10371,-0.01826,0.00042,0.99444,-0.15451,0.02824,0.00439,
1629344789686324736,1.55590,-0.29175,0.24550,-0.10164,-0.02444,0.00732,0.99449,-0.17513,0.09200,-0.07146,
1629344789752997632,1.54127,-0.28480,0.23973,-0.10168,-0.03257,0.01903,0.99410,-0.23339,0.15098,-0.10328,
1629344789819669248,1.52711,-0.27730,0.23175,-0.10375,-0.03857,0.01955,0.99366,-0.24936,0.09260,0.03143,
1629344789886341888,1.50694,-0.27139,0.23723,-0.11366,-0.04184,0.01570,0.99251,-0.22291,0.04879,0.12673,
1629344789953013504,1.49359,-0.26456,0.24481,-0.11386,-0.02632,0.02210,0.99290,-0.20525,0.00679,0.03895,
1629344790019685632,1.48120,-0.26949,0.24335,-0.11684,-0.02579,0.01912,0.99263,-0.18158,-0.09100,-0.01785,
1629344790086357248,1.46971,-0.27672,0.23905,-0.11719,-0.02950,-0.00708,0.99265,-0.15553,-0.17273,-0.10795,
1629344790153029888,1.45839,-0.28842,0.23353,-0.11935,-0.03293,-0.01722,0.99216,-0.18679,-0.23979,-0.06450,
1629344790219701760,1.44321,-0.30129,0.23175,-0.11172,-0.04078,-0.00937,0.99286,-0.21810,-0.17352,0.01350,
1629344790286374400,1.43070,-0.31618,0.23684,-0.11182,-0.03265,-0.01534,0.99307,-0.16291,-0.26055,0.05394,
1629344790353046016,1.41912,-0.32661,0.23948,-0.11259,-0.02104,-0.02013,0.99322,-0.18601,-0.12883,0.03758,
1629344790419718144,1.40704,-0.33284,0.23866,-0.11205,-0.01970,-0.01299,0.99342,-0.18149,-0.05823,-0.05688,
1629344790486390784,1.39428,-0.33356,0.23554,-0.11272,-0.02743,0.00081,0.99325,-0.18827,0.01296,-0.04904,
1629344790553062400,1.38142,-0.33280,0.23166,-0.11421,-0.02966,0.00194,0.99301,-0.17846,0.01254,0.08065,
1629344790619735040,1.36797,-0.33346,0.23988,-0.12531,-0.03706,0.00408,0.99142,-0.16948,0.01020,0.11954,
1629344790686406912,1.36078,-0.32922,0.24711,-0.12292,-0.02314,0.01087,0.99209,-0.16658,0.00784,0.02670,
1629344790753079296,1.34973,-0.33183,0.24615,-0.12274,-0.02382,0.00803,0.99212,-0.15706,-0.09210,-0.02892,
1629344790819750912,1.33958,-0.34281,0.24126,-0.12447,-0.02888,-0.00410,0.99179,-0.12661,-0.19101,-0.05558,
1629344790886423040,1.33056,-0.35573,0.23647,-0.12524,-0.03053,-0.00887,0.99162,-0.17214,-0.22476,-0.08040,
1629344790953094400,1.31937,-0.36935,0.23451,-0.12074,-0.03988,-0.00289,0.99188,-0.18395,-0.12297,0.10358,
1629344791019767040,1.30769,-0.38491,0.24577,-0.11968,-0.03063,-0.01586,0.99221,-0.13851,-0.24382,0.14471,
1629344791086438400,1.30108,-0.39676,0.25103,-0.12341,-0.01712,-0.02188,0.99197,-0.15921,-0.13626,0.04270,
1629344791153110784,1.28990,-0.40126,0.25135,-0.12037,-0.01881,-0.00748,0.99252,-0.15968,-0.03233,-0.00211,
1629344791219782400,1.27979,-0.40177,0.24779,-0.12093,-0.02731,0.00710,0.99226,-0.16646,0.03061,-0.00814,
1629344791286455040,1.26757,-0.40111,0.24676,-0.11926,-0.02621,0.00257,0.99251,-0.18397,0.03246,0.06283,
1629344791353126400,1.25696,-0.39967,0.25080,-0.13095,-0.03119,0.00283,0.99089,-0.15521,0.04882,0.11424,
1629344791419798784,1.25028,-0.39405,0.25743,-0.12799,-0.01966,0.01271,0.99150,-0.14444,0.06252,0.06219,
1629344791486470144,1.24080,-0.39606,0.25684,-0.12933,-0.01806,0.01438,0.99133,-0.13178,-0.03106,0.02154,
1629344791553142528,1.23265,-0.40268,0.25307,-0.13091,-0.02014,-0.00066,0.99119,-0.10129,-0.09841,-0.03155,
1629344791619813888,1.22488,-0.41135,0.24988,-0.13309,-0.02121,-0.00881,0.99084,-0.11147,-0.14581,0.01138,
1629344791686486528,1.21570,-0.42012,0.24771,-0.13213,-0.02555,-0.00350,0.99090,-0.16829,-0.07958,0.01288,
1629344791753157888,1.20679,-0.42686,0.25097,-0.12637,-0.02651,-0.00426,0.99162,-0.12148,-0.14522,0.07267,
1629344791819830784,1.19802,-0.43574,0.25162,-0.13000,-0.01828,-0.00925,0.99130,-0.15747,-0.06133,0.02078,
1629344791886502912,1.18689,-0.43611,0.24930,-0.12735,-0.01971,-0.00627,0.99164,-0.18879,0.03154,-0.05471,
1629344791953174528,1.17226,-0.43182,0.24240,-0.12498,-0.03007,0.00545,0.99169,-0.23166,0.16626,-0.10092,
1629344792019846912,1.15351,-0.41671,0.23211,-0.11038,-0.04141,0.01250,0.99295,-0.32678,0.29569,-0.18098,
1629344792086518528,1.13270,-0.39982,0.22550,-0.09592,-0.05275,0.00808,0.99396,-0.29090,0.14075,0.02123,
1629344792153191168,1.11357,-0.38597,0.23220,-0.08742,-0.04582,0.01548,0.99500,-0.27479,0.25156,0.18702,
1629344792219862528,1.09909,-0.36669,0.24166,-0.06575,-0.02267,0.02582,0.99724,-0.25718,0.21125,0.07802,
1629344792286535168,1.08372,-0.36457,0.23949,-0.05861,-0.02256,0.00802,0.99799,-0.22538,-0.05227,-0.07688,
1629344792353206528,1.06956,-0.37264,0.23367,-0.05959,-0.02855,-0.01951,0.99762,-0.20598,-0.10902,-0.06677,
1629344792419879168,1.05491,-0.38190,0.23039,-0.06018,-0.02433,-0.01007,0.99784,-0.23784,-0.16526,-0.04905,
1629344792486550528,1.04070,-0.38845,0.23200,-0.04912,-0.03185,-0.00161,0.99828,-0.19946,-0.10359,0.14351,
1629344792553223168,1.03192,-0.40104,0.23837,-0.05243,-0.01738,-0.01465,0.99837,-0.16907,-0.17733,0.05080,
1629344792619894528,1.01972,-0.40812,0.23965,-0.05534,-0.01350,-0.01482,0.99827,-0.18275,-0.02650,0.01026,
1629344792686567168,1.00559,-0.40619,0.23588,-0.05398,-0.02236,0.00102,0.99829,-0.19303,0.05185,-0.05706,
1629344792753238528,0.99126,-0.40181,0.23167,-0.05599,-0.03009,0.01017,0.99793,-0.22631,0.13851,-0.05483,
1629344792819911168,0.97363,-0.39392,0.22695,-0.05639,-0.03592,0.01050,0.99771,-0.27095,0.11640,-0.03929,
1629344792886582784,0.95559,-0.38409,0.23569,-0.06051,-0.03789,0.01112,0.99739,-0.23634,0.19987,0.17964,
1629344792953255168,0.94269,-0.36934,0.24415,-0.04724,-0.02049,0.02325,0.99840,-0.21431,0.18329,0.07124,
1629344793019926784,0.92850,-0.36215,0.24429,-0.03618,-0.01801,0.01572,0.99906,-0.20942,0.08232,-0.01804,
1629344793086599424,0.91477,-0.36222,0.24095,-0.02322,-0.02475,-0.01387,0.99933,-0.19180,-0.00351,-0.06707,
1629344793153271552,0.90060,-0.36444,0.23667,-0.01196,-0.02614,-0.01924,0.99940,-0.20720,-0.07610,-0.00521,
1629344793219943168,0.88413,-0.36809,0.23713,0.00234,-0.02952,-0.00224,0.99956,-0.21947,-0.03838,0.05623,
1629344793286615552,0.87036,-0.37602,0.24426,0.01368,-0.02093,-0.01231,0.99961,-0.18380,-0.13986,0.08821,
1629344793353287424,0.85864,-0.38234,0.24744,0.01408,-0.01126,-0.01759,0.99968,-0.18811,-0.05488,0.03254,
1629344793419960064,0.84651,-0.38101,0.24669,0.01617,-0.01435,-0.00970,0.99972,-0.18358,0.04491,-0.03456,
1629344793486631424,0.83322,-0.37549,0.24210,0.01371,-0.02364,0.00650,0.99961,-0.19893,0.11304,-0.07045,
1629344793553304064,0.81713,-0.36701,0.23695,0.01385,-0.03339,0.01193,0.99927,-0.25141,0.15864,-0.09591,
1629344793619975424,0.80002,-0.35889,0.24123,0.00322,-0.04271,0.00948,0.99904,-0.22694,0.11187,0.18456,
1629344793686647808,0.78672,-0.35191,0.24937,0.00524,-0.02899,0.01479,0.99946,-0.20396,0.11097,0.11863,
1629344793753319424,0.77262,-0.34695,0.25082,0.00716,-0.01932,0.02024,0.99958,-0.22849,0.02455,-0.02585,
1629344793819991808,0.75603,-0.35102,0.24536,0.00703,-0.02555,-0.00069,0.99965,-0.22616,-0.11961,-0.07743,
1629344793886663680,0.73885,-0.36032,0.23770,0.00744,-0.03186,-0.01754,0.99931,-0.25499,-0.18346,-0.09590,
1629344793953336064,0.71923,-0.37138,0.22968,0.01028,-0.03273,-0.00918,0.99937,-0.31702,-0.17220,-0.04805,
1629344794020007680,0.69869,-0.38184,0.23371,0.02045,-0.03919,-0.01079,0.99896,-0.25692,-0.21688,0.15428,
1629344794086680064,0.68411,-0.39478,0.24330,0.01906,-0.01799,-0.02784,0.99927,-0.22551,-0.15842,0.07216,
1629344794153351424,0.67069,-0.39919,0.24471,0.02163,-0.01346,-0.01972,0.99948,-0.19283,-0.00617,-0.02101,
1629344794220024064,0.65857,-0.39269,0.24132,0.02548,-0.02130,0.01232,0.99937,-0.16389,0.08560,-0.05246,
1629344794286695424,0.64571,-0.38599,0.23829,0.02660,-0.02498,0.01600,0.99921,-0.18434,0.12787,-0.02150,
1629344794353368320,0.63297,-0.37780,0.23709,0.02508,-0.03176,0.00386,0.99917,-0.19152,0.06693,0.06751,
1629344794420039936,0.62052,-0.36862,0.24625,0.01973,-0.02431,0.00713,0.99948,-0.16370,0.17881,0.14722,
1629344794486712320,0.61145,-0.35722,0.25044,0.02573,-0.00995,0.01943,0.99943,-0.16420,0.11136,0.02202,
1629344794553384704,0.60194,-0.35467,0.24862,0.02489,-0.01045,0.01371,0.99954,-0.15553,-0.02811,-0.03223,
1629344794620056064,0.59145,-0.36035,0.24525,0.02395,-0.01784,-0.00975,0.99951,-0.14902,-0.09023,-0.08874,
1629344794686728704,0.58069,-0.36728,0.24015,0.02346,-0.01954,-0.01226,0.99946,-0.17299,-0.14292,-0.03692,
1629344794753400064,0.56790,-0.37477,0.23862,0.02478,-0.02494,-0.00255,0.99938,-0.19840,-0.06353,0.04344,
1629344794820072448,0.55506,-0.38153,0.24460,0.03121,-0.01975,-0.00827,0.99928,-0.17149,-0.13684,0.07910,
1629344794886743808,0.54480,-0.38823,0.24569,0.02777,-0.01350,-0.01512,0.99941,-0.15703,-0.04892,0.00711,
1629344794953416704,0.53598,-0.38715,0.24468,0.03157,-0.01402,-0.01159,0.99934,-0.13740,0.04456,-0.04688,
1629344795020088064,0.52787,-0.38130,0.24152,0.03271,-0.01932,-0.00149,0.99928,-0.11926,0.12336,-0.06559,
1629344795086760192,0.51966,-0.36930,0.23614,0.03891,-0.02536,0.00646,0.99890,-0.14371,0.23066,-0.11470,
1629344795153431552,0.51119,-0.35730,0.23459,0.04348,-0.03344,0.01323,0.99841,-0.13106,0.09434,0.06325,
1629344795220103936,0.50380,-0.34230,0.24415,0.05202,-0.02768,0.01832,0.99809,-0.08911,0.26543,0.16885,
1629344795286775296,0.49996,-0.32589,0.24981,0.06806,-0.01407,0.02345,0.99731,-0.09838,0.19044,0.05411,
1629344795353447680,0.49417,-0.31776,0.25222,0.08025,-0.01674,0.00805,0.99660,-0.08627,0.13065,0.00458,
1629344795420119040,0.48817,-0.31234,0.25157,0.09558,-0.02235,-0.00974,0.99512,-0.07461,0.06446,0.01885,
1629344795486791680,0.48450,-0.30728,0.25272,0.10699,-0.01624,-0.00302,0.99412,-0.07883,0.05265,0.05994,
1629344795553463040,0.47905,-0.30729,0.25237,0.11306,-0.01752,0.00712,0.99341,-0.09455,-0.03831,0.09967,
1629344795620135424,0.47270,-0.31114,0.25537,0.11113,-0.01380,-0.00537,0.99370,-0.10434,-0.04445,0.00175,
1629344795686806784,0.46890,-0.30994,0.25337,0.11370,-0.01258,-0.00663,0.99341,-0.07734,0.09995,0.01456,
1629344795753479168,0.46379,-0.30405,0.25048,0.11735,-0.01737,0.00182,0.99294,-0.06819,0.12688,-0.06843,
1629344795820151552,0.45968,-0.29521,0.24600,0.11793,-0.02200,0.01057,0.99272,-0.06455,0.21904,-0.04729,
1629344795886822912,0.45365,-0.28135,0.23938,0.11970,-0.03154,0.01731,0.99216,-0.12638,0.21630,-0.11156,
1629344795953495552,0.44660,-0.27029,0.24254,0.11298,-0.03463,0.01903,0.99281,-0.09914,0.19892,0.19004,
1629344796020166912,0.44304,-0.25821,0.25111,0.11787,-0.01637,0.02140,0.99266,-0.08138,0.15865,0.07908,
1629344796086839552,0.43530,-0.25220,0.25228,0.11746,-0.00959,0.02570,0.99270,-0.09753,0.09001,0.01695,
1629344796153510912,0.43049,-0.24886,0.25065,0.11697,-0.01312,0.00769,0.99302,-0.07738,0.01638,-0.05594,
1629344796220183296,0.42571,-0.25051,0.24612,0.11765,-0.02099,-0.01489,0.99272,-0.07915,-0.03574,-0.02891,
1629344796286854656,0.42095,-0.25058,0.24615,0.11565,-0.01521,-0.00548,0.99316,-0.09904,-0.03451,0.00874,
1629344796353527040,0.41501,-0.25074,0.24880,0.12003,-0.01829,-0.00075,0.99260,-0.10753,-0.04975,0.03411,
1629344796420198400,0.41002,-0.25341,0.24833,0.11811,-0.01466,-0.00120,0.99289,-0.09458,0.01449,-0.02767,
1629344796486871040,0.40509,-0.24881,0.24677,0.12200,-0.01589,0.00170,0.99240,-0.07661,0.08424,-0.02065,
1629344796553542400,0.40104,-0.24255,0.24376,0.12214,-0.02007,0.00992,0.99226,-0.06254,0.13859,-0.05323,
1629344796620215040,0.39674,-0.23092,0.23923,0.12340,-0.02555,0.01988,0.99183,-0.09412,0.19220,-0.08973,
1629344796686886656,0.38828,-0.21717,0.23197,0.12354,-0.03388,0.02157,0.99153,-0.12341,0.19381,0.00364,
1629344796753558784,0.38121,-0.20659,0.23698,0.11885,-0.03609,0.02228,0.99201,-0.10103,0.18814,0.13069,
1629344796820230144,0.37641,-0.19489,0.24297,0.12187,-0.01807,0.02609,0.99204,-0.10466,0.15662,0.01552,
1629344796886902528,0.37018,-0.18804,0.24551,0.11885,-0.01299,0.02678,0.99247,-0.09429,0.09214,0.01893,
1629344796953573888,0.36481,-0.18476,0.24390,0.11991,-0.01816,0.00206,0.99262,-0.07590,0.03089,-0.04517,
1629344797020246272,0.35984,-0.18410,0.24296,0.11871,-0.02091,-0.00981,0.99266,-0.07534,-0.00056,0.03214,
1629344797086917888,0.35586,-0.18182,0.24528,0.11812,-0.01393,0.00310,0.99290,-0.10816,0.04995,-0.02600,
1629344797153590528,0.34936,-0.18125,0.24774,0.12212,-0.01620,0.00368,0.99238,-0.11266,-0.02135,0.01800,
1629344797220262656,0.34199,-0.18172,0.24609,0.11854,-0.01567,0.00335,0.99282,-0.10956,0.05159,-0.00563,
1629344797286934016,0.33505,-0.17396,0.24359,0.12052,-0.02012,0.01125,0.99244,-0.10905,0.13394,-0.06878,
1629344797353606400,0.32816,-0.16308,0.23789,0.12066,-0.02736,0.02370,0.99203,-0.11254,0.20578,-0.07174,
1629344797420277760,0.31959,-0.14696,0.22959,0.12016,-0.03615,0.02826,0.99169,-0.17325,0.26933,-0.13912,
1629344797486950144,0.30864,-0.13216,0.22472,0.11720,-0.04578,0.02376,0.99177,-0.19613,0.21376,0.06308,
1629344797553621760,0.29670,-0.11665,0.23293,0.11056,-0.03824,0.02713,0.99276,-0.16090,0.27243,0.18897,
1629344797620294144,0.28777,-0.09974,0.24423,0.11461,-0.01175,0.03124,0.99285,-0.15687,0.19875,0.11580,
1629344797686965504,0.27774,-0.08944,0.24482,0.11572,-0.00901,0.02266,0.99298,-0.15338,0.11418,-0.02159,
1629344797753638144,0.26931,-0.08527,0.24306,0.11718,-0.01378,-0.00743,0.99299,-0.14028,0.02774,-0.05158,
1629344797820309504,0.25905,-0.08272,0.24137,0.11646,-0.01182,-0.01007,0.99307,-0.14343,-0.00889,0.01939,
1629344797886981888,0.24828,-0.08110,0.24108,0.11822,-0.01168,0.00041,0.99292,-0.16242,0.03177,0.01992,
1629344797953653248,0.23748,-0.08232,0.24335,0.12037,-0.01230,-0.00129,0.99265,-0.16536,-0.04552,-0.02574,
1629344798020325632,0.22744,-0.08171,0.24241,0.12023,-0.01006,-0.00071,0.99269,-0.13581,0.07451,0.00688,
1629344798086996992,0.21848,-0.07552,0.24000,0.12376,-0.01341,0.00310,0.99222,-0.13363,0.11021,-0.05837,
1629344798153669632,0.20986,-0.06614,0.23506,0.12326,-0.02013,0.01335,0.99208,-0.12705,0.19125,-0.08306,
1629344798220340992,0.19984,-0.05109,0.22771,0.12338,-0.02796,0.02685,0.99160,-0.16688,0.26250,-0.14105,
1629344798287013632,0.18764,-0.03742,0.22572,0.11811,-0.03674,0.02996,0.99187,-0.19082,0.15605,0.06453,
1629344798353684992,0.17705,-0.02407,0.23452,0.11748,-0.03091,0.02316,0.99232,-0.14141,0.21653,0.15359,
1629344798420357376,0.16875,-0.01229,0.24020,0.11937,-0.01421,0.02340,0.99247,-0.16118,0.15668,0.00053,
1629344798487029760,0.15857,-0.00647,0.24048,0.11884,-0.01241,0.01965,0.99264,-0.15212,0.06054,-0.00338,
1629344798553701120,0.14830,-0.00699,0.23660,0.12018,-0.01785,-0.00275,0.99259,-0.16229,-0.03164,-0.07407,
1629344798620373504,0.13595,-0.01029,0.23352,0.11933,-0.02020,-0.00816,0.99262,-0.19373,-0.07208,-0.03558,
1629344798687044864,0.12174,-0.01259,0.23200,0.12265,-0.02568,-0.00286,0.99211,-0.18353,0.00487,0.03189,
1629344798753717504,0.10962,-0.01567,0.23523,0.12734,-0.02230,-0.00446,0.99160,-0.17633,-0.08742,0.02891,
1629344798820389120,0.09897,-0.02000,0.23585,0.12805,-0.01477,-0.01117,0.99160,-0.14731,-0.00234,0.05765,
1629344798887061504,0.08939,-0.01935,0.23708,0.13134,-0.01143,-0.01461,0.99116,-0.13175,0.01933,-0.02311,
1629344798953732864,0.08084,-0.01499,0.23462,0.13265,-0.01503,-0.00251,0.99105,-0.08829,0.11252,-0.02681,
1629344799020405504,0.07449,-0.00713,0.23128,0.13528,-0.01924,0.00802,0.99059,-0.09314,0.15534,-0.04459,
1629344799087076864,0.06682,0.00146,0.22891,0.13508,-0.02401,0.01001,0.99049,-0.13452,0.09764,-0.00991,
1629344799153749504,0.05858,0.00770,0.23458,0.12653,-0.02507,0.01071,0.99159,-0.10164,0.13411,0.07685,
1629344799220420864,0.05394,0.01495,0.23659,0.13050,-0.01334,0.01492,0.99125,-0.12232,0.09098,0.00440,
1629344799287093504,0.04481,0.01599,0.23554,0.12966,-0.01556,0.01140,0.99137,-0.16491,-0.00903,-0.04221,
1629344799353765120,0.03269,0.01112,0.23074,0.12856,-0.02334,0.00050,0.99143,-0.18977,-0.10088,-0.07260,
1629344799420437504,0.01812,0.00321,0.22477,0.12769,-0.03055,-0.00816,0.99131,-0.25294,-0.14022,-0.10156,
1629344799487108864,-0.00170,-0.00544,0.21572,0.12919,-0.04018,-0.00307,0.99080,-0.30843,-0.14229,-0.05731,
1629344799553781504,-0.02034,-0.01380,0.21703,0.13977,-0.04508,-0.00774,0.98913,-0.24586,-0.11360,0.16837,
1629344799620452864,-0.03642,-0.02425,0.22563,0.13709,-0.02920,-0.02665,0.98977,-0.21966,-0.14892,0.11316,
1629344799687125504,-0.04848,-0.03075,0.22944,0.14045,-0.01692,-0.02574,0.98961,-0.16721,-0.04950,0.04816,
1629344799753797376,-0.05841,-0.03403,0.22793,0.14100,-0.01553,0.00362,0.98988,-0.12464,-0.03906,-0.01751,
1629344799820470272,-0.06618,-0.03624,0.22665,0.13909,-0.01525,0.01616,0.99003,-0.09919,0.00355,0.02971,
1629344799887143168,-0.07263,-0.03824,0.22933,0.14272,-0.00785,-0.00213,0.98973,-0.10031,0.00192,0.02431,
1629344799953815296,-0.07982,-0.03946,0.22981,0.13469,-0.01485,-0.00484,0.99076,-0.08824,-0.04276,0.09544,
1629344800020487936,-0.08591,-0.03867,0.23216,0.13558,-0.01028,0.00086,0.99071,-0.08143,0.05337,-0.00912,
1629344800087159808,-0.09436,-0.03963,0.22993,0.13633,-0.00722,0.00445,0.99063,-0.15761,-0.08399,-0.03974,
1629344800153832960,-0.10691,-0.04825,0.22279,0.13387,-0.02239,-0.01118,0.99068,-0.19792,-0.14670,-0.13648,
1629344800220505088,-0.12278,-0.05960,0.21343,0.13343,-0.03685,-0.02542,0.99005,-0.27007,-0.21616,-0.12506,
1629344800287177728,-0.14386,-0.07122,0.20405,0.13608,-0.04175,-0.00639,0.98980,-0.36509,-0.19239,-0.17064,
1629344800353849856,-0.16820,-0.08149,0.19798,0.14703,-0.04945,0.00390,0.98789,-0.31745,-0.12331,0.11616,
1629344800420522752,-0.19119,-0.09632,0.20954,0.15193,-0.03425,-0.02598,0.98746,-0.32923,-0.28335,0.22621,
1629344800487194624,-0.20843,-0.11424,0.22074,0.14403,-0.01002,-0.04508,0.98850,-0.25939,-0.16818,0.07802,
1629344800553867520,-0.22340,-0.11784,0.22062,0.14476,-0.00777,-0.00658,0.98941,-0.20735,-0.05977,-0.06990,
1629344800620539648,-0.23806,-0.11953,0.21636,0.13635,-0.01319,0.03351,0.99001,-0.20114,-0.07135,-0.03691,
1629344800687212800,-0.24882,-0.12360,0.21957,0.13711,-0.00846,0.00475,0.99051,-0.18208,0.00373,0.09619,
1629344800753884160,-0.26090,-0.12555,0.22230,0.13614,-0.01287,-0.02723,0.99023,-0.20394,-0.00922,-0.00217,
1629344800820556544,-0.27314,-0.12290,0.22626,0.13152,-0.01036,-0.01107,0.99120,-0.15889,0.09256,0.03099,
1629344800887227904,-0.27973,-0.11718,0.22724,0.13406,-0.00144,0.00928,0.99093,-0.18770,-0.00498,-0.01475,
1629344800953900288,-0.29657,-0.12246,0.22153,0.13228,-0.01276,-0.00402,0.99112,-0.25757,-0.09785,-0.14634,
1629344801020571904,-0.31739,-0.13396,0.21027,0.13043,-0.03339,-0.02631,0.99055,-0.30912,-0.21742,-0.16032,
1629344801087244288,-0.34018,-0.14525,0.20105,0.13178,-0.03685,-0.01562,0.99047,-0.39036,-0.17747,-0.15258,
1629344801153916928,-0.36934,-0.15741,0.19028,0.13712,-0.04484,0.01021,0.98949,-0.43526,-0.19654,-0.07427,
1629344801220588544,-0.39637,-0.16916,0.19919,0.14640,-0.04306,-0.00920,0.98824,-0.35619,-0.17318,0.29496,
1629344801287260672,-0.41146,-0.18291,0.21752,0.14705,-0.01193,-0.01382,0.98896,-0.28023,-0.11849,0.13454,
1629344801353932032,-0.42676,-0.18706,0.21949,0.14870,-0.01390,-0.01755,0.98863,-0.19624,-0.02763,0.05195,
1629344801420604672,-0.43701,-0.18551,0.22095,0.15251,-0.01670,-0.02043,0.98795,-0.10365,0.06179,0.03100,
1629344801487276032,-0.44167,-0.18055,0.21674,0.15355,-0.01927,-0.01793,0.98779,-0.03738,0.07615,-0.00358,
1629344801553948416,-0.44653,-0.17746,0.21230,0.15157,-0.02083,-0.01393,0.98813,0.00052,0.05391,0.00359,
1629344801620620032,-0.44876,-0.17519,0.21164,0.15110,-0.02071,-0.01166,0.98823,0.01780,0.01382,0.01086,
1629344801687292672,-0.44850,-0.17555,0.21189,0.15094,-0.01998,-0.01194,0.98827,0.01890,-0.02888,0.01026,
1629344801753964032,-0.44812,-0.17702,0.21231,0.15135,-0.01900,-0.01337,0.98821,0.01134,-0.01500,0.00838,
1629344801820636160,-0.44781,-0.17748,0.21240,0.15191,-0.01857,-0.01404,0.98812,-0.00299,0.00585,0.00073,
1629344801887307520,-0.44812,-0.17675,0.21212,0.15164,-0.01897,-0.01327,0.98816,-0.01156,0.02329,-0.00533,
1629344801953980160,-0.44854,-0.17594,0.21182,0.15138,-0.01951,-0.01238,0.98820,-0.01056,0.00957,-0.00107,
1629344802020651520,-0.44851,-0.17611,0.21181,0.15138,-0.01947,-0.01250,0.98820,-0.00212,-0.00421,0.00381,
1629344802087323904,-0.44808,-0.17671,0.21212,0.15151,-0.01906,-0.01312,0.98818,-0.00245,-0.00387,0.00532,
1629344802153995264,-0.44795,-0.17680,0.21215,0.15161,-0.01886,-0.01337,0.98817,-0.00985,0.00771,0.00051,
1629344802220667904,-0.44812,-0.17644,0.21189,0.15148,-0.01905,-0.01301,0.98819,-0.01154,0.01294,-0.00126,
1629344802287339264,-0.44820,-0.17618,0.21181,0.15141,-0.01924,-0.01270,0.98820,-0.00911,0.00598,0.00181,
1629344802354011648,-0.44810,-0.17631,0.21190,0.15144,-0.01911,-0.01283,0.98820,-0.00711,0.00031,0.00376,
1629344802420683008,-0.44795,-0.17660,0.21197,0.15152,-0.01893,-0.01316,0.98819,-0.00934,0.00356,0.00296,
1629344802487355136,-0.44794,-0.17654,0.21185,0.15153,-0.01885,-0.01317,0.98818,-0.01058,0.00886,0.00156,
1629344802554027520,-0.44800,-0.17628,0.21176,0.15146,-0.01897,-0.01296,0.98820,-0.01047,0.00920,0.00193,
1629344802620698880,-0.44793,-0.17626,0.21175,0.15147,-0.01901,-0.01293,0.98820,-0.01066,0.00502,0.00301,
1629344802687371520,-0.44794,-0.17639,0.21167,0.15148,-0.01885,-0.01309,0.98819,-0.00824,0.00371,0.00389,
1629344802754042880,-0.44789,-0.17646,0.21177,0.15149,-0.01881,-0.01317,0.98819,-0.01068,0.00615,0.00346,
1629344802820715520,-0.44793,-0.17634,0.21173,0.15148,-0.01882,-0.01310,0.98820,-0.01174,0.00824,0.00274,
1629344802887386880,-0.44789,-0.17621,0.21166,0.15146,-0.01884,-0.01300,0.98820,-0.01097,0.00740,0.00320,
1629344802954059008,-0.44789,-0.17620,0.21168,0.15145,-0.01884,-0.01307,0.98820,-0.01122,0.00490,0.00425,
1629344803020730368,-0.44794,-0.17625,0.21163,0.15147,-0.01872,-0.01315,0.98820,-0.01028,0.00547,0.00385,
1629344803087402752,-0.44789,-0.17629,0.21160,0.15146,-0.01869,-0.01316,0.98820,-0.00990,0.00751,0.00376,
1629344803154074112,-0.44787,-0.17630,0.21157,0.15145,-0.01870,-0.01309,0.98820,-0.01090,0.00746,0.00405,
1629344803220746496,-0.44780,-0.17609,0.21170,0.15141,-0.01873,-0.01310,0.98821,-0.01191,0.00646,0.00423,
1629344803287417856,-0.44777,-0.17601,0.21180,0.15140,-0.01870,-0.01314,0.98821,-0.01159,0.00636,0.00514,
1629344803354090240,-0.44758,-0.17611,0.21231,0.15139,-0.01873,-0.01308,0.98821,-0.01213,0.00889,0.00478,
1629344803420761856,-0.44755,-0.17611,0.21226,0.15139,-0.01870,-0.01308,0.98821,-0.01202,0.00882,0.00452,
1629344803487434240,-0.44754,-0.17605,0.21221,0.15138,-0.01869,-0.01306,0.98821,-0.01111,0.00865,0.00470,
1629344803554105600,-0.44757,-0.17606,0.21212,0.15138,-0.01861,-0.01309,0.98821,-0.01061,0.00647,0.00556,
1629344803620777728,-0.44753,-0.17612,0.21214,0.15139,-0.01861,-0.01312,0.98821,-0.01171,0.00657,0.00484,
1629344803687449344,-0.44752,-0.17605,0.21207,0.15136,-0.01857,-0.01307,0.98822,-0.01037,0.00801,0.00451,
1629344803754121472,-0.44750,-0.17605,0.21216,0.15137,-0.01861,-0.01308,0.98822,-0.01254,0.00778,0.00506,
1629344803820793856,-0.44749,-0.17606,0.21207,0.15137,-0.01856,-0.01308,0.98822,-0.01123,0.00760,0.00522,
1629344803887465216,-0.44748,-0.17611,0.21195,0.15138,-0.01849,-0.01314,0.98821,-0.01057,0.00685,0.00509,
1629344803954137856,-0.44740,-0.17611,0.21206,0.15138,-0.01854,-0.01308,0.98821,-0.01198,0.00782,0.00590,
1629344804020809216,-0.44742,-0.17605,0.21203,0.15136,-0.01852,-0.01308,0.98822,-0.01106,0.00824,0.00589,
