1629344763017636608,-0.00044,-0.00003,-0.00019,0.99999,-0.00184,0.00300,-0.00001,-0.00090,-0.00030,-0.00038,
1629344763084306176,-0.00033,0.00000,-0.00017,0.99999,-0.00193,0.00312,-0.00006,-0.00072,0.00001,-0.00011,
1629344763150974208,-0.00001,0.00018,-0.00005,0.99999,-0.00181,0.00308,-0.00015,0.00024,0.00048,0.00013,
1629344763217643776,-0.00023,0.00009,-0.00003,0.99999,-0.00185,0.00316,-0.00015,0.00011,-0.00048,0.00034,
1629344763284312320,-0.00034,-0.00002,-0.00013,0.99999,-0.00189,0.00320,-0.00016,-0.00005,0.00045,0.00024,
1629344763350981376,-0.00033,0.00000,-0.00014,0.99999,-0.00187,0.00318,-0.00024,-0.00031,-0.00051,-0.00019,
1629344763417649664,-0.00029,0.00002,-0.00015,0.99999,-0.00182,0.00316,-0.00023,0.00102,0.00025,0.00007,
1629344763484318720,-0.00018,0.00008,-0.00009,0.99999,-0.00180,0.00313,-0.00023,-0.00021,-0.00055,0.00000,
1629344763550987008,-0.00019,0.00007,-0.00009,0.99999,-0.00177,0.00316,-0.00011,-0.00067,0.00077,0.00008,
1629344763617656320,-0.00039,-0.00006,-0.00002,0.99999,-0.00217,0.00351,0.00000,0.00274,0.00133,0.02535,
1629344763684324352,-0.00042,0.00009,0.00244,0.99999,-0.00321,0.00272,-0.00018,0.00236,-0.00947,0.04093,
1629344763750993920,-0.00020,-0.00063,0.00500,1.00000,-0.00114,0.00207,-0.00051,-0.00123,-0.01138,0.05399,
1629344763817663744,-0.00019,-0.00105,0.00804,1.00000,0.00217,0.00059,-0.00049,0.00138,-0.00893,0.04950,
1629344763884332288,-0.00003,-0.00151,0.01176,1.00000,0.00281,-0.00019,-0.00093,0.00564,0.00865,0.03541,
1629344763951001856,0.00034,-0.00173,0.01436,1.00000,0.00155,-0.00014,-0.00083,0.00760,0.00238,0.03144,
1629344764017670400,0.00111,-0.00136,0.01637,1.00000,0.00053,0.00017,-0.00076,0.00898,0.00747,0.02656,
1629344764084339968,0.00169,-0.00068,0.01833,1.00000,-0.00107,0.00043,-0.00060,0.00466,0.00365,0.03035,
1629344764151008512,0.00212,-0.00013,0.02047,1.00000,-0.00189,0.00007,-0.00059,0.00365,0.00786,0.03180,
1629344764217678080,0.00282,0.00067,0.02219,1.00000,-0.00268,0.00003,-0.00027,0.01264,-0.00238,0.01907,
1629344764284346112,0.00391,0.00021,0.02362,1.00000,-0.00158,0.00133,-0.00056,0.01436,-0.01655,0.03364,
1629344764351015680,0.00461,-0.00128,0.02591,1.00000,-0.00001,0.00198,-0.00110,0.00668,-0.02266,0.05106,
1629344764417683712,0.00593,-0.00192,0.02942,1.00000,0.00074,0.00199,-0.00229,0.00996,-0.01234,0.05496,
1629344764484353280,0.00710,-0.00220,0.03334,0.99999,0.00072,0.00169,-0.00267,0.01311,-0.00148,0.06117,
1629344764551021568,0.00849,-0.00198,0.03831,0.99999,-0.00126,0.00149,-0.00300,0.01288,-0.00256,0.05794,
1629344764617690368,0.00924,-0.00212,0.04199,0.99999,-0.00074,0.00150,-0.00309,0.01204,-0.00288,0.03516,
1629344764684358656,0.00951,-0.00193,0.04450,0.99999,-0.00049,0.00131,-0.00296,0.00432,0.01099,0.03285,
1629344764751028480,0.00983,-0.00177,0.04747,1.00000,-0.00054,0.00039,-0.00245,0.00530,0.00654,0.04004,
1629344764817697280,0.00869,-0.00208,0.04993,1.00000,-0.00101,-0.00054,-0.00231,-0.00055,0.00414,0.04365,
1629344764884367104,0.00852,-0.00187,0.05296,1.00000,-0.00095,-0.00177,-0.00218,0.00450,0.00085,0.03859,
1629344764951035904,0.00859,-0.00177,0.05547,0.99999,-0.00054,-0.00253,-0.00214,0.00929,0.00289,0.02966,
1629344765017705728,0.00903,-0.00176,0.05731,0.99999,-0.00117,-0.00302,-0.00217,0.01098,0.00602,0.02943,
1629344765084374272,0.00948,-0.00145,0.05951,0.99999,-0.00196,-0.00348,-0.00193,0.01738,0.01100,0.03662,
1629344765151043840,0.01047,-0.00149,0.06223,0.99999,-0.00194,-0.00324,-0.00167,0.02060,0.00324,0.04637,
1629344765217713664,0.01192,-0.00132,0.06515,0.99999,-0.00184,-0.00245,-0.00094,0.02471,0.00506,0.05014,
1629344765284382208,0.01355,-0.00062,0.06834,0.99999,-0.00351,-0.00151,-0.00081,0.02234,0.02224,0.04839,
1629344765351051520,0.01452,0.00088,0.07177,0.99998,-0.00635,-0.00115,0.00011,0.01410,0.02022,0.04834,
1629344765417720064,0.01592,0.00251,0.07479,0.99997,-0.00813,-0.00091,0.00071,0.00794,0.00497,0.04995,
1629344765484389376,0.01678,0.00297,0.07745,0.99996,-0.00868,-0.00089,0.00081,0.01199,-0.00440,0.03280,
1629344765551057920,0.01745,0.00273,0.07966,0.99997,-0.00812,-0.00090,0.00051,0.00973,-0.00941,0.02627,
1629344765617726976,0.01805,0.00226,0.08159,0.99997,-0.00727,-0.00075,0.00035,0.00826,-0.00984,0.03517,
1629344765684395520,0.01855,0.00176,0.08393,0.99997,-0.00722,-0.00148,-0.00017,0.00041,-0.00460,0.04150,
1629344765751065088,0.01852,0.00123,0.08759,0.99997,-0.00781,-0.00183,-0.00041,0.00691,-0.00476,0.04114,
1629344765817733376,0.01933,0.00097,0.09039,0.99998,-0.00662,-0.00159,-0.00011,0.01689,-0.00655,0.04408,
1629344765884402688,0.02078,0.00058,0.09298,0.99998,-0.00605,-0.00094,-0.00031,0.02565,-0.00793,0.03488,
1629344765951070976,0.02220,0.00062,0.09561,0.99997,-0.00725,-0.00114,-0.00052,0.02768,0.00949,0.02840,
1629344766017740544,0.02352,0.00161,0.09772,0.99996,-0.00938,-0.00091,-0.00064,0.02430,0.02366,0.02131,
1629344766084408832,0.02513,0.00327,0.09923,0.99994,-0.01113,0.00023,-0.00039,0.02436,0.01956,0.02762,
1629344766151077888,0.02668,0.00482,0.10084,0.99992,-0.01260,0.00125,-0.00018,0.02069,0.01656,0.03007,
1629344766217745920,0.02842,0.00590,0.10268,0.99991,-0.01354,0.00219,-0.00048,0.00974,0.00641,0.04988,
1629344766284414976,0.02913,0.00628,0.10574,0.99991,-0.01328,0.00165,-0.00045,-0.00049,-0.01206,0.05624,
1629344766351083264,0.02885,0.00526,0.10974,0.99994,-0.01133,0.00080,-0.00069,-0.00328,-0.01728,0.05518,
1629344766417752320,0.02856,0.00386,0.11382,0.99996,-0.00865,-0.00025,-0.00107,-0.00923,-0.02652,0.06838,
1629344766484421376,0.02747,0.00179,0.11752,0.99997,-0.00672,-0.00225,-0.00227,-0.00590,-0.02156,0.02751,
1629344766551088896,0.02684,0.00143,0.12063,0.99997,-0.00647,-0.00363,-0.00265,-0.00199,-0.00840,0.02925,
1629344766617757696,0.02615,0.00077,0.12181,0.99996,-0.00676,-0.00526,-0.00264,-0.00541,0.00480,0.03514,
1629344766684425472,0.02491,0.00123,0.12422,0.99994,-0.00842,-0.00721,-0.00198,-0.01003,0.01666,0.04702,
1629344766751096576,0.02380,0.00263,0.12702,0.99989,-0.01044,-0.01016,-0.00196,0.00052,0.02043,0.02298,
1629344766817766400,0.02324,0.00416,0.12904,0.99986,-0.01230,-0.01142,-0.00186,0.00627,0.01903,0.02749,
1629344766884437504,0.02319,0.00512,0.13101,0.99984,-0.01303,-0.01196,-0.00171,0.00614,-0.00035,0.04318,
1629344766951107584,0.02343,0.00479,0.13398,0.99984,-0.01227,-0.01263,-0.00208,0.01722,-0.02018,0.05524,
1629344767017778432,0.02455,0.00367,0.13750,0.99987,-0.01080,-0.01166,-0.00265,0.02347,-0.01911,0.05519,
1629344767084448256,0.02627,0.00225,0.14132,0.99989,-0.00958,-0.01058,-0.00372,0.03102,-0.01878,0.05766,
1629344767151119104,0.02840,0.00101,0.14480,0.99991,-0.00904,-0.00903,-0.00350,0.02654,-0.00991,0.04627,
1629344767217788928,0.02995,0.00047,0.14842,0.99992,-0.00828,-0.00847,-0.00416,0.01880,-0.01897,0.03593,
1629344767284459776,0.03067,-0.00055,0.15075,0.99991,-0.00802,-0.00905,-0.00488,0.01205,-0.00411,0.02028,
1629344767351129600,0.03066,-0.00088,0.15230,0.99991,-0.00799,-0.00960,-0.00472,0.00582,0.00342,0.01527,
1629344767417800448,0.03099,-0.00037,0.15332,0.99991,-0.00892,-0.00906,-0.00466,-0.00488,0.01397,0.02436,
1629344767484470016,0.03100,0.00115,0.15505,0.99989,-0.01079,-0.00918,-0.00487,-0.01673,0.01838,0.04210,
1629344767551141120,0.02994,0.00238,0.15787,0.99986,-0.01189,-0.01079,-0.00468,-0.01557,0.00921,0.04390,
1629344767617810688,0.02852,0.00286,0.16142,0.99984,-0.01235,-0.01186,-0.00453,-0.01165,0.00631,0.04460,
1629344767684481536,0.02763,0.00338,0.16440,0.99984,-0.01256,-0.01226,-0.00418,-0.01013,0.00371,0.04318,
1629344767751152640,0.02722,0.00354,0.16724,0.99983,-0.01161,-0.01350,-0.00397,-0.01016,-0.00310,0.04835,
1629344767817824512,0.02623,0.00309,0.17037,0.99982,-0.01089,-0.01514,-0.00346,-0.00127,-0.01463,0.03558,
1629344767884496896,0.02602,0.00207,0.17346,0.99984,-0.00919,-0.01478,-0.00362,0.00123,-0.01644,0.04255,
1629344767951167744,0.02718,0.00123,0.17682,0.99986,-0.00721,-0.01451,-0.00410,0.01465,-0.00999,0.03663,
1629344768017839872,0.02778,0.00072,0.17947,0.99988,-0.00675,-0.01374,-0.00357,0.02020,-0.00098,0.03668,
1629344768084510976,0.02946,0.00129,0.18182,0.99989,-0.00787,-0.01226,-0.00413,0.02131,0.01191,0.03451,
1629344768151183104,0.03073,0.00218,0.18405,0.99988,-0.00891,-0.01222,-0.00375,0.01883,0.01462,0.03627,
1629344768217853952,0.03155,0.00291,0.18643,0.99987,-0.00981,-0.01256,-0.00310,0.01476,0.01198,0.03339,
1629344768284526080,0.03223,0.00379,0.18837,0.99986,-0.01135,-0.01223,-0.00322,0.01179,0.01023,0.02055,
1629344768351197184,0.03309,0.00444,0.18947,0.99985,-0.01246,-0.01163,-0.00333,0.00830,0.01007,0.03158,
1629344768417869312,0.03391,0.00507,0.19143,0.99983,-0.01325,-0.01201,-0.00334,0.00352,0.00542,0.04889,
1629344768484540416,0.03379,0.00515,0.19503,0.99982,-0.01321,-0.01299,-0.00282,0.00550,-0.00017,0.04979,
1629344768551212800,0.03446,0.00498,0.19850,0.99984,-0.01241,-0.01244,-0.00335,0.00636,-0.00703,0.05273,
1629344768617883904,0.03517,0.00464,0.20166,0.99984,-0.01181,-0.01295,-0.00353,0.00890,-0.00736,0.03923,
1629344768684556288,0.03562,0.00399,0.20438,0.99985,-0.01080,-0.01313,-0.00405,0.00789,-0.01141,0.02037,
1629344768751227648,0.03591,0.00309,0.20534,0.99987,-0.00967,-0.01251,-0.00431,-0.00164,-0.01321,0.00433,
1629344768817900032,0.03580,0.00241,0.20535,0.99987,-0.00896,-0.01252,-0.00457,-0.00999,-0.00776,0.00608,
1629344768884571392,0.03500,0.00209,0.20541,0.99987,-0.00854,-0.01270,-0.00472,-0.01501,0.00041,0.00033,
1629344768951243776,0.03400,0.00234,0.20556,0.99987,-0.00854,-0.01274,-0.00471,-0.01785,0.00286,0.00351,
1629344769017915136,0.03201,0.00187,0.20593,0.99987,-0.00895,-0.01284,-0.00467,-0.01607,-0.00379,0.00201,
1629344769084587776,0.03087,0.00178,0.20603,0.99986,-0.00906,-0.01297,-0.00460,-0.01127,-0.00278,0.00073,
1629344769151260160,0.03014,0.00181,0.20596,0.99986,-0.00911,-0.01301,-0.00461,-0.00456,-0.00205,-0.00009,
1629344769217932032,0.02956,0.00179,0.20602,0.99986,-0.00926,-0.01285,-0.00461,-0.00418,0.00228,0.00108,
1629344769284604416,0.02955,0.00221,0.20586,0.99986,-0.00942,-0.01275,-0.00460,-0.00208,-0.00153,0.00094,
1629344769351276032,0.02947,0.00213,0.20572,0.99986,-0.00926,-0.01289,-0.00474,0.00098,-0.00095,0.00080,
1629344769417948416,0.02942,0.00197,0.20574,0.99986,-0.00923,-0.01278,-0.00467,0.00341,-0.00079,0.00012,
1629344769484620032,0.02949,0.00211,0.20568,0.99986,-0.00932,-0.01273,-0.00470,0.00192,0.00006,0.00015,
1629344769551292672,0.02956,0.00223,0.20568,0.99986,-0.00953,-0.01260,-0.00469,0.00124,-0.00098,0.00033,
1629344769617964288,0.02948,0.00225,0.20570,0.99986,-0.00952,-0.01274,-0.00470,0.00134,-0.00099,0.00039,
1629344769684637184,0.02936,0.00220,0.20567,0.99986,-0.00959,-0.01283,-0.00468,0.00085,-0.00116,-0.00005,
1629344769751308544,0.02918,0.00217,0.20595,0.99986,-0.00965,-0.01285,-0.00467,0.00185,0.00041,0.00019,
1629344769817980928,0.02922,0.00220,0.20588,0.99986,-0.00983,-0.01276,-0.00464,0.00134,-0.00099,-0.00059,
1629344769884652288,0.02929,0.00210,0.20570,0.99986,-0.00971,-0.01296,-0.00469,0.00181,-0.00107,0.00025,
1629344769951324928,0.02946,0.00224,0.20576,0.99986,-0.00957,-0.01288,-0.00472,0.00224,0.00010,-0.00019,
1629344770017996288,0.02957,0.00234,0.20569,0.99986,-0.00979,-0.01266,-0.00472,0.00137,0.00035,-0.00080,
1629344770084668928,0.02246,-0.00134,0.20330,0.99983,-0.00811,-0.01465,-0.00766,-0.08948,-0.11315,0.07662,
1629344770151340544,0.02313,-0.00392,0.20681,0.99980,-0.00180,-0.01505,-0.01284,-0.08963,-0.07828,0.03593,
1629344770218013184,0.02044,-0.00241,0.20859,0.99969,-0.00981,-0.01704,-0.01539,-0.12624,-0.03088,0.02900,
1629344770284684544,0.01203,-0.00546,0.20943,0.99958,-0.01388,-0.01950,-0.01636,-0.16652,-0.03188,0.00796,
1629344770351357184,-0.00166,-0.01354,0.21330,0.99969,0.00244,-0.02050,-0.01384,-0.17446,0.06042,0.16570,
1629344770418028800,-0.01351,-0.01156,0.22515,0.99964,-0.00493,-0.02575,-0.00641,-0.13134,0.00380,0.14628,
1629344770484701696,-0.01719,-0.00761,0.22687,0.99958,-0.00660,-0.02450,-0.01390,-0.03920,0.01989,-0.05242,
1629344770551374080,-0.01983,0.00032,0.22357,0.99965,-0.01600,-0.01642,-0.01355,0.01637,0.20276,-0.07247,
1629344770618045696,-0.01731,0.01462,0.21788,0.99938,-0.03378,0.00195,-0.00976,0.07233,0.22438,-0.08258,
1629344770684718592,-0.00762,0.02902,0.21067,0.99952,-0.02611,0.01331,-0.01052,0.15812,0.24126,-0.11927,
1629344770751390720,0.00079,0.04037,0.21511,0.99928,-0.01703,0.02292,-0.02513,0.12898,0.15579,0.19380,
1629344770818063616,0.00522,0.05340,0.22877,0.99934,-0.02679,0.00233,-0.02435,0.08272,0.23493,0.19769,
1629344770884735744,0.00634,0.06295,0.23391,0.99927,-0.02865,-0.00983,-0.02329,0.04161,0.09613,0.05403,
1629344770951409152,0.00800,0.06317,0.23431,0.99969,0.00339,-0.00931,-0.02298,0.01113,0.02141,-0.00238,
1629344771018081280,0.01012,0.06269,0.23397,0.99959,0.02001,-0.00750,-0.01887,-0.00425,-0.03119,0.03643,
1629344771084754432,0.01193,0.05923,0.23681,0.99971,0.01330,-0.00912,-0.01811,-0.00131,0.02539,0.16739,
1629344771151426816,0.01488,0.06067,0.24099,0.99987,0.00207,-0.00976,-0.01293,-0.00254,-0.09792,0.12422,
1629344771218099968,0.01509,0.05541,0.24165,0.99967,0.00870,-0.01647,-0.01745,0.01271,-0.09408,-0.00681,
1629344771284772352,0.01678,0.05342,0.24127,0.99969,0.00926,-0.01643,-0.01614,-0.00069,-0.00831,0.01396,
1629344771351446016,0.01827,0.05182,0.24132,0.99975,0.00584,-0.01402,-0.01644,-0.00836,-0.02395,-0.00741,
1629344771418118144,0.01697,0.05065,0.24166,0.99967,0.00899,-0.01696,-0.01684,-0.02554,-0.01494,0.01450,
1629344771484791552,0.01492,0.04831,0.24376,0.99954,0.01288,-0.01549,-0.02256,-0.01551,-0.08693,0.07747,
1629344771551463936,0.01441,0.04677,0.24404,0.99963,0.00933,-0.01635,-0.01955,0.02468,0.00705,-0.07829,
1629344771618137344,0.01783,0.04241,0.24173,0.99966,0.01348,-0.00866,-0.02061,0.03744,-0.11563,-0.02167,
1629344771684809984,0.02085,0.03527,0.23864,0.99947,0.02234,-0.00178,-0.02349,0.06841,-0.12661,-0.06649,
1629344771751482880,0.02651,0.02756,0.23391,0.99929,0.02913,0.00567,-0.02319,0.11096,-0.15649,-0.07865,
1629344771818155776,0.03386,0.01901,0.22987,0.99937,0.02364,0.01433,-0.02225,0.12265,-0.10966,0.07304,
1629344771884827648,0.04163,0.00849,0.24018,0.99964,0.02147,0.00716,-0.01440,0.09329,-0.17652,0.16171,
1629344771951500288,0.04493,-0.00339,0.24467,0.99964,0.01897,-0.01006,-0.01624,0.08541,-0.14023,0.02497,
1629344772018172416,0.04870,-0.00707,0.24569,0.99975,0.01074,-0.01456,-0.01283,0.04953,-0.08762,0.02037,
1629344772084845568,0.05285,-0.01112,0.24489,0.99978,-0.00572,-0.01461,-0.01377,0.02048,-0.06857,-0.01521,
1629344772151517696,0.05304,-0.01703,0.24715,0.99969,-0.00141,-0.02152,-0.01271,-0.02237,-0.08187,0.06782,
1629344772218190592,0.05152,-0.02406,0.25275,0.99955,0.00529,-0.02140,-0.02043,-0.00498,-0.07271,0.02199,
1629344772284862464,0.05371,-0.02671,0.24863,0.99971,0.00435,-0.01609,-0.01731,0.04514,-0.06000,-0.12193,
1629344772351535616,0.05710,-0.03413,0.24144,0.99972,0.00703,-0.00670,-0.02147,0.06524,-0.15189,-0.06809,
1629344772418207744,0.06370,-0.04429,0.23623,0.99954,0.01897,0.00350,-0.02320,0.11923,-0.17953,-0.09675,
1629344772484880896,0.07351,-0.05740,0.22884,0.99938,0.01990,0.01370,-0.02579,0.17753,-0.22244,-0.12305,
1629344772551553280,0.08721,-0.07077,0.22825,0.99941,0.01140,0.02391,-0.02193,0.17932,-0.12208,0.08162,
1629344772618226176,0.09789,-0.08241,0.23856,0.99968,0.01534,0.00836,-0.01848,0.14317,-0.19068,0.15123,
1629344772684898304,0.10440,-0.09725,0.24520,0.99949,0.02398,-0.01195,-0.01726,0.13212,-0.14287,0.04761,
1629344772751571456,0.10953,-0.10715,0.24958,0.99967,0.00824,-0.01854,-0.01565,0.07572,-0.14890,0.00731,
1629344772818243840,0.11295,-0.11800,0.24854,0.99920,-0.02519,-0.01581,-0.02665,0.03774,-0.16040,-0.01102,
1629344772884916992,0.11281,-0.13127,0.25345,0.99886,-0.01813,-0.02660,-0.03532,0.00261,-0.21634,0.13477,
1629344772951589120,0.11308,-0.14756,0.25888,0.99851,-0.00076,-0.02181,-0.05011,0.03333,-0.13072,-0.02925,
1629344773018262272,0.11777,-0.15772,0.25219,0.99840,-0.00186,-0.01519,-0.05445,0.09525,-0.17644,-0.11671,
1629344773084934656,0.12394,-0.17033,0.24871,0.99778,-0.00373,-0.00698,-0.06619,0.11781,-0.23533,-0.04560,
1629344773151608064,0.13279,-0.18564,0.24007,0.99737,0.00960,0.00493,-0.07162,0.17274,-0.24615,-0.16348,
1629344773218281216,0.14685,-0.20541,0.22922,0.99652,0.01563,0.02080,-0.07915,0.23643,-0.29731,-0.07337,
1629344773284953600,0.16055,-0.21916,0.23242,0.99673,0.00679,0.02791,-0.07552,0.22106,-0.20636,0.15604,
1629344773351626752,0.17471,-0.23124,0.24303,0.99671,-0.00002,0.01227,-0.08009,0.20868,-0.18426,0.14061,
1629344773418299648,0.18664,-0.24018,0.24856,0.99657,-0.00134,0.00142,-0.08269,0.23094,-0.13834,-0.02964,
1629344773484973056,0.20288,-0.24515,0.24376,0.99613,-0.00807,0.00960,-0.08696,0.24279,-0.00559,-0.10636,
1629344773551645184,0.22125,-0.24367,0.23772,0.99540,-0.02847,0.01635,-0.09006,0.28290,0.06112,-0.16594,
1629344773618318848,0.23967,-0.24289,0.23564,0.99416,-0.03507,0.01933,-0.10022,0.23123,-0.03602,0.03952,
1629344773684991232,0.25883,-0.23798,0.24062,0.99353,-0.03604,0.02093,-0.10561,0.23608,0.13871,0.02025,
1629344773751663872,0.27206,-0.23294,0.24482,0.99366,-0.04274,0.01244,-0.10322,0.20030,0.07384,-0.01848,
1629344773818335488,0.28374,-0.23425,0.24880,0.99451,-0.02947,0.00546,-0.10023,0.16865,-0.01732,-0.04142,
1629344773885008128,0.29720,-0.23783,0.24783,0.99466,-0.02705,0.00996,-0.09912,0.15011,-0.07311,0.01231,
1629344773951679488,0.31164,-0.24278,0.24755,0.99446,-0.02736,0.01726,-0.10003,0.17546,-0.09355,-0.00648,
1629344774018352128,0.32467,-0.24949,0.25322,0.99526,-0.02082,0.02087,-0.09271,0.14680,-0.10904,0.09259,
1629344774085023744,0.32790,-0.25736,0.25906,0.99517,-0.01849,0.00174,-0.09634,0.12748,-0.11725,0.03973,
1629344774151696128,0.34239,-0.25885,0.25595,0.99507,-0.01468,0.00671,-0.09782,0.17270,-0.01899,-0.02501,
1629344774218367744,0.35880,-0.26145,0.25419,0.99483,-0.02231,0.01448,-0.09801,0.19324,0.04656,-0.05333,
1629344774285040640,0.37249,-0.26122,0.25157,0.99473,-0.02506,0.01213,-0.09869,0.23502,0.07100,-0.06051,
1629344774351712256,0.38398,-0.25639,0.25232,0.99400,-0.01984,0.01834,-0.10603,0.19634,0.01067,0.12149,
1629344774418384896,0.39916,-0.25552,0.25900,0.99420,-0.02715,0.01035,-0.10355,0.21469,0.05752,0.01508,
1629344774485057280,0.41465,-0.25812,0.25944,0.99450,-0.02864,0.00815,-0.10044,0.20894,-0.05299,-0.02904,
1629344774551728896,0.41885,-0.26573,0.25761,0.99521,-0.01738,0.00763,-0.09589,0.15955,-0.13068,-0.08607,
1629344774618401536,0.43997,-0.28116,0.24986,0.99558,0.01313,0.00580,-0.09285,0.21268,-0.31046,-0.17151,
1629344774685073152,0.45637,-0.29815,0.24511,0.99535,0.00296,0.01888,-0.09446,0.18823,-0.25342,0.06455,
1629344774751746816,0.47354,-0.31669,0.25659,0.99567,0.00816,0.00930,-0.09210,0.15407,-0.26877,0.21861,
1629344774818419200,0.47733,-0.33426,0.26394,0.99552,-0.00145,-0.01076,-0.09398,0.16481,-0.19012,0.01232,
1629344774885092608,0.49100,-0.34098,0.26234,0.99510,-0.02115,-0.00354,-0.09655,0.17394,-0.07705,-0.01241,
1629344774951765248,0.50786,-0.34376,0.26153,0.99486,-0.03023,0.00209,-0.09657,0.19235,0.00579,0.00571,
1629344775018439168,0.52474,-0.34588,0.25993,0.99516,-0.02222,-0.00186,-0.09573,0.22223,-0.00831,0.01572,
1629344775085111552,0.53763,-0.34584,0.26169,0.99407,-0.01902,0.00580,-0.10694,0.20075,0.02834,0.01794,
1629344775151785216,0.55215,-0.34571,0.26183,0.99452,-0.02283,0.00577,-0.10191,0.18625,-0.01655,-0.04225,
1629344775218457856,0.56355,-0.35040,0.26052,0.99425,-0.02060,0.00624,-0.10487,0.16345,-0.12997,-0.03585,
1629344775285131776,0.57347,-0.35834,0.25654,0.99419,-0.01205,0.01421,-0.10606,0.16148,-0.17634,-0.09102,
1629344775351804416,0.58728,-0.37204,0.25061,0.99416,0.00071,0.02280,-0.10551,0.18718,-0.26201,-0.12447,
1629344775418478336,0.60293,-0.38454,0.25184,0.99471,0.00629,0.03239,-0.09727,0.19767,-0.15246,0.11379,
1629344775485150720,0.61286,-0.39458,0.25971,0.99518,0.00377,0.01613,-0.09667,0.15781,-0.15774,0.08299,
1629344775551824896,0.62386,-0.40408,0.25996,0.99536,0.00580,0.00657,-0.09586,0.16290,-0.11265,-0.02104,
1629344775618497792,0.63466,-0.41002,0.25838,0.99545,-0.00900,0.00704,-0.09463,0.14099,-0.04292,-0.06623,
1629344775685171712,0.64498,-0.41224,0.25580,0.99505,-0.02552,0.01193,-0.09526,0.13681,0.00217,-0.04520,
1629344775751844352,0.65339,-0.41433,0.25627,0.99510,-0.01997,0.00633,-0.09666,0.11588,-0.09100,0.03366,
1629344775818518528,0.66157,-0.41638,0.26174,0.99448,-0.01731,0.00820,-0.10314,0.12089,0.05642,0.00532,
1629344775885192704,0.67006,-0.41735,0.26012,0.99478,-0.01922,0.00841,-0.09984,0.10494,-0.03496,-0.03376,
1629344775951865600,0.67677,-0.42438,0.25921,0.99445,-0.01482,0.01199,-0.10347,0.09018,-0.09251,-0.03897,
1629344776018540032,0.68271,-0.43137,0.25661,0.99447,-0.00787,0.01590,-0.10351,0.08468,-0.12852,-0.04850,
1629344776085212928,0.69027,-0.44119,0.25278,0.99436,-0.00185,0.02135,-0.10390,0.12904,-0.15394,-0.04425,
1629344776151886848,0.70078,-0.44982,0.25858,0.99489,-0.00456,0.02567,-0.09751,0.10831,-0.12574,0.15720,
1629344776218560256,0.70736,-0.45778,0.26462,0.99500,-0.00263,0.01259,-0.09905,0.10414,-0.10781,0.05011,
1629344776285234688,0.71639,-0.46220,0.26523,0.99522,0.00041,0.00784,-0.09733,0.12532,-0.04294,0.00453,
1629344776351907840,0.72493,-0.46314,0.26382,0.99506,-0.01595,0.01334,-0.09709,0.12460,0.01834,-0.04932,
1629344776418582272,0.73441,-0.46066,0.25950,0.99476,-0.02813,0.01765,-0.09670,0.15121,0.07343,-0.03783,
1629344776485255680,0.74422,-0.45946,0.26151,0.99456,-0.02347,0.01726,-0.10003,0.14194,-0.04327,0.06985,
1629344776551929856,0.75467,-0.45904,0.26483,0.99461,-0.02157,0.01432,-0.10036,0.15149,0.05142,-0.02300,
1629344776618603520,0.76405,-0.45945,0.26463,0.99452,-0.02501,0.01259,-0.10071,0.12766,-0.04107,0.02310,
1629344776685277952,0.77083,-0.46198,0.26411,0.99436,-0.02439,0.01352,-0.10229,0.11617,-0.06887,-0.04662,
1629344776751949568,0.77924,-0.46818,0.26194,0.99444,-0.01826,0.01852,-0.10205,0.10682,-0.13908,-0.03624,
1629344776818622208,0.78665,-0.47494,0.25802,0.99452,-0.01110,0.02120,-0.10174,0.11393,-0.11964,0.06620,
1629344776885293824,0.79593,-0.48128,0.26590,0.99522,-0.00857,0.02412,-0.09430,0.11369,-0.11290,0.09202,
1629344776951965952,0.80154,-0.48861,0.27139,0.99518,-0.00437,0.01078,-0.09734,0.11825,-0.09519,-0.01709,
1629344777018637568,0.81129,-0.48968,0.27037,0.99523,-0.00701,0.01163,-0.09656,0.14224,0.00625,-0.02897,
1629344777085310208,0.82264,-0.48792,0.26643,0.99486,-0.02559,0.01849,-0.09624,0.15960,0.06176,-0.09622,
1629344777151983104,0.83485,-0.48316,0.26246,0.99484,-0.02989,0.02118,-0.09459,0.19668,0.11557,-0.04493,
1629344777218654720,0.84759,-0.47874,0.26446,0.99466,-0.02179,0.02454,-0.09786,0.18941,0.07066,0.06522,
1629344777285326848,0.85849,-0.47411,0.26583,0.99473,-0.02903,0.01821,-0.09659,0.16726,0.03368,0.00587,
1629344777351998464,0.86870,-0.47536,0.26465,0.99430,-0.03206,0.01477,-0.10058,0.15781,-0.04080,-0.00107,
1629344777418671104,0.87780,-0.48010,0.26159,0.99420,-0.02116,0.01581,-0.10421,0.12504,-0.11405,-0.04094,
1629344777485342720,0.88702,-0.48848,0.25852,0.99402,-0.01310,0.01730,-0.10699,0.13594,-0.15969,-0.02651,
1629344777552015360,0.89815,-0.49668,0.25694,0.99402,-0.00967,0.02476,-0.10588,0.17802,-0.05105,0.07321,
1629344777618686720,0.91060,-0.50243,0.26068,0.99457,-0.01018,0.02021,-0.10159,0.14738,-0.11382,0.02514,
1629344777685359360,0.92115,-0.50816,0.26029,0.99453,-0.00698,0.01130,-0.10361,0.17885,-0.05211,-0.00220,
1629344777752030976,0.93418,-0.50761,0.25703,0.99436,-0.01463,0.01768,-0.10355,0.20114,0.04774,-0.08404,
1629344777818703872,0.95034,-0.50290,0.25185,0.99400,-0.02656,0.02448,-0.10323,0.23705,0.12167,-0.09701,
1629344777885375488,0.96857,-0.49625,0.24442,0.99375,-0.02612,0.02767,-0.10496,0.28008,0.10667,0.00423,
1629344777952048128,0.98691,-0.48947,0.24824,0.99255,-0.02981,0.03242,-0.11357,0.26323,0.16379,0.08108,
1629344778018719744,1.00087,-0.47946,0.25247,0.99275,-0.04590,0.02005,-0.10926,0.22307,0.12081,0.02643,
1629344778085392128,1.01502,-0.47552,0.25353,0.99295,-0.04375,0.01437,-0.10925,0.17855,0.03661,0.01236,
1629344778152063744,1.02573,-0.47535,0.25291,0.99381,-0.01960,0.01804,-0.10783,0.14501,-0.01071,-0.03486,
1629344778218736896,1.03558,-0.47697,0.25126,0.99390,-0.01248,0.01977,-0.10780,0.13214,-0.06123,0.00862,
1629344778285408512,1.04633,-0.47736,0.25551,0.99451,-0.01744,0.02334,-0.10046,0.15903,0.04550,0.09941,
1629344778352081152,1.05513,-0.47833,0.25671,0.99453,-0.01923,0.01701,-0.10128,0.14713,-0.03576,-0.02078,
1629344778418752768,1.06689,-0.47892,0.25495,0.99432,-0.01941,0.01634,-0.10336,0.19981,0.06215,-0.05787,
1629344778485425152,1.08314,-0.47325,0.25080,0.99414,-0.03102,0.02594,-0.10021,0.23812,0.14976,-0.10775,
1629344778552098048,1.09923,-0.46523,0.24414,0.99382,-0.03870,0.03252,-0.09882,0.30116,0.16081,-0.12251,
1629344778618769920,1.12163,-0.45583,0.23815,0.99341,-0.02610,0.04048,-0.10396,0.30002,0.07054,0.03808,
1629344778685442560,1.14289,-0.44588,0.24598,0.99302,-0.03701,0.03001,-0.10790,0.27767,0.18174,0.11679,
1629344778752114176,1.15797,-0.43800,0.24904,0.99279,-0.05000,0.01629,-0.10768,0.23397,0.06991,0.00649,
1629344778818786304,1.17070,-0.43759,0.24856,0.99315,-0.03265,0.01152,-0.11161,0.17141,-0.01433,-0.03834,
1629344778885457664,1.18066,-0.43991,0.24490,0.99366,-0.00265,0.01549,-0.11135,0.14592,-0.05600,-0.04024,
1629344778952130304,1.19179,-0.44185,0.24588,0.99348,-0.00823,0.01795,-0.11226,0.17276,-0.04544,0.02649,
1629344779018801664,1.20181,-0.44431,0.25241,0.99443,-0.01561,0.02150,-0.10198,0.12441,-0.09313,0.09297,
1629344779085474304,1.21100,-0.44960,0.25495,0.99437,-0.01463,0.01220,-0.10423,0.13384,-0.08166,-0.00291,
1629344779152145920,1.22202,-0.45091,0.25450,0.99448,-0.01609,0.01294,-0.10284,0.16869,0.00228,-0.04325,
1629344779218818304,1.23396,-0.44797,0.25139,0.99426,-0.02541,0.02010,-0.10201,0.18243,0.07263,-0.06083,
1629344779285489920,1.24808,-0.44223,0.24758,0.99427,-0.02728,0.02092,-0.10126,0.23199,0.09345,-0.06912,
1629344779352162048,1.26267,-0.43843,0.24778,0.99320,-0.02264,0.02948,-0.11034,0.20658,0.02459,0.11969,
1629344779418833408,1.27708,-0.43462,0.25247,0.99341,-0.02955,0.01985,-0.10898,0.21636,0.07866,0.02553,
1629344779485506048,1.29147,-0.43424,0.25189,0.99339,-0.03466,0.01491,-0.10840,0.19149,-0.03614,0.01097,
1629344779552177408,1.30374,-0.43782,0.25110,0.99327,-0.02841,0.01736,-0.11091,0.17013,-0.11022,-0.04008,
1629344779618849792,1.31619,-0.44626,0.24819,0.99333,-0.01669,0.02398,-0.11155,0.16803,-0.18842,-0.07207,
1629344779685521664,1.32804,-0.45720,0.24432,0.99356,-0.00670,0.02980,-0.10907,0.19113,-0.11334,0.03210,
1629344779752194048,1.33926,-0.46640,0.24824,0.99449,-0.00368,0.02492,-0.10174,0.13283,-0.17584,0.10598,
1629344779818866432,1.34871,-0.47627,0.25106,0.99459,0.00368,0.00983,-0.10332,0.14752,-0.11665,0.03035,
1629344779885538048,1.36021,-0.47949,0.25307,0.99471,-0.00612,0.01210,-0.10178,0.16258,-0.02565,-0.03439,
1629344779952210432,1.37311,-0.47890,0.24962,0.99402,-0.03140,0.02230,-0.10220,0.17489,0.03736,-0.06082,
1629344780018882048,1.38715,-0.47667,0.24586,0.99417,-0.03040,0.02097,-0.10134,0.19787,0.02351,0.07143,
1629344780085554432,1.40034,-0.47593,0.25156,0.99326,-0.02541,0.02198,-0.11093,0.19366,0.07156,0.10512,
1629344780152226048,1.41367,-0.47239,0.25572,0.99375,-0.02945,0.01516,-0.10662,0.18292,0.04487,0.03352,
1629344780218898688,1.42605,-0.47387,0.25716,0.99356,-0.03105,0.01227,-0.10831,0.16663,-0.03744,0.01787,
1629344780285570048,1.43663,-0.47858,0.25556,0.99360,-0.02602,0.01670,-0.10865,0.14221,-0.10165,-0.02477,
1629344780352242688,1.44667,-0.48722,0.25205,0.99360,-0.01814,0.02070,-0.10957,0.14516,-0.17121,-0.06319,
1629344780418914048,1.45695,-0.49658,0.25188,0.99416,-0.00973,0.02639,-0.10417,0.16432,-0.06260,0.07298,
1629344780485586688,1.46711,-0.50516,0.25805,0.99458,-0.00637,0.01670,-0.10242,0.13713,-0.15270,0.07372,
1629344780552258304,1.47791,-0.51282,0.25794,0.99454,-0.00236,0.00739,-0.10404,0.17784,-0.07854,-0.03881,
1629344780618930688,1.48998,-0.51403,0.25511,0.99459,-0.01414,0.01120,-0.10226,0.18406,0.01599,-0.07823,
1629344780685602304,1.50478,-0.51093,0.25032,0.99411,-0.03174,0.01914,-0.10180,0.21322,0.07736,-0.09393,
1629344780752274688,1.51999,-0.50659,0.24681,0.99430,-0.02848,0.01882,-0.10103,0.24133,0.02676,0.01319,
1629344780818946304,1.53532,-0.50385,0.25252,0.99347,-0.02868,0.02210,-0.10820,0.22705,0.08891,0.03043,
1629344780885618944,1.54866,-0.50068,0.25205,0.99371,-0.03384,0.01560,-0.10557,0.21200,-0.01079,-0.01792,
1629344780952290304,1.56110,-0.50376,0.25235,0.99326,-0.03529,0.01423,-0.10951,0.18890,-0.08323,-0.04654,
1629344781018962944,1.57290,-0.51134,0.24932,0.99334,-0.02309,0.02004,-0.11113,0.16574,-0.17785,-0.06824,
1629344781085634304,1.58551,-0.52403,0.24493,0.99322,-0.01288,0.02539,-0.11268,0.19444,-0.20282,-0.06317,
1629344781152306688,1.59802,-0.53443,0.24761,0.99429,-0.00909,0.03004,-0.10195,0.16985,-0.12908,0.18450,
1629344781218979584,1.60913,-0.54449,0.25292,0.99468,-0.00618,0.01586,-0.10160,0.15624,-0.13986,0.09661,
1629344781285650944,1.62184,-0.55112,0.25444,0.99486,-0.00221,0.00859,-0.10085,0.19009,-0.07186,0.01540,
1629344781352323584,1.63553,-0.55231,0.25246,0.99450,-0.02071,0.01520,-0.10157,0.20133,0.03394,-0.05470,
1629344781418994944,1.65106,-0.54805,0.24526,0.99387,-0.03691,0.02309,-0.10167,0.24040,0.09073,-0.07485,
1629344781485667584,1.66801,-0.54461,0.24229,0.99317,-0.03332,0.02615,-0.10875,0.24098,-0.00218,0.01858,
1629344781552339200,1.68436,-0.54154,0.24452,0.99297,-0.03723,0.02331,-0.10994,0.22603,0.05980,-0.00836,
1629344781619011328,1.69644,-0.53976,0.24330,0.99281,-0.04592,0.01568,-0.10940,0.18334,-0.04989,-0.02870,
1629344781685682944,1.70723,-0.54210,0.24237,0.99281,-0.04178,0.01491,-0.11121,0.14750,-0.11325,-0.09619,
1629344781752355584,1.71696,-0.55007,0.23891,0.99323,-0.02226,0.02195,-0.11192,0.12517,-0.19066,-0.09867,
1629344781819027200,1.72659,-0.55960,0.23507,0.99331,-0.01414,0.02501,-0.11188,0.13984,-0.15463,0.02085,
1629344781885699584,1.73653,-0.56743,0.24127,0.99422,-0.01337,0.03033,-0.10214,0.10621,-0.16337,0.14327,
1629344781952371200,1.74235,-0.57752,0.24974,0.99467,-0.00851,0.01247,-0.10201,0.09875,-0.12545,0.07747,
1629344782019043584,1.74926,-0.58384,0.25324,0.99493,-0.00690,0.00792,-0.10002,0.08526,-0.05917,0.05168,
1629344782085714944,1.75527,-0.58497,0.25156,0.99443,-0.03131,0.01294,-0.09979,0.07310,0.02368,-0.03242,
1629344782152387584,1.76128,-0.58342,0.24937,0.99418,-0.03983,0.01474,-0.09903,0.07426,0.04224,0.02199,
1629344782219058944,1.76489,-0.58358,0.25418,0.99368,-0.03202,0.01319,-0.10680,0.05117,-0.01108,0.10170,
1629344782285731840,1.76945,-0.58153,0.25435,0.99408,-0.03032,0.00718,-0.10410,0.06335,0.06284,-0.07244,
1629344782352403200,1.77289,-0.58424,0.25169,0.99401,-0.02939,0.00952,-0.10482,0.02391,-0.03332,-0.00251,
1629344782419075840,1.77705,-0.59066,0.24870,0.99399,-0.02488,0.01236,-0.10587,0.01255,-0.06372,-0.04456,
1629344782485747968,1.77876,-0.59684,0.24697,0.99413,-0.02018,0.01500,-0.10526,0.02532,-0.10097,-0.04208,
1629344782552419584,1.78133,-0.60312,0.24602,0.99424,-0.01595,0.02188,-0.10368,0.06288,-0.04416,0.03997,
1629344782619091968,1.78401,-0.60699,0.25215,0.99473,-0.01864,0.01592,-0.09960,0.03568,-0.08170,0.09017,
1629344782685763584,1.78549,-0.61257,0.25375,0.99482,-0.01254,0.00688,-0.10060,0.03922,-0.05199,-0.04990,
1629344782752435968,1.78727,-0.61301,0.25132,0.99500,-0.01975,0.00936,-0.09744,0.02454,0.03330,-0.06566,
1629344782819107840,1.78839,-0.61150,0.24935,0.99464,-0.03527,0.01424,-0.09617,0.01926,0.03840,-0.06244,
1629344782885780224,1.78867,-0.61010,0.25089,0.99499,-0.03177,0.01244,-0.09392,0.01381,0.04457,-0.02314,
1629344782952451584,1.78931,-0.60946,0.25524,0.99516,-0.02726,0.01325,-0.09344,0.02029,0.01853,0.01071,
1629344783019123968,1.79011,-0.60773,0.25308,0.99511,-0.03407,0.01116,-0.09203,0.02760,-0.02641,-0.07766,
1629344783085795584,1.79170,-0.61059,0.25063,0.99467,-0.03298,0.01340,-0.09680,0.02089,-0.03660,0.00749,
1629344783152467968,1.79269,-0.61178,0.25011,0.99472,-0.03260,0.01382,-0.09632,0.02183,-0.03059,-0.03698,
1629344783219139584,1.79373,-0.61452,0.24966,0.99473,-0.03125,0.01443,-0.09657,0.02130,-0.05777,-0.02272,
1629344783285811968,1.79529,-0.61706,0.25020,0.99488,-0.02771,0.01904,-0.09532,0.03741,0.00036,0.07219,
1629344783352483584,1.79746,-0.61622,0.25394,0.99535,-0.02930,0.01404,-0.09063,0.05241,0.02009,-0.00027,
1629344783419155968,1.80156,-0.61520,0.25142,0.99596,-0.02569,0.01263,-0.08512,0.07444,0.08919,-0.03053,
1629344783485827328,1.80575,-0.60781,0.24867,0.99639,-0.03424,0.01888,-0.07541,0.08743,0.15380,-0.11187,
1629344783552499968,1.81281,-0.59600,0.24213,0.99660,-0.04695,0.02874,-0.06134,0.12152,0.20779,-0.09402,
1629344783619171328,1.82230,-0.58325,0.23702,0.99764,-0.03812,0.03422,-0.04570,0.15691,0.18162,-0.00484,
1629344783685843968,1.83327,-0.57118,0.23853,0.99825,-0.03382,0.03586,-0.03273,0.15784,0.21519,0.07394,
1629344783752515584,1.84082,-0.55689,0.24142,0.99870,-0.04195,0.02563,-0.01368,0.13340,0.18317,0.06876,
1629344783819188224,1.84795,-0.54612,0.24295,0.99898,-0.03908,0.02264,0.00202,0.11445,0.11608,0.00548,
1629344783885860864,1.85601,-0.54096,0.24134,0.99914,-0.02295,0.02827,0.01986,0.09520,0.07395,-0.02022,
1629344783952532736,1.86128,-0.53534,0.24018,0.99875,-0.02117,0.02678,0.03653,0.09602,0.03674,0.01352,
1629344784019205376,1.86708,-0.53027,0.24333,0.99767,-0.02623,0.02733,0.05668,0.08977,0.09412,0.10247,
1629344784085876992,1.87101,-0.52374,0.24637,0.99665,-0.02385,0.01648,0.07647,0.07582,0.07495,-0.01009,
1629344784152549632,1.87581,-0.51379,0.24368,0.99446,-0.01982,0.01333,0.10236,0.07637,0.19193,-0.03057,
1629344784219220992,1.88029,-0.49880,0.23704,0.99141,-0.03109,0.01619,0.12602,0.08235,0.21351,-0.13353,
1629344784285894144,1.88508,-0.48185,0.23015,0.98810,-0.03763,0.01969,0.14782,0.10347,0.27048,-0.09952,
1629344784352565760,1.89173,-0.46512,0.22463,0.98513,-0.02424,0.02371,0.16843,0.13671,0.23825,-0.02588,
1629344784419238400,1.90345,-0.45073,0.22475,0.98286,-0.02995,0.03043,0.17936,0.13895,0.24668,0.02042,
1629344784485910272,1.90820,-0.43607,0.22460,0.97894,-0.03039,0.02395,0.20044,0.14474,0.20397,-0.07292,
1629344784552582656,1.91632,-0.42671,0.22042,0.97534,-0.02874,0.02868,0.21693,0.18291,0.10783,-0.09219,
1629344784619254272,1.92748,-0.42341,0.21638,0.97174,-0.00880,0.04029,0.23244,0.21732,0.02671,-0.09314,
1629344784685927168,1.94281,-0.42242,0.21065,0.96703,-0.00296,0.04563,0.25053,0.24792,0.02881,-0.07067,
1629344784752598528,1.95797,-0.41763,0.21227,0.95816,-0.00512,0.04802,0.28212,0.20252,0.05010,0.10130,
1629344784819271168,1.96736,-0.41621,0.21602,0.95215,0.00814,0.02722,0.30430,0.17207,0.03779,-0.07531,
1629344784885942784,1.96739,-0.40895,0.21103,0.94138,0.00783,0.01890,0.33673,0.04811,0.13130,-0.14873,
1629344784952614912,1.96418,-0.39897,0.20438,0.93105,-0.01240,0.00866,0.36458,-0.01739,0.13175,-0.15999,
1629344785019286272,1.95856,-0.39092,0.20108,0.92044,-0.01163,0.00159,0.39070,-0.05844,0.13714,-0.07712,
1629344785085958912,1.95588,-0.38660,0.20150,0.91173,0.00697,0.00330,0.41072,0.03077,0.04355,0.03342,
1629344785152631296,1.95374,-0.37776,0.19947,0.90332,0.00372,0.00712,0.42889,-0.07661,0.17837,-0.09221,
1629344785219302656,1.94488,-0.36823,0.19584,0.89059,-0.00520,0.00883,0.45470,-0.05940,0.13682,-0.09081,
1629344785285975552,1.93980,-0.36221,0.19302,0.87906,-0.00937,0.01305,0.47644,0.00314,0.06969,-0.03091,
1629344785352646912,1.93685,-0.35577,0.19284,0.86827,-0.00282,0.02230,0.49559,0.01533,0.07338,-0.06327,
1629344785419319040,1.93717,-0.35153,0.19075,0.85494,-0.00431,0.02425,0.51814,0.03249,0.06746,-0.01503,
1629344785485990656,1.93412,-0.34773,0.19943,0.83802,-0.00234,0.02331,0.54513,-0.00579,0.05760,0.16849,
1629344785552663040,1.92998,-0.34467,0.20357,0.82548,0.00472,0.00990,0.56432,-0.04892,0.07155,-0.01636,
1629344785619334400,1.91790,-0.33819,0.20091,0.80529,0.00082,0.00604,0.59286,-0.17256,0.09254,-0.04562,
1629344785686007040,1.90601,-0.33091,0.19718,0.78663,-0.00713,0.00019,0.61739,-0.20539,0.08022,-0.06568,
1629344785752678400,1.89320,-0.32462,0.19353,0.76757,-0.00849,-0.00153,0.64091,-0.21739,0.08837,-0.03824,
1629344785819350784,1.88743,-0.32246,0.19316,0.75421,0.00074,0.00642,0.65660,-0.02517,0.04339,0.08544,
1629344785886022400,1.87770,-0.31723,0.19583,0.74191,-0.00533,0.00779,0.67043,-0.25682,0.09828,-0.04036,
1629344785952694784,1.86463,-0.31136,0.19315,0.71997,-0.00936,0.01040,0.69387,-0.16404,0.08256,-0.05799,
1629344786019366144,1.85674,-0.30762,0.19211,0.70242,-0.01105,0.01464,0.71152,-0.08213,0.06421,0.00381,
1629344786086038784,1.85096,-0.30381,0.19272,0.68411,-0.01074,0.02108,0.72899,-0.05741,0.06833,-0.02099,
1629344786152710144,1.84604,-0.30070,0.19291,0.66363,-0.01171,0.01951,0.74772,-0.04896,0.06553,0.04558,
1629344786219382528,1.84463,-0.29629,0.20091,0.63906,-0.00799,0.01934,0.76888,-0.01846,0.05510,0.12625,
1629344786286053888,1.84312,-0.29233,0.20438,0.62011,0.00213,0.01205,0.78442,-0.08407,0.04309,-0.00532,
1629344786352726528,1.82754,-0.29189,0.20180,0.59173,-0.00244,0.00698,0.80610,-0.17451,0.00502,-0.02086,
1629344786419397888,1.81459,-0.29306,0.19794,0.56699,-0.00684,0.00086,0.82370,-0.20081,-0.01902,-0.03357,
1629344786486070272,1.80271,-0.29290,0.19484,0.54323,-0.00300,0.00305,0.83957,-0.20114,-0.00644,-0.05856,
1629344786552742912,1.79410,-0.29266,0.19623,0.53024,-0.00204,0.01042,0.84778,-0.06251,0.04017,0.10641,
1629344786619414272,1.78423,-0.29273,0.20332,0.50869,-0.00709,0.01227,0.86083,-0.25841,-0.03700,0.02712,
1629344786686086656,1.77248,-0.29195,0.20174,0.48015,-0.01373,0.01244,0.87699,-0.15350,0.00415,0.06606,
1629344786752758272,1.76590,-0.28849,0.20084,0.45613,-0.01568,0.01502,0.88965,-0.08489,0.06527,0.01560,
1629344786819430656,1.75557,-0.28806,0.19821,0.43096,-0.01950,0.02104,0.90191,-0.06613,0.08503,-0.00857,
1629344786886102016,1.75220,-0.28322,0.19719,0.40248,-0.01714,0.02237,0.91499,-0.03668,0.07128,0.15521,
1629344786952774656,1.75120,-0.27556,0.20758,0.37275,-0.00603,0.03040,0.92741,0.00614,0.07469,0.16936,
1629344787019446016,1.75371,-0.27368,0.21151,0.34703,0.00918,0.02403,0.93750,-0.08232,-0.04833,-0.05764,
1629344787086118400,1.74314,-0.28130,0.21004,0.30851,0.00476,0.00849,0.95117,-0.07774,-0.13585,-0.03200,
1629344787152790016,1.73838,-0.28925,0.20711,0.27984,0.00485,-0.00356,0.96003,-0.04671,-0.15968,-0.01575,
1629344787219462400,1.73651,-0.29840,0.20908,0.25022,0.01840,0.00367,0.96801,0.00006,-0.16085,0.02480,
1629344787286133760,1.73927,-0.30313,0.21156,0.23977,0.01778,0.01323,0.97058,0.00384,-0.10190,0.09747,
1629344787352806144,1.73362,-0.31482,0.21072,0.20970,0.01011,0.01385,0.97761,-0.09788,-0.19636,-0.06672,
1629344787419477760,1.72790,-0.32281,0.20584,0.17834,-0.00083,0.00977,0.98392,-0.05840,-0.11365,-0.04248,
1629344787486150144,1.72524,-0.32682,0.20346,0.15071,-0.00652,0.01333,0.98847,-0.03389,-0.00851,-0.02441,
1629344787552821760,1.71925,-0.33004,0.20119,0.12460,-0.01062,0.01697,0.99201,-0.04278,0.02774,-0.03110,
1629344787619494144,1.72003,-0.32855,0.20093,0.09316,-0.01070,0.01978,0.99540,-0.03947,0.00940,0.07763,
1629344787686165504,1.71633,-0.32322,0.20678,0.06278,-0.00477,0.02537,0.99769,-0.01527,0.05481,0.06095,
1629344787752837888,1.71675,-0.32509,0.20812,0.03481,0.00534,0.02192,0.99914,-0.01327,-0.09031,-0.05615,
1629344787819510272,1.71523,-0.33743,0.20765,-0.00323,0.00742,0.01116,0.99990,0.02500,-0.12697,-0.03950,
1629344787886181888,1.71961,-0.33957,0.20713,-0.01527,0.00971,0.00617,0.99982,0.06095,0.01830,0.03526,
1629344787952854272,1.72502,-0.33469,0.20974,-0.01882,0.01544,0.01269,0.99962,0.09804,0.01727,0.02648,
1629344788019525632,1.72939,-0.33290,0.21215,-0.01152,0.01374,0.01841,0.99967,0.07428,0.07781,0.06386,
1629344788086198016,1.73576,-0.33502,0.21286,-0.01911,0.00725,0.01545,0.99967,0.03255,-0.05947,-0.08481,
1629344788152869376,1.73556,-0.33217,0.21081,-0.02737,0.00136,0.01358,0.99953,-0.01182,0.04732,-0.00994,
1629344788219542016,1.73295,-0.32626,0.20883,-0.03269,-0.00540,0.02097,0.99923,-0.06700,0.09212,-0.07829,
1629344788286213376,1.72641,-0.31831,0.20477,-0.03607,-0.01362,0.02740,0.99888,-0.12747,0.14118,-0.06814,
1629344788352885760,1.71928,-0.31212,0.20133,-0.04159,-0.01760,0.02191,0.99874,-0.13419,0.09163,0.08505,
1629344788419557120,1.70959,-0.30489,0.20913,-0.05328,-0.01745,0.02014,0.99822,-0.12358,0.13376,0.12027,
1629344788486229760,1.70315,-0.29876,0.21370,-0.05571,-0.00904,0.01969,0.99821,-0.10272,0.07187,-0.00112,
1629344788552901120,1.69815,-0.29794,0.21510,-0.06434,-0.00561,0.01184,0.99784,-0.05593,0.01374,0.01089,
1629344788619573504,1.69416,-0.29843,0.21526,-0.06893,-0.00472,0.00023,0.99761,-0.03414,0.00870,0.01091,
1629344788686244864,1.69174,-0.29816,0.21683,-0.07381,-0.00173,0.00421,0.99726,-0.01181,0.00149,0.03452,
1629344788752917504,1.69001,-0.29642,0.21946,-0.07105,-0.00151,0.01041,0.99742,-0.02941,0.07292,0.04592,
1629344788819588864,1.68685,-0.29509,0.21781,-0.07690,-0.00538,0.01075,0.99697,-0.05226,-0.03071,-0.08650,
1629344788886261248,1.68036,-0.29251,0.21433,-0.07966,-0.01317,0.00868,0.99670,-0.10026,0.10495,-0.03769,
1629344788952932864,1.67426,-0.28578,0.21041,-0.07980,-0.02127,0.01857,0.99641,-0.12916,0.13951,-0.07432,
1629344789019605248,1.66312,-0.27523,0.20365,-0.08077,-0.03138,0.02671,0.99588,-0.18223,0.17651,-0.08378,
1629344789086276864,1.65053,-0.26566,0.19845,-0.08216,-0.03612,0.01435,0.99586,-0.20205,0.13899,0.09786,
1629344789152949248,1.63711,-0.25601,0.20473,-0.09284,-0.03532,0.01489,0.99494,-0.19857,0.15322,0.13347,
1629344789219621888,1.62855,-0.24495,0.21281,-0.09275,-0.01648,0.02572,0.99522,-0.17529,0.11812,0.05138,
1629344789286293248,1.61652,-0.24264,0.21172,-0.09856,-0.01297,0.02351,0.99477,-0.14585,0.01552,0.00611,
1629344789352965632,1.60760,-0.24490,0.20893,-0.10039,-0.01516,-0.00645,0.99481,-0.11859,-0.04191,-0.06790,
1629344789419637248,1.59923,-0.24899,0.20600,-0.10254,-0.01618,-0.01772,0.99444,-0.11217,-0.09311,0.00768,
1629344789486309632,1.59132,-0.25224,0.20928,-0.09925,-0.01785,-0.00507,0.99489,-0.14789,-0.01502,0.07224,
1629344789552981248,1.58324,-0.25739,0.21012,-0.10234,-0.01766,-0.00225,0.99459,-0.11677,-0.09201,-0.03776,
1629344789619653376,1.57202,-0.25785,0.20961,-0.10334,-0.01787,-0.00092,0.99449,-0.15565,0.02713,0.00139,
1629344789686324736,1.56116,-0.25383,0.20614,-0.10130,-0.02416,0.00604,0.99454,-0.17656,0.09003,-0.07369,
1629344789752997632,1.54620,-0.24673,0.20039,-0.10138,-0.03229,0.01781,0.99416,-0.23567,0.14838,-0.10694,
1629344789819669248,1.53205,-0.23929,0.19227,-0.10352,-0.03824,0.01823,0.99372,-0.25000,0.08957,0.02641,
1629344789886341888,1.51184,-0.23289,0.19707,-0.11328,-0.04124,0.01427,0.99260,-0.22395,0.05202,0.11885,
1629344789953013504,1.49866,-0.22633,0.20441,-0.11351,-0.02582,0.02066,0.99299,-0.20632,0.00767,0.03122,
1629344790019685632,1.48596,-0.23146,0.20364,-0.11648,-0.02538,0.01747,0.99272,-0.18238,-0.09122,-0.02148,
1629344790086357248,1.47458,-0.23875,0.19935,-0.11680,-0.02924,-0.00884,0.99269,-0.15657,-0.17482,-0.11195,
1629344790153029888,1.46358,-0.25049,0.19400,-0.11901,-0.03264,-0.01871,0.99218,-0.18799,-0.24310,-0.06806,
1629344790219701760,1.44877,-0.26371,0.19280,-0.11118,-0.04064,-0.01098,0.99291,-0.21841,-0.17992,0.01299,
1629344790286374400,1.43610,-0.27792,0.19724,-0.11155,-0.03199,-0.01682,0.99310,-0.16233,-0.26123,0.04715,
1629344790353046016,1.42466,-0.28815,0.19988,-0.11230,-0.02055,-0.02146,0.99323,-0.18367,-0.13013,0.03575,
1629344790419718144,1.41264,-0.29406,0.19909,-0.11184,-0.01940,-0.01426,0.99343,-0.17950,-0.05856,-0.05853,
1629344790486390784,1.39941,-0.29520,0.19672,-0.11252,-0.02714,-0.00058,0.99328,-0.18777,0.01008,-0.04956,
1629344790553062400,1.38730,-0.29384,0.19235,-0.11412,-0.02935,0.00060,0.99303,-0.17623,0.00847,0.07414,
1629344790619735040,1.37394,-0.29418,0.20032,-0.12513,-0.03649,0.00268,0.99147,-0.16725,0.01191,0.11943,
1629344790686406912,1.36664,-0.29057,0.20772,-0.12272,-0.02270,0.00948,0.99214,-0.16542,0.00541,0.02241,
1629344790753079296,1.35522,-0.29325,0.20716,-0.12266,-0.02352,0.00651,0.99215,-0.15645,-0.09478,-0.03215,
1629344790819750912,1.34516,-0.30432,0.20241,-0.12437,-0.02854,-0.00560,0.99181,-0.12601,-0.19452,-0.05757,
1629344790886423040,1.33577,-0.31745,0.19760,-0.12514,-0.03021,-0.01025,0.99163,-0.17254,-0.22883,-0.08311,
1629344790953094400,1.32437,-0.33111,0.19573,-0.12052,-0.03958,-0.00444,0.99191,-0.18342,-0.12994,0.09758,
1629344791019767040,1.31287,-0.34643,0.20655,-0.11968,-0.03000,-0.01730,0.99221,-0.13607,-0.24613,0.14184,
1629344791086438400,1.30646,-0.35837,0.21139,-0.12330,-0.01680,-0.02321,0.99196,-0.15811,-0.13612,0.03641,
1629344791153110784,1.29592,-0.36369,0.21165,-0.12029,-0.01851,-0.00869,0.99253,-0.15575,-0.03574,-0.00863,
1629344791219782400,1.28569,-0.36425,0.20790,-0.12081,-0.02688,0.00567,0.99230,-0.16320,0.02836,-0.01281,
1629344791286455040,1.27369,-0.36346,0.20657,-0.11917,-0.02571,0.00109,0.99254,-0.17956,0.03000,0.06023,
1629344791353126400,1.26336,-0.36266,0.21096,-0.13078,-0.03076,0.00145,0.99093,-0.15113,0.04548,0.11094,
1629344791419798784,1.25565,-0.35663,0.21750,-0.12791,-0.01918,0.01140,0.99154,-0.14252,0.05862,0.05539,
1629344791486470144,1.24588,-0.35848,0.21710,-0.12927,-0.01768,0.01292,0.99137,-0.12974,-0.03409,0.01682,
1629344791553142528,1.23759,-0.36513,0.21377,-0.13082,-0.01979,-0.00215,0.99121,-0.09985,-0.10120,-0.03565,
1629344791619813888,1.22966,-0.37398,0.21090,-0.13301,-0.02091,-0.01010,0.99084,-0.11197,-0.14630,0.00858,
1629344791686486528,1.22026,-0.38280,0.20875,-0.13197,-0.02544,-0.00481,0.99092,-0.16858,-0.07833,0.01168,
1629344791753157888,1.21110,-0.38990,0.21259,-0.12628,-0.02619,-0.00561,0.99163,-0.12319,-0.14702,0.06844,
1629344791819830784,1.20194,-0.39897,0.21388,-0.12974,-0.01830,-0.01046,0.99132,-0.16264,-0.06226,0.02033,
1629344791886502912,1.19059,-0.39961,0.21237,-0.12704,-0.01982,-0.00741,0.99167,-0.19336,0.03008,-0.05527,
1629344791953174528,1.17574,-0.39518,0.20541,-0.12466,-0.03006,0.00429,0.99173,-0.23594,0.16534,-0.10064,
1629344792019846912,1.15678,-0.38002,0.19485,-0.10986,-0.04140,0.01124,0.99302,-0.32963,0.29612,-0.18406,
1629344792086518528,1.13555,-0.36342,0.18799,-0.09559,-0.05273,0.00689,0.99400,-0.29289,0.13812,0.01494,
1629344792153191168,1.11638,-0.34974,0.19439,-0.08687,-0.04535,0.01436,0.99508,-0.27559,0.24792,0.18073,
1629344792219862528,1.10175,-0.33039,0.20352,-0.06522,-0.02238,0.02480,0.99731,-0.25879,0.21068,0.07142,
1629344792286535168,1.08631,-0.32850,0.20105,-0.05825,-0.02245,0.00664,0.99803,-0.22627,-0.05196,-0.08076,
1629344792353206528,1.07224,-0.33667,0.19530,-0.05922,-0.02843,-0.02061,0.99763,-0.20728,-0.10911,-0.07034,
1629344792419879168,1.05765,-0.34609,0.19214,-0.05984,-0.02404,-0.01084,0.99786,-0.23663,-0.17272,-0.05360,
1629344792486550528,1.04353,-0.35282,0.19366,-0.04868,-0.03155,-0.00258,0.99831,-0.19545,-0.11276,0.14628,
1629344792553223168,1.03494,-0.36549,0.19977,-0.05220,-0.01726,-0.01559,0.99837,-0.16731,-0.18226,0.04429,
1629344792619894528,1.02304,-0.37232,0.20181,-0.05498,-0.01350,-0.01553,0.99828,-0.17849,-0.02788,0.01908,
1629344792686567168,1.00889,-0.37010,0.19825,-0.05367,-0.02242,0.00038,0.99831,-0.18911,0.05062,-0.04849,
1629344792753238528,0.99421,-0.36546,0.19401,-0.05569,-0.03013,0.00942,0.99795,-0.22427,0.13893,-0.04878,
1629344792819911168,0.97658,-0.35760,0.18950,-0.05615,-0.03608,0.00971,0.99772,-0.26890,0.10920,-0.03274,
1629344792886582784,0.95877,-0.34819,0.19798,-0.06016,-0.03766,0.01045,0.99742,-0.23442,0.19378,0.18230,
1629344792953255168,0.94572,-0.33348,0.20631,-0.04697,-0.02032,0.02259,0.99843,-0.21368,0.17671,0.07044,
1629344793019926784,0.93155,-0.32620,0.20641,-0.03598,-0.01782,0.01487,0.99908,-0.20794,0.07576,-0.01517,
1629344793086599424,0.91764,-0.32620,0.20291,-0.02300,-0.02458,-0.01469,0.99933,-0.19127,-0.00720,-0.06733,
1629344793153271552,0.90327,-0.32837,0.19869,-0.01178,-0.02583,-0.01964,0.99940,-0.20713,-0.07832,-0.00632,
1629344793219943168,0.88684,-0.33231,0.19908,0.00261,-0.02937,-0.00260,0.99956,-0.21898,-0.04345,0.05880,
1629344793286615552,0.87335,-0.34016,0.20592,0.01374,-0.02051,-0.01267,0.99961,-0.18333,-0.14033,0.08693,
1629344793353287424,0.86164,-0.34626,0.20876,0.01412,-0.01095,-0.01779,0.99968,-0.18738,-0.05329,0.02975,
1629344793419960064,0.84984,-0.34548,0.20808,0.01617,-0.01419,-0.00971,0.99972,-0.18220,0.04566,-0.03665,
1629344793486631424,0.83655,-0.33972,0.20382,0.01368,-0.02347,0.00638,0.99961,-0.19801,0.11522,-0.07132,
1629344793553304064,0.82097,-0.33109,0.19779,0.01393,-0.03324,0.01176,0.99928,-0.24818,0.15802,-0.09428,
1629344793619975424,0.80384,-0.32383,0.20267,0.00328,-0.04243,0.00928,0.99905,-0.22434,0.11296,0.18429,
1629344793686647808,0.78971,-0.31600,0.21101,0.00527,-0.02888,0.01469,0.99946,-0.20432,0.11295,0.11702,
1629344793753319424,0.77523,-0.31135,0.21213,0.00711,-0.01940,0.01999,0.99959,-0.23016,0.02547,-0.02971,
1629344793819991808,0.75808,-0.31542,0.20690,0.00698,-0.02568,-0.00118,0.99965,-0.22843,-0.11759,-0.07966,
1629344793886663680,0.74045,-0.32449,0.19977,0.00733,-0.03201,-0.01793,0.99930,-0.25841,-0.18059,-0.09629,
1629344793953336064,0.72052,-0.33596,0.19187,0.01027,-0.03306,-0.00951,0.99936,-0.32069,-0.16756,-0.05274,
1629344794020007680,0.70082,-0.34617,0.19630,0.02045,-0.03904,-0.01142,0.99896,-0.25666,-0.21392,0.15735,
1629344794086680064,0.68549,-0.35919,0.20530,0.01897,-0.01802,-0.02845,0.99925,-0.22738,-0.15516,0.06547,
1629344794153351424,0.67239,-0.36358,0.20619,0.02160,-0.01360,-0.02004,0.99947,-0.19352,-0.00268,-0.02768,
1629344794220024064,0.66029,-0.35721,0.20231,0.02544,-0.02148,0.01186,0.99938,-0.16457,0.08663,-0.05713,
1629344794286695424,0.64755,-0.35056,0.19920,0.02657,-0.02509,0.01522,0.99922,-0.18530,0.12972,-0.02535,
1629344794353368320,0.63463,-0.34232,0.19819,0.02492,-0.03201,0.00316,0.99917,-0.19236,0.06803,0.06739,
1629344794420039936,0.62191,-0.33326,0.20699,0.01972,-0.02431,0.00651,0.99949,-0.16579,0.17977,0.13936,
1629344794486712320,0.61273,-0.32207,0.21088,0.02564,-0.01003,0.01864,0.99945,-0.16603,0.11111,0.01853,
1629344794553384704,0.60327,-0.31958,0.20924,0.02480,-0.01066,0.01264,0.99956,-0.15693,-0.02822,-0.03573,
1629344794620056064,0.59299,-0.32506,0.20591,0.02390,-0.01789,-0.01069,0.99950,-0.14975,-0.09035,-0.09032,
1629344794686728704,0.58243,-0.33213,0.20100,0.02341,-0.01944,-0.01303,0.99945,-0.17394,-0.14336,-0.03920,
1629344794753400064,0.56955,-0.33991,0.19962,0.02485,-0.02492,-0.00352,0.99937,-0.19801,-0.06334,0.04760,
1629344794820072448,0.55659,-0.34651,0.20517,0.03105,-0.01962,-0.00930,0.99928,-0.17217,-0.13781,0.07234,
1629344794886743808,0.54592,-0.35310,0.20518,0.02761,-0.01342,-0.01574,0.99940,-0.15771,-0.04389,0.00451,
1629344794953416704,0.53827,-0.35229,0.20486,0.03138,-0.01388,-0.01241,0.99933,-0.13425,0.04669,-0.04661,
1629344795020088064,0.52968,-0.34618,0.20205,0.03246,-0.01920,-0.00230,0.99929,-0.11799,0.12644,-0.06551,
1629344795086760192,0.52166,-0.33414,0.19673,0.03874,-0.02526,0.00558,0.99891,-0.14276,0.23301,-0.11510,
1629344795153431552,0.51260,-0.32188,0.19491,0.04318,-0.03345,0.01238,0.99843,-0.13131,0.10000,0.06135,
1629344795220103936,0.50547,-0.30716,0.20425,0.05200,-0.02723,0.01739,0.99812,-0.08874,0.26333,0.16506,
1629344795286775296,0.50158,-0.29120,0.21023,0.06788,-0.01373,0.02250,0.99735,-0.09795,0.18800,0.05108,
1629344795353447680,0.49576,-0.28291,0.21182,0.08020,-0.01650,0.00696,0.99662,-0.08524,0.12941,-0.00015,
1629344795420119040,0.48981,-0.27743,0.21127,0.09543,-0.02199,-0.01071,0.99514,-0.07330,0.06270,0.01443,
1629344795486791680,0.48628,-0.27247,0.21244,0.10684,-0.01581,-0.00382,0.99414,-0.07716,0.05203,0.05520,
1629344795553463040,0.48069,-0.27261,0.21205,0.11283,-0.01720,0.00617,0.99345,-0.09270,-0.03915,0.09758,
1629344795620135424,0.47455,-0.27595,0.21501,0.11081,-0.01338,-0.00640,0.99373,-0.10146,-0.04428,-0.00372,
1629344795686806784,0.47048,-0.27469,0.21320,0.11346,-0.01225,-0.00750,0.99344,-0.07500,0.09873,0.01235,
1629344795753479168,0.46524,-0.26885,0.21053,0.11704,-0.01708,0.00102,0.99298,-0.06624,0.12597,-0.07030,
1629344795820151552,0.46111,-0.25997,0.20608,0.11764,-0.02170,0.00974,0.99277,-0.06307,0.21834,-0.04927,
1629344795886822912,0.45471,-0.24592,0.19970,0.11937,-0.03138,0.01646,0.99222,-0.12539,0.21431,-0.10923,
1629344795953495552,0.44729,-0.23471,0.20297,0.11268,-0.03419,0.01821,0.99288,-0.09795,0.20035,0.18565,
1629344796020166912,0.44346,-0.22266,0.21143,0.11762,-0.01602,0.02055,0.99272,-0.08176,0.15901,0.07644,
1629344796086839552,0.43855,-0.21529,0.21192,0.11695,-0.00925,0.02496,0.99278,-0.08948,0.09477,0.01275,
1629344796153510912,0.43357,-0.21222,0.21090,0.11647,-0.01294,0.00664,0.99309,-0.07200,0.01909,-0.05893,
1629344796220183296,0.42938,-0.21433,0.20661,0.11713,-0.02086,-0.01583,0.99277,-0.07483,-0.03401,-0.02925,
1629344796286854656,0.42471,-0.21449,0.20684,0.11515,-0.01510,-0.00637,0.99321,-0.09665,-0.03375,0.00572,
1629344796353527040,0.41865,-0.21482,0.20949,0.11947,-0.01809,-0.00172,0.99267,-0.10388,-0.04902,0.03063,
1629344796420198400,0.41246,-0.21731,0.20923,0.11758,-0.01458,-0.00218,0.99295,-0.09269,0.01588,-0.02801,
1629344796486871040,0.40772,-0.21271,0.20791,0.12149,-0.01587,0.00071,0.99247,-0.07566,0.08423,-0.02375,
1629344796553542400,0.40351,-0.20648,0.20490,0.12162,-0.02006,0.00895,0.99233,-0.06211,0.13913,-0.05467,
1629344796620215040,0.39850,-0.19370,0.20022,0.12268,-0.02595,0.01873,0.99193,-0.09807,0.19486,-0.09460,
1629344796686886656,0.39021,-0.18177,0.19314,0.12317,-0.03397,0.02049,0.99159,-0.12447,0.19390,0.00137,
1629344796753558784,0.38280,-0.17054,0.19806,0.11851,-0.03596,0.02105,0.99208,-0.10119,0.18983,0.13011,
1629344796820230144,0.37797,-0.15882,0.20384,0.12144,-0.01814,0.02506,0.99212,-0.10577,0.15756,0.01579,
1629344796886902528,0.37238,-0.15186,0.20594,0.11849,-0.01303,0.02552,0.99254,-0.09394,0.09291,0.01584,
1629344796953573888,0.36605,-0.14841,0.20492,0.11937,-0.01822,0.00067,0.99268,-0.07708,0.03244,-0.04636,
1629344797020246272,0.36063,-0.14752,0.20435,0.11813,-0.02087,-0.01088,0.99272,-0.07683,0.00171,0.03440,
1629344797086917888,0.35668,-0.14538,0.20657,0.11766,-0.01409,0.00208,0.99295,-0.10984,0.05397,-0.02417,
1629344797153590528,0.35047,-0.14488,0.20894,0.12158,-0.01615,0.00252,0.99245,-0.11355,-0.02001,0.01394,
1629344797220262656,0.34323,-0.14530,0.20734,0.11801,-0.01561,0.00219,0.99289,-0.10947,0.05431,-0.00610,
1629344797286934016,0.33649,-0.13764,0.20474,0.11999,-0.02014,0.01012,0.99252,-0.10838,0.13554,-0.07116,
1629344797353606400,0.32982,-0.12671,0.19872,0.12013,-0.02735,0.02261,0.99212,-0.11177,0.20738,-0.07444,
1629344797420277760,0.32105,-0.11076,0.19032,0.11966,-0.03621,0.02695,0.99179,-0.17302,0.27057,-0.14165,
1629344797486950144,0.31076,-0.09603,0.18519,0.11661,-0.04583,0.02247,0.99187,-0.19243,0.21232,0.06545,
1629344797553621760,0.29892,-0.08091,0.19315,0.11008,-0.03821,0.02597,0.99285,-0.15887,0.27079,0.18473,
1629344797620294144,0.28999,-0.06432,0.20456,0.11410,-0.01175,0.03002,0.99295,-0.15585,0.19852,0.10941,
1629344797686965504,0.27985,-0.05372,0.20525,0.11517,-0.00920,0.02127,0.99308,-0.15192,0.11399,-0.02301,
1629344797753638144,0.27111,-0.04969,0.20399,0.11661,-0.01398,-0.00880,0.99304,-0.14021,0.02764,-0.05234,
1629344797820309504,0.26077,-0.04716,0.20239,0.11590,-0.01177,-0.01116,0.99313,-0.14353,-0.00887,0.01900,
1629344797886981888,0.24953,-0.04557,0.20234,0.11774,-0.01180,-0.00070,0.99297,-0.16323,0.03018,0.02161,
1629344797953653248,0.23823,-0.04666,0.20479,0.11979,-0.01230,-0.00242,0.99272,-0.16709,-0.04552,-0.02547,
1629344798020325632,0.22794,-0.04569,0.20415,0.11971,-0.01008,-0.00181,0.99276,-0.13795,0.07549,0.00845,
1629344798086996992,0.21892,-0.03958,0.20202,0.12320,-0.01351,0.00204,0.99229,-0.13550,0.11102,-0.05621,
1629344798153669632,0.21015,-0.03031,0.19725,0.12273,-0.02027,0.01232,0.99216,-0.12942,0.19174,-0.08177,
1629344798220340992,0.20029,-0.01546,0.18939,0.12285,-0.02800,0.02585,0.99169,-0.16879,0.26214,-0.14143,
1629344798287013632,0.18765,-0.00200,0.18700,0.11750,-0.03667,0.02881,0.99198,-0.19223,0.15322,0.06199,
1629344798353684992,0.17724,0.01137,0.19510,0.11705,-0.03041,0.02224,0.99241,-0.13952,0.21599,0.15111,
1629344798420357376,0.16897,0.02312,0.20064,0.11886,-0.01388,0.02252,0.99256,-0.15944,0.15556,-0.00170,
1629344798487029760,0.15854,0.02938,0.20068,0.11827,-0.01198,0.01853,0.99274,-0.15019,0.05970,-0.00658,
1629344798553701120,0.14822,0.02902,0.19692,0.11955,-0.01752,-0.00391,0.99267,-0.16121,-0.03167,-0.07581,
1629344798620373504,0.13613,0.02561,0.19380,0.11873,-0.01971,-0.00923,0.99269,-0.19247,-0.07261,-0.03750,
1629344798687044864,0.12197,0.02317,0.19228,0.12216,-0.02518,-0.00388,0.99218,-0.18189,0.00384,0.03209,
1629344798753717504,0.10960,0.01999,0.19501,0.12674,-0.02165,-0.00550,0.99168,-0.17497,-0.08858,0.02720,
1629344798820389120,0.09915,0.01583,0.19539,0.12753,-0.01416,-0.01220,0.99166,-0.14541,-0.00142,0.05455,
1629344798887061504,0.08976,0.01615,0.19677,0.13078,-0.01087,-0.01562,0.99123,-0.12922,0.01925,-0.02627,
1629344798953732864,0.08119,0.02066,0.19437,0.13210,-0.01446,-0.00339,0.99113,-0.08603,0.11230,-0.02975,
1629344799020405504,0.07443,0.02887,0.19117,0.13473,-0.01873,0.00695,0.99068,-0.09152,0.15529,-0.04463,
1629344799087076864,0.06664,0.03726,0.18921,0.13445,-0.02383,0.00891,0.99059,-0.13410,0.09373,-0.00962,
1629344799153749504,0.05845,0.04362,0.19502,0.12595,-0.02474,0.00948,0.99168,-0.10116,0.13266,0.07399,
1629344799220420864,0.05272,0.05134,0.19670,0.12992,-0.01310,0.01381,0.99134,-0.12431,0.09246,-0.00107,
1629344799287093504,0.04238,0.05161,0.19533,0.12912,-0.01541,0.00998,0.99146,-0.16883,-0.01029,-0.04921,
1629344799353765120,0.03112,0.04790,0.19148,0.12794,-0.02317,-0.00098,0.99151,-0.19010,-0.09916,-0.07542,
1629344799420437504,0.01644,0.03941,0.18536,0.12716,-0.03035,-0.00964,0.99137,-0.25311,-0.13815,-0.10296,
1629344799487108864,-0.00292,0.03001,0.17542,0.12881,-0.03983,-0.00423,0.99086,-0.30547,-0.14124,-0.05448,
1629344799553781504,-0.02128,0.02147,0.17692,0.13941,-0.04466,-0.00898,0.98919,-0.24323,-0.11553,0.16517,
1629344799620452864,-0.03729,0.00995,0.18495,0.13655,-0.02929,-0.02770,0.98981,-0.22236,-0.16604,0.09797,
1629344799687125504,-0.04918,0.00276,0.18860,0.13992,-0.01704,-0.02637,0.98967,-0.16932,-0.06327,0.03416,
1629344799753797376,-0.05930,-0.00060,0.18765,0.14044,-0.01560,0.00316,0.98996,-0.12641,-0.04816,-0.02430,
1629344799820470272,-0.06719,-0.00254,0.18668,0.13855,-0.01530,0.01541,0.99012,-0.10054,-0.00200,0.02545,
1629344799887143168,-0.07341,-0.00384,0.18962,0.14250,-0.00776,-0.00273,0.98976,-0.10089,0.00087,0.01894,
1629344799953815296,-0.08059,-0.00498,0.19017,0.13431,-0.01467,-0.00538,0.99082,-0.08709,-0.04087,0.09100,
1629344800020487936,-0.08661,-0.00393,0.19241,0.13525,-0.00989,0.00043,0.99076,-0.08004,0.05398,-0.01089,
1629344800087159808,-0.09506,-0.00481,0.19049,0.13592,-0.00696,0.00382,0.99069,-0.15657,-0.08217,-0.04076,
1629344800153832960,-0.10770,-0.01333,0.18336,0.13345,-0.02215,-0.01201,0.99074,-0.19714,-0.14512,-0.13826,
1629344800220505088,-0.12375,-0.02461,0.17424,0.13304,-0.03652,-0.02624,0.99009,-0.26948,-0.21445,-0.12561,
1629344800287177728,-0.14474,-0.03629,0.16473,0.13576,-0.04131,-0.00702,0.98986,-0.36424,-0.19245,-0.17219,
1629344800353849856,-0.16899,-0.04670,0.15867,0.14678,-0.04889,0.00296,0.98796,-0.31365,-0.12398,0.11409,
1629344800420522752,-0.19160,-0.06151,0.17033,0.15148,-0.03347,-0.02705,0.98752,-0.32390,-0.28116,0.22566,
1629344800487194624,-0.20841,-0.07939,0.18150,0.14366,-0.00925,-0.04583,0.98852,-0.25365,-0.16483,0.07473,
1629344800553867520,-0.22324,-0.08290,0.18129,0.14435,-0.00715,-0.00702,0.98948,-0.20158,-0.05784,-0.07081,
1629344800620539648,-0.23779,-0.08457,0.17710,0.13588,-0.01258,0.03266,0.99011,-0.19508,-0.06894,-0.03584,
1629344800687212800,-0.24830,-0.08865,0.18048,0.13679,-0.00777,0.00349,0.99056,-0.17613,0.00596,0.09558,
1629344800753884160,-0.26004,-0.09061,0.18313,0.13570,-0.01230,-0.02814,0.99027,-0.19602,-0.00739,-0.00034,
1629344800820556544,-0.27221,-0.08798,0.18704,0.13116,-0.00970,-0.01175,0.99124,-0.15236,0.09400,0.03037,
1629344800887227904,-0.27900,-0.08240,0.18808,0.13364,-0.00094,0.00836,0.99099,-0.18301,-0.00537,-0.01580,
1629344800953900288,-0.29600,-0.08776,0.18234,0.13187,-0.01248,-0.00510,0.99118,-0.25335,-0.09843,-0.14807,
1629344801020571904,-0.31722,-0.09952,0.17135,0.13001,-0.03310,-0.02736,0.99058,-0.30619,-0.21819,-0.16102,
1629344801087244288,-0.34013,-0.11088,0.16225,0.13142,-0.03645,-0.01633,0.99052,-0.38875,-0.17903,-0.15463,
1629344801153916928,-0.36930,-0.12317,0.15163,0.13680,-0.04464,0.00926,0.98955,-0.43203,-0.19935,-0.07485,
1629344801220588544,-0.39610,-0.13499,0.16058,0.14602,-0.04255,-0.01042,0.98831,-0.35135,-0.17434,0.29836,
1629344801287260672,-0.41084,-0.14866,0.17867,0.14660,-0.01155,-0.01464,0.98902,-0.27590,-0.11807,0.12728,
1629344801353932032,-0.42597,-0.15279,0.18044,0.14825,-0.01355,-0.01850,0.98868,-0.19230,-0.02791,0.04612,
1629344801420604672,-0.43608,-0.15120,0.18176,0.15207,-0.01650,-0.02133,0.98800,-0.09991,0.06125,0.02607,
1629344801487276032,-0.44072,-0.14643,0.17841,0.15307,-0.01905,-0.01885,0.98785,-0.03377,0.07509,-0.00528,
1629344801553948416,-0.44633,-0.14331,0.17489,0.15106,-0.02067,-0.01486,0.98820,0.00186,0.05339,0.00407,
1629344801620620032,-0.44873,-0.14101,0.17426,0.15059,-0.02057,-0.01261,0.98830,0.01871,0.01343,0.01056,
1629344801687292672,-0.44857,-0.14132,0.17450,0.15043,-0.01985,-0.01290,0.98834,0.01980,-0.02869,0.00978,
1629344801753964032,-0.44820,-0.14279,0.17492,0.15084,-0.01887,-0.01434,0.98827,0.01224,-0.01450,0.00762,
1629344801820636160,-0.44790,-0.14324,0.17499,0.15140,-0.01845,-0.01500,0.98819,-0.00199,0.00641,-0.00028,
1629344801887307520,-0.44828,-0.14240,0.17464,0.15114,-0.01886,-0.01424,0.98823,-0.01044,0.02375,-0.00646,
1629344801953980160,-0.44872,-0.14158,0.17433,0.15088,-0.01941,-0.01337,0.98827,-0.00927,0.00994,-0.00236,
1629344802020651520,-0.44871,-0.14174,0.17430,0.15088,-0.01936,-0.01351,0.98827,-0.00078,-0.00378,0.00230,
1629344802087323904,-0.44829,-0.14233,0.17460,0.15101,-0.01896,-0.01413,0.98825,-0.00113,-0.00327,0.00362,
1629344802153995264,-0.44816,-0.14241,0.17463,0.15111,-0.01877,-0.01438,0.98823,-0.00847,0.00832,-0.00131,
1629344802220667904,-0.44833,-0.14205,0.17436,0.15098,-0.01897,-0.01402,0.98826,-0.01002,0.01346,-0.00315,
1629344802287339264,-0.44842,-0.14177,0.17428,0.15090,-0.01916,-0.01373,0.98827,-0.00754,0.00645,-0.00019,
1629344802354011648,-0.44832,-0.14190,0.17436,0.15093,-0.01903,-0.01387,0.98826,-0.00552,0.00082,0.00163,
1629344802420683008,-0.44816,-0.14219,0.17442,0.15101,-0.01885,-0.01420,0.98825,-0.00769,0.00413,0.00073,
1629344802487355136,-0.44816,-0.14212,0.17429,0.15102,-0.01879,-0.01421,0.98825,-0.00890,0.00937,-0.00072,
1629344802554027520,-0.44822,-0.14186,0.17421,0.15095,-0.01890,-0.01401,0.98826,-0.00874,0.00961,-0.00043,
1629344802620698880,-0.44814,-0.14184,0.17419,0.15095,-0.01895,-0.01398,0.98826,-0.00885,0.00533,0.00061,
1629344802687371520,-0.44816,-0.14196,0.17410,0.15097,-0.01879,-0.01415,0.98826,-0.00641,0.00410,0.00141,
1629344802754042880,-0.44810,-0.14203,0.17420,0.15098,-0.01876,-0.01423,0.98826,-0.00884,0.00653,0.00092,
1629344802820715520,-0.44814,-0.14192,0.17416,0.15096,-0.01876,-0.01416,0.98826,-0.00983,0.00856,0.00012,
1629344802887386880,-0.44810,-0.14177,0.17408,0.15094,-0.01880,-0.01407,0.98826,-0.00907,0.00772,0.00052,
1629344802954059008,-0.44809,-0.14177,0.17411,0.15093,-0.01880,-0.01414,0.98826,-0.00932,0.00520,0.00149,
1629344803020730368,-0.44814,-0.14180,0.17403,0.15095,-0.01867,-0.01423,0.98826,-0.00821,0.00591,0.00097,
1629344803087402752,-0.44808,-0.14184,0.17400,0.15094,-0.01864,-0.01424,0.98826,-0.00790,0.00788,0.00089,
1629344803154074112,-0.44803,-0.14181,0.17403,0.15093,-0.01867,-0.01418,0.98827,-0.00896,0.00776,0.00123,
1629344803220746496,-0.44804,-0.14174,0.17400,0.15092,-0.01868,-0.01419,0.98827,-0.00972,0.00668,0.00117,
